{
  "input_shape": [
    28,
    28,
    1
  ],
  "preprocess": {
    "scale": 255.0
  },
  "layers": [
    {
      "units": 128,
      "activation": "relu",
      "W": [
        [
          0.4879217761731766,
          0.22384362502746807,
          1.1510411084119407,
          1.5995316861950613,
          -1.3859605008200289,
          0.5434383078173288,
          -0.9080103855552991,
          0.6172625581851133,
          -0.29674863934516216,
          -0.02466617710784343,
          -0.9842445711640899,
          0.3420624458284887,
          0.250958332506524,
          -0.21071078215116237,
          0.10082621278470112,
          2.1452871621048213,
          1.9047022603680055,
          0.7780400230096793,
          -1.0269585855124324,
          0.2508286895241617,
          -1.5561242374366047,
          -0.4577633951719826,
          0.35513834871567596,
          -0.14664712907302097,
          1.9824492370338895,
          -0.1368792585146623,
          0.1964362469654724,
          -1.3910183127447446,
          -0.17889345419794384,
          -0.5867173567973939,
          -1.2750490575967737,
          0.9261169771511656,
          -0.11174693378463199,
          -0.4672728378612052,
          -0.12814074054130695,
          -0.5155295427202196,
          0.2791180698724173,
          0.2786869308370701,
          -1.175372035601368,
          -0.7189323815717271,
          -1.1736229334123651,
          0.026146355202172768,
          -0.34225596340145065,
          -1.6927368809469272,
          0.0004035827415850798,
          -0.922746912119713,
          0.1748719422451917,
          1.5467227357580984,
          -0.5289025305374979,
          1.1696397108156007,
          -1.7149922632514891,
          0.10639631904564481,
          0.11172563564652549,
          1.1231494043780053,
          -0.034258696209080314,
          0.6093559017371185,
          -1.5472565268942216,
          0.0005072646020570003,
          -0.7375494238640018,
          1.1726821140916575,
          -0.6407081808981357,
          0.25347778588395664,
          -1.2039134343399338,
          0.8108567488965391,
          0.6060303002950862,
          -0.008968864784060756,
          -0.633229781886418,
          0.5553745077867757,
          -0.5508391953977557,
          0.2627503585134469,
          0.22180817847993264,
          0.30058509371879016,
          -0.8615403809128849,
          -1.2614227107440672,
          1.3824570852092788,
          0.8109417358144887,
          -0.315456077800718,
          -1.0361512568051763,
          0.4460379723416903,
          0.36869967136861226,
          -1.5155438558954302,
          1.4644575786495317,
          -0.22427247454006777,
          -1.3104085390772948,
          0.883918828464907,
          0.14243830579751313,
          0.6139435577410124,
          0.7419277150700608,
          -0.06297466872689433,
          -1.6030769396426008,
          1.0766115947103847,
          -0.011196710553666153,
          0.34257589515820647,
          0.35860920473543645,
          -0.3301913224456243,
          -0.06890427845105628,
          0.1830064007195949,
          -0.05739706577444915,
          0.316727282065912,
          0.6480507290812214,
          -0.3909225126059222,
          -0.46874484953790085,
          -1.7110505823607598,
          -1.644097532124713,
          -0.9108403371512445,
          -0.3463969344181364,
          0.4779590607186805,
          -1.1147607517580074,
          -0.23700347871454616,
          -0.47085915338849854,
          1.8672268225116875,
          0.5648550515648649,
          0.24479889475097955,
          -0.6551157033972833,
          -1.2599876683013786,
          -0.551362079231419,
          1.039024165181916,
          -2.4231740107287676,
          0.2887708470212309,
          1.1619134183579796,
          1.0259323614634526,
          1.3414306480201899,
          2.0009310187327656,
          0.32112853473224356,
          0.46950619976203184,
          0.9884831294190661,
          -0.38269467665061707,
          -2.7316816617924737,
          1.8122753651658527,
          -0.9640537137030728,
          0.4942134202695443,
          -0.6435286576838897,
          0.04289744221392842,
          0.3843772919143559,
          0.776463220397622,
          -1.0984421226059664,
          2.204693579083807,
          -1.9275724098600313,
          2.244021561992059,
          -2.3483558368764585,
          -0.5973344543409627,
          0.42679151076104727,
          0.22627005345911044,
          -2.341922645088342,
          0.5432830338618757,
          0.3168191370845758,
          -0.8102696499730069,
          -1.5325954561417712,
          0.3006349258285004,
          0.4417999987944275,
          -1.4930899428243574,
          1.2193060611458126,
          0.4314439656223724,
          0.736815810063684,
          0.09904275815385424,
          -0.22037291377593798,
          1.1152300388778018,
          0.21014821021352026,
          -0.6149079195200561,
          -1.2064889536002317,
          0.7488301707722774,
          2.261380909795423,
          0.010893747200853674,
          -0.032193448816365586,
          -0.6109170971311286,
          0.4527674100751836,
          -0.09143737895762259,
          -1.6628156323959336,
          1.3712621832307128,
          0.8605429043608243,
          0.447229433774755,
          -0.3117008953070935,
          -1.7445289067270426,
          0.946450437480347,
          1.3418484075259212,
          0.6550551620427408,
          0.3763843346255011,
          -0.5470723190570839,
          2.284480889318251,
          0.00035126698557709935,
          0.3306560327681102,
          0.6926504903569349,
          -0.768922469341995,
          -0.005315271949946474,
          -0.007565233492207549,
          0.23798071678098162,
          0.4771535889024438,
          1.7893634427069722,
          0.04360211267692302,
          0.0503963075026742,
          0.6493943966729752,
          1.2036800323823904,
          -0.678536790390264,
          0.6217903760343626,
          -0.6795183632038505,
          0.5573826472807051,
          1.034545518629401,
          -0.374303816697773,
          -0.8739325776161653,
          0.7552709215242677,
          -2.3939592682206645,
          1.1530338648189467,
          0.4233968139887129,
          -0.15016990301831962,
          -0.01670243851625089,
          0.9148806801308609,
          -0.18465488213860518,
          0.7568134282074204,
          -0.9041080417498765,
          0.1566278819365815,
          -0.4384059458331524,
          -1.2021845428117264,
          -1.512976969065528,
          -0.9795057259114326,
          2.882768817717118,
          0.4661715371206883,
          0.579604419970033,
          0.6287699249114406,
          0.6438659814794924,
          -0.058029756043699,
          -1.0439953195561855,
          0.12366667582077942,
          -0.17309359305855168,
          -0.20159499828203248,
          0.19924460444079312,
          1.0686525529568731,
          -0.9061500400358691,
          -1.5393791745100454,
          -0.6414346588740154,
          -1.1087260447271485,
          -0.641664240138497,
          1.018042007868911,
          0.6223825733005511,
          0.1314420808428829,
          -0.8575507614203988,
          0.08010841218931569,
          0.440127816834456,
          -0.9861324679614766,
          -0.8891993527950577,
          0.8653860679051197,
          0.5332327390024111,
          -0.550667679441414,
          0.9145701620648222,
          0.5334251223844855,
          1.0421912011226633,
          -0.6180361890550717,
          1.0898790173083222,
          -0.11701208363418253,
          -0.6125942149577605,
          -0.46915020814187364,
          -0.9203717127730492,
          1.897437784520357,
          0.469092363818795,
          0.6745007424190328,
          -0.17237397937120236,
          -1.3539486047513285,
          0.46314864830062635,
          2.07630261336549,
          0.2172625385415335,
          -0.4945153592195165,
          0.09513114500470009,
          0.011039335724800427,
          -1.9370820211786703,
          1.1316977564495192,
          -0.1412970588644535,
          0.4413146343484908,
          0.24544200332251115,
          -1.8836685871973435,
          -0.7511154729107389,
          -0.5592385962549878,
          0.4045502670580752,
          1.1641630362329387,
          0.8034203373763674,
          -0.8298503542359918,
          -0.32717617824889283,
          -3.3629096930430613,
          -0.9984785916486631,
          0.5588909583451208,
          -1.760942552469793,
          -0.9623155912534227,
          0.5824125979466496,
          1.3303490178259652,
          0.31403939106657885,
          1.380267783341849,
          0.0938943970614646,
          -0.1594280764533538,
          0.38801051203765896,
          0.33911224265572865,
          -0.40158598678888957,
          -0.4001770227075876,
          0.45783394828906915,
          0.229237196142463,
          -0.3582375426834389,
          -1.014069709875949,
          0.4012611707840787,
          -0.8722729424663819,
          0.1763774736147122,
          -0.17067685592407397,
          -1.3135945492535923,
          -0.3258909866569789,
          0.9884548600917188,
          0.9950507656752017,
          -2.3396495634059966,
          -2.208245133654517,
          0.9685449265873579,
          0.13944861388337054,
          -0.16260560951913805,
          -0.30110214320835954,
          0.4899390158397756,
          -0.6444521774555538,
          0.4322718771207988,
          1.1726037390305843,
          -0.12275487737983862,
          0.4411544705579636,
          0.5049639238096034,
          0.7365881875973489,
          -0.817576188762835,
          -0.7308326032044843,
          0.05343003867426862,
          2.1039955868403943,
          0.08613003926202979,
          -0.4307331724389293,
          0.4164026643575347,
          -1.0025804495306514,
          -0.79478567789026,
          0.33016188531103713,
          1.2712754898312233,
          -0.13310713189504297,
          -1.908058865138077,
          0.613343715939974,
          0.9277733753515736,
          -1.7594115719366556,
          0.5028579553244543,
          -0.4200744841887631,
          0.5018697709654804,
          0.0688941633512981,
          0.9861945040301416,
          0.5720304838217716,
          -0.5025059326152802,
          2.476673219648037,
          0.1577987463734048,
          1.2647397955833446,
          -1.1347146124804413,
          0.23437165089604817,
          1.8640430279398574,
          0.8885911541436091,
          -0.563972051941726,
          -0.5664688997381366,
          0.12447690333709263,
          -0.28655155322492215,
          -1.0301938341278125,
          1.5192950417829747,
          0.9187377342442882,
          0.1603141914857221,
          -2.9784843808914814,
          1.6992284471334094,
          0.4987872810448356,
          0.862611395190183,
          0.6525686349941181,
          0.7772154132788431,
          -0.22620818226295925,
          0.9747402417927672,
          0.20043211246974324,
          2.115354334139584,
          1.1142225713816334,
          -1.0634841994595978,
          0.6103521095639598,
          0.6364617962045499,
          0.3318089124299467,
          2.001738761908534,
          1.3053204652007275,
          -0.9666906130353767,
          0.6580156944619604,
          -0.7052668485795165,
          1.534968082545794,
          0.7535023540595153,
          -0.42027440510972647,
          -1.9782114942979854,
          0.7028981513549529,
          -1.0091235921540633,
          -0.30141956467307934,
          0.24119617538624363,
          -0.785345625253227,
          0.4968243185828793,
          -0.18342873222471734,
          2.531439911106137,
          -0.45546066204596913,
          -0.033304133293444976,
          -1.9132775408251672,
          1.147268299497584,
          -0.33801623265353,
          1.669443869408699,
          0.23506193695091712,
          0.6581538980000706,
          0.834232659772868,
          1.3947420877841084,
          1.5626076784036824,
          1.5688107484287463,
          -1.463935779411591,
          -2.533502551025083,
          0.32978177221705424,
          -1.0119658722564564,
          -1.7627900870840587,
          0.6920081498062093,
          0.273779694361332,
          -0.09909331912464676,
          0.8024489475236889,
          -1.4670824963975075,
          0.8392889306365064,
          1.0874841834597504,
          -0.4615739891284876,
          2.2439298489308896,
          -0.7743736178106793,
          0.93991120213416,
          0.03500819497319276,
          -0.016894434716416946,
          -0.5128730912505242,
          -0.9179180377443633,
          1.351088572052141,
          0.6789278978913983,
          0.30611810106304915,
          0.8064773230426169,
          1.0372722083151178,
          -0.7392634293454727,
          -0.37455006617387343,
          0.23785873524279466,
          -1.2438454202356417,
          -1.061963388788376,
          -1.1157798822617726,
          -0.497345485157381,
          0.8911497393120648,
          -0.904612066058736,
          0.19312568097174693,
          -1.2668995152766764,
          -0.8609988963712386,
          -1.9500016570412069,
          2.1038930918699026,
          0.5658758537023334,
          0.12334900391570909,
          -0.918201940607361,
          0.4225556956184715,
          0.6816486045104102,
          1.3152456588674597,
          0.17375623985030544,
          0.28502702897560045,
          -0.5774561559825238,
          -0.24168554945495654,
          -1.3834707157811141,
          -0.2627137776831475,
          -1.608969444515326,
          -0.6939498555312575,
          -1.479292837517552,
          -0.08982383870904594,
          -0.871116845438117,
          1.2508498908817012,
          -0.34461879936849465,
          1.9007414748238027,
          -0.32387936517311655,
          0.566260974102118,
          1.8766054289663747,
          -0.3458666398674653,
          0.5956915261408143,
          -0.7982490348093284,
          -0.09905477727937491,
          1.424042141836451,
          0.7205576424573793,
          0.6397458322556567,
          -1.0130464620459898,
          0.3027903454784427,
          -1.73096398838698,
          0.7611558491407838,
          0.12145684502133906,
          0.4735496692246306,
          -2.182733066388712,
          -0.22528819978201117,
          0.16820280151376824,
          1.846589843180052,
          0.0403077908455932,
          -0.0029980810795906536,
          1.786317909777564,
          1.519548010168992,
          0.5429812185011788,
          0.915330932576303,
          -0.47447405275441507,
          -0.22993133225637485,
          -1.274033563430996,
          0.5087244853258311,
          -0.14167288913173548,
          1.1806491886002324,
          1.0748286038644017,
          -1.2690911882003668,
          1.0677900485289697,
          1.43325823068608,
          0.24678094788614124,
          0.46337484948917745,
          -0.7103464785694041,
          0.6393556523291409,
          0.8358542281691711,
          -2.4418597088791634,
          -1.4583073129281932,
          -0.33071905234340365,
          0.8796673483614668,
          -0.26913253914878316,
          0.7668297295250223,
          0.5683053185887821,
          2.1121082190742815,
          0.856403466896431,
          1.827107252129316,
          -1.1438476190915585,
          0.9717281312875196,
          -1.7793773488966411,
          1.4388068673690155,
          -0.11079658321967269,
          -1.8692091719165242,
          -2.1305356478412767,
          0.781312319770821,
          -1.165176474615259,
          0.17696856533703664,
          2.018201974035675,
          -0.4332447706084715,
          -0.7862814205719599,
          0.8581558251393494,
          1.0666176443500603,
          -2.4990614469827594,
          1.1977700333326105,
          0.8708490166852226,
          0.3427881721709118,
          -1.2086419983305445,
          1.1351080031417262,
          0.3767083956519585,
          1.4089767894781489,
          0.8762516515575599,
          -0.5553328318752143,
          -0.5078796863800087,
          -0.31125665340792746,
          -0.029007776792494087,
          1.5853383665146141,
          -0.05117774767140802,
          -0.31363271584207564,
          -1.1285025623428453,
          1.31270789231467,
          -0.1767826896215352,
          -1.4820626048388281,
          0.4973787323077725,
          0.7785396109728223,
          0.005695952283062411,
          -1.283205601286553,
          -0.6681421472391302,
          -0.9184540240672141,
          -1.167870120562069,
          -0.5195361725837392,
          0.4935740381726587,
          2.021588901854717,
          -0.5240641207670869,
          -0.8636149348276376,
          -0.859398432947266,
          0.6968625445570165,
          -1.1075350375026833,
          -1.7093076610552091,
          -0.6870987246072731,
          0.6202335851800469,
          0.6229244037938171,
          0.8951251955591163,
          -1.9938119350108998,
          0.23648683949582583,
          -0.1587377805762014,
          -0.7560811106491757,
          -0.24884652844530286,
          -0.19307685368330793,
          0.28087899550631523,
          0.8658876014558816,
          0.5207074141079769,
          -0.4800129584997756,
          -0.24221347612996696,
          0.018128473394732638,
          0.658154533369085,
          -0.47349508864029405,
          -0.15169149160240078,
          0.10851572955831715,
          0.7145964163030127,
          2.066161737477162,
          0.4774351373591717,
          0.7980099095452001,
          -0.935020538665053,
          1.2191581791942652,
          -0.4022072904548002,
          -1.4247214917569835,
          -0.46149682091209066,
          -1.006181824198564,
          0.3761095461085168,
          0.8447711708700487,
          1.9202329152825577,
          0.05127040347467325,
          1.0344102364266212,
          -0.20940889951820954,
          0.9378882462808212,
          0.5473163278740492,
          1.0944230596032165,
          0.14811052524928028,
          -0.5458483545464761,
          -1.0781021178946881,
          -0.8391359713903753,
          -0.7825857553628397,
          -0.48850477117889746,
          0.3960799112197982,
          -1.3017773376037387,
          -0.3701639916965105,
          -1.2818657821158275,
          -0.7842225869910548,
          0.5086869603194826,
          0.14062827452742194,
          -0.2752856417607968,
          -0.9929029281530498,
          -0.30410454970203626,
          -0.7703783894764126,
          -0.2871941543090966,
          1.8804126863291277,
          -0.47862755122170264,
          0.27184911269936574,
          1.7269784844557894,
          0.6243943393635514,
          -0.9819465084151736,
          -0.8464778456248542,
          -0.6621212501840267,
          -0.5923290081839357,
          -0.16339318871724098,
          -1.3753864704597094,
          -1.0378762822983494,
          -0.5853469943819334,
          -1.6580494007757753,
          -0.07547405736443424,
          1.3310566114281677,
          0.6290215270060998,
          1.8239453392217044,
          0.05937158198742428,
          -0.8405659527332322,
          -3.0581122121795103,
          -0.09150696852259806,
          -0.028390731127427096,
          -1.3125036334941522,
          0.18309032038522768,
          -1.4787015088594007,
          -0.8450243417563444,
          0.5709149037956903,
          0.8310111447296924,
          -1.0560848991660954,
          0.4914940587586387,
          -0.796512019637967,
          0.8344748845945532,
          0.17772501273677127,
          0.676483874273913,
          1.0060741241146032,
          -2.0513307810129287,
          -2.279216727442052,
          0.416705099927892,
          0.04254646067667186,
          1.92914275971126,
          -1.1963195110742986,
          0.37301634123751864,
          0.19010934217592984,
          0.7831778883365914,
          0.25640316953034353,
          0.13287158780735564,
          0.2283740928830414,
          -2.2099198291223594,
          0.4260492869427253,
          -0.05586144182505043,
          -1.0607789157279905,
          -0.3111511031348121,
          -0.2599338730497436,
          -0.2696459991741357,
          -0.5565872889781769,
          -0.24690894495016574,
          -0.06423407662959071,
          -0.03743538856834668,
          -0.5542178133194974,
          -0.005416605170519951,
          -0.7843222831908278,
          -0.11101687763784343,
          -0.8274439951784494,
          -0.9139527145501906,
          -0.4385735789082674,
          1.1728235368257365,
          -0.12155400903946899,
          0.8929222247095103,
          -1.1172038010710732,
          -1.3063086772771535,
          -1.450250696769976,
          -0.4270879994743816,
          0.589097086128416,
          -0.8842199270648929,
          -0.8768853088208768,
          -0.9883992091299656,
          -0.27030364987789274,
          -0.15961638190622693,
          0.6429651989564619,
          0.15415918937280879,
          -1.045436303505884,
          0.7145134491291508,
          0.45119760073540405,
          -1.3888189566620615,
          -0.946862055272045,
          -0.4388630934566634,
          0.44182957504538356,
          -1.3294461261288424,
          1.0328808327379546,
          -0.7669777534406006,
          1.3147259279615109,
          0.18123415777991073,
          -0.009547835305076333,
          0.30888816440034844,
          -2.873894009879478,
          -0.26211341267707217,
          -1.4317928568199336,
          0.13120263911032673,
          -1.0744756562360496,
          0.19400795258456985,
          -1.9626119376967406,
          1.4145897705869126,
          1.0470107386158758,
          -1.2168417556950457,
          -0.8878463669848393,
          -0.40743457328624977,
          -0.7196441046582319,
          -0.4692960307832903,
          0.5894250269053446,
          0.4583955760933862,
          0.5379749571960833,
          -0.2534341079545977,
          0.6764935882406605,
          -0.3361404328312254,
          0.7741259959176794,
          -0.15367835617836195,
          -0.9272413433169507,
          -0.7618041375306424,
          0.6835115173904132,
          -1.0363236107698788,
          -1.0319415985832858,
          -1.4903142439269483,
          -1.357082493559503,
          0.442772188432517,
          -0.525021216997045,
          -0.9439328674876097,
          -0.5335157555697349,
          -0.10974948936115965,
          -0.38564383390234647,
          -1.5828582317686746,
          0.3835029997406322,
          -2.315451080839454,
          0.3654399846307785,
          0.8952228323985072,
          0.22010534713575233,
          -1.0493102758097848,
          1.0702088154658027,
          2.2003948682399996,
          -0.40112314236951374,
          -0.8400643032422505,
          1.967651220067053,
          -0.30647731439183207,
          -0.8756889373134357,
          -0.3033239800674747,
          -1.1660305734208132,
          0.3040310083849356,
          1.7779833142283148,
          -0.5830173610899316,
          1.064301917804047,
          -1.4879667368096947,
          1.9737569096640593,
          -2.4736109861599407,
          0.5722367183478607,
          0.8856643835491956,
          0.13420833166227794,
          0.15540008877875058,
          0.5696873438375192,
          -0.4510356518020802,
          0.2108722265653922,
          -0.5341869739014095,
          -0.7808243564557109,
          -0.7283387468027264,
          -1.4205603459081668,
          -1.084975831624715,
          -1.4826031201591117,
          -0.47575018094602306,
          -1.3768882691732032
        ],
        [
          0.07629207797649225,
          0.9178665598095196,
          0.3314325983150426,
          -0.19018656562126054,
          -0.31937347125762106,
          -0.3179681717216637,
          -1.356837483737992,
          -1.0824290961281653,
          0.2873445505146913,
          -1.0396584096626793,
          -0.2208450670722511,
          0.302635483685766,
          -0.34558922161156236,
          -1.0402916720881203,
          -0.07148889563913424,
          0.4325995194491494,
          -0.30713895774439093,
          0.3346826454233149,
          0.2172078021059905,
          0.7147452545998269,
          0.23866144897592673,
          0.20615199920229696,
          -2.5499331919244064,
          -0.3941467010344993,
          1.6508213703168229,
          -0.574747233815537,
          0.9073822677122,
          -0.015487773385169936,
          -0.43759809785844583,
          -0.28965047569500846,
          0.10872038782981444,
          0.6059910667402103,
          0.39325248552406034,
          2.5936838079990263,
          -1.0434677184162384,
          -0.016298550536422346,
          -1.2421283011692412,
          1.149806593953025,
          -0.4245043285594353,
          -1.583122965793789,
          0.061976007436148346,
          -0.4381039311159292,
          -0.2348172777237564,
          -1.2397305698721925,
          1.4578435692399343,
          -0.9605566153914598,
          1.6172383213528005,
          1.4617454165872408,
          0.39767479830878993,
          1.1184755615387387,
          -2.515793155989961,
          -0.32302827236190473,
          -0.02073122870800438,
          0.745644289676887,
          -0.3757891187603306,
          -0.9699202485818537,
          0.2000428587495523,
          -1.1839927282907066,
          -1.969495848359717,
          -0.8937903067096119,
          0.1327407937034524,
          0.886807100723584,
          0.16784657534553704,
          -0.4420187343411704,
          0.1706801471882486,
          -0.09272429956872559,
          -0.0035508577222406095,
          1.60489800623257,
          1.0141946373620272,
          0.30322323356760567,
          -0.6025335177597918,
          -1.1934002768930283,
          -0.5404651014846672,
          -1.4743441406588706,
          0.4980431141749573,
          -0.6254480891055912,
          0.5829027542778066,
          -0.4245013080405998,
          1.6054451761463167,
          1.0262833361540602,
          -1.415968128820037,
          -0.3878443495129434,
          0.8951345814348994,
          -0.6364404840125338,
          0.1532733858645675,
          1.9855402132030555,
          -0.39530146503511726,
          0.1419352168761397,
          -0.39655708261482614,
          -0.5059225021939262,
          1.3829197286977377,
          0.24256258779836604,
          1.46333266101722,
          0.6112834488585885,
          -0.8324628627707982,
          -0.4872892571752309,
          0.8776960578960267,
          -0.7398836796834433,
          -0.08786414269788069,
          -0.18634032975924777,
          0.9968517356524348,
          0.06142611874800708,
          1.3921881969264898,
          0.7471844536151928,
          0.9488907438467556,
          -0.5812308319136716,
          -0.7533340384765154,
          -0.2579964671234306,
          -2.4451112600140266,
          -0.7986690452140316,
          -0.9161618538819576,
          -2.3769357204175154,
          0.4544372984262119,
          -1.6936571186858127,
          -1.1583699347924026,
          1.0563502953898964,
          -1.7473828465192567,
          -0.43194275374146235,
          -1.4873893469551402,
          -0.09833327403439739,
          -2.0882796963959898,
          -1.384082812520512,
          -0.24898517580340093,
          -0.5784457828033447,
          -1.7245438446290704,
          0.8166497968682892,
          -0.4407287097711023,
          1.471932156085343,
          1.3232543721000083,
          0.9672750505312057,
          1.8830599578345673,
          -1.5900515238349466,
          -0.3851770810122195,
          -1.1248885218516231,
          -0.6949411842087593,
          -1.0260635794087996,
          -0.21060763606838867,
          -0.47978973668866864,
          0.5103434490979137,
          0.3772743986863986,
          -0.13684264027363283,
          -1.259737555850866,
          0.4124374930226602,
          0.19021859684872608,
          -1.416565239111895,
          -1.061298187589899,
          -1.2888092768682566,
          -0.26961587050649516,
          0.25499246768868167,
          -1.8035536944803139,
          0.4531268655661562,
          -1.5280881529024872,
          -0.3849230937648225,
          -1.1205691650234324,
          0.8084336068911484,
          -0.17474955611958998,
          0.5930382613935565,
          -0.9654836438846155,
          0.8500021993943881,
          -1.7218043356248807,
          1.3572159941406534,
          -1.649570876265071,
          -0.37982974908902184,
          -0.10362875827246397,
          -1.7892775696885317,
          -0.3481429809360485,
          -0.6762326063435982,
          -1.262565052686318,
          -0.04553297724417179,
          0.25260881176668915,
          -0.12890988455591867,
          -1.1270055589453498,
          -1.9146844958512792,
          0.555806367045486,
          -0.4955485510831762,
          -0.5131437480327974,
          -1.4446388467183446,
          -1.0683961046888428,
          0.5119511936663278,
          -0.6602670350828564,
          -0.1333557675928013,
          0.06589080360524074,
          -0.9676595396323786,
          -0.80957559338532,
          0.23001138826375495,
          0.3534190632122142,
          -0.3374818113726644,
          -1.0783025740860832,
          -0.718576805964579,
          -0.10790322836263357,
          -1.7313005347003616,
          0.9723089622328377,
          -0.18500650414596384,
          -0.41106369505065704,
          0.13876911054154098,
          0.6251403752748326,
          -0.44815791490867585,
          2.3165781226460154,
          -2.2806870466036173,
          -0.1063510087937139,
          -2.4076629942621226,
          1.045821906837983,
          -0.31917311325262304,
          0.11517964015218009,
          0.2916013480531949,
          -0.7201612860722351,
          1.0556709963432653,
          -0.01101453907689414,
          1.7626109990169099,
          -0.45934452777756457,
          -2.180828104174639,
          -1.4217072660395298,
          0.5072353277609102,
          2.393707758068459,
          0.7575425088575382,
          -2.317372256573414,
          -1.2874235990303065,
          -1.2369407072401895,
          -0.9060406094592629,
          0.9910290145613808,
          -1.2347434002912518,
          -0.12312720501281775,
          1.0917707119039683,
          -0.3009526510285789,
          1.209290029628047,
          -1.1776742578251054,
          0.7606821898381007,
          -0.5802275161310857,
          0.5783686254646079,
          -0.7651765519604022,
          -0.9538143512276543,
          -0.012975116780213621,
          -1.2856531335795789,
          1.6063810333171724,
          -1.0988869951019504,
          -0.15037046598548218,
          -0.2941300235756158,
          -1.6105964582799472,
          0.2094505919286253,
          -0.48524878223759765,
          -0.5682141208620888,
          0.7014793124718827,
          -0.6362303103477625,
          -1.6169622624107216,
          0.3710995678357386,
          0.262747037249242,
          -0.3998527090339319,
          0.08223907880360676,
          -1.3811817237194741,
          0.02044054611646189,
          -0.2293803960130597,
          0.16203996027996836,
          0.5699179728289796,
          -0.02735989035966376,
          -1.958956518500933,
          0.58872879050363,
          0.658109792005231,
          0.18201904944766742,
          1.155809146068079,
          -1.1782733896062034,
          -1.7777341755210123,
          -0.31762528088025577,
          -0.21743033106145776,
          0.5483148145597504,
          -0.6037043909831233,
          -0.8808507782087667,
          -0.895777108507406,
          0.9388533932893626,
          -1.180180092204331,
          -0.00042515651158740795,
          0.7624584153477879,
          2.2086325679423857,
          -0.8236073952317502,
          0.6301920086250788,
          0.8694757071458749,
          0.6973814628237842,
          -1.0046494117659028,
          0.14905899721022894,
          0.8774628697961392,
          0.3759718984063653,
          0.33702765497670195,
          -1.5203612648587053,
          0.21747058233304872,
          0.06139620742689693,
          0.23079878943782986,
          -0.8128660387633294,
          0.9200071600323376,
          -0.29705940453184143,
          1.328216423784081,
          0.6149021437941724,
          1.3787190440679742,
          1.822971280314498,
          -0.8683832344267188,
          -2.4552255262361427,
          1.9120144604667155,
          1.5267080064650056,
          -1.2689180366403026,
          0.4405887708083109,
          1.2350315428050802,
          0.6850963016476315,
          0.09014510381767828,
          0.6917970646655746,
          0.03526470501810703,
          0.5704506753100778,
          0.2822996289344527,
          -0.17706242870833405,
          0.16579935713981603,
          0.04126387110573892,
          0.6765076185099598,
          0.7240017674737663,
          -0.9524565841211862,
          -1.042666683172975,
          -0.29600724694174835,
          1.1242155372433702,
          -0.4064980874475717,
          1.2992247998044202,
          0.5800197707914762,
          -0.2848037342920603,
          -0.9615386056619045,
          -1.8357321280488865,
          0.11424867632764389,
          -1.6318559216280584,
          0.33847619470545154,
          0.24708292313662927,
          -1.1689911444673973,
          -1.3453714327157864,
          -0.7686296702605349,
          -0.7124890597650125,
          0.4905244071266353,
          0.2697042429686435,
          1.7340010478934609,
          -0.4124575351740711,
          1.277298800181382,
          0.877269056871796,
          0.12416979499248756,
          0.0034919572969560023,
          -1.0918790809560448,
          0.7941636802696413,
          -0.09502370602738933,
          -0.9347577291297695,
          -0.16548394025278562,
          1.6153709233556133,
          0.20217475019572168,
          0.4884595758125596,
          -0.3983364157732245,
          0.4426448141395614,
          0.31631545413863965,
          1.073636570582731,
          -0.1789371151584228,
          -0.17192917506152883,
          0.1129175053852064,
          0.5453627172868264,
          0.9770464397171238,
          0.3343673064676108,
          -0.7730204654689744,
          2.369816586999189,
          -0.8419263348970567,
          0.22714205296578488,
          1.3330276208950542,
          -0.8381923622586013,
          0.31324387657777225,
          -0.6465212591373796,
          0.07272791327441121,
          0.6515528802460178,
          -0.12933697320137943,
          -1.0854750737511958,
          0.7608295894565614,
          0.5632353354356493,
          0.05433757201176018,
          -0.9881358745662655,
          0.7700283055834994,
          -1.9401401496322324,
          -1.2961847716548869,
          1.177446275981786,
          -0.5715775861260592,
          0.7265321004445333,
          -2.587065462290449,
          0.17188280308130802,
          0.2906668089724655,
          0.477223857946746,
          0.3363793745092105,
          0.2912724975114373,
          -0.5260624560951409,
          0.1827005387265438,
          -0.7238051788311423,
          -0.3706092045054578,
          -0.9542983255013598,
          -0.2718555913356255,
          0.0012131184492049831,
          -0.43457593389797256,
          0.764599694303463,
          -0.2902679387616001,
          -0.5496063127333496,
          -0.26510493470617785,
          -1.4575472988153033,
          0.14093882921444795,
          -0.2831995914197014,
          1.1503727838896307,
          -0.5741499907361173,
          -0.5202248975764797,
          0.6158958274166033,
          1.47495509954114,
          0.20626669005060494,
          -0.5160304359612403,
          -0.32645672714942137,
          1.3501251749878547,
          -0.7424243496853945,
          -0.822024692886637,
          -1.1880974040031185,
          1.3569344809215431,
          0.7225101259449307,
          0.2799027897701412,
          0.31274175473124494,
          1.0877144637843628,
          0.2901678075039972,
          2.028260795156858,
          -1.3826773597239381,
          0.2635874295572337,
          -0.5171845704696496,
          0.5603156115558563,
          2.208594280874715,
          1.6691409345850057,
          -0.9628934724370767,
          0.31054052009605493,
          -0.8287478021585101,
          0.22943386893778048,
          0.42239652804022454,
          -0.8722662156151424,
          -0.26580189939185167,
          0.9995302278682356,
          -0.8728448586493621,
          -1.539412654931014,
          -1.155396167382722,
          1.9390741251416352,
          1.1552056198954674,
          0.02195118432249958,
          -1.5010414405210202,
          0.8704909236356377,
          -0.7691277929462094,
          -0.355239122690382,
          -1.0010607473304518,
          1.4983915269890893,
          -0.00022033593522264314,
          -2.0262395911635656,
          0.29817585637167593,
          -1.1425899216841353,
          0.44347222219493354,
          -0.791335494684093,
          0.8488781564714613,
          0.6195770792709442,
          -0.5871086055611975,
          -2.3466363346148116,
          -0.8014246037513114,
          -0.7313883388023718,
          0.5196286715829993,
          -0.1595937621735875,
          1.1567407234947924,
          -1.4555287597327569,
          -0.6647207211261367,
          0.5798013281485793,
          -1.6487929668377277,
          -0.1494666466597248,
          0.20891995912755854,
          -1.0586803611802607,
          -0.9567475336741071,
          0.7408179509510637,
          -1.0612576402923342,
          -0.33431401784138604,
          0.5770714452893786,
          -1.8347838047627507,
          -0.18167805652615693,
          -0.7894412224457334,
          0.06654693300886087,
          -0.8897532011257456,
          -1.5807055138125847,
          -0.4521327761717708,
          -0.5923424215162719,
          1.1763176885107793,
          0.38852659741742973,
          0.46783685824071486,
          0.19541515153675132,
          -0.09605120986819674,
          1.0098614589754136,
          0.4684993136529516,
          -0.9934332382690837,
          1.8191011311288707,
          -0.1938784815480063,
          0.1029276334634045,
          -1.1035137460172848,
          0.2818098051188,
          -0.31211155627329856,
          -0.3068201201899229,
          0.7624286865350118,
          -0.9467761380249442,
          0.5580718030320788,
          -0.10134375762275266,
          -1.1945597901512055,
          1.2019573146400753,
          0.9586616373676651,
          -0.27512606940573425,
          -1.5383633369502379,
          -0.6606619148416203,
          0.16546942634308595,
          0.20463584851445318,
          -1.07213513096903,
          0.03746038715061979,
          -0.2382652396162513,
          0.8618190848102268,
          0.041889711165941916,
          -0.5551730137290152,
          -0.3357611600568042,
          -0.9124427894284745,
          0.3095744867406666,
          0.07982414435464252,
          -1.049170975568394,
          -0.3285381644071537,
          1.4772819545583824,
          -0.8738301487308222,
          -0.21214602610838973,
          -0.20033519233521546,
          -0.40235780815762834,
          -0.3220150261768302,
          -0.7903461916276797,
          -0.16066658954548788,
          0.002546138943418933,
          0.8280762315049066,
          1.5258149810258257,
          0.32950153330246296,
          0.8871114847121278,
          -0.988139313873466,
          -0.0709476804287944,
          2.0429501359029647,
          1.5459767858235027,
          -2.4614554933263224,
          -0.5295457308429874,
          0.9096873564218032,
          0.31424584084564383,
          0.5557111766172405,
          1.9660818100432234,
          -0.8360227747345096,
          -0.6214169863223358,
          0.6041785576682164,
          0.46787682259289193,
          -0.2813676108739662,
          0.3345488065177691,
          0.757698341751401,
          0.01891505669956646,
          0.9584156012425656,
          -0.17039399176732092,
          1.740038144667522,
          0.6124384399633559,
          0.7685596482752285,
          0.7321030893977293,
          -0.43150386780799266,
          -0.8484592156369554,
          -0.2734491543577628,
          0.08589505046363677,
          1.2999659543575135,
          0.6439882493073763,
          -0.7464711787353843,
          -0.9993943311400331,
          -1.7809312419498338,
          0.5034986041621611,
          -1.0637921485250454,
          0.5184542386857381,
          -0.5836164238079233,
          0.8636158977741063,
          0.5808253963437903,
          -0.3997699660024742,
          -0.02327277642171605,
          -1.0076367818530088,
          -0.6653066296152522,
          -1.7133006372733401,
          1.306655460341374,
          0.8643972297957303,
          -1.5726104364611107,
          -0.9228621989611933,
          0.20874803589161284,
          0.047200314290583106,
          -1.6094145263731527,
          -1.159871052251953,
          -1.216967419770311,
          1.112164988268532,
          -1.831464872477029,
          -1.2503750432754883,
          -0.11464059311302208,
          -0.9105836754446163,
          -0.23972266200317716,
          0.5398419511126848,
          -0.44800869352974765,
          -2.46396246326183,
          1.7341723246779883,
          0.361762857893221,
          0.23344048334086456,
          -0.21093420615850733,
          -0.7568326818063922,
          1.0227696970667595,
          -2.152764775405126,
          0.9943066556416371,
          -1.5136485527194157,
          -0.7951738237264026,
          1.0880668473819854,
          -1.0774131449044924,
          -1.987555897128806,
          -0.155102458057166,
          -0.5277724864693873,
          -1.9267341327885579,
          -0.7690439025492121,
          0.6007480583031786,
          -0.13204425434952718,
          0.17204801854781313,
          -0.3834095776876276,
          0.1522846039714544,
          -1.2219115848229933,
          0.5602611597436952,
          -1.2648934647702195,
          0.5223862761097304,
          -0.9130812209632281,
          -0.5743079993055507,
          1.1371939735980041,
          1.9651574299135912,
          -0.7245945278910819,
          -0.5051388493045629,
          -1.4175032394507923,
          -1.2092255856363896,
          -1.384451916167454,
          -0.4340282060531341,
          1.0477237914283728,
          0.5065263044909215,
          -1.6280814854824028,
          -0.15278226844846676,
          0.7100070764755834,
          0.811168543471589,
          -2.9052241461192674,
          -0.06473930336652116,
          1.395361937000847,
          1.7406491450745714,
          -0.09682184699911178,
          -1.2916270185034142,
          0.4915999874799455,
          0.18513887288591396,
          1.0904404085023374,
          1.1675081749794196,
          -2.2078340301953405,
          -0.500609271158817,
          1.7558170766457022,
          0.2924307237396054,
          0.9498786540359699,
          -0.19669211067781484,
          0.33385633756650357,
          1.1043194429125258,
          0.24796406682265867,
          -0.42161996965059173,
          -0.7357382968204723,
          -1.5993529119603842,
          -0.024271394254283797,
          0.011381883555536959,
          -0.5443877799738422,
          -0.6380947165756057,
          -0.08373483597586674,
          -0.8695605091016222,
          1.0612755117873178,
          1.0913995233284772,
          0.9229192109482758,
          -1.8279702547809558,
          -0.455998483591938,
          -0.6345680293546352,
          -0.06673506117284622,
          -0.2449263577359155,
          -0.8084645401238297,
          -0.566836720418511,
          -0.3754908353169006,
          -0.56349738280274,
          0.2260579216046318,
          -0.18637261218115447,
          1.0617258934504448,
          -0.05860601824631634,
          -0.5902396188359215,
          -1.234233651739077,
          0.7712240322422361,
          1.6153748626174325,
          0.21069246006760356,
          0.04409619907129258,
          -0.02255186296193704,
          -1.0908338470974317,
          1.5789692279869314,
          -1.0233877656278627,
          -0.42759958177063073,
          0.5570138371185925,
          -0.22196711580311795,
          1.2064661824714118,
          -1.0749269780721906,
          -0.031597906306318875,
          1.176807089691742,
          -0.2993670027803518,
          -1.0984747725065165,
          -0.30537987538129563,
          0.22513481348730527,
          -0.9464063258910219,
          -1.5203546378291528,
          -1.8102620331451578,
          -0.293347877599925,
          -0.022313532208444207,
          -0.8359702872074579,
          1.0438701621606645,
          -0.917849992288279,
          -1.796294341962313,
          -0.4731421484530413,
          0.16942418465119558,
          1.4987949949771888,
          0.3199024244182799,
          1.1320372494274462,
          1.3165663251830804,
          0.3507143430302616,
          -0.22106161248767303,
          -0.5384724422497483,
          0.12374243127824026,
          2.246288065294595,
          0.012046897656979434,
          -2.114244803203917,
          -0.13462618040253105,
          -1.6368555679188144,
          -1.0627776896540544,
          0.7076200226549217,
          -0.5334619781672664,
          1.0182478131783597,
          0.7344913430245288,
          0.1696177027451751,
          -0.7555468417164661,
          -0.010941108547935929,
          2.9620872219255707,
          1.8404865345322303,
          -0.4306558661796376,
          1.7231627439488797,
          0.8219430906157386,
          -1.7713134463070344,
          -1.2420059432646247,
          0.5675426508257988,
          1.9585074316406343,
          1.0618894222783664,
          0.5107913222677541,
          -1.4881137697727447,
          -1.7641137374910898,
          -0.36996607364287293,
          -1.3430008304776961,
          0.9845883287161451,
          -1.1442026890188068,
          -0.7810153675979301,
          0.5027301774638258,
          -2.0606124288405483,
          0.28747751182847636,
          -0.9847851921096281,
          -0.3869862850049956,
          0.9122887623919952,
          -0.6594174376916183,
          0.5570704713369503,
          -3.8190387101649828,
          -1.0836607928145392,
          1.153053144174746,
          0.6333507502003343,
          -0.10767424714559218,
          1.9674452051834943,
          0.7724903269218572,
          -0.6404388224086625,
          1.1430535329310956,
          -1.8453937896220014,
          -0.15469594930326583,
          0.9985375982103174,
          1.119235143892575,
          -0.4889149558585459,
          -0.3646096513427662,
          0.6751682357608523,
          1.0535382996688352,
          0.10809886470940812,
          -0.2529344762124216,
          -0.47085952934319136,
          -0.10389899540393598,
          -0.42794711089774323,
          -0.030291187420919255,
          1.9575173262176224,
          -1.010226656404721,
          1.4735166594780242,
          -0.712178450800395,
          0.5614176054914648
        ],
        [
          2.9802955688302366,
          0.3346800331886422,
          0.2584570345002106,
          -1.2573597613540939,
          0.6546799570278553,
          0.6316700430285221,
          1.0179807643225938,
          -0.4734039441853067,
          -0.31585017006771926,
          0.5623893310136961,
          -1.2937949021076802,
          -1.209124809400691,
          -0.8747938387746583,
          -1.3350892556612175,
          -0.3160485267698864,
          -0.37816509675043447,
          0.4964406429779065,
          2.1844169647124607,
          -0.44923294739137815,
          -1.4045487088913462,
          -1.6241135989058715,
          1.1130317895197266,
          2.4942833786740772,
          0.4109413570436924,
          -1.0126596024039782,
          -1.9060957378893728,
          1.087042886899537,
          1.1964476849487886,
          -0.727195625757841,
          -0.6824870320324661,
          -0.05243365439632738,
          0.10413449159401371,
          0.3882578885750953,
          -0.43072975504262645,
          -0.26241202653646195,
          -0.5650496175368062,
          -1.249557261806512,
          -3.287775872398545,
          -0.5199059882167938,
          -0.06399405046265606,
          1.3395355258403554,
          -0.4593796454669334,
          -2.230175052937875,
          0.16120783136331,
          -0.7247601309475566,
          0.6792684261019891,
          0.5597102445463704,
          -0.821882576331568,
          -0.2490716679200433,
          -0.4360805390194746,
          1.3972267681718797,
          1.0964793593534343,
          -1.5683823190544193,
          0.42678392672487536,
          -0.8179438200799088,
          0.6816852782567151,
          0.23363036097642828,
          1.3365606763408084,
          1.3506768315620834,
          0.8658675497697688,
          -0.47596638697666527,
          0.4422674766507133,
          2.2851385896785326,
          0.1550818585294951,
          0.5883245205185285,
          -0.5981148055428133,
          0.21811610519841768,
          0.5877496441462212,
          -0.08932347120339083,
          -1.098364804787151,
          -1.2412924116061013,
          0.36759893448453124,
          -1.221164642970048,
          1.1172121031988729,
          0.5641960286856852,
          -0.9659644344658466,
          -0.9714075671084593,
          0.2188952929159957,
          -0.5450919468712071,
          -0.3068824572183077,
          0.4319425207289693,
          0.33418771648319495,
          1.034361496518462,
          1.01132372018003,
          0.08100538237884126,
          -0.08974752244761319,
          -0.6205530019690635,
          1.0420323463102832,
          0.21080447330369192,
          -2.3314100254742223,
          0.4925469523834258,
          -0.7087685058689623,
          0.5682315393069866,
          1.3105595038991427,
          0.38380144385636367,
          0.25636802808703935,
          0.3100323300350791,
          -0.7001729794648053,
          0.859275168351546,
          -0.47928858150140435,
          0.5352287825294006,
          0.23675212910771673,
          -0.017350077301813628,
          0.8145379466259944,
          -0.17241043808591486,
          0.31025067448090893,
          -0.036472851679602736,
          -1.4628617909068398,
          -0.8004946290373388,
          0.8472922081493737,
          2.459166965123995,
          1.4074916156884085,
          -1.1115255250831246,
          1.0809063061272248,
          0.3695628069520767,
          0.5253386687142637,
          -0.935387108409819,
          1.0390879292990958,
          1.3803093942694584,
          -0.23773446565294776,
          0.44350214050128045,
          -0.21945835503427819,
          0.1420585105912156,
          1.1407642242873073,
          -0.36884490063255115,
          0.22418433596091816,
          -0.7192013773904643,
          1.624186421404257,
          -0.5185240688267356,
          -0.6479551325213005,
          -0.5812841900467604,
          -1.2086964638641273,
          -0.7871978995289017,
          1.5162924800728121,
          0.06946418062676746,
          0.7178245032714108,
          -0.4206463536765992,
          -0.5305315583382287,
          0.6734990887381356,
          -0.6949291733527058,
          0.9848936240992563,
          1.2725462665541154,
          -0.233044658672062,
          1.2811647972165858,
          -0.3630348012290718,
          0.6439490864574127,
          0.21773215465544157,
          -0.09844470753064738,
          -0.714864560853608,
          -1.1132383166465656,
          0.6098471331850962,
          0.48571837113537697,
          -0.47565582539757545,
          0.5061360926558206,
          -0.4620409747485928,
          0.022834327311195723,
          0.37011653797384375,
          0.6380844889549395,
          1.982257954827626,
          0.48829806088190714,
          -1.5001116745911298,
          1.0997141313528775,
          1.2963766831602688,
          -1.6394573854292727,
          -0.26089579923622364,
          1.7654695726006573,
          -2.377295989545472,
          -0.7860245217905274,
          -1.2590427839474585,
          -1.7592078961562403,
          -0.8093057425517,
          1.046026536580934,
          0.04672234739491974,
          -0.07631667510999499,
          0.7454893327404274,
          -1.1554356637051606,
          0.13589883105120434,
          0.3035009953977605,
          -0.3963049724061799,
          0.23914909049578673,
          -0.18004201138633372,
          0.7757628324581565,
          1.8859593208015637,
          -0.23491629519106236,
          -1.3953676525393734,
          1.1366977523369977,
          -0.1377563171103477,
          -0.8688557358378505,
          -0.47130231355444896,
          -0.2857999242217668,
          -0.7816831974387513,
          0.4894187836859664,
          0.9754265197257542,
          1.4984414979499183,
          0.5638010564455523,
          -0.02886000577491374,
          -0.8848375248647333,
          -0.6573009365987843,
          2.8438341911992855,
          -1.5982564084908926,
          -0.5447532553431711,
          -1.7726516291895067,
          1.2495674737613134,
          0.9156824022496989,
          -1.5487857106061595,
          -1.089670442059277,
          -0.5143547250633177,
          0.4583661518520248,
          -1.9169464037440127,
          -0.6043525131938515,
          -0.03970836038066933,
          -0.6179941135891545,
          -0.47465772380241156,
          0.07061795217865617,
          0.3392812174675709,
          -0.34326818165912243,
          -0.49738356814638135,
          1.0325372084231592,
          -2.1132556214251337,
          -1.255845434515456,
          -0.35769863064591406,
          -0.14483798690671834,
          2.302234016820427,
          1.3158329922980154,
          2.017165762515543,
          -1.8400647484521233,
          -1.5978134535708768,
          1.6518256474641304,
          0.8839857255346792,
          0.2904182154925263,
          0.70406681869057,
          0.04547733079410525,
          -1.1880162423414313,
          1.7600019234874196,
          0.2506771102813167,
          0.7114329036978491,
          -1.4379526703912533,
          0.30993957650345794,
          -0.1731412279925662,
          1.8408340934423604,
          1.2679782208978632,
          -0.17092782064560763,
          -1.3353156948233076,
          -1.0912668736296098,
          -0.10666327166518777,
          -0.9004644963375465,
          -0.910655073773674,
          0.17260250653645867,
          1.0900800432916762,
          -1.147657104530513,
          -1.364229282483506,
          -0.778676549308604,
          0.6925593436153962,
          0.4519750729374722,
          -0.6912982726314466,
          0.35072427781059706,
          0.5869918921065419,
          1.3846601693302476,
          -0.5586760294148204,
          0.8035354025989814,
          0.09209867351593184,
          0.34694090822053725,
          0.18081873017464953,
          0.4625576303788638,
          0.6828457896364996,
          0.21774445273523116,
          0.07328320213006759,
          -0.6457791555219479,
          1.2182787531562342,
          -0.1235143675426464,
          -0.7180997692142849,
          1.7121996902602012,
          -0.44095551379056586,
          -0.1695027322746838,
          -0.060420451233701086,
          -0.7191762498522497,
          -0.8120574695425846,
          -0.09867799703262234,
          -0.15486104486785016,
          0.8015227719040585,
          0.46104872272821024,
          -0.24452891766759807,
          -0.6745955141689671,
          0.6745654754175641,
          0.14157735767259502,
          0.5124202810948308,
          -1.4680609953844594,
          -0.45292704537261963,
          -0.6297457504442315,
          0.23826191635036056,
          -0.17811867526712435,
          -0.09881386588912197,
          -1.179666718828989,
          0.8661092710452355,
          -1.2814852604073028,
          0.35224740786145525,
          -0.17489263050922252,
          1.7592902827918497,
          0.11810469849204397,
          0.0635622076835233,
          0.5792094713012055,
          -1.248518126210654,
          -0.7769242096856557,
          -0.4304398298299768,
          1.026576350506721,
          0.15173931029094187,
          2.1757650953185146,
          -0.2603041786362774,
          1.2395902524383327,
          0.6528366373388184,
          -1.7911816169229313,
          -0.8191780491537801,
          0.03337419870139768,
          -0.9636006617261548,
          -0.05941792737265134,
          -1.2871070929478792,
          -1.5857505503283893,
          0.29103226025956525,
          0.900534688455683,
          -0.09380060829263369,
          -0.7913144692639138,
          1.2409595300014435,
          0.866169608587325,
          -0.7014416170725759,
          0.8511837184807426,
          -1.9855760787098344,
          1.080650040637626,
          -0.6102077925087542,
          -1.1001799765401072,
          -1.5311321882814741,
          0.5173599517515121,
          -0.14446335848213762,
          1.0406553862328818,
          0.6736157931521349,
          -0.8051158694937609,
          1.2978664278155045,
          0.49310577464826205,
          1.1692988486838187,
          -0.3601666136007803,
          -0.7364714903981572,
          -1.23164712375787,
          1.0624725525190855,
          -2.0619770348139466,
          2.254810846726052,
          -0.17868389002016527,
          -0.345523464112457,
          -0.4970276957466931,
          0.572980664292019,
          0.0703080123198565,
          0.29192917229137105,
          -1.6014297982252936,
          -0.3880780194407515,
          0.40622515840727635,
          -0.5056151924371218,
          0.19592315863028992,
          1.943968361087577,
          1.2627857003117318,
          -1.524881666409112,
          0.9100842873934283,
          -1.2021609100667958,
          -1.5938216210729401,
          -1.2912277065971036,
          -0.7135188471783181,
          -0.3792182229896474,
          -0.4007447412351726,
          -0.20845061178167062,
          1.9896965154424717,
          0.9634371718468535,
          0.3516049359803005,
          0.7642970668071872,
          -0.6017371486848753,
          -0.07976935118395848,
          0.839384975559669,
          0.3576577253926876,
          -1.3564004931669,
          0.4270912538284496,
          0.9410154641981737,
          -1.8902948716068049,
          -0.6898103497583757,
          -0.26453132148352676,
          2.279328241472179,
          1.5412390254988428,
          0.3982618519569112,
          -1.261341356977114,
          -0.23692981699592017,
          -0.5900108022448111,
          0.8604564879832963,
          -2.5651013546648613,
          0.7831942150095638,
          0.3307039291517815,
          -0.10582602031778766,
          -0.773878231389683,
          0.12218034268403354,
          -0.8507831895153419,
          -1.7237872042828153,
          0.3174266396695076,
          0.8633215788772529,
          -2.0794315450066088,
          0.6853671433432261,
          0.38761626776772773,
          -0.48875463629480403,
          0.6489751888793248,
          0.2496668661592895,
          -0.9014430790077665,
          0.13768339280218728,
          0.37179427277771393,
          0.5460757523354121,
          1.0116865999872127,
          0.2747321062068476,
          -0.5402630642462731,
          -0.3553105317177147,
          -0.42172392918586277,
          -0.6875367925942537,
          -0.6619951234080734,
          1.615894124452999,
          -0.9880677203341419,
          0.5060543694293999,
          0.18463348248795505,
          -1.963428600525053,
          -2.6842086184755956,
          -0.36076510151102387,
          -0.6083426065143164,
          -0.5213725436905472,
          0.38210058644463873,
          0.2009803615694994,
          -0.1351617800371122,
          0.4574881111237678,
          0.47402828312040235,
          -0.9699163998627371,
          0.07786826564423006,
          -0.8452996804539261,
          -1.2627963942604516,
          -0.7939951845013411,
          0.9513725575536068,
          -1.4399589612371728,
          1.4593787820233601,
          -1.0718179572936155,
          -0.016495214467801667,
          -0.11222428677891469,
          0.26303784376078987,
          -0.8780623341062556,
          -1.231102665540374,
          -0.033115994016154386,
          0.7947785426164236,
          -0.08281947107739324,
          0.008602214555645296,
          -1.8983418547077497,
          0.7791360822016462,
          0.45391165192320904,
          1.4234635448967148,
          0.4595761797198266,
          1.71864523208109,
          -0.044459061837874,
          0.5349579334269252,
          -0.7423387453600816,
          -0.47650771895713034,
          1.442302601709715,
          -1.8402022814939847,
          1.5489370032514813,
          0.3559500847174166,
          -1.0330214028964453,
          -0.032605150303956894,
          0.1593118738953221,
          -1.7929348236930642,
          1.6452433452765374,
          -1.5155390943281533,
          0.7513327759986744,
          0.9610992264835567,
          0.9903276188845838,
          0.2822333488012216,
          -0.4699511330273641,
          0.24819663111723952,
          0.6702221832265486,
          1.2371285083373862,
          -0.40177338300249293,
          -1.4289287158409552,
          0.73635247143069,
          0.1348269786630581,
          1.2148713580219515,
          0.4206724069696431,
          0.27350504888537297,
          -2.9215541846724795,
          -0.39572962659520916,
          -2.4385335494151863,
          -0.8664348303601392,
          0.20364534418582692,
          2.0031993722478765,
          0.9283775049383232,
          -1.1022043509943535,
          -0.038090767138728665,
          -0.6389913481582444,
          0.3523923357235577,
          0.4565443924603822,
          -2.378446288156808,
          0.182443850527598,
          -0.4705984668269733,
          -0.052826969521827825,
          -2.119945459866031,
          1.053945890188546,
          -0.4407012566640605,
          0.7393404222035277,
          3.6371859923935705,
          0.6471161936034076,
          -0.43350870021544397,
          0.6854580142666585,
          -0.11284515763064105,
          -0.7756935645196181,
          0.3516036399818713,
          0.11737465326593303,
          -1.2874786486771532,
          -0.329165083632125,
          1.4742201365260366,
          -0.42855673142817896,
          0.7039731761032985,
          -0.5685315918672865,
          1.1309689695814795,
          0.41402928096562863,
          1.3202693823478266,
          0.44287191363664724,
          -0.46156279871259304,
          0.5283737777282581,
          -1.3448958746937802,
          0.08353540188335597,
          -0.905824898006626,
          -0.7033585638223737,
          -0.5936921314504521,
          -1.3823118659054752,
          -1.440821755831417,
          -0.8411784564361612,
          -0.2878444152493436,
          -0.2470985355910804,
          0.7240394507266857,
          1.2096747909668506,
          -0.5611900581087351,
          2.8978685401502697,
          1.2715017071305148,
          0.5197186418352275,
          -1.494151864353722,
          0.3335363687369974,
          -1.9996622401689157,
          1.0255072675895327,
          1.1724237617182978,
          0.3357467478475437,
          0.6710984492450662,
          -0.30118113671718316,
          -1.0196562580653703,
          0.3114830718629517,
          1.2706914379677672,
          1.1445615738457178,
          -0.37107145222240917,
          -1.7037571240029428,
          0.11335609219097978,
          0.15244441552326535,
          -0.02538408440322712,
          -0.2744116442442712,
          -0.20012696881634015,
          0.25063419224577455,
          -0.7739104540660563,
          -0.20128368152401926,
          0.01165685480751154,
          -0.02902306303291825,
          -0.4355443590786866,
          0.6896758225611221,
          1.3758973081049681,
          0.42989169593664134,
          1.2427517937906716,
          0.3624881264275787,
          0.14781692932374227,
          -1.7770273010116204,
          0.0410582423804349,
          -0.2623791183318759,
          1.826239195075629,
          0.5105806261105096,
          -1.035499783428779,
          0.7908714386564798,
          0.4873540279306404,
          -0.2344543499649294,
          -0.2421088355451095,
          1.5367599504596745,
          0.4120475710217413,
          -0.5057001807019357,
          -0.07372946543068942,
          -0.12781053527897557,
          -0.2183488139748086,
          -0.5788185354497807,
          0.09366360967740563,
          0.44228914791962065,
          -0.1303263574605111,
          -0.6436068954113975,
          2.0639010119909647,
          -2.1257067824664913,
          -0.1972326040371304,
          0.12884194411432848,
          -0.6174839460475904,
          1.6368964719687076,
          -0.8679935302806553,
          -0.4410546706409992,
          -0.866277926688566,
          -0.3354126904299017,
          -0.6079455623741538,
          1.590607720138697,
          0.3671205041998048,
          -0.021770227582092752,
          1.6450704068419413,
          -0.7733249760299263,
          -0.0628141189583428,
          0.34960101691738027,
          -0.5807253640281054,
          -0.9920302199924176,
          0.6534573431314215,
          -0.22626404959126578,
          1.8314324831891373,
          0.7831202676246365,
          0.6761362689561569,
          -1.6635153339276438,
          0.6420282387325957,
          -0.24918213228570102,
          0.708608018143297,
          -0.3670763004659877,
          -0.228017773915141,
          0.15213150988946753,
          0.9289752563526306,
          -1.5870733018011034,
          -0.4130438323345591,
          0.010299787780818331,
          -2.0129027626742118,
          -1.4393107813894537,
          -0.11777956082803888,
          0.8824690760546582,
          -0.02581751859593384,
          -1.304752467182215,
          1.0015716265138477,
          0.4381437715432856,
          -0.8648031994854781,
          -0.512964970810693,
          -0.31071630017957186,
          0.3406330635343267,
          -1.6568375091162209,
          0.05853389622323722,
          1.7517697809484545,
          2.456586163943616,
          0.01571709386420235,
          0.8034978511159178,
          -0.11732493128875757,
          -1.2046562581265619,
          -0.6624284137248272,
          0.28440392855653474,
          -0.6587782704835012,
          -0.946909239676111,
          -0.47303780313311766,
          -1.1171713841704933,
          0.9660666732138948,
          -0.09129685254757845,
          -0.03305676133016214,
          -2.1692300894977903,
          0.5136455835299961,
          1.9372273787027539,
          -0.4262275884383377,
          -0.011821277688016045,
          0.030154845453438713,
          -0.2984372700267441,
          -0.4507384639303273,
          -0.15868740114619403,
          -0.2919560610422812,
          1.082212554051008,
          -0.9592361622950615,
          -1.8721789499158765,
          -1.1720223735363366,
          -0.07770610201333868,
          0.3678081250577266,
          -0.5976490638912125,
          2.1080140448453943,
          -1.3950990084134234,
          0.38797173276917124,
          0.662434332868871,
          -0.4131203961192,
          2.0427385313555537,
          0.9919440930113338,
          0.20000437851411565,
          0.5228850595366377,
          -0.11170749050044936,
          -0.9886001837846166,
          -1.596674301093701,
          -1.4442147530099374,
          0.4314431918612303,
          0.1639063951249081,
          0.4695090626528515,
          -0.794725201832601,
          0.8491765717334471,
          0.7991435101240357,
          -0.35911469916493893,
          1.0779694260114399,
          0.7212016668930266,
          -1.9914654431638108,
          -2.2775669699030576,
          1.9216045944812532,
          -1.0105997632652124,
          -1.28211463368206,
          -1.8191667748575318,
          -1.2185253944636627,
          0.013810308628512062,
          0.8070691830857788,
          -1.8687868220110417,
          0.5848552383677842,
          -0.3579337479175724,
          -0.8375890745766184,
          -0.6331302200791485,
          0.45870856989127506,
          0.9657014556080196,
          -1.050062574789428,
          0.7291234956933288,
          1.6024424186374178,
          0.7094767505557764,
          -0.4587101682955675,
          0.4976201389508285,
          2.092643509628934,
          -0.9641199932874885,
          -0.6035170933464271,
          -0.08049302632845488,
          0.7950537121650764,
          1.6711476009332265,
          -2.0129386640642806,
          -2.0692766346586766,
          -0.21456822752845975,
          0.01555651516432864,
          0.18934677057761748,
          -0.17111070177403245,
          0.6234241229008859,
          2.4876790736650944,
          0.24177873306370015,
          -0.6513451899263129,
          -0.8426219131254078,
          1.2475355986462195,
          -0.7409786798761708,
          0.1973038978898784,
          -0.9635599399667598,
          -0.06986368326222415,
          0.5517221699936088,
          2.056577015690413,
          -0.7075310283086322,
          -1.61440801241506,
          1.2239490979108405,
          -0.14487024685084468,
          0.26014164350717245,
          0.41272090680505963,
          -0.13328906231738555,
          0.4582686279211456,
          -0.5480701605326003,
          1.0440847803794582,
          1.8836902054301967,
          -0.1662209513113043,
          0.46234290042890097,
          0.6369697098413845,
          0.21391832367301253,
          -0.3753209456534092,
          0.4327632233774954,
          2.078118654849648,
          1.0589580728362402,
          2.2497879589769463,
          1.369549466946224,
          -1.5464709686512328,
          -0.7124333821435024,
          0.2659366364672871,
          -0.16683312545400183,
          1.1574131763583595,
          -0.9806387923152928,
          -1.2517859857678735,
          0.8696647540445485,
          -0.25895416217762696,
          0.7892069405456114,
          1.3182655680974933,
          0.9137172864521563,
          -1.3810969531701769,
          -0.13776977749069244,
          0.9788209850106139,
          -0.4725706015653028,
          1.0055371912180442,
          0.037152336145725766,
          -1.7914665041541875,
          -1.4268504773369641,
          2.4522571293848068,
          -0.020754751824803727,
          1.2292429855336862,
          0.8429372582481585
        ],
        [
          1.3764713439727352,
          1.8323578116125117,
          -1.8799220924269877,
          -0.6453489879845509,
          0.14204361570051374,
          1.157971271446116,
          0.9145959955187334,
          -0.663136390901679,
          0.7600978581979005,
          0.23750822115255638,
          -0.23211857378401074,
          -1.2872547364023614,
          -0.2746277231510912,
          -1.2626780268720652,
          -2.230617314773986,
          -2.3561007497677755,
          1.1362031390150098,
          -0.16683619288903184,
          -1.0841298367664984,
          -0.17228866138905752,
          -0.026346913465083575,
          0.05301065732819514,
          0.22288170642576202,
          0.36567033340556504,
          -0.31709342442598065,
          0.012491026704844902,
          0.5553757428886305,
          -1.015976976914372,
          0.4220256348858621,
          0.9304743980937734,
          0.40270842280979585,
          1.261797604894997,
          -0.7419629886216047,
          0.4459736301954177,
          0.5823039272995457,
          0.31299000183487147,
          0.4451571200559404,
          -0.6415887925706028,
          -0.34514505884390945,
          0.5843481279845004,
          -0.4359729000547842,
          1.1799414727896504,
          -0.48168063033621134,
          0.08733905578776703,
          -0.6350107040652805,
          0.1675860796518264,
          0.8320214592831388,
          0.02786075180751925,
          0.4356435382123832,
          0.6048756804806652,
          0.7001876739424159,
          1.0720182911487772,
          0.41973659607183017,
          -0.5775397530805193,
          -0.24857104310499728,
          1.751220160947597,
          0.40402726217523116,
          -1.1807159866491954,
          -0.12179639644297059,
          0.0931283457218403,
          0.08065221259203113,
          -0.8854751013549309,
          -1.306206777738029,
          -0.1835874740999812,
          0.9046288026503766,
          1.0081306363955296,
          0.8894197221824672,
          1.0168489659878164,
          -0.18048797577896172,
          0.30383904540158807,
          -0.5518980279180896,
          1.2243707037173754,
          -0.46607272647209713,
          1.8049821353522437,
          -1.2082961758604376,
          0.9122747247537315,
          -0.2988802852390691,
          -0.02030188044211928,
          1.1452751339020673,
          -0.637508598550724,
          -0.731207556497387,
          1.1305196741579622,
          0.03552167789185136,
          -1.5611371342080402,
          0.38565548350479534,
          0.2164394125324005,
          -0.7979380582019021,
          -0.29629276325970594,
          0.5037112558525938,
          0.11078781025461194,
          0.05989899291573006,
          1.4767036636637232,
          -0.4886951118378164,
          0.1607517680391868,
          -0.21638501793548123,
          0.3280072978910464,
          -0.2725290493656471,
          0.605062239469589,
          -0.013300062372275302,
          -0.045289424353374144,
          0.23684552330823264,
          0.17299785449097035,
          -0.045397254528907326,
          -0.2827059224264139,
          -0.05898520690542213,
          -0.865766611306565,
          -1.4636483608701936,
          -0.40275209640900966,
          -1.194530163717232,
          -0.01956451602864116,
          -1.3608337386574736,
          -1.7541503913908048,
          1.755784184730188,
          -0.6022591779684218,
          0.18473798607043743,
          -0.0629724750397807,
          -0.38445628367997653,
          -0.2531188895762644,
          0.3871037658542277,
          -0.9099325206932175,
          0.4678480633842658,
          0.6122367919832958,
          -3.5756212849315956,
          0.48419933833678447,
          0.2044455503662861,
          1.519021352916591,
          0.3507833741963181,
          -0.16689661261335106,
          -0.712767534809152,
          0.4374505046269797,
          0.07985506111071349,
          0.48856281160400966,
          -0.25734768622782067,
          0.09248220024502303,
          -2.5988542321129144,
          -0.9884145312064121,
          -0.6693026225410458,
          0.3615300190781062,
          -0.08383094125965045,
          0.20142558245158315,
          1.1702252282110224,
          -0.932034102618033,
          -0.7407472420836778,
          1.0332662159584618,
          0.6320440147632815,
          -0.14327372189629609,
          1.628746775632323,
          0.467980874162067,
          0.9338937254771091,
          0.14911019653973437,
          0.11207207468368373,
          1.441229159439401,
          -1.1196286259858188,
          0.43331082917638936,
          -1.6016601177702467,
          -0.14217723938415372,
          0.2693127038322404,
          0.39629418561879537,
          -0.4655031425155025,
          0.05213721285932542,
          -0.7957821355602887,
          -1.1230124254771878,
          1.337891984745078,
          1.177114827073699,
          0.7950017629951165,
          -1.1307803655434538,
          -0.7682333084745722,
          0.9411021196039641,
          1.6194985424053419,
          -0.4255127606781267,
          -0.47777193053528044,
          -0.26082404813731275,
          -1.0699024258218353,
          -0.3267051140352791,
          0.8219405859618754,
          0.8482643634911778,
          0.26614267766058664,
          -0.32433117344002654,
          1.0060787898407852,
          -0.017578701583723575,
          1.1158036218774974,
          -0.2588911731808633,
          0.6125358779678102,
          -0.43549878635842804,
          0.25889619499963223,
          -0.07402500215465173,
          1.3474027360984782,
          0.716880034386853,
          0.8580628090840153,
          -0.24900842720845273,
          0.03987077603872295,
          2.359793388322315,
          0.6463119758663448,
          0.7618876007067195,
          0.9579345731249131,
          -0.3500807403014526,
          -0.21834566996923863,
          -0.7753478358618913,
          -0.857315493082517,
          0.13659048204760918,
          0.04581542525029879,
          -0.5738418366136794,
          0.4580015875331545,
          0.659641422063813,
          1.191001563837411,
          -0.5909332398597189,
          1.009884404714905,
          -0.9719846052630997,
          0.4450180196725288,
          -0.4798153820976694,
          -1.890204028411147,
          -0.004438668376899003,
          0.36677648852999223,
          0.02882759502487995,
          -0.5537703611710262,
          -0.014054832067454434,
          0.529451615678191,
          0.04154584530320782,
          0.558589201780467,
          1.3360998973518399,
          1.4003616579156126,
          -0.4374267645819277,
          -0.19965913709417876,
          1.6254717933980851,
          0.06237570946954364,
          1.6123330649509158,
          -0.3774752494456126,
          0.856459936271698,
          -0.807453719109854,
          -1.291098487012273,
          1.2097040442811535,
          0.19157635460595213,
          0.009124975969665565,
          1.0292018935060734,
          -1.2708084838705698,
          -0.9120322046998038,
          -0.16463199365321243,
          0.4157105218116975,
          -0.8511279480737174,
          -2.532045592561297,
          0.18709243269218415,
          0.7260515555768451,
          0.3851495132025375,
          0.2595123288760525,
          -0.9973067469685744,
          0.1112056204142964,
          0.6107277397669393,
          -1.5909490037882308,
          -0.5177700365844878,
          -0.5217247219938078,
          -0.19702723598866287,
          0.9223540955231387,
          -0.8871269082398832,
          0.022295740585196105,
          -0.6528239646700119,
          0.3461619847119877,
          -1.373169082878101,
          -0.3751279947462285,
          0.01102345851752769,
          -0.591161198322854,
          0.25057893006579174,
          -0.17624020177448652,
          0.028592045999372956,
          0.6944481609480181,
          -1.0593351395470552,
          0.8043478270296168,
          0.15491456315291247,
          0.44110019316210514,
          1.1749711093737398,
          1.2396703221737613,
          1.8447115648753638,
          -0.71422005850959,
          0.5005360070470956,
          0.6931972830863175,
          -0.29257242374285064,
          -2.0626911099985756,
          1.3943323456634544,
          -1.0659721057090268,
          0.6425220122507485,
          -1.7760752487569686,
          1.2919227736680043,
          -1.4564547038410016,
          -0.8015432250914268,
          0.725155527728392,
          -0.11994483622573959,
          0.17489710479774648,
          -0.4926609932758174,
          0.02629007880515745,
          -0.19437038096065842,
          0.05234621180047534,
          -0.4139153594555769,
          0.4420610311772632,
          0.2642836777421347,
          2.140044709454743,
          -0.30869950811363717,
          -1.1578790851120155,
          0.8197625818929745,
          -0.03263478593225483,
          0.39199372947427336,
          0.5805603608709343,
          1.215426711150818,
          1.1452890703372745,
          -1.0961494382142456,
          -0.7796038703626794,
          0.4667474583287271,
          -1.1496543547527938,
          0.7816913341308005,
          -0.7619118196733742,
          -0.08118861198222656,
          0.1834972297477749,
          1.0899215586060906,
          -0.052056130228755174,
          -0.8356907680157989,
          -1.4216930937900907,
          -0.0756501723028002,
          0.6752699502860194,
          -0.07986001285815034,
          -0.633248845875027,
          0.20638903989993368,
          -1.0125693424613122,
          0.4067458456689336,
          -0.7182763298562416,
          -0.8929131909002797,
          -0.41628445173695755,
          1.3221023498622633,
          -1.7903544750938365,
          0.06804668045625017,
          2.430042150105439,
          1.3512280768055698,
          0.07084858789657304,
          -1.7192062147614402,
          1.2150510997900923,
          0.7990579748783114,
          0.732209263333029,
          -1.2572224061649535,
          -0.9499588482421822,
          -0.7634599045567203,
          -0.2938985472884361,
          -0.05743651234314167,
          0.2701458645049686,
          1.9437003587718835,
          -0.277229916392243,
          2.941366047656353,
          -1.1529168726530965,
          1.1115948607334958,
          -0.5505202809218063,
          -1.05769158037728,
          0.7558939118630054,
          0.232102185323552,
          -0.08264274818693489,
          0.9715598426529194,
          0.4432731933534133,
          -1.0781579255814548,
          -0.7061286341201944,
          0.24955138848191438,
          -0.22475731348605082,
          -1.4892031603572968,
          -1.0700607063723113,
          -0.7333118570910683,
          0.890976193268842,
          0.28131371051206355,
          0.4620242982529576,
          1.2747811558468995,
          -1.482185487200628,
          0.20797524976194487,
          -1.1688449372800913,
          -2.5269688771560737,
          -1.0577735541025495,
          0.7625032968092085,
          2.5238531350363145,
          0.11167073505033781,
          -1.684109636726936,
          0.45907733079996993,
          0.3029895006996138,
          0.9250056938908289,
          2.114968580707474,
          0.21063622164671433,
          -0.6155250610114819,
          0.25850610429965976,
          0.5312230490291396,
          -1.3077241881719877,
          0.6640210529180761,
          1.3655526202150998,
          -2.133684264082637,
          2.6001459392306043,
          0.21314560652241052,
          -0.08497140839857843,
          1.6191766447610954,
          0.7443719412179285,
          -0.05087986560740718,
          0.7344365618609875,
          0.43712257217050837,
          -0.16986749704294588,
          0.5672568357704703,
          -0.5083776935553982,
          1.1568791270596075,
          -0.171367374074627,
          -1.4798415564240495,
          -0.5143914930047249,
          -1.1240283790504506,
          0.16427739968808724,
          1.0668014493860085,
          1.2726157198671098,
          -0.8918209118270105,
          0.5998162373336562,
          1.4292135583009298,
          -0.3676722040432789,
          -0.6032025147998148,
          0.22442407876454348,
          -1.1531917877970193,
          -0.6980142272529076,
          -0.40766472841801715,
          -0.22157450740363835,
          -1.3921328398508999,
          0.7884364269914187,
          0.08066972821087304,
          0.06314441723892827,
          2.032766066127304,
          1.0845470812643836,
          -0.2751149631800566,
          -0.16610324882428415,
          0.8074009224181979,
          -1.1412925013587536,
          0.8978398094780443,
          0.5945089023085302,
          0.395554480537462,
          -1.4811495162679862,
          -0.4559358799621965,
          0.7556706143330713,
          0.7040124954032322,
          -0.0009185384030201413,
          1.4956510428228362,
          -0.7629615474196941,
          -0.004399264617245985,
          0.19356767499318955,
          -0.3755979604624255,
          0.11187627741093009,
          -0.006081908148200123,
          -0.7948499272318926,
          1.5592047365681716,
          -0.442516940340974,
          -1.1707874684014437,
          1.7579947255566968,
          -0.3528388156749541,
          -0.19697745217628268,
          -0.2864981400814939,
          0.7967304446971584,
          1.2113364377790978,
          0.21500128478493347,
          -0.5740442505341183,
          0.6486727162001279,
          1.7052414392781552,
          1.2960908415531078,
          1.0379606608051268,
          -0.017116748423177768,
          -2.427175027931705,
          0.8446683101360503,
          2.3809527565729005,
          -1.5020131383463595,
          -0.7128747247544124,
          0.18544347273712572,
          1.573302994987117,
          2.5396897180804,
          -0.7645721433980258,
          0.01254590442557698,
          -0.8783395170850088,
          0.5995722206915923,
          -0.1979999099366438,
          1.1866110620673893,
          1.3876287285786086,
          0.03936717079777377,
          0.14822312252684908,
          0.535107234484047,
          0.2640427793511312,
          1.4922526803180534,
          -0.42905508785420715,
          -0.08537284323365432,
          1.716904562403306,
          -1.184883518793972,
          -0.8093562762517701,
          0.9200499556116805,
          -1.5744052822314052,
          -0.2747331206427532,
          0.6584991688076073,
          1.4072180473775469,
          0.036841026407086246,
          -0.3228353296153003,
          0.45857599077537164,
          0.6895263857786165,
          -2.0145981429409066,
          -0.10358903253791657,
          1.2199915523707734,
          -0.7020063445645941,
          1.467514610383176,
          -0.5902486781803448,
          0.9879259156745877,
          -0.6755646022273342,
          -1.1748446178331546,
          -0.09504796637293869,
          2.3166928527087554,
          1.6511773695691525,
          0.25773247372075386,
          1.2254480404591896,
          -0.5159893764252768,
          0.5783691113063658,
          -0.001533737818738422,
          1.0496322713518436,
          0.37670200403706006,
          0.32706134564123157,
          -1.0070009369942023,
          0.45376718926893983,
          1.3037445326174761,
          -0.45932806508947405,
          0.15657523090068662,
          -1.4603315241169763,
          -0.484087741125089,
          -0.14695768926154326,
          -1.6895519315511704,
          0.8977252050605001,
          -0.05258452349784642,
          2.3824948140700464,
          -1.2560117965877589,
          0.5626221290270691,
          -0.7923568487300497,
          0.12159020489231626,
          -1.0338375787809315,
          -1.129948415669292,
          -1.2860915876172407,
          0.8572992193857103,
          1.0522997584116702,
          0.7113308322443972,
          0.5848225757171995,
          -0.00949961117012093,
          -1.196948696296637,
          -0.12525983423730036,
          1.0450898593110292,
          0.2945820676726367,
          -0.4773630895877115,
          1.0331636969414153,
          0.6164669780703502,
          0.8304448948111284,
          1.2142786751373025,
          -1.116906670109828,
          -0.01895662498678626,
          -1.7801412628401363,
          -0.317610706126153,
          0.9986331386372549,
          0.5507493033973624,
          -1.5285978873408133,
          -0.7159804169952084,
          -0.23225258702667262,
          1.0426775571120999,
          -0.15109843946340468,
          -0.2547537389327772,
          0.060790898397381755,
          -0.7681621379248816,
          -0.015587088664442975,
          0.4734126920202811,
          -0.3388191803789793,
          -0.41182428750142386,
          -0.055368486366263354,
          -1.7643498233097528,
          1.0448681704475307,
          0.29811081624877583,
          0.47477060712114716,
          0.44026944212925323,
          -1.631731067253794,
          0.37388672226572667,
          -0.5048327696128151,
          -0.6542956002411313,
          -0.5939347971596289,
          -0.14977027501988377,
          1.216556892414603,
          0.36019295933961765,
          -0.07638039584003282,
          0.7263182175436121,
          -0.05656881563126588,
          0.3248452995145698,
          2.339893191789097,
          -0.04449606849658518,
          0.7665229259810419,
          -0.5310217427909012,
          -1.645694377993194,
          -0.530657387202422,
          1.207212937433423,
          0.3423206151261755,
          0.22769392683214656,
          1.2089197548574238,
          1.3049734781213067,
          0.09118936648074841,
          0.7920245117398593,
          -1.041464071567382,
          -2.003937535409524,
          -0.025392864252304182,
          0.5716780441909212,
          -1.6664585493027675,
          0.7274207388265259,
          0.7962415162331863,
          -0.11499324525693823,
          -0.16140855099972495,
          0.3134176217587375,
          -1.1155423016616226,
          1.255597866863532,
          -0.10296941557324087,
          0.24631794673169322,
          0.3787872674613439,
          0.9601044670010611,
          -1.4899757005430985,
          0.19797904590465826,
          0.12305975384832152,
          0.03119700976107524,
          1.3267637281879483,
          -1.498795608577211,
          0.6344452292354664,
          -1.1063543404086187,
          0.34954335263870423,
          -0.26372293049202805,
          0.5441931572944486,
          1.1380766492938188,
          -0.3016977453882021,
          -0.7646983599782007,
          -0.5104246922953305,
          -0.9277154344863636,
          -0.8496938307170473,
          -0.6401097601236023,
          0.43023485585388815,
          1.6195431200639918,
          -0.8322778650255387,
          -1.530034015435882,
          0.006925548753664025,
          0.025011156499044514,
          -0.18212293474689864,
          0.7822658007790315,
          0.846295017668464,
          -2.2664619860977075,
          0.14595521249146717,
          0.3159923413811287,
          0.16485747070685744,
          -1.9956724381938287,
          -1.1036002984684383,
          -0.18470925231648452,
          -0.022787974678849916,
          -0.2534745910020452,
          0.9809912548687792,
          0.032163977631866035,
          0.3487423768786294,
          0.5950200480219582,
          0.24371339177257043,
          0.1771010030642828,
          1.2291315338991147,
          -0.8583045376177779,
          -0.277365822623591,
          0.581741697983741,
          -0.48142342140374866,
          0.6343167680371964,
          -0.7689856248919017,
          1.0713649718252716,
          -1.0870734256522008,
          0.21701664237595908,
          -0.9347787911480412,
          0.9664149435660638,
          -0.505457537824175,
          2.865453130432562,
          -0.46144737246751294,
          -0.9936328242576972,
          1.5867421870626413,
          0.6899754101164572,
          -2.495934475215107,
          0.14567874403973838,
          -1.895320232067927,
          0.15114941574119534,
          1.6280848450505296,
          0.3242236616605158,
          0.5795837074469568,
          0.16125802166077072,
          0.9181275676469769,
          0.54984189174336,
          -0.09622798557451266,
          0.12870126921985706,
          1.779882040193446,
          1.5272908832520518,
          1.2988193371815164,
          -1.7317619686748882,
          -1.9638790613637787,
          -0.013263014402395149,
          0.8591844621137436,
          -0.9268055983900425,
          -0.575220142087011,
          0.1862934981401799,
          1.0307891725324962,
          -0.39830535816114776,
          -1.1931725244735283,
          -0.4795501238626078,
          0.2456564288370263,
          0.9229776232851015,
          1.0613249559492985,
          -0.2995642125370866,
          -0.11273983092649949,
          1.6046652097600418,
          1.5561499913507784,
          0.31020661053588927,
          1.238508134589907,
          -0.6886789476890727,
          -0.25011654758432883,
          -0.5589716918623401,
          0.9928739608957179,
          0.3582682136348728,
          0.5321784012339678,
          -0.8374336375153153,
          -0.4072918460850008,
          0.5462483993682732,
          0.4144625657593943,
          0.6589935323750318,
          -0.9378440558002624,
          -0.22146324857520777,
          -1.1999675665137104,
          -0.7713640195138953,
          0.8039724459541119,
          -1.4712252858680568,
          0.3613806559837615,
          0.6167469829745739,
          1.0368603101623421,
          1.2445500799398095,
          -2.0354148126958638,
          -0.33686289064042363,
          -0.49981045997557144,
          -0.47118045396657887,
          0.4309411110445345,
          -1.1061369159257108,
          -0.44095644065113276,
          2.4417638406172784,
          -0.9700886336838932,
          0.13929637182825405,
          -0.41814703243832746,
          -0.9324406102774441,
          0.04943793961903381,
          1.3420464988784409,
          1.321774846835311,
          -0.7124506656163819,
          -0.6118699838952872,
          -0.8866835254355823,
          -0.9819177576744718,
          1.2982409193545263,
          0.22314880902897566,
          0.3253600667262789,
          0.08433460240504273,
          -1.0146274443896754,
          0.8660141466837094,
          -0.9214381361094552,
          2.2219627048405832,
          -0.8771576077493699,
          -2.0223764713517585,
          1.2337459228556193,
          0.9392039232843893,
          -0.21345138155729126,
          -0.21164889966036218,
          -0.13688348792381716,
          -0.3915336373725068,
          -0.5943864788100184,
          0.9119552732683358,
          -0.25917508053103255,
          0.24337249288488713,
          -0.3112399010471419,
          -0.9752556983271666,
          1.4523219406511294,
          0.16230107981379677,
          -0.12130330393781336,
          0.8906325006907435,
          -0.3661633471155096,
          0.0392197513713124,
          -1.476949413041982,
          -0.6103716880792386,
          -0.385150761299387,
          -0.8654067050660216,
          1.639804803545525,
          0.7899687118143224,
          -0.352121729953706,
          -0.07835724485612819,
          -0.22025272340594873,
          -1.1715842022670413,
          0.4865575342067239,
          0.5848835043131125,
          0.45564675975440905,
          0.5799898911576543
        ],
        [
          -0.2677412478760276,
          -0.4319508265212933,
          0.6126087767810521,
          1.7537992909548172,
          -0.36846064587530714,
          -0.647266765106899,
          0.09183717390850729,
          -2.5459749944186276,
          0.3159231765303852,
          1.1649439871568072,
          -1.807408356350835,
          -0.20516513888775573,
          0.845979306428431,
          1.6811227937839242,
          -1.2669094410628101,
          1.1057347536289202,
          -0.7991444845765427,
          -0.7526048937148507,
          -1.3291674963553506,
          0.48216972011266285,
          0.9415095894496076,
          1.5614913863764188,
          1.0820337214492377,
          -0.40779029166881603,
          -0.7454745866071087,
          0.91358644590373,
          0.7933524619069195,
          -0.3878662204939164,
          0.7126458155518127,
          0.8374159382682916,
          -0.8151273502537485,
          0.5825094368656952,
          0.2129165445782908,
          0.5091888170823676,
          -0.4943398477715067,
          -1.1184847077974178,
          0.7392723566172268,
          -0.7318695265421963,
          -0.5740052430020748,
          -1.4651327001990075,
          -0.23376084430214455,
          -1.5808326651767564,
          -1.3807147348038902,
          1.3075499422102723,
          -0.21466806448013329,
          -0.6439768141022033,
          -0.8016282444717638,
          -0.9024515611674543,
          -0.241462258593907,
          -0.6906522131542784,
          -1.0445737559186417,
          -1.7011655418654155,
          0.45218497798120755,
          -1.0496520242079044,
          0.2543071793004055,
          0.42427051298479473,
          -1.6387927064015084,
          -0.11587276075899917,
          0.9860944398131901,
          -0.28455374714077625,
          -0.799241667340426,
          -0.9198189951092115,
          -0.33336895568422453,
          0.5966395796708068,
          0.6067895347972503,
          -0.7326336477404437,
          0.1398888953877552,
          -0.6627703766293886,
          -0.7241836446727447,
          0.726858201929229,
          -0.07772127253052155,
          0.4694317504911609,
          -1.5858076757724506,
          -0.01055972794387176,
          1.7341562351182778,
          -1.1439915998665606,
          1.5868732464762791,
          -0.5968986721123941,
          0.3491038292566338,
          -0.42224137577148574,
          -0.5609083492601776,
          -0.1817810427315626,
          -1.0701943502699736,
          0.28599234671294654,
          -1.1659062897369652,
          -0.07752504977407837,
          0.6680944582344635,
          -0.43985917309653366,
          0.27473882359535157,
          -1.6289843608525705,
          -0.6279921820239477,
          -0.9667964900220448,
          -0.8756376966452631,
          2.26102142801615,
          0.4959558773122022,
          0.47762685447253156,
          0.8155097068561672,
          0.7236732063495502,
          -0.0978101473803325,
          0.39978353875154526,
          0.9664096570362973,
          1.1139466216402032,
          -0.033620703598587695,
          0.12645221377921217,
          -1.9510414417342106,
          -0.8888210976658851,
          -0.783982304661997,
          -0.566902412726352,
          -1.4868740701505185,
          -0.13859644811881486,
          1.5947522924363904,
          1.3816560485046185,
          -1.7279509215584519,
          0.6176914602586154,
          0.4913012467426207,
          -1.6555234491602033,
          -0.46184657198109486,
