{
  "input_shape": [
    28,
    28,
    1
  ],
  "preprocess": {
    "scale": 255.0
  },
  "layers": [
    {
      "units": 128,
      "activation": "relu",
      "W": [
        [
          -0.011373984394319137,
          -0.011913855605012283,
          -0.016391393835120182,
          0.010200720178463544,
          0.004527432230850377,
          -0.0034652579887579304,
          -0.019280728602091513,
          0.01312265748275884,
          0.005170379951102347,
          -0.005489306784176454,
          -0.0025299713976250173,
          -0.007186500200394079,
          -0.01010121924688732,
          0.010851425078132412,
          0.0006860290199880555,
          0.006368390135055883,
          -0.012626114296469535,
          -0.00111808897625782,
          9.995709994304808e-05,
          0.003581236263560419,
          -0.0044898853619424325,
          -0.00947855023034642,
          0.020910928500934695,
          -0.008011770486538745,
          0.015121187892060104,
          -0.002316410838507592,
          0.014529980902048736,
          -0.03486941218371461,
          -0.0007638009189262113,
          0.005626765418760155,
          -0.00786189455059408,
          -0.0014325983380285665,
          -0.0028585914225095492,
          0.005771548722914053,
          0.021626378012127415,
          0.00583579741558877,
          0.0021168264630888225,
          0.0037592058931830152,
          0.03540643117474495,
          0.021363766959986256,
          -0.014065182971745322,
          -0.0007510674330511435,
          -0.004547304393000042,
          0.004478924980240783,
          0.00425659786436561,
          -0.009592316137436937,
          -0.0031691478093551174,
          -0.010473360151959883,
          -0.027803596805091337,
          -0.002079353548044962,
          -0.00838593538135193,
          -0.013055987245452013,
          -0.0003571714793554332,
          -0.01819231347779135,
          -0.011677082188276568,
          -0.00027193927587719323,
          0.0166285159485515,
          -0.007424530804007887,
          0.02212542814412813,
          0.018003333402990467,
          0.007951259074703478,
          -0.0033678084015046684,
          0.012216799358496082,
          0.002300075139681354,
          -0.0169370551300056,
          0.01053083866530401,
          0.002119723878300964,
          0.010531150179123028,
          -0.01479249516594329,
          0.007454328588258278,
          0.00576905794961172,
          0.009809608103462208,
          0.00400720032596048,
          -0.005596836313512682,
          0.0006264231558548761,
          -0.0029412268294452606,
          0.00484372290271616,
          0.010221842551479534,
          0.010449769733771144,
          -0.003006268060087524,
          0.0040545712227019175,
          4.352578430951421e-06,
          -0.020817455292343627,
          0.010449084063880688,
          -0.008991004225283549,
          -0.002166909575123229,
          0.011183468895640432,
          0.01564077457269321,
          -0.008122698525270589,
          -0.005855854012310063,
          -0.004423837156753397,
          -0.007640463922598598,
          -0.000356862697638279,
          0.010487931865878776,
          -0.0008627778826729822,
          -0.005989817396234617,
          0.0019423703322973358,
          -0.011342195020773407,
          -0.007355475169267527,
          0.007140246434087323,
          0.008648643345269701,
          0.008571810511989153,
          -0.010079377349293941,
          -0.0005458673532325437,
          0.0028601750055713983,
          -0.0005394186831950592,
          0.018683655051327814,
          -0.011197990500923754,
          0.009462133175464358,
          0.005403140327036599,
          0.000964866992401103,
          0.005163807162727093,
          0.010491374083701235,
          0.00013585711135095225,
          0.0036900615552166267,
          -0.0040194873892966,
          0.0032230612410870064,
          -0.009569337006244592,
          0.006499270933990928,
          0.010914410805093883,
          -0.011844872360226428,
          0.013074095837191291,
          -0.001715921658070247,
          0.0018506507262803181,
          -0.00022273873258419371,
          -0.005420734363966126,
          0.00191328588355859,
          -0.013781317240710524
        ],
        [
          0.005173494541958855,
          0.013830608896400642,
          0.01257010478741997,
          2.913341325246865e-05,
          -0.01211923956400564,
          0.011430804245203159,
          0.007706826190383536,
          -0.0021421706773437315,
          0.016319742870072734,
          0.0043461694338854644,
          0.004277593180109089,
          -0.0025455629873358944,
          0.0011938107680317023,
          -0.005421243508957436,
          0.014600764148271191,
          0.0010241103813411158,
          -0.002102132233812635,
          -0.0006696569458474753,
          -0.006388550470417333,
          0.008563416448161856,
          0.010658711233981414,
          0.0002205521804227958,
          -0.008367974040955333,
          -0.008109822652241581,
          0.013992521508025428,
          -0.012043145449225521,
          0.002904108285700463,
          0.01638645219139005,
          0.012176122500811468,
          -0.0012909284808934932,
          -0.011349179487045832,
          0.016073655636478074,
          -0.007490876977449701,
          -0.0036785709362866493,
          -0.003601603920000435,
          0.0016072250862776284,
          -0.010075598915031632,
          0.0037426649004878953,
          0.025078340288790694,
          0.01813391185904845,
          0.00036911879470518695,
          -0.005965192581408454,
          0.0061994222433741555,
          0.01223758207724091,
          0.01088359397218355,
          -0.010115658569554866,
          -0.005456096656197186,
          -0.007266029685687853,
          0.003685428053069739,
          -0.01056270827368022,
          0.017330317210675877,
          -0.012739750557442036,
          -0.004792641882048379,
          -0.008624104131539065,
          0.002440288430340946,
          -0.006385906862137476,
          0.008967082824842194,
          -0.007977330188866965,
          -0.0027462210097042626,
          -0.008305299988109215,
          0.0037353198657100873,
          0.011621750890790301,
          -0.016447942303002054,
          0.018439207143621364,
          0.006093274121869562,
          -0.0014573768454467105,
          -0.00852971245440802,
          -0.005740306440716323,
          0.007466960149854779,
          0.008027275018457137,
          -0.007115661800244886,
          0.01734248019460302,
          0.0026026226645177444,
          -0.00931232622103189,
          -0.006705936843110944,
          -0.0029534315205308028,
          0.017924936598827684,
          -0.0035056110565337716,
          0.024898581376178633,
          0.0010733336806263434,
          -0.007977868354189774,
          0.0013770002056470785,
          0.014736839523915253,
          0.0019837052323743187,
          0.009271583077983689,
          0.0022612955973151674,
          0.013767533289274476,
          -0.008738605139802654,
          0.002234628717443565,
          0.00029658256990267197,
          -0.0072940502407486075,
          -0.004164654209984735,
          -0.012352906746829496,
          0.010811704494598595,
          -0.007792885744722378,
          -0.0016658571531984357,
          -0.019700429263363763,
          -0.006769408797175846,
          -0.01168644139496951,
          -0.0028892082958370474,
          0.009786424417854643,
          -0.003982020634232167,
          0.011071985375046311,
          -0.006356787236435162,
          -0.01005375034867262,
          0.009862025503826819,
          0.005155033993297991,
          -0.00940959751489757,
          0.0055699178264680665,
          0.0024470111936464737,
          0.0027566102601010224,
          0.01725765295355648,
          0.009180042730389724,
          -0.017063948552594473,
          0.006235482428691413,
          -0.00832336566657879,
          0.004093960993966373,
          0.007910610479531767,
          -0.00339819496338852,
          0.002840485919005633,
          0.013684218114541593,
          0.007460625396021129,
          0.02994805683981662,
          -0.015159101053837717,
          -0.013372905095973274,
          0.0006213952992771672,
          -0.017866823630301693,
          -0.014320570334937714
        ],
        [
          0.004969077829373672,
          -0.01202594758250831,
          -0.01577855630182566,
          0.011671828730461796,
          -0.02040163914718476,
          0.019046463344190703,
          -0.0013259106814601104,
          -0.005824652398687893,
          0.0035884169244359515,
          -0.01024447605974195,
          0.0046225807962303935,
          0.0279083673033519,
          0.001095297667648386,
          -0.008368678239017126,
          0.003454241841951703,
          -0.012370501572114008,
          -0.004644271043032141,
          -0.00227003963703441,
          -0.010563674869741973,
          0.0038661155172516923,
          -0.004355245657663002,
          0.01924192888931747,
          -0.000574850096206473,
          0.006854327752471777,
          -0.0034379281828679263,
          -0.0036976102988696136,
          -0.006033082040831788,
          -0.005549118974742484,
          -0.0006744312913082014,
          0.00644108453753797,
          -0.0217664635410497,
          0.0011096057403579757,
          -0.004665044330820665,
          0.0040712048589955545,
          -0.011997048435377642,
          0.0005314086077370069,
          0.004504178473808758,
          0.0016174642188406636,
          -0.01077658206933411,
          -0.0017976786686135246,
          0.0018702034044279562,
          -0.02480382912098586,
          -0.01225299791432894,
          -0.011026389986256664,
          -0.009162129037204156,
          -0.005185565684966791,
          0.006073543623341875,
          0.00851594193178761,
          0.004360792827029696,
          0.010029353036541637,
          0.002125381116166987,
          -0.019904056229156086,
          -0.0023012447582371563,
          0.0034544635352259274,
          0.004804853604476787,
          0.0050879281843645395,
          0.010004440335842173,
          0.014197219275725315,
          -0.0019577623161972364,
          0.0019834867034988018,
          0.003990016821773325,
          0.002149982906381549,
          0.003927319627286152,
          -0.013949359202533354,
          0.003445287162743464,
          -0.018312581037588666,
          -0.0015684176209300258,
          0.01623199706760855,
          0.012541866381979141,
          -0.0017373860234635417,
          -0.006764417383343935,
          -0.0032922943597421296,
          0.011967892842872177,
          0.01704058032344388,
          0.0054355292714641954,
          -0.00023841374038056744,
          -0.007460451548394169,
          -0.021711308740268113,
          0.0036691740124986543,
          -0.0030409405693671283,
          -0.004483344076064495,
          0.003985791127606844,
          -0.005597705814960479,
          -0.010952821723081548,
          -0.0031298806408998213,
          0.0029090422990850334,
          -0.005454410004814844,
          0.00449836744170112,
          -0.004215390222107718,
          -0.014647805617827334,
          0.008569541972853253,
          0.014732063086691815,
          -0.01063463215840739,
          0.009799450566310514,
          0.011534647916518434,
          0.0016309079237992294,
          -0.0061037771604808624,
          0.0016221788795910308,
          0.01365227052123432,
          0.01730852836817505,
          0.010274768526827145,
          0.011908704872984533,
          -0.0017065110708285537,
          0.0003598310184885807,
          0.00590424211930937,
          0.00769811500278728,
          0.004261822131351047,
          -0.011702136249296353,
          0.023022873709650487,
          -0.009561191692704443,
          0.004930408380393287,
          -0.0003398600372230591,
          -0.011767376361188455,
          -0.013563975242102762,
          -0.004542098351881345,
          -0.012624576068490989,
          -0.00614461490198283,
          -0.014509143705259592,
          0.004295849123330279,
          0.003481483611576951,
          -0.003716548978477444,
          0.005207094033543991,
          -0.009940697076057133,
          0.003708455987624116,
          0.001055100074919275,
          0.006354564934453163,
          -0.007593928242604491,
          0.006935746801322006
        ],
        [
          0.005948063310846381,
          0.004056178795104454,
          -0.012544779704446694,
          -0.00298276072713606,
          0.00693569188788682,
          -0.013644998744276453,
          0.01378775317633351,
          -0.006532780017106634,
          -0.007378883358612177,
          0.005911314507367807,
          0.014319552935788973,
          0.0035570630141831595,
          0.006611133467021544,
          -0.005922119313702096,
          0.0009597136946609234,
          -0.009641819045942055,
          0.003788031781159273,
          0.007122298520514752,
          -0.0018803933549219238,
          0.0040706079914966395,
          -0.0010628000989354417,
          0.0036526681781379974,
          -0.007759515623841963,
          -0.008712743516597597,
          -0.015582779831603402,
          0.004451562500532437,
          0.004237030985322175,
          -0.013522170822681938,
          -0.027848728232609154,
          0.010062946224064324,
          0.012241932125913006,
          -0.0045794060951575575,
          0.012987968804707175,
          -0.00116608253581983,
          -0.008208570549740103,
          -0.0064734695016099245,
          0.01264315681045431,
          0.0045883942120803585,
          0.0007381283901734401,
          7.441714820580012e-05,
          0.007515743003384029,
          0.011358500034936913,
          0.010172490521169928,
          -0.009776478728081473,
          0.004560945918617331,
          0.0009731176023139701,
          -0.00469601035725156,
          0.011455965189598806,
          0.005594999910007558,
          0.002684401418723796,
          0.014975428728450675,
          -0.017640112918914874,
          -0.01239980516149747,
          -0.005399868978681341,
          0.011261431500920401,
          0.008715042885254905,
          -0.022871947584099966,
          0.003541891511601579,
          0.0008539714785353493,
          0.006185080901207986,
          -0.005573424951765373,
          0.011508529655446458,
          -0.0007528369686032496,
          -0.004248243647119539,
          -0.0075880077964588025,
          -0.032013874573292155,
          -0.0034179572328135455,
          0.0005770844750565855,
          -0.009538419621541557,
          0.007430955975515407,
          -0.002687985723210085,
          0.003629338378497622,
          -0.0020188052865695574,
          0.007693581246166015,
          0.0009627422226257566,
          -0.0048248537289848235,
          0.002923368126436497,
          0.007582237451977403,
          -0.009097642521414526,
          -0.00201251510551198,
          -0.01096983812941751,
          -0.01589338437558388,
          0.007181247915932828,
          -0.005324146279985166,
          -0.010758826319163235,
          -0.00644322627767304,
          -0.004343213439257733,
          0.010148700156704686,
          0.0011723935399868598,
          0.0027796072642877036,
          0.006686320316695477,
          0.0044272867991768045,
          0.00981652681484044,
          0.003489054215961407,
          0.008006839275522882,
          -0.004095651529225085,
          0.006428807305903722,
          0.008549139895617026,
          0.007352336905490011,
          0.012643226857604762,
          -0.004569592070019419,
          -0.0003562121472959986,
          0.013773247558025335,
          -0.010997202460820074,
          -0.017093027706192067,
          -0.0005666332595870396,
          -0.011251801809108673,
          0.008625361455989808,
          0.0018082587863392902,
          -0.0022063415399791865,
          0.00356433056529077,
          -0.0027463940235561376,
          -0.004598844770386322,
          4.270707413096039e-05,
          -0.013923632574784317,
          0.006010171593493357,
          0.008090567120973174,
          0.0113425893796902,
          0.0026213547115262583,
          0.002737067145682757,
          -0.00704760200788249,
          0.0028359944864097394,
          0.009342368305187176,
          0.00631639792172557,
          -0.00024160462349161438,
          -0.014281102810567093,
          -0.01847750413871459,
          0.006369916918827782
        ],
        [
          -0.0032677093476222874,
          0.004107024547557735,
          0.013857404933208625,
          0.013133040206988602,
          -0.0039314739410776,
          0.008640410182558952,
          0.00028465252141949925,
          -0.0058116634676283595,
          0.002053451797728139,
          -0.009798837679801062,
          0.01792505802439514,
          0.0020015864075057462,
          0.0008335710778424797,
          0.01189002905664449,
          -0.009860516366477565,
          -0.016262471927065796,
          -0.009902875578160863,
          0.0028617625646350842,
          -0.005484255960199593,
          -0.008304546645733425,
          0.017970112864148957,
          0.013008518251030205,
          -0.003609176827305612,
          0.004159520176796291,
          -0.021165904574293747,
          0.010858155711054541,
          0.006837328868358828,
          -0.017816360286671277,
          0.01360828325983532,
          -0.000350028975464028,
          -0.002257560840650574,
          -0.01028147953806888,
          -0.0007898375916448209,
          0.009635133585272323,
          -0.0063578029922660585,
          0.0019735307760539974,
          0.005082724346558233,
          0.008467973616292453,
          0.0014203049316523673,
          -0.009672913203507525,
          -0.008747289195215306,
          -0.0017090481653428548,
          0.009306273430377493,
          0.01267092182714409,
          -0.004265970939662588,
          0.012031477733713087,
          0.0006604426383110686,
          0.004292593488470273,
          -0.004476484786772147,
          0.009839999701346287,
          0.0014903893004705208,
          -0.01148886394421754,
          -0.006864173330974193,
          0.016643829079469742,
          0.005138454328472026,
          0.005970759538031948,
          -0.0030951915495661566,
          -0.013179001312114316,
          0.0052414800203372455,
          -0.0007205221403318315,
          0.003461566675115982,
          -0.00041139972801292453,
          0.008265298152162133,
          0.008716022620320799,
          0.0041838827937315075,
          -0.020879735620299784,
          -0.0055540071416969065,
          0.003624635309834111,
          0.0058483009492297944,
          -0.006494951218036631,
          0.005770709505457834,
          -0.020079350379247546,
          -0.013113231360727274,
          0.0054219557498539385,
          -0.005809416585808257,
          -0.006991374925773877,
          0.00991459869779935,
          0.009583807005696174,
          -0.007381927940844596,
          0.005491233348301978,
          0.010345457902298523,
          -0.00768712261265072,
          -0.0029258965860636007,
          0.001721975542253021,
          0.00016728562249713422,
          -0.005520266104893109,
          0.01178597001458001,
          0.002761342120014616,
          0.014057224405927072,
          -0.013548283668400803,
          -0.012741320015550521,
          0.00047986213665368143,
          -0.00827018251055593,
          -0.004612624349553619,
          0.005517045437173197,
          0.010528780756596242,
          -0.0097376927326207,
          0.005237921919553142,
          -0.011769287779937403,
          -0.007060326154445421,
          -0.01908288536814398,
          0.011511809809314403,
          -0.0026123440757901874,
          -0.008887705159231101,
          0.005999416103847346,
          0.011499630829410086,
          -0.013504735473318792,
          0.005196043117822361,
          -0.011824314488063146,
          -0.0012278162937278071,
          0.0024250743117929614,
          0.009687790433256713,
          -0.009153322357292625,
          -0.01518804024057499,
          0.006349077416610709,
          -0.01695817378006276,
          -0.011250568495836511,
          0.00490670131959083,
          -0.004679823465751691,
          0.0012304754821617738,
          -0.009112144385482822,
          0.011126189194216103,
          0.004439071868941925,
          0.014404533779889988,
          0.0179038741804146,
          -0.00020570900317486455,
          0.005221227646817628,
          0.025178271272540048
        ],
        [
          0.006895613635866477,
          -0.00821815996686108,
          -0.00327521958150869,
          -0.010022774676362157,
          0.007216284169273276,
          0.011765629858320316,
          -0.009524447476987805,
          -0.007838545987433533,
          0.015828095033691973,
          -0.0002494146019475773,
          0.002870838735726552,
          0.012891959621094717,
          0.009294623643547259,
          -0.00760211385202359,
          -0.011914111137259183,
          -0.011043959328760542,
          -0.0068304549004375706,
          0.023207808156357576,
          -0.00934919849720674,
          -0.005095390491318423,
          -0.005679244892108045,
          -0.001385391082116951,
          0.012304460767794505,
          0.013508782683373004,
          0.01193952743956838,
          0.0011293490092779458,
          0.002523086259821711,
          0.011262453143930753,
          0.010853253134418046,
          0.017875904105839162,
          0.011947096255178702,
          -0.012444837221625211,
          -0.012654245121156427,
          -0.019474753802410275,
          -0.005514311109673392,
          0.0005134035173679038,
          0.005807949907511089,
          0.006996559521021712,
          0.020022888462453144,
          0.0029353357452180156,
          -0.004386928535960993,
          0.02770478451500227,
          -0.013740845437192119,
          0.008170547977289657,
          -0.020360078390082356,
          0.016725919624535564,
          -0.005632115247328421,
          0.00937408407777662,
          -0.003808657029887799,
          0.015368440039788163,
          -0.02006661694593621,
          0.010059673358162644,
          -0.0173216495425127,
          -0.0012549478714367335,
          0.022734213037924795,
          0.005451956340768476,
          0.0034840531675947163,
          -5.795149129523706e-05,
          0.005002537161905669,
          0.0026025859746960566,
          -0.006494330563728932,
          0.015776122607941055,
          -0.004896852743986533,
          -0.004916259672400801,
          -0.0039544581991535245,
          0.009377614305596676,
          0.001602138220367121,
          -0.009625395711083907,
          0.014074785729525158,
          0.007602183260061172,
          0.008013300135258658,
          0.011943792790766072,
          0.0066840772604027454,
          0.014733856285563496,
          -0.0014022942474887913,
          -0.006044590593353927,
          0.02637117292124699,
          0.010203383120581111,
          0.001035025764210115,
          -0.003841972733286825,
          0.010561875111572085,
          -0.005868351182922618,
          0.006046450157999966,
          -0.017140488323603913,
          0.0029494815521228924,
          0.021369351503220876,
          -0.0030469120049617534,
          0.001904492166306122,
          -0.013945817566508601,
          0.00580077868879366,
          -0.010230614536212134,
          0.006095427914006792,
          0.017426700250649876,
          -0.010949752266535566,
          0.014456167424808328,
          -0.009286119403992307,
          -0.000280685883384731,
          0.0007248643310859989,
          0.013394049194280751,
          -0.012015537179654662,
          -0.008787601881210187,
          0.002587442619304398,
          -0.018258054893610754,
          -0.019763775533702767,
          -0.03341394913312466,
          0.009475085455836143,
          0.012295681187486331,
          -0.017966320947978478,
          -0.012306169937244166,
          0.0038141818790024037,
          0.008429542314975955,
          0.010278693191664395,
          0.00465309026030338,
          -0.009889806482856124,
          -0.010872145077301013,
          0.002279540481677483,
          -0.004877599635103544,
          0.007543948480626909,
          -0.0008258606282352331,
          0.004035350015671186,
          0.003344042837443837,
          0.0014282169723143726,
          -0.009601586680686551,
          -0.0051023408744005705,
          0.004169996864808121,
          -0.013609247090428602,
          -0.0008471676153383777,
          0.008286778664285852
        ],
        [
          0.021176575604470952,
          0.022529577987729647,
          0.006724953172422838,
          -0.00383652111592003,
          -0.016007764267291943,
          0.016797051885978468,
          0.01216051339173205,
          -0.009929215692551665,
          -0.013538809307393517,
          0.00853266985508838,
          -0.0011252551447127068,
          -0.0064090559103470906,
          0.001637744697695396,
          0.0034520345006992283,
          0.007204141088847169,
          0.003058579220709514,
          -0.015963656656579495,
          0.0009548569405476306,
          -0.016460781541232913,
          -0.0014233456778317269,
          -0.016067146538611406,
          0.007765457113456308,
          0.0071268061835843425,
          -0.017403639597078784,
          0.007539407792177941,
          -0.010544947354836834,
          -0.018052128776515814,
          -0.01160652508024727,
          -0.004195795433085721,
          0.0071844117236584785,
          -0.009927312091621718,
          -0.00016283686534054065,
          -0.009429679990966118,
          0.010176818691996466,
          0.009759825933520764,
          0.006796200944270866,
          -0.0008789507134472629,
          -0.006302017478571638,
          0.0037909922250040167,
          0.009276531842409917,
          -0.0033878658939084294,
          0.0012423121485884351,
          0.0150340596176985,
          -0.012370764851855563,
          0.011241141216114059,
          -0.007178743107598394,
          0.009606568809041698,
          0.003034155573934291,
          -0.003954974595661644,
          -0.010830318518579737,
          0.004400096869579874,
          0.0014775640937648518,
          0.0029344603616943306,
          -0.00022862359132138504,
          -0.00692479854329491,
          -0.004965070212155415,
          -0.001085461119392373,
          0.00630368222196178,
          -0.02226107019159517,
          -0.0011582810413123129,
          0.009555147292947775,
          -0.0026344671481395225,
          -0.010481102807500422,
          -0.004475386937960934,
          -0.006703785475763988,
          0.002300333096370242,
          -0.0029769757556595573,
          0.024624889728679215,
          -0.028473154241353715,
          0.016184806082509426,
          -0.008030237254239878,
          -0.003288582412160776,
          -0.004078204179047005,
          -0.005812887445437488,
          0.005621400431342895,
          -0.020332895201887524,
          0.01242692768273249,
          -0.01263268028506402,
          0.0039373273033506745,
          0.013403844176822477,
          -0.001422947403407232,
          0.017528247097918823,
          0.008165814555429207,
          0.01971219122373374,
          -0.0004942549780496446,
          -0.012651490844651734,
          0.015183830435734808,
          0.0025979494060681943,
          -0.0006223254004165262,
          -0.018835631868313912,
          -0.004186854884730784,
          0.008160717542830096,
          -0.003335341029695244,
          0.0009791438251709023,
          -0.007108509803339637,
          -0.019462581047782285,
          0.009630127122047862,
          0.01937942664197342,
          -0.006171040282834513,
          0.0036880803205581163,
          -0.002255286840594202,
          0.004713419512869728,
          0.005522364337617066,
          0.008647228835593221,
          0.007260581058278065,
          0.007903180918936015,
          0.010417943845779949,
          0.003228114201770601,
          0.004536076830376149,
          0.007905847683768657,
          -0.00801360762789599,
          -0.0005053568850609555,
          -0.004770418727573756,
          -0.005644800296048409,
          -0.013102972894127388,
          0.0030864833981577473,
          0.006497281705978502,
          -0.0031638179637837284,
          0.011729989839990147,
          0.003929341989072074,
          0.0020777226158569797,
          0.0035821990904521418,
          0.007142517383914962,
          0.0035913358390730612,
          0.005504559139035887,
          0.009233593770014186,
          0.012841610749456365,
          -0.006899968302823498
        ],
        [
          0.00019664635786851214,
          0.004696356918783541,
          -0.015554460467638673,
          0.00666180009253157,
          -0.009847333333762276,
          -0.018170867728133876,
          -0.006057253355845552,
          0.0008165478209364431,
          -0.006640074099964568,
          -0.013056983216980317,
          -0.007681461812775537,
          0.013810037235122304,
          0.011883630510617105,
          -0.003954408758653682,
          -0.011362066829223418,
          0.006255818794874608,
          0.010242780737114899,
          -0.006016096941230525,
          0.01314153756978454,
          0.009135861894511675,
          0.01957413478825638,
          -0.007814782045869408,
          0.01984536443107679,
          -0.0047672601300892585,
          -0.003832411350284136,
          -0.02282848190751893,
          -0.004509796794886149,
          -0.0037138519203696917,
          -0.008199805780072782,
          -0.007120074926115094,
          0.0010026007902231356,
          0.00838169107864107,
          0.016061217152655013,
          -0.007308841819610381,
          -0.01751863021252603,
          0.007836699997925441,
          0.0019110600510650803,
          -0.010728485338419557,
          -0.018034072231835136,
          -0.0028659826543007685,
          -0.011145321465867795,
          0.000995907593628113,
          -0.0026243013579356957,
          0.003855309718124016,
          -0.0018725985531586264,
          0.011674364001182012,
          0.0015528551551959278,
          -0.003422053645263832,
          -0.007943270611871018,
          0.005747632028550846,
          -0.0145497314958562,
          0.0005466741832409896,
          -0.0014263103559174499,
          0.0013297705936224646,
          -0.0037805212785674332,
          -0.007673782733145881,
          0.0019697709511453795,
          -0.009568579570079602,
          -0.014861850396270542,
          0.011931130781318133,
          -0.0036260492316530207,
          -0.016664320161628974,
          0.013873119081624495,
          -0.01328190306771661,
          0.003990380353016539,
          4.289742628289082e-05,
          0.001051515681986376,
          -0.0008150767516573022,
          -0.013445619729286857,
          -0.027334164449670722,
          0.0018226125866569194,
          0.009249037286394072,
          -0.014949392584751428,
          0.0028241541545393663,
          0.01137536884696961,
          -0.0018468433815655816,
          0.014812428421557375,
          -0.0025619142835953176,
          0.0025956619053283674,
          0.014817268548941893,
          0.025108033276463836,
          -0.007804765893428808,
          0.0001889326833932564,
          0.003304331453354801,
          0.0040209009475290335,
          -0.02451136360553737,
          -0.020759177428240044,
          -0.0046445326633948745,
          0.006178522714088787,
          -0.009929146724336748,
          -0.00034735130568941934,
          -0.005985732997192575,
          0.013995410398697908,
          -0.017517580471847347,
          -0.0028352107331014076,
          -0.0021590418124408004,
          -0.007704012498585013,
          -0.008408194790829361,
          0.003646842895941956,
          -0.0021111954890020495,
          0.002222381939498492,
          -0.001473760375848447,
          0.014393279806795552,
          -0.00282047772012178,
          0.0003749977355972021,
          0.010114132118230154,
          -0.014223519776689904,
          -0.0031365583328365637,
          -0.02258987223145664,
          0.020011609073539043,
          0.0010660911310162848,
          -0.0013869666237716367,
          0.006832545832907334,
          -0.006479978712247834,
          0.006978248711249628,
          0.007931095731637364,
          0.013302578252453399,
          -0.00014714548138458413,
          -0.017912277388438515,
          -0.002256726522435538,
          0.009246241142418496,
          -0.012177513337225667,
          0.0025430758291936414,
          -0.0012622459002124714,
          -0.009219239774693562,
          0.004822170549957529,
          0.017003572757160638,
          -0.006477942435863285
        ],
        [
          -0.005678314124801554,
          -0.0032977299981891616,
          0.0036426257869120095,
          -0.0022019922596641594,
          0.008378367811305699,
          -0.005743192902932341,
          0.00827307703986582,
          -0.0022165368753384786,
          0.014255797158202372,
          -0.007575499268395224,
          -0.00032804317893025335,
          0.007103243013387082,
          0.0020101397709625787,
          -0.004615683451027878,
          -0.001814202885870083,
          -0.0010479779530694435,
          0.006066484860991535,
          0.012201251717119489,
          0.009015860042976017,
          -0.00983644982778507,
          0.0090420732856424,
          0.01141988672723985,
          -0.012047697845350156,
          0.0114298824776336,
          0.019890819298681903,
          -0.004503654222381943,
          0.0037603038902244575,
          -0.0076620006755520114,
          -0.0033552790388273364,
          0.018389219862246075,
          -0.009516988815363631,
          0.0052996867425014116,
          -0.003165749132665055,
          -0.008621074851856609,
          -0.003464837843872868,
          -0.0068697860206191905,
          -0.01662539506418058,
          -0.008623873083247816,
          0.008607287727421488,
          -0.005000562678931267,
          -0.0025891132128837624,
          -0.012475484290439707,
          0.009805559384986139,
          -0.001869248412104956,
          -0.021887482073731094,
          -0.001287526694991877,
          0.0016351448229926686,
          0.009967346426385693,
          -0.016646803619111476,
          -0.014335091371763838,
          -0.0019345547088142551,
          0.00822033219362232,
          0.00812084866502085,
          -4.233965955696559e-05,
          -0.0025345834295337276,
          -0.02664782139360534,
          -0.007832993124069279,
          -0.000492910737241415,
          -0.007245781062039383,
          0.012222673394329371,
          -0.019222103241869744,
          -0.0032158844785431374,
          0.0033267631168325497,
          -0.0027361320694796604,
          0.010244455457314344,
          -0.005157762787319512,
          -0.008228465824759454,
          0.022288837058587856,
          -0.006892069647613249,
          0.02508991895226772,
          -0.005762954173285413,
          0.011591785519787982,
          0.008909932262601073,
          -0.011362644633870237,
          -0.023934656622275365,
          0.0017237984451134898,
          0.006459383881582033,
          -0.006595418975250753,
          -0.0058511131878721525,
          -0.02059931122910489,
          -0.003993365288365358,
          -0.0009981465926202104,
          0.005721916836889478,
          0.0016000064489746443,
          0.009931095564737164,
          0.001076927713298215,
          0.010264479667066624,
          0.0060712263124114065,
          -0.0009520792681800471,
          -0.015938114240350576,
          -0.014914743688629916,
          -0.0017982792203699602,
          0.006325801820997939,
          -0.00890371410614807,
          0.006243516018996961,
          -0.017039727277157055,
          -0.002194874791330348,
          0.0018162166791718646,
          -0.006673678276319125,
          -0.002975245505473503,
          0.0018928626349263684,
          0.00999894581883278,
          0.012405480249298391,
          0.004034076419588339,
          -0.007294818900741024,
          -0.01630379896758934,
          0.004002842233445838,
          0.009622283295101768,
          -0.0035249216635022426,
          -0.004205356335494676,
          0.002189502150835833,
          0.007322327746268599,
          -0.0008470571117437002,
          -0.0021014550272517624,
          0.00841872803874139,
          -0.0032302711894154974,
          0.0034182445380603727,
          -0.019280921851346326,
          -0.014096809431558515,
          0.0032307043341592767,
          0.001039642953048683,
          -0.00847722425596847,
          0.0040361112606883045,
          0.008281956680309623,
          -0.0011193827491854777,
          0.0015465085460592287,
          -0.009588073754804515,
          -0.022040211686608146
        ],
        [
          0.0060269238348559795,
          -0.001595085447141922,
          -0.008243469811444906,
          -0.002922548938270324,
          0.006556975083543946,
          -0.01289407475625441,
          -0.005124801352507194,
          0.005414318723494824,
          0.01729274593330281,
          -0.0019875629486862363,
          -0.019491345780088053,
          0.0024622711137556367,
          0.006841823440869024,
          -0.0066111354973103385,
          0.007626018364002118,
          0.007259711060118221,
          -0.0007527164383445536,
          0.0037755641603669492,
          0.017859591047118154,
          -0.01094665895688844,
          -0.006311801752713968,
          0.0010670879482643915,
          0.01961167143032258,
          0.006478577376781809,
          0.0024079907109823833,
          0.003799613720510577,
          0.00376716776947089,
          0.0023793002538068228,
          0.005560660998877489,
          -0.013434966991895152,
          -0.003739249776184857,
          -0.0071186594684569315,
          0.0159730594066451,
          -0.01631867693679314,
          -0.00954484105862347,
          0.000784725572303971,
          -0.011799606847462068,
          0.006871561402378672,
          0.0030384587602859414,
          0.014633115419001965,
          -0.0018893356733334639,
          -0.009501229971508637,
          0.011312301313616253,
          -0.005211714910106428,
          0.0010944795382504067,
          0.008411392208870432,
          -0.006033155986903516,
          0.00035482167404691524,
          0.005320386673190373,
          0.01447588299932801,
          0.0015162179691600348,
          -0.00990978982189041,
          -0.017505884930522533,
          -0.016455587057104936,
          -0.002401820217434163,
          0.013979345933820464,
          0.0012224432972240402,
          0.003217139356644584,
          0.006900221121985256,
          0.0019388880263002941,
          0.0018613921701238745,
          -0.013384840808383638,
          -0.004406334871162235,
          0.015654516871107086,
          0.01576569717963759,
          0.015863821774761054,
          0.008234599779901585,
          0.012820599081531174,
          -0.000997191327628548,
          -0.0068607731145349385,
          -0.0009656154551638432,
          0.009219348282263189,
          0.010537973741389388,
          0.004942805110904462,
          0.008951749873365378,
          0.013653055362952587,
          -0.005341447975109552,
          0.011589829003028067,
          0.01216493440855461,
          -0.012514315405181076,
          -0.00409621301885284,
          -0.01675975845368475,
          0.003517674809036491,
          0.0031306800777572597,
          0.012283289282675875,
          -0.0070322272614635,
          0.0013534636291159254,
          0.008662028210631698,
          0.008857058548681645,
          -0.013816777047005194,
          0.014341474625711987,
          0.0056568856074389285,
          -0.003741002427994833,
          0.007190031587486272,
          -0.003044059396803242,
          0.007143321430226647,
          -0.010538905285646879,
          -0.021478400684238865,
          -0.00452483192384502,
          0.01165740209887892,
          -0.0028169853866243807,
          -0.004450803297403993,
          0.01996913123627661,
          -0.015367643593413534,
          -0.0004865984587135942,
          -0.002222978059751238,
          0.018047629926011558,
          0.0026218770980217096,
          0.028307947008004757,
          0.016012755092017928,
          0.013985568734866685,
          -0.00044941124110443994,
          0.006638069756695061,
          0.006418366202343278,
          -0.0029289146655309766,
          0.008721937201062324,
          -0.025216220061336083,
          -0.004456599839232488,
          0.0017786123622400907,
          0.0009161425143372175,
          0.005055566392563722,
          0.0015753203317005878,
          0.005481688911057109,
          0.00232762608340566,
          -0.010955628492723158,
          -0.009742707659913207,
          -0.004756474692525239,
          -0.0005761038251437319
        ],
        [
          0.011261477512724384,
          0.0015748379204340837,
          -0.00644515860877619,
          -0.0014055673557310806,
          0.008825033611429197,
          -0.006771103991206976,
          0.008647694451961029,
          -0.0064204431549657465,
          0.015887067380869143,
          0.006764500195466963,
          0.007342894896603992,
          0.0007988713492060511,
          -0.0033534759184888486,
          -0.003750035838116041,
          0.00386704912918755,
          -0.006836461168955234,
          -0.0069742036346399795,
          -0.017338622785246664,
          -0.015765921120546224,
          0.0025657789119918877,
          0.013350572974143677,
          -0.010646613931767532,
          -0.0024310842509776723,
          -0.004204004862200008,
          -0.005477633920886376,
          -0.004529830909345095,
          -0.0037176783777039986,
          0.025164175727441323,
          -0.001816424531332739,
          -0.01505250414869618,
          0.029523555391855718,
          0.004902398681523955,
          -0.012328352784396953,
          -0.0069908553748813254,
          -0.024774337292593422,
          0.0013320131659628207,
          0.0034442137736242994,
          -0.010160428744978285,
          -0.020966752637861158,
          -0.019295997865703997,
          -0.005887556634465199,
          -0.008915665921079063,
          0.008383142476091317,
          0.007000831530819047,
          0.0006205139682193202,
          -0.0037697807247135747,
          0.0016112878524794129,
          -0.02403730614029024,
          -0.007082842675494889,
          -0.0006938398788421449,
          0.015044715688317355,
          -0.0008284799116548844,
          -0.0145761417994757,
          0.014945257078707202,
          0.000692339019953805,
          -0.007993631169119098,
          -0.008722837342893667,
          0.001312243812228221,
          0.005487408640140626,
          -0.004417392431217017,
          -0.0005722630865440309,
          -0.004012924324891541,
          0.007980649324280194,
          0.0017059565676159568,
          -0.002195294936427516,
          -0.010073348529075338,
          0.0055030010048430075,
          -0.014430785579498919,
          -0.006880817826852116,
          -0.0020814979004414613,
          -0.01454954272280939,
          0.006515556846707855,
          -0.030256390813611277,
          -0.002493427720079166,
          -0.014807982158759943,
          -0.009833561623920998,
          0.014069248899997295,
          0.003934974931064225,
          -0.005595505624872859,
          0.0015845183093385709,
          -0.011246207469223495,
          -0.013105400599193922,
          0.011110455530653722,
          0.005763535829048158,
          -0.011593568515550037,
          0.0006687408248210992,
          -0.005234025956842545,
          -0.0016881146039343263,
          0.003226124483514106,
          0.004125233122465158,
          -0.004799014548023889,
          -0.015426560711437887,
          0.0204290908243373,
          -0.013392747606266893,
          -0.005133918635712637,
          -0.0047156811958839326,
          0.015036306122957635,
          0.0005273814794532051,
          0.00875052504818291,
          0.010934517934335175,
          0.0002453800397877063,
          0.01523422472931193,
          -0.01762921281034603,
          0.0009507869080586163,
          -0.005237274898145069,
          -0.00806563567644156,
          -0.01887633528219081,
          0.0035015795681658858,
          -0.01225618763863901,
          -0.002466839001124591,
          -0.0006646315357466278,
          -0.0011075021783166898,
          -0.008963818303124788,
          -0.004462186486765445,
          0.0018872738838590075,
          0.014538547611224847,
          -0.010631285411284275,
          0.0016338978213270832,
          0.010262141060281001,
          -0.00026267829335834724,
          0.010728043427609657,
          0.00835105422686244,
          0.008731577811665866,
          0.006568845502647286,
          -0.0010796560749614073,
          0.0074945830874666676,
          -0.008919050513350561,
          -0.00033059782614833905
        ],
        [
          -0.0187073949583529,
          0.008182737484931518,
          -0.018251826448919057,
          -0.0067113414011682375,
          0.011058248486578458,
          -0.002698008163909221,
          -0.0036261443385920762,
          -0.0047817448849728,
          0.017576679607855562,
          0.00689335650681707,
          0.0025048550701505423,
          0.00932629205693172,
          -0.01481034928213759,
          -0.010572071389114462,
          0.02106151658144871,
          -0.024727398835751077,
          -0.003020871398065148,
          0.0018660214425004096,
          -0.004358714988771017,
          0.006574462547496671,
          -0.0011558703221751247,
          -0.0015816174248939239,
          -0.008119119723731914,
          -0.0011533990864573552,
          0.017188263678410677,
          -0.00782185923954291,
          -0.008444999780907746,
          0.013217165777051162,
          -0.012036597343107016,
          -0.01160059859790084,
          -0.014212279144825035,
          -0.028145155534687615,
          -0.005693293930190122,
          0.017287095925494145,
          0.001308537968167605,
          0.009880162331942562,
          -0.0037331897969486057,
          -0.003201258263784302,
          -0.0007783174434542346,
          0.005848278354579287,
          0.0009530081724179768,
          0.02463462205163356,
          -0.015747804229459365,
          -0.0008112711538524176,
          0.003252092659241175,
          -0.004711526930493433,
          -0.004140414889309209,
          0.005150664913505925,
          0.00036580669209147407,
          -0.006897898039405397,
          -0.0032946369018642665,
          0.005544141854415707,
          -0.010471054802301498,
          -0.0068823708545627405,
          0.00943341142267717,
          0.0014201360602914496,
          -0.003645280715609921,
          -0.003924648479514823,
          -0.014872351407951567,
          -0.003644808413467795,
          -0.007736353507153482,
          -0.0034175638988464493,
          0.0032104093834444446,
          0.0005462534993314005,
          -0.023860351508640597,
          -0.004104965091833875,
          0.011708910129782642,
          0.008132562218572226,
          0.015240150444006813,
          -0.009391912218907632,
          0.0015590276549011148,
          0.013900430093473302,
          0.006538473957006891,
          -0.006250005619110638,
          -0.008995305597322588,
          0.012619656469062665,
          -0.001777841424755452,
          -0.015361299154041988,
          0.004629048487601541,
          0.0047725108787798984,
          -0.009808281357846858,
          -0.00933210842944571,
          0.0008521491417455323,
          -0.00437035728110965,
          0.008533644797892757,
          -0.00783226218919345,
          0.00207216563897183,
          0.015136126985941368,
          0.004736217060751686,
          -0.016687451469923384,
          0.001873823628322918,
          -0.005930053654140713,
          -0.0036738587586543896,
          -0.015405620946162378,
          -0.003530359635606142,
          0.0014144265906215567,
          -0.008877953723890594,
          0.0012051352241229925,
          -0.008578154214380353,
          -0.016801161820359352,
          0.003214050179116838,
          -0.007416007119252542,
          0.007912280510506015,
          -0.015495641082094622,
          0.012851424645858325,
          -0.014103982782054124,
          -0.0031234258027741818,
          -0.008937461244529217,
          0.0074090116342256564,
          0.004418062808532048,
          0.0057210747081719035,
          -0.0007247809605625305,
          -0.009150640725498092,
          0.004278144056372596,
          0.008549321458530724,
          -0.007663214611061648,
          -0.006110960282062307,
          0.0020896459927504784,
          0.002563304692408875,
          0.026011449553874556,
          0.002756260094614109,
          -0.00256970014588229,
          -0.006210961092349747,
          -0.0019939814189059817,
          -0.0002767616976111766,
          0.007256626043761987,
          0.003279091940363305,
          -0.004425406828083295
        ],
        [
          0.11953870915573854,
          0.0018215210888476961,
          0.03079436213718837,
          0.025310857566089917,
          0.06447871865263152,
          0.04669015377699329,
          -0.09214264414584988,
          0.01966365715084901,
          -0.048788055159536124,
          0.0750007850721086,
          -0.0402693419614998,
          0.08118401356127512,
          -0.033449105764419035,
          -0.009338548454640784,
          0.011473298489375488,
          -0.02424658827156515,
          0.03080551523827628,
          -0.015625854121858282,
          0.016587329318152252,
          0.0736990781349074,
          -0.009074695216460399,
          0.017145673711598034,
          0.05673415339310903,
          0.01585053983481401,
          -0.021060438451886654,
          0.013674401024477709,
          -0.025146827154535898,
          0.015792216763904608,
          -0.004609952749995403,
          -0.08595012555974556,
          -0.02046702316225801,
          0.07809790071906098,
          0.026872329218365458,
          0.13902759511498097,
          0.0705404695869258,
          0.029766022626526566,
          -0.055480076971311625,
          0.011742598658309693,
          -0.023933037607662067,
          0.01814665050735329,
          0.010226925176150916,
          0.07548303303969861,
          -0.04028104617676996,
          0.013037317680934657,
          0.07626337797262642,
          -0.018470287569090006,
          0.10441928436579902,
          -0.02697506486675012,
          -0.020513734471206916,
          0.04721783271941634,
          0.051528443806891734,
          -0.010235759474812867,
          -0.013961300881491634,
          0.029822371430340874,
          -0.021691016841730023,
          0.07434827779708106,
          0.07236573349815391,
          0.009319444452609507,
          0.04454585927673752,
          -0.027306088471058525,
          0.05469941309366702,
          -0.0083302058213105,
          0.02297321178084181,
          -0.08192948267987579,
          -0.01341011042302271,
          -0.05633275279382966,
          0.0038608954346866795,
          0.05218691210540332,
          -0.10552170981342396,
          0.05758552624333971,
          0.04018960644973549,
          -0.004340546820203309,
          0.03289378563832554,
          0.06038419858114054,
          -0.015942022503596116,
          0.03098355822943833,
          -0.00024749574604269147,
          0.03379048450377634,
          -0.0056840788175007775,
          -0.01584894648740509,
          0.08578586004696398,
          0.08258058696858712,
          -0.00976992632253039,
          0.01769436157484931,
          -0.04182487529211345,
          0.029300088856642186,
          0.05198725274508009,
          0.02380431517574139,
          -0.01149795210673648,
          0.01611439116703198,
          -0.09103602567420468,
          0.08946499219252006,
          -0.018039359409312387,
          0.05980577389975593,
          0.04404930457329254,
          0.08365488552607694,
          -0.09302131695126013,
          -0.0006542816436476768,
          0.08639171222512324,
          0.026629130475371476,
          0.0647962782740503,
          0.06799652102099576,
          -0.026961068707682015,
          -0.007458662444446426,
          0.009054618743932553,
          0.07801160835884213,
          0.03155151379510859,
          -0.10424998470825601,
          0.06388235554962479,
          0.04515922724202608,
          0.012680116267514141,
          0.06036968419998327,
          -0.02309381123256273,
          -0.003124856819704129,
          -0.03018364327892649,
          0.037077949925836864,
          0.10650658841860489,
          0.06872659105163774,
          -0.056877187645383846,
          0.07087339654674955,
          0.0291206361809956,
          -0.013371150089977754,
          -0.1134445848631617,
          -0.051073922419463055,
          0.07474198871396844,
          0.07022255203244865,
          0.0036980962362312643,
          0.12423462775105559
        ],
        [
          0.13230284458533953,
          0.00987884408001446,
          0.015893309556912826,
          0.029865592305880102,
          0.022821965335681538,
          0.0705754139234594,
          -0.10717044043990712,
          0.024080031857228984,
          -0.030310455420531516,
          0.12328832354918898,
          0.010567753079607913,
          0.11915499836374861,
          -0.011386494232945995,
          -0.023738172691015618,
          0.017175941151000806,
          -0.003472245908174137,
          0.05202421557045362,
          -0.010860833411722752,
          -0.010273162131136524,
          0.07002935476311058,
          -0.001405334709557591,
          0.00870639184057314,
          0.07268920226338316,
          0.03440499113974253,
          -0.0062711984378338295,
          -0.02578342023477216,
          0.00786090808660915,
          -0.0366907299964366,
          -0.013828583213175483,
          -0.08831947442732978,
          -0.02771838659465663,
          0.07203276759303492,
          -0.009882352455765313,
          0.16649034679513863,
          0.12478080802254717,
          0.03230593663848234,
          -0.03889057172948797,
          0.0050150738282697055,
          -0.03671116741705604,
          0.006586748659458454,
          -0.0014505249088695143,
          0.07284571687241953,
          -0.09660980994690173,
          -0.0033680610249750367,
          0.1325433203533211,
          -0.0223069567426429,
          0.11885798440126939,
          -0.044417810881979936,
          -0.027064491880203254,
          0.06831759060070013,
          0.06184997487869792,
          0.05284255327256506,
          -0.007123643181533409,
          0.027707874848517288,
          -0.014406304819547007,
          0.05515896407408578,
          0.07473826780220308,
          -0.004015585680309523,
          0.03939174787350986,
          -0.0430783074205597,
          0.02969133503396899,
          0.007469215819282419,
          0.022979435364013978,
          -0.09079760602136457,
          -0.019063884656109167,
          -0.05051135303834145,
          0.02048918207070953,
          0.038587679553935855,
          -0.10746655244154518,
          0.035375557405013885,
          0.01670935823438552,
          0.0001228125741737482,
          0.06381918352035672,
          0.06984973312987224,
          0.009947516741523377,
          0.03413476527896727,
          -0.009189192823545096,
          0.03216335587269701,
          0.03930781080608064,
          -0.037801821246012515,
          0.13558493285541218,
          0.0806929037303862,
          0.0335859981696748,
          -0.006897639853531582,
          -0.04823683119444624,
          0.06996198573823485,
          0.02199556722481475,
          -0.0003799707602578798,
          -0.017178160602610352,
          0.03222585086593023,
          -0.11587100978344442,
          0.08589546500181745,
          -0.029740940640508716,
          0.05066593757772351,
          0.030980662311879282,
          0.09044897480650113,
          -0.03307911757095213,
          -0.030724403758800756,
          0.01943783811268103,
          0.024940834495484177,
          0.05865006021063459,
          0.0904460062369408,
          -0.019342755803291742,
          -0.03545444370903328,
          0.010517546029830762,
          0.10336446164377092,
          0.06448924091424078,
          -0.08231487493806104,
          0.050691061366421285,
          0.08930078473072511,
          -0.0012990015737736349,
          0.06439528588057136,
          -0.004094396814812,
          0.007522733649855736,
          -0.034311337449778906,
          0.013933116222965941,
          0.11753692234363436,
          0.05137455350091681,
          -0.030259487806158447,
          0.08632342930510577,
          0.05984274944028152,
          0.00275090564790768,
          -0.11298687557541134,
          -0.04706731616591528,
          0.05992898868520262,
          0.04222516252778437,
          -0.013305352022442749,
          0.12933950475370695
        ],
        [
          -0.019196805295241197,
          0.05219702494737556,
          -0.016559347951258258,
          0.025631516310987607,
          -0.1321935734377243,
          0.06321261369265042,
          -0.14440788507266092,
          0.015322381573091638,
          0.018556133231268798,
          0.11517529559925857,
          0.14069626185051126,
          0.04378621632336709,
          -0.011979342085270562,
          0.030489296272814295,
          -0.0014628910111549698,
          0.019547415781848366,
          -0.041253192571830036,
          -0.004728208860027456,
          -0.009150566151067505,
          0.10605577132440965,
          -0.029725431066593113,
          0.0039009463992287076,
          0.12721499903117464,
          0.028325030484370513,
          -0.010639732375650331,
          0.011747514002430048,
          0.04790494747937807,
          -0.11342745271678756,
          -0.00036224176302317954,
          -0.1409789174679796,
          -0.0031592029258909957,
          -0.0014613199020393184,
          -0.13610325423768066,
          0.1508558579240822,
          0.1368518280919959,
          0.043437935499910665,
          0.08131506024677818,
          -0.03055176139202754,
          0.0029204099576268542,
          0.012455938589234668,
          -0.01563975184121632,
          -0.05077549865322969,
          -0.1058095169477327,
          0.002963854524728536,
          0.17067280483925207,
          0.009878552505497112,
          0.1486262814933623,
          0.018024201077575165,
          -0.140513210843371,
          0.1418230651164375,
          -0.02920767885980249,
          0.12449089891211991,
          -0.00969133261741692,
          0.10051719750574775,
          0.007119369821440759,
          0.007567839508990908,
          -0.007698954769118824,
          -0.004101409139557418,
          0.023928613213498148,
          0.005595042305331828,
          -0.040601039540870076,
          -0.0024749467608958004,
          -0.05900157308617986,
          0.08444429144999105,
          0.004178756190509787,
          -0.026626931940963088,
          0.019863631845501932,
          0.05479437049920208,
          0.015641714568903748,
          -0.11474052482326626,
          -0.10248745832940444,
          0.004025413434001568,
          0.12510075734493484,
          -0.0425847385378309,
          0.011123682976551209,
          0.1248732557482015,
          -0.005528862553399312,
          -0.0022411194892213242,
          0.1487463850640792,
          -0.02123923398848508,
          0.12246167496138714,
          0.010055684035009152,
          0.09643286858753296,
          -0.00016139918802266426,
          -0.0067175158417475565,
          0.0604318190615156,
          -0.02305872341673847,
          0.0215644818713688,
          -0.014882678340335615,
          0.013061448618974245,
          -0.1467136722598876,
          0.0012313199876396006,
          -0.046393176122346,
          -0.10295226724647881,
          -0.1175309678979201,
          0.0615993347728089,
          0.1607482230791701,
          -0.13353991501671958,
          -0.1275001621761984,
          0.0401938420423241,
          -0.0885627131300212,
          0.04114125728392921,
          0.0338327884959058,
          -0.12430824415023918,
          0.008269681683285172,
          0.1225454784280174,
          0.05598112186787573,
          0.06398569206840674,
          -0.002525709475001942,
          0.08431222684642593,
          -0.004291598326596703,
          -0.01803196693768621,
          0.0018946128622761723,
          0.0516423818500331,
          -0.031203993755620184,
          -0.11408565465833129,
          0.016782675456563062,
          -0.1493284359415132,
          0.13264992737225126,
          0.009808798464053026,
          0.15405967791163153,
          0.04830413362112288,
          -0.05895102443181854,
          -0.02637635293755394,
          -0.08390081699313019,
          -0.014032877887959034,
          0.004878335490089263,
          0.019753062601990043
        ],
        [
          0.005582519731422291,
          0.031672801914554675,
          -0.01690207524909847,
          0.02749862218203314,
          -0.0833989166376116,
          0.053718127406453646,
          -0.04383046720582196,
          0.011508016635744361,
          0.03933013265206148,
          0.05503641916770009,
          0.061856677955507394,
          0.032822010000212495,
          0.009087599928274624,
          0.009409243140392392,
          -0.011629302076312062,
          0.0019318636780518198,
          -0.0424317069421111,
          -0.0011199423745716925,
          0.011947032190712897,
          0.024183091179680316,
          -0.02586915882121592,
          -0.0025689062050375713,
          0.055015753748329725,
          0.0005350654375788922,
          0.01195467216047747,
          0.001203160864260528,
          0.04487450958426819,
          -0.009290999897088105,
          0.0070536012746000975,
          -0.020356011459213154,
          0.0027321004387125315,
          -0.009125933689450073,
          -0.04024412425501862,
          0.0775780822232871,
          0.06496918941417165,
          0.01121822998453895,
          0.035564525533062774,
          -0.014782696477658664,
          0.028918484330504736,
          0.005777930459764412,
          -0.006010076629783774,
          -0.027699512354808272,
          -0.03655575780522017,
          0.011620020572641599,
          0.061841010909546745,
          0.017573931649363873,
          0.08517921528875635,
          0.0005649503612343291,
          -0.0660556288427385,
          0.09077725311341873,
          -0.037999710828542185,
          0.0999966806419337,
          -0.0009413823763395142,
          0.03519292524276294,
          0.003662528903985951,
          -0.020534331530934386,
          -0.014424441647672892,
          -0.012572893855433438,
          0.014450599440483937,
          0.018968834427394835,
          -0.030479265660538192,
          -0.008776473103619897,
          -0.03872378723057733,
          0.05127715823074036,
          -0.0009554149743870091,
          0.025386304826768114,
          0.012512905316374572,
          -0.0019245953620791812,
          0.009021743507235365,
          -0.08258000809008645,
          -0.06484973438842273,
          -0.006458963242876072,
          0.07308633650254988,
          -0.015255854683478065,
          -0.007035133714035091,
          0.0515087585712378,
          -0.015249613338920337,
          0.011337200097040229,
          0.08939857258936372,
          -0.003982746060759907,
          0.08348650782814705,
          0.010856280301993053,
          0.07319832662211405,
          0.003985542071614514,
          0.01586524764006105,
          0.016297328059781093,
          -0.0063658398260522855,
          0.023216248609312325,
          -0.0075560695805499895,
          0.013098139552065723,
          -0.09817231179532465,
          -0.015935494055640542,
          -0.019604548299096747,
          -0.06916991184027468,
          -0.05705631087407385,
          0.01239781532385777,
          0.09852901793361957,
          -0.04037199796228889,
          -0.045260153430064606,
          0.03320277308816564,
          -0.03582737611847131,
          0.03481531048646395,
          0.0328453135909772,
          -0.04736287198423002,
          0.015433608722236385,
          0.06907859822386425,
          0.044760625781517065,
          0.05036548399597773,
          6.691810346623635e-05,
          0.03020047354943515,
          -0.0010134493816661091,
          -0.02824440452310691,
          -0.0004030852823051815,
          0.02930789408602601,
          0.00400776372874406,
          -0.05529362341491597,
          0.019003800054695125,
          -0.07876062107671163,
          0.05365946022610618,
          -0.0015841865548906046,
          0.08895945403968217,
          0.018365726040494818,
          -0.02193329631975228,
          -0.0019001697192357133,
          -0.04451948357416607,
          -0.012403694834907249,
          0.0031029107823443945,
          0.007795360686277323
        ],
        [
          0.009367123817891001,
          -0.004497422434600129,
          0.017518262314385077,
          0.01786646325903722,
          0.003877280815657266,
          -0.0069856963441734645,
          0.0012380782967544987,
          0.025771134424413394,
          0.010514024792747155,
          -0.01593282194272169,
          -0.0014436580927199003,
          -0.02416483972221772,
          -0.008167778842516403,
          0.01830236812906541,
          -0.005863458695160126,
          0.00012265944029619223,
          0.02124867675946502,
          -0.006541807964114925,
          0.009939409052153786,
          0.006595345487095904,
          -0.0102318430226376,
          -0.0010203367815352494,
          0.002799757380691639,
          0.015461498835317158,
          -0.00058695962977588,
          0.0032193130871103737,
          -0.0002807385800375235,
          0.01797363110163083,
          0.005784306388206213,
          0.008678812547860966,
          0.011113559708729634,
          -0.005143178086421585,
          -0.012824261703967567,
          -0.020191840116679387,
          -0.0035914001719838198,
          -0.0006209232211828298,
          -0.0036636436045704547,
          0.006321063025756579,
          0.0003429278766948507,
          -0.0014124614663263118,
          -0.0035888650194206657,
          -0.013992889083713596,
          -0.001997203288917476,
          0.0066440292255698745,
          0.008252992955296573,
          0.0006210476679570937,
          0.011965791876383825,
          -0.005336138391135819,
          0.013205197066471767,
          -0.014739889764285067,
          0.011062173922671559,
          0.012901441512823195,
          -0.01987910670425151,
          -0.004041725362692108,
          0.007257080878000214,
          -0.0038114688295135075,
          -0.02035403939637321,
          -0.013020527858218113,
          0.00938540043657427,
          -0.0011424990866968122,
          0.006518484578924831,
          -0.014929206535641098,
          -0.017183945820512952,
          0.016426613225888526,
          0.030130322751252454,
          -0.010735622559086196,
          0.00640011714101134,
          -0.009047788901050824,
          -0.01829280401189109,
          0.004739356854959727,
          -0.0019272313846746645,
          0.013018606730245314,
          0.002608436608096194,
          -0.011989412199480673,
          -0.017030637195013444,
          -0.00022491203801333734,
          -0.014304693112582487,
          -0.0038480851497147512,
          0.013506396492548754,
          -0.0103682779285468,
          0.007157217752552494,
          -0.0031417058650909458,
          -0.0002810073204511774,
          -0.016454354553076783,
          -0.000990929840830678,
          -0.0010258226095550948,
          0.0031792116947611283,
          0.0016502638788508245,
          0.028277895179191374,
          -0.0015184912986228832,
          0.0028398859734272376,
          0.002491921506615911,
          -0.00014269790094683678,
          -0.010074767932022152,
          -0.0034725555051930462,
          0.016419918131205986,
          -0.006593306362791864,
          -0.01712645200195039,
          0.01098820325048536,
          -0.0016595180255091328,
          -0.004071364249535369,
          -0.003408600136819312,
          -0.012113895146111955,
          -0.00946720235126639,
          0.0042699535538151265,
          -0.0038197177935208626,
          -0.008078168068212847,
          -0.008999794146150772,
          -0.004059366582062277,
          -0.006354871866776206,
          -0.03622187811921297,
          0.006910768351437501,
          -0.003437982159078575,
          -0.0004703438653562255,
          -0.017304973001285515,
          0.0002358105738293321,
          0.007332623814860998,
          0.002412168478356895,
          -0.009702067029877188,
          -0.0012998590872086444,
          0.008307188815436524,
          0.005543097218589571,
          0.02298989151546942,
          -0.007753878024418688,
          0.005530593368169755,
          -0.020120581219775075,
          -0.007852074715036846,
          0.0015445435509985257
        ],
        [
          0.002568983186189544,
          6.755991174357729e-06,
          -0.01633887485648713,
          -0.027414966678850017,
          0.005081702892373042,
          0.0025027336279461565,
          -0.00864512104940734,
          -0.016666636931621577,
          0.01126668074061,
          0.0033307393426572026,
          -0.005008792799832324,
          -0.011962796262540841,
          0.002853874661241041,
          0.016463548962145927,
          -0.014265295473358109,
          0.011560873486666684,
          -0.005356392274582645,
          -0.006877842794966116,
          -0.01047106093749111,
          -0.003969468224136843,
          0.01748623123821865,
          0.019325053503613555,
          0.0065641944127173,
          0.009204141649264566,
          0.006729178612649848,
          0.00791938532012589,
          0.0073018518485734145,
          0.00029962728161300376,
          0.009703920903213809,
          -4.124160769820916e-06,
          0.000891637491984137,
          0.0048582670846553655,
          0.01161614234793141,
          -0.002962018716577106,
          -0.004512337203056118,
          0.01703651409287087,
          -0.015354073344043578,
          0.003336925533955903,
          -0.007236772330370193,
          0.0009875057539758343,
          0.00024770796393693207,
          -0.009004970344953834,
          0.004382357829022693,
          -0.007487065945220544,
          0.003960614285475345,
          0.008232438834236792,
          -0.003480447253886077,
          0.001312670012510993,
          0.018386315845850192,
          0.00871105566781122,
          -0.004868050590009113,
          0.008017570553240264,
          0.01292044004863378,
          -0.013314942242288881,
          -0.010066899213017916,
          -0.0002919040141074256,
          -0.009951874245325835,
          -0.008470253493397504,
          0.008202516891568815,
          -0.014409495315853305,
          0.013466994259809538,
          0.00828457916477455,
          -0.007918761776648657,
          -0.003637274832516517,
          0.008441444373580787,
          -0.02725689492044725,
          0.014733837225110812,
          0.004691639807589957,
          0.0019327679408814046,
          -0.005226546271188275,
          -0.0001769038376251226,
          0.011188518909621468,
          -0.013255446927331181,
          -0.015309072591911369,
          -0.008591425296648846,
          -0.007312744873099472,
          -0.008035431137376205,
          0.0013570131686872035,
          0.010628856423192938,
          0.0004327089487514475,
          0.003302213306525576,
          0.01255367420863885,
          -0.017375629510389776,
          0.006022801704888143,
          -0.001451526520789893,
          0.007493227619589447,
          -0.0019287622098065587,
          0.00029170778181070617,
          0.005878135395232329,
          -0.0007368787716153229,
          -0.0010024021216566265,
          -0.007552805670537889,
          0.003480909122019028,
          -0.002194098953044222,
          0.007495031757448828,
          -0.001315727740059524,
          -0.007718429845756059,
          0.0015771057158744503,
          -0.00401393879401926,
          0.005072106386526547,
          0.016718748613578815,
          -0.0038229144849440343,
          -0.000986527541687931,
          -0.005226059389866417,
          0.010546722960157396,
          0.006075303385668432,
          0.0013596190064002341,
          -0.011906896452804714,
          0.004010441221765554,
          0.006263762362415283,
          0.0017396131530230622,
          -0.013208033277976712,
          -0.004356801998048876,
          0.005868715129774393,
          -0.007891437647236375,
          -0.010991905336878001,
          0.0115572416069259,
          -0.003838234419799228,
          0.012826326049779836,
          0.001816281289474781,
          0.014198927024819683,
          -0.008499005232384125,
          0.00985527898201999,
          0.011553638048349333,
          -0.011236041705702448,
          -0.006164469972303807,
          -0.017434365192385833,
          -0.004856342771676894
        ],
        [
          -0.011474222113875984,
          -0.003959148463164304,
          -0.002705495207002425,
          0.0038814789464481332,
          0.008046242700447123,
          0.00537347881595745,
          -0.0006956232381890743,
          -0.009776989682478615,
          0.004630825626998691,
          0.0011389877538925263,
          0.0030817564548881187,
          0.009577542360245687,
          0.0011893894243211593,
          -0.0017306880646354081,
          0.007870412712914884,
          -0.0021442219563540445,
          0.01979133421127233,
          0.01047473097299061,
          -0.01059213916789685,
          0.0025622352784007473,
          -0.009530814300517165,
          0.00868025354589054,
          -0.0026847795854113166,
          -0.005992164427972693,
          -0.003354439291101944,
          0.010521158621051088,
          0.00011131845499647971,
          0.009177840859202986,
          0.010137624638184099,
          0.02716320033256369,
          0.0035157063482279057,
          -0.008381886722086321,
          -0.014341435834200777,
          0.0021055522934261927,
          -0.005021221443034356,
          0.021227958209841656,
          0.012894231945102632,
          0.01231126184927277,
          -0.016123364771109216,
          -0.005297305691249846,
          -0.001598744037028,
          -0.004598066634732071,
          -0.0016671434882394771,
          0.009477365361583966,
          0.0027963524909155376,
          0.003239421649575415,
          0.002968425224917853,
          -0.002466478843374243,
          -0.011952997861574718,
          0.007354976340366401,
          -0.009767516640462172,
          -0.006905729829442335,
          0.0001105563829646006,
          0.009859439730419195,
          -0.013384311974767964,
          0.012922782284216502,
          -0.012127531214297221,
          -0.004685757468424993,
          -0.008153175902997096,
          -0.0065960238905506995,
          0.006689281560476683,
          -0.020698043231234694,
          0.009159118989945134,
          -0.009658035441096932,
          0.01370163586608461,
          0.012040213043782319,
          -0.0023373969986334345,
          0.004075581272461361,
          -0.00016121378894505756,
          0.006872778569915916,
          -0.013643601075349284,
          0.014478729656622058,
          -0.004700948898475075,
          -0.005823402940886719,
          -0.001418402707953802,
          -0.006232888259751164,
          -0.002996620051086893,
          0.005874752911690649,
          -0.0032574926308627816,
          0.0120246117915486,
          0.0029393866538256377,
          -0.003338681057838193,
          -0.01268459264152283,
          -0.015368657366988187,
          -0.000941554591427458,
          0.0025824347271347007,
          -0.009257663931273618,
          0.004535224200300252,
          -0.002526899279742123,
          0.005279256198109006,
          0.01739011916935787,
          -0.006173201909729018,
          -0.0021064013474660945,
          -0.014832208056489516,
          0.018647796613894013,
          0.009764590659731766,
          0.006268916628412247,
          -0.0034536185161806606,
          0.013338600035677852,
          0.005508983211942689,
          0.006911364901899502,
          -0.0011347508161220676,
          0.0069342231994481245,
          -0.010855961750674327,
          -0.0009058233568731387,
          -0.00718210273746684,
          -0.00577319423699159,
          -0.012166386621604075,
          -0.01049123670957838,
          -0.0010962053285126195,
          0.011386321743587904,
          0.0022479709020404846,
          0.011959164636493259,
          0.003569629119491955,
          0.0016908165144403457,
          0.0009937093972933427,
          -0.01425210611105592,
          -0.008151463742372366,
          0.01859215503560409,
          -0.005570371109465332,
          0.007864114919662955,
          0.0011523773513007094,
          0.006243145346480348,
          -0.0010958357385171145,
          -0.005617909018600289,
          0.00298980865888775,
          0.011623755302523027,
          0.01488310742425582
        ],
        [
          -0.00163352663494042,
          -0.010537827799491407,
          -0.008776708091909799,
          0.003829361901919722,
          0.004230810230198446,
          0.004423288962229407,
          -0.014210795752317608,
          0.004895004888304133,
          -0.004601286257684359,
          -0.009554365298209766,
          -0.005791491818961737,
          0.011494161257559433,
          0.0015605444366928055,
          -0.00556927583898418,
          -0.0006317364734513403,
          -0.014570182933668786,
          0.006132502836661683,
          0.008654678269658335,
          -0.010181551315037554,
          -0.006569592955303711,
          0.0024782471912641367,
          -0.0032669270048413038,
          0.011330867005410314,
          0.00010746707838884424,
          0.0007622927881174415,
          -0.0004151291972295999,
          -0.010112455994241027,
          0.0020639544378590743,
          -0.011221385893011948,
          -0.0036433674488425805,
          0.005961049077534959,
          -0.012066618046566658,
          0.010980679357429515,
          0.008801867522141273,
          -0.010118967304540235,
          -0.015604754660129548,
          -0.00023327858942734963,
          -0.008726336942419375,
          0.0005592070007685912,
          -0.02216529366661976,
          0.009755630165247586,
          0.009164314670373094,
          -0.024834983746992258,
          9.790316551947322e-05,
          -0.008288107230502132,
          0.008594903832223876,
          -0.0030073696976374953,
          -0.014383435185039237,
          0.000706062094406867,
          0.0010215925205933494,
          -0.01462821441965997,
          0.006881010277311253,
          0.0038504037456132305,
          0.007295985159324501,
          -0.009745469515120696,
          0.010982174474799815,
          0.006461734527098204,
          -0.0054139635757441285,
          -0.004001306987263062,
          -0.014125392269297201,
          0.021403765342195714,
          0.010484435454412825,
          -0.020969994407791733,
          0.0006445168027169876,
          -0.0006542394623787458,
          0.013424474461808205,
          -0.01382278202867977,
          -0.015448965867082914,
          0.010690349226986758,
          0.001061109359863096,
          0.011710656417607122,
          -0.006595993073552404,
          0.008289951117187135,
          0.00876535488050424,
          -0.018300743051907306,
          -0.017659521003341803,
          -0.00977119150210951,
          -0.012082372597600827,
          0.00016372983751811372,
          0.001662100679377977,
          -0.005679313961928495,
          0.01351731173706828,
          0.006819067759213964,
          -0.0003837227882943381,
          0.017031782688237438,
          -0.007465522483078163,
          -0.0040916394855202085,
          0.0161792269366367,
          -0.011618992851982845,
          0.006189165160262967,
          0.010677832927003918,
          0.006141994585767141,
          -0.0016586838469016675,
          0.0024230433839251254,
          0.005354204426561972,
          -0.004267761114621639,
          0.006866645279261288,
          0.006181098938318308,
          0.0026395854158761272,
          -0.010473042498793352,
          0.006756357269295184,
          0.015754747732318275,
          -0.004288191761224933,
          0.00644430902789054,
          0.009238774647399625,
          0.011137671885402219,
          -0.007508961445475283,
          0.008829319220369542,
          0.010120065666339266,
          0.007818337345060017,
          0.013092560743721478,
          0.017548840732923832,
          -0.0029705703376315916,
          0.005143940814170531,
          -0.017168571950072545,
          0.005097901560319968,
          0.00438742477262812,
          0.013906204808053817,
          -0.005909192570652733,
          -0.008777718017260714,
          -0.0011462087889395707,
          0.011520395229283845,
          0.009846752463401777,
          -0.002573357585503299,
          0.007603336642651621,
          0.005845709580443508,
          -0.009130352693696145,
          -0.02225262593041654
        ],
        [
          0.0023179162024909543,
          0.00048197105000168247,
          -0.0004462918810422866,
          0.0032516980558118997,
          -0.016635634150514285,
          -0.010445630946044322,
          -0.006896124892452481,
          -0.015128334144101219,
          0.0029756827270783,
          -0.0026397523746059647,
          -0.010241891300922757,
          0.01178391013416123,
          -0.020871905186983217,
          0.0063964214717746,
          0.00011585883140717507,
          -0.008162425051942175,
          0.019163465810528024,
          0.0032847035819709514,
          0.008416333980201097,
          0.011879779274269857,
          -0.017128948707057466,
          -0.006867574252798856,
          0.008643732250889373,
          0.002888772687612904,
          0.002578247825974278,
          -0.01756122807359668,
          -0.006617862102932113,
          -0.003431735576709848,
          -0.002964303877636949,
          -0.0012372823882468849,
          0.013702375662386777,
          0.003043553211407598,
          0.0032392955936746924,
          -0.02041792066087021,
          0.0014380149610905702,
          0.005222624814072069,
          0.016147538760590212,
          0.0005397902147877372,
          -0.012573146722355183,
          0.005577539337120014,
          -0.019428264947330038,
          -0.012116177962161379,
          -0.016301092215958487,
          0.0126795074083811,
          0.001647262301565832,
          -0.016764818522805005,
          0.013309132869543945,
          0.016365688256243124,
          0.01282503703722572,
          -0.000606933615968414,
          0.003998577937231383,
          0.0016850110766135065,
          -0.0024097732712518804,
          -0.013929472921951954,
          -0.0014315474194811024,
          -0.01974208773776736,
          0.011736761042850817,
          0.0063389694773657605,
          0.00736788608314246,
          0.017073995721791916,
          -0.01535182182057675,
          -0.0008276465330779725,
          -0.003771406875128045,
          -0.0008022758588854468,
          0.008755301840366768,
          0.001831321227955204,
          -0.010150534756390333,
          -0.01607137518861167,
          0.004907068214681403,
          -0.018828336500933546,
          0.008079646278142331,
          -0.0034080481350042546,
          -0.009039766296666637,
          -0.0013353638871685114,
          -0.004623388244189716,
          0.00986025992593875,
          -0.009432769237013557,
          -0.003679654245391638,
          -0.010396333944845295,
          0.00999710287758657,
          -0.002583698588299718,
          -0.002759152545018838,
          0.010012197234887459,
          0.005952201297125152,
          0.01902260118246076,
          -0.011932487222619356,
          -0.0012858445273297714,
          0.010995791656478508,
          -2.295961044894381e-06,
          0.0032218343110876606,
          -0.00010774328737054276,
          -0.0082605538613081,
          0.007021807448434333,
          0.008957329239428538,
          -0.0178852755324293,
          0.002749573121259012,
          0.01621449066169673,
          -0.004368291452639183,
          0.0008140694066424872,
          0.008167783229599837,
          0.014189688485826489,
          0.0012227826194446407,
          0.012037757253921,
          0.004940350103408319,
          -0.010028186274607281,
          0.008157362903249924,
          -0.010177574147352424,
          -0.0101626907548149,
          0.008113549309617971,
          0.01117411157997926,
          0.015046010637343739,
          0.001357655331364662,
          0.010662430592962817,
          0.006683209566743528,
          -5.827809619749455e-05,
          -0.013410648891715518,
          0.00795928733142312,
          -0.005216415326106157,
          -0.004555863001845002,
          -0.0014935396294952742,
          0.00011825689964130049,
          -0.009151773063825305,
          0.0029739802360110664,
          -0.0075479345621816876,
          0.000616414781742832,
          -0.008711616955406516,
          0.0029245001440037464,
          0.015060072860530183
        ],
        [
          0.0025092753696232513,
          -0.00316181392901859,
          -0.010328099035776776,
          0.01021688616570724,
          -0.004065139936320261,
          0.001843231670331791,
          0.011154445220862737,
          0.0028742172793850213,
          -0.0024809259460017883,
          0.024000526664072416,
          0.018839602953677655,
          0.006453486151856603,
          0.021747935064588667,
          -0.021224309518416192,
          -0.009440118487806452,
          0.013147164845998665,
          -0.0037032836199443,
          0.006000529770637135,
          -0.011808399130913846,
          0.020309420433358795,
          -0.005997238717664757,
          0.0012917806570058004,
          -0.00898488419756,
          0.007623797895520362,
          0.0012875182835556124,
          0.012841495623778919,
          -0.006184367656648764,
          -0.01387713642290645,
          -0.004637645269237024,
          0.004006982859361954,
          -0.005091555125684441,
          0.0013590168463564953,
          -0.0063992413768588306,
          0.00321269583022755,
          -0.009415078797886906,
          -0.014855840820808135,
          -0.02433213286820546,
          -0.012955960568999423,
          -0.007847194147276759,
          0.009581448724039139,
          0.0014134236174653608,
          0.012692139668398786,
          -0.007391179055076237,
          -0.00827820665127181,
          -0.009971102206211562,
          -0.0007836842585344358,
          -0.0048326058557110795,
          0.005304565845701413,
          0.0030272663484918554,
          -0.002412846479056827,
          -0.014968938299045637,
          0.0061881822284623475,
          -0.009169439758789219,
          -0.011084057474966751,
          -0.008350954486241256,
          -0.007612810480905768,
          -0.019463206943339403,
          -0.0024423052879734434,
          -0.008623825300279622,
          -0.013298754427472886,
          0.00043825169857285556,
          0.0017587725677245742,
          -0.011663187964380943,
          0.010648522688517664,
          -0.006015796670243076,
          0.002759765382673774,
          -0.009757504936257863,
          -0.01118097194926692,
          0.008382731950433491,
          -0.00528338657122302,
          0.0019602097223666124,
          -0.021306559649174713,
          -0.023728389630505324,
          -0.001267630856463198,
          -0.007601504475872405,
          0.00460481191592831,
          -0.02066849226371254,
          0.008642312030941925,
          -0.0032454060313661433,
          -0.012795545298129506,
          0.010099462746200206,
          -0.001707074845012994,
          -0.0015294796811158706,
          -0.023027295246546245,
          -0.008744010552774566,
          0.0012378462190325654,
          0.0038425646752354658,
          -0.001568201112101888,
          0.003592139945446794,
          0.007685539764742822,
          -0.0009694622651230201,
          -0.008583177352528233,
          0.007074255960724891,
          0.0050574171647234205,
          0.0008574451453611519,
          -0.01195870411621473,
          0.020373471311223572,
          0.01137070841163159,
          -0.014255632208105409,
          0.003570860564633055,
          0.004549871929689961,
          -0.006655602900646258,
          -0.0075232006024761764,
          -0.012464189614625667,
          -0.0011354687698772988,
          -0.003498023223056346,
          0.0060103826181316464,
          0.00971889918835434,
          0.010841029979019961,
          -0.0010458673741340918,
          0.0017133872774539377,
          0.009929063448189246,
          -0.001961258101608539,
          0.0016329492833409755,
          0.016011167974853312,
          -0.004588464361280946,
          -0.006773865682120942,
          0.0159316531801087,
          0.013281426129011443,
          -0.0032286446077802546,
          -0.006569566522076437,
          0.0132630609383454,
          -0.0012199802918727264,
          -0.0008330689243717823,
          -0.001627364735292155,
          0.00017339404173110287,
          0.016006542905180526,
          0.01527040707279867
        ],
        [
          -0.004325727850849796,
          -0.0027628874063404473,
          0.0036711630749596677,
          0.014890085436769156,
          0.0014210483569139971,
          0.018167521132516965,
          0.0074063577430540685,
          -0.0059797958406931,
          0.030800016695900823,
          0.011788699361657629,
          -2.0440556180818754e-05,
          -0.004747130645933599,
          -0.016183858331830222,
          -0.0005680561973990497,
          0.0030302433348343193,
          0.00799343900214639,
          -0.011440763228925392,
          0.008644300906305465,
          -0.0011752760402940464,
          -0.004305118185971905,
          -0.012197775367386601,
          0.028385163552704963,
          -0.0003563852116026007,
          0.02265805601847825,
          0.000946283420283376,
          -0.0003620887874940007,
          0.006993820163178269,
          -0.005983871030374052,
          0.0031976637021883343,
          -0.02370634235412933,
          0.004220552248923231,
          -0.0053771885619216435,
          -0.006335662031231365,
          -0.0038132640876805016,
          0.009473153513000673,
          -0.002315448371830625,
          0.008206842357341634,
          -0.006769846637308208,
          0.009541368209222276,
          -0.00012163994235129856,
          0.0024114040563011276,
          0.002412335401052328,
          0.00511875674636525,
          0.01062692336773486,
          0.0046864949794516615,
          -0.0011262081738857726,
          0.005149044200907175,
          0.016349606063889043,
          0.0043081403016740506,
          0.009427528476024552,
          0.008781682837728507,
          0.010542740264064139,
          -0.0038485006685687823,
          -0.011653955120956818,
          0.0008354340054233889,
          -0.003877323844231957,
          -0.014129013170338201,
          0.007700630721834655,
          0.014424152451461765,
          0.02421122617252864,
          -0.005423376925423011,
          -0.003657942096584066,
          -0.003753020100925418,
          0.0030138613058591714,
          -0.014543996525172723,
          -0.004436410495874148,
          -0.0011326764967247072,
          0.012782642191208442,
          -0.0024804146162715848,
          -0.014632424972747991,
          0.006120411384356528,
          -0.006900505516592247,
          0.002487984194152323,
          -0.003256712401365459,
          -0.017348426142106892,
          0.0017508248530681261,
          0.016130987243016603,
          -0.010535935245452504,
          -0.016110055798927405,
          -0.015153284865526374,
          0.005129251377383749,
          0.01685562986453661,
          0.02594945855296109,
          -0.0031782009945015262,
          0.007238882889336631,
          0.002139152370948821,
          -0.0022660487269440762,
          -0.007411690176412973,
          -0.010291207222219803,
          0.003965124514287362,
          0.004987512953261062,
          0.013410912683139353,
          0.007909604725548025,
          -0.007594409336207419,
          0.00815613593482543,
          0.008824545243601064,
          0.0005736086845131798,
          0.001847676713962658,
          -0.0019221434160602827,
          0.009342061426228659,
          0.011321817168802832,
          -0.010486258315450614,
          -0.002646308830198364,
          -0.016722758887603023,
          0.0015166547791878322,
          0.011590842565075159,
          -0.006709508929169443,
          0.0006324994830812028,
          -0.011088598170433894,
          0.0018159063730531402,
          0.005970106940047027,
          0.00030874526620599667,
          -0.009062225639924142,
          -0.0025426809831018116,
          0.005862314630050155,
          -0.0037913798260953025,
          0.00936466197600983,
          0.010275996713719527,
          0.008028493929655314,
          -0.006173732406465231,
          0.0035750774356309266,
          0.007092276745288414,
          0.005409335487739155,
          0.0029726785747638384,
          0.0022940180064430723,
          -0.009932677466525177,
          -0.006133306532877716,
          0.004877079394884831
        ],
        [
          0.0025418233443598175,
          0.000790777893524317,
          -0.017692438735686346,
          0.008128769322544117,
          0.003586866814250236,
          -0.013435985013579527,
          -0.0007785139417294073,
          0.006813018874588616,
          0.026817426215239457,
          -0.004066201382180069,
          -0.0030772937660099916,
          0.011885798232214195,
          -0.0028382524045792467,
          0.004798197769249557,
          -0.0015291716808484256,
          -0.004911551988634893,
          0.006404049165023097,
          -0.005100571023673871,
          -0.005644245756199562,
          -0.0028505887364315024,
          -0.0013497811665400489,
          -0.015426343740949318,
          -0.012610936943693566,
          -0.002111207838141369,
          0.016966216835658854,
          -0.024729462694425355,
          0.008050498466112485,
          0.0037008726870128034,
          0.003231235982812964,
          -0.0036085147486246676,
          -0.004214369177433126,
          -0.011408360024472621,
          0.005974629826870454,
          -0.00011166208201910286,
          0.006848443733494103,
          0.013770033373623133,
          0.010890396177567355,
          0.004399017029916236,
          -0.0032621874814659562,
          -0.01273159321052886,
          0.013210008619293048,
          -0.007597464190994651,
          0.0025627517799396795,
          0.01129314890674623,
          0.005339255672799257,
          0.0034185277989474618,
          0.005482181792226857,
          0.02496719525940389,
          0.010496289553525369,
          0.006957989134620144,
          0.0027581636705982676,
          -0.0035214545005510128,
          -0.0033158894455069267,
          0.0022087228687034033,
          -0.004842942220886784,
          -0.0064675048850595055,
          -0.0056619459667797516,
          0.016730229348251743,
          -0.017624609077966435,
          -0.006849741366679318,
          0.005296807245439445,
          -0.01851526662089617,
          0.006581557125748131,
          -0.0021196131306422204,
          0.009809143008155517,
          -0.008161262707670711,
          -0.007220579109925233,
          -0.0017612248291104353,
          -0.015301776975813721,
          0.002087076419728362,
          -0.004212649524350376,
          -0.0007177393535639948,
          -0.009728814796687343,
          -0.006478688492046346,
          -0.0007446488674796446,
          0.010917089325146276,
          -0.014091577851669925,
          0.005685706148609295,
          -0.014353723438937163,
          -0.003790666794016646,
          -0.0060441118465930045,
          0.00891313813357805,
          0.004792899735153854,
          -0.0014350952144362378,
          -0.009906610892201415,
          0.0038294166796941464,
          0.0002587503877870589,
          0.0014496192704848145,
          -0.014855392657653866,
          -0.013417033990803134,
          -0.005766162280544708,
          -0.014417404887141626,
          -0.005167532776999772,
          -0.0020537947345712674,
          0.003797173979230292,
          0.007740412016915458,
          0.002961217568766228,
          -0.00415382979205345,
          -0.003719681540740496,
          0.016703575671809603,
          0.015104924029235025,
          0.004892036565434898,
          0.005002141254864338,
          -0.0016983105625526498,
          -0.00039946511087768144,
          0.005443582297144274,
          0.005613024058206544,
          -0.006761658469121973,
          -0.0024412498621790013,
          0.0009197100823070229,
          0.006846350915369705,
          0.008740612126961098,
          0.00522458782427255,
          0.0036646229142050933,
