{
  "input_shape": [
    28,
    28,
    1
  ],
  "preprocess": {
    "scale": 255.0
  },
  "layers": [
    {
      "units": 128,
      "activation": "relu",
      "W": [
        [
          0.06411473920513672,
          0.0005748808316319107,
          0.049570110630132176,
          -0.023254699094348703,
          0.005399531601873044,
          -0.03582444120777075,
          -0.019220410630776345,
          -0.05492702140470992,
          0.027125978824497566,
          -0.019509633828503906,
          0.0454629716431221,
          -0.002980404235400128,
          0.10752216176818603,
          0.016792615524944654,
          -0.07197475019445584,
          0.006677708013876921,
          0.05350363305311794,
          0.02616614047486428,
          0.007598114127988473,
          0.006628713980552541,
          0.0030261085217241856,
          -0.01763688720833323,
          -0.09655235964670655,
          -0.022535502418847317,
          -0.09866269930363498,
          0.09975170960045306,
          -0.030426839865157394,
          -0.02472528062651045,
          -0.08295925320764523,
          0.035392168867414996,
          0.0988939693574079,
          -0.07903169519821047,
          -0.006657747941256451,
          -0.027002615324209576,
          -0.0999864270485596,
          -0.05411954748102263,
          -0.045999338976711136,
          -0.02677081061745699,
          0.02875974455531085,
          -0.023814658833131015,
          0.014558025228560551,
          -0.09999144132111852,
          0.016310863624822872,
          0.01817078412409983,
          0.0206072427364787,
          0.11386372525838533,
          0.0690165386640086,
          0.07693910894518774,
          -0.04826317148801997,
          0.013083722604821001,
          0.05867262396971359,
          -0.04050346507646525,
          0.05577246077043752,
          0.04339802792958812,
          -0.08564487137302379,
          -0.0135027362006691,
          0.057365817418668585,
          -0.027781545049507507,
          0.0014947213395792663,
          -0.05664963575646295,
          -0.014907578439789923,
          -0.038308104538909246,
          -0.17496024213153585,
          0.04951403373425606,
          -0.08123709100269252,
          0.0068524623037567135,
          -0.007906101603904191,
          -0.01001387932179061,
          -0.013719207853501617,
          0.024319201490165733,
          -0.01804652648839012,
          0.041354167127914114,
          -0.0036827220549700635,
          0.0002560297887057044,
          -0.023850373197865107,
          -0.01816912698030337,
          0.013304938656744888,
          0.041957917281490335,
          -0.0147498160154594,
          -0.025471522595170996,
          -0.07373615193465147,
          -0.005954211156356582,
          0.02253662594037853,
          -0.010076417705249871,
          -0.012277376906125301,
          0.08840975015288481,
          -0.030170088580847035,
          0.006689852435685847,
          -0.012583562575527897,
          -0.00919621380774335,
          -0.02831795787170925,
          0.08719795331363608,
          0.04485403184798443,
          -0.033870058541831075,
          -0.04510043228126997,
          0.015836981053105395,
          -0.013964381280127653,
          -0.021250817158770197,
          -0.11543677739830173,
          -0.010578183865308267,
          0.03508037977658308,
          -0.0658355483492397,
          -0.00808143749455365,
          0.010447234576927878,
          -0.01705164380585669,
          -0.028366611270219222,
          -0.02330606154945632,
          0.07636383025388856,
          0.02869312125806622,
          -0.00032464630805506745,
          0.04098841114081116,
          -0.054814368899096605,
          -0.042797795232706465,
          -0.054071998152938436,
          -0.09305689631658977,
          -0.03727209980698817,
          0.004680699265935872,
          0.04614093922759165,
          -0.07592039797209961,
          0.012010809328911406,
          0.04112985918022874,
          0.017252687619272098,
          -0.03767547991766239,
          -0.04216378408900354,
          -0.028370786261466992,
          -0.027389443463922632,
          -0.11590247562000565,
          0.03759394695323537
        ],
        [
          0.08103771747779379,
          0.003406343506013638,
          -0.04991739256462918,
          -0.0429863198297161,
          -0.11472043284000903,
          -0.012998476699153232,
          0.029101547411755243,
          -0.020589602896854416,
          0.014117339197082685,
          -0.060151780842443485,
          -0.0024025006955811406,
          0.009464318696563247,
          0.02173278691081567,
          0.04259674471829266,
          -0.07522559115455117,
          -0.0454505787623518,
          0.010890272996266222,
          -0.020054770406587687,
          -0.031441437461746484,
          -0.030586430862061826,
          0.004947518911401554,
          0.06172854799880548,
          -0.04070048414643419,
          -0.02379935228589157,
          0.11645309091699367,
          0.04283450117814893,
          -0.07770757195858573,
          -0.03172096716850128,
          0.017241008348493944,
          0.042502519852757784,
          -0.007567099589055802,
          -0.10628676380110787,
          0.03154019325560743,
          0.04464773038766421,
          0.054265172290396436,
          -0.05226901149854998,
          0.016804707095138694,
          -0.0030538804216640233,
          -0.0010595086010183239,
          0.031341680991666794,
          -0.04545457956120957,
          -0.09440952134199852,
          0.02491754508301454,
          0.002803698425833331,
          0.02728973292719195,
          -0.029733879155084207,
          -0.024350082498977608,
          -0.009707306322808758,
          0.05162285287851737,
          -0.023495949004733046,
          -0.058466622249086476,
          -0.07546071085281876,
          0.10012216851046075,
          0.01189744384592729,
          0.06396856345263116,
          -0.013883965403591237,
          -0.0585724360524508,
          -0.020880781857852082,
          0.07419566950211393,
          -0.056107110166507,
          0.0789909132866736,
          -0.04461638910386895,
          0.05804549792580537,
          0.0398563272894105,
          -0.012502878456798344,
          -0.01221824175306902,
          -0.009546451346302835,
          -0.088618291484436,
          -0.004132968158973733,
          -0.09331096456957937,
          -0.04873339023730543,
          0.002132168209892374,
          -0.09170465527442635,
          -0.055275639555437815,
          0.06308446583739785,
          0.12145206170108591,
          0.10212551722855767,
          -0.0501242644233723,
          0.04558746722231362,
          -0.049627170525681184,
          -0.051379734065203256,
          0.09012204698489935,
          -0.05882013896464164,
          -0.08366108690834256,
          0.07917685682931283,
          -0.044829188301164474,
          -0.051933744243743196,
          -0.03179287977158981,
          0.03366667898493588,
          -0.06210873863204363,
          0.01131816738313452,
          0.06112413655748993,
          -0.04164866470831926,
          0.06228302302119309,
          0.01854451659539629,
          -0.008454722849547349,
          -0.01508331160901344,
          0.03469516089862788,
          -0.02519688855792483,
          -0.031538167651941125,
          0.005913496268211732,
          0.015335040013713476,
          -0.007149154623287915,
          -0.007875518976567424,
          0.09123855206511478,
          0.0778242380331508,
          0.0015400694061644066,
          0.023242808945516082,
          0.020449930402858064,
          -0.017513443302893308,
          -0.06561111342099102,
          -0.05245512164723876,
          -0.0400785827757457,
          0.11342834255449236,
          -0.03744825885576073,
          -0.02562139335141016,
          -0.05917768440957486,
          -0.04244584912155239,
          0.03520892325456796,
          -0.03468238694770646,
          -0.03892331575452874,
          0.049662948713145354,
          0.012952087497260302,
          0.03956054857480684,
          0.007491689765404252,
          -0.03318869714435611,
          -0.061727873340399274,
          -0.0305537047732784
        ],
        [
          0.006959385750614672,
          0.07244007777524479,
          0.026407576274155437,
          0.049730408741023434,
          -0.03676973143122499,
          -0.033590894957320934,
          -0.08886554905436532,
          0.10062598082405606,
          0.001258078207678678,
          0.022761571902035538,
          -0.04651049695958175,
          -0.026516763832461383,
          0.029125839296619015,
          0.07404134437959428,
          -0.0022727275686426312,
          0.043920072119053175,
          -0.03233268537289699,
          -0.08330560581004055,
          0.015516013930974138,
          0.0130043779175238,
          0.05972768274820428,
          -0.023292556962897403,
          -0.02316509226997615,
          -0.001710356662211773,
          -0.06281542127891998,
          -0.03327806661968248,
          -0.029282242999974683,
          -0.042335904041129434,
          -0.02668503491871368,
          -0.05911989139112824,
          0.06703334121219554,
          0.07790282444563608,
          0.12021646087490505,
          0.08821126035830516,
          -0.06349425909427475,
          0.021439872826104104,
          -0.01913469070445522,
          -0.03988770047477851,
          -0.009296295164743743,
          -0.01952830987523901,
          -0.017164484480370893,
          0.055206392324665815,
          0.03970377483890311,
          0.027096248559143464,
          -0.017153387632262068,
          0.03463953883375823,
          -0.022814848998058197,
          0.08276966800619473,
          -0.053965402448841154,
          0.027752891520431856,
          0.039749601821776184,
          -0.0049798099468752865,
          0.018896089827904566,
          0.07136202361848877,
          -0.03695494478349651,
          -0.054861194408910956,
          -0.06246800112678954,
          -0.012089064231046578,
          0.07773685488139247,
          -0.019110051157861404,
          0.0544711258553673,
          -0.040230711151482114,
          0.001975777890995507,
          0.067159099927135,
          -0.0172736998313144,
          0.017345976799096212,
          0.06421153405455543,
          0.0162599029868612,
          0.06206590661842184,
          0.05033266349337081,
          -0.005743020360739565,
          -0.012730648943459082,
          0.060244996496345016,
          -0.032196034014961676,
          -0.03347545619221369,
          -0.046037585192230925,
          -0.11838622694923878,
          0.02674560634985467,
          0.00521915927585498,
          -0.10478013750520315,
          0.09749784242706958,
          0.002315887078973242,
          0.004729353203208729,
          -0.00598483564348774,
          -0.019447674332434533,
          -0.07433795731888998,
          0.1118328293740518,
          0.02540844976330456,
          0.012112230814530903,
          0.05588959003007357,
          -0.007689789008683999,
          -0.03239104602242243,
          -0.0311112351993027,
          -0.04898194013529106,
          0.06242462476949449,
          0.06000851062004593,
          -0.05457217474384401,
          0.06447888896663163,
          0.04054910649101573,
          -0.04708042205804374,
          -0.012329927890111033,
          -0.09324163203870525,
          0.03225778361998449,
          0.0810014449020516,
          0.0055914978307993754,
          -0.06763678996792565,
          -0.05514209749846288,
          -0.03384314884693169,
          0.10270565504788609,
          0.026021723350678164,
          -0.021070313150437302,
          -0.01673010988983208,
          0.044611630143686444,
          -0.003902360745432388,
          -0.016692819718303248,
          -0.12118974383978671,
          -0.028482821361447672,
          -0.0964816507079525,
          0.09574980201080398,
          0.0769575524739376,
          -0.06426285019719188,
          -0.0391809246996431,
          -0.10645044837734391,
          0.0075858910370722055,
          0.11349882784769318,
          0.0058079135326150845,
          -0.05935289522013804,
          0.10920793794727299
        ],
        [
          -0.004128646096284711,
          0.020164869623277275,
          0.006782849062037899,
          0.06963738598678725,
          0.024934181677021754,
          0.014750083578790069,
          0.010097338928839775,
          -0.10553514383081491,
          0.05588652396195933,
          0.05999375103240557,
          -0.07041057132123262,
          -0.04566214142587194,
          -0.0038366248952328894,
          -0.02679665194759493,
          0.04438338509448958,
          -0.07857603983886925,
          0.03728738655255073,
          0.08851360475013638,
          0.06416106367907316,
          0.03974711666075927,
          0.011714302434693413,
          -0.00437426838146303,
          -0.09654062185468547,
          -0.03057986767324037,
          -0.06550962078787578,
          0.05627730631612197,
          0.010634305935175357,
          -0.040350872606215726,
          0.07647619205215413,
          0.006684401315513156,
          0.030494263463253114,
          0.014188868083572006,
          0.06938348678011584,
          0.08230057410699106,
          0.0035218581976034316,
          0.04044898685507791,
          -0.03347209455810831,
          -0.04505156488490669,
          0.08049915601910934,
          -0.05788758627239511,
          0.05296282305935829,
          -0.11613038618853587,
          0.045813510229525095,
          -0.027948681223910823,
          -0.016320178019180228,
          -0.059606408722821955,
          -0.004554232005855814,
          -0.006791451227888533,
          -0.12354239780695438,
          -0.010714174379743552,
          -0.052844070954347094,
          0.06628047823237936,
          -0.030594057486889717,
          -0.08477238630384826,
          0.022124848409264843,
          -0.019894138551966263,
          0.06429442158203193,
          -0.017447584738343937,
          -0.05285967433863958,
          0.007954758948990621,
          -0.003067100892760382,
          0.011440758106048027,
          -0.008039365936844293,
          0.01793062767047621,
          -0.0654997256580812,
          0.0036960228118792507,
          -0.05783549633669879,
          0.0598401032604065,
          -0.07069850963066776,
          -0.03255874957091926,
          -0.022839870445508975,
          0.10279883244224301,
          0.06112695456468505,
          0.05586065134322912,
          -0.034762546421843454,
          -0.01027684385398986,
          -0.005420800846514083,
          0.07595159706469817,
          0.09996666277482234,
          0.06150532245049003,
          -0.021950062363623096,
          0.031926329533795914,
          -0.006813239553911555,
          0.005435834691998931,
          -0.043911937913752135,
          -0.03541556746064851,
          -0.01853106895520898,
          -0.08211690527168639,
          -0.03310011238532662,
          -0.035972227744904765,
          0.10052881390457981,
          0.07056283065216676,
          0.08943817023528532,
          -0.07140175794319442,
          -0.03987339280618046,
          0.008870250055762693,
          0.06809051722443336,
          0.029122454216673456,
          0.02765077113295872,
          -0.05581767395842679,
          0.04463017668867284,
          0.002502372315122691,
          0.00404554776228376,
          0.018833901048221025,
          -0.1238657499525401,
          0.017374104276789086,
          -0.03981591701737428,
          -0.023761137940168497,
          0.024426521722187886,
          -0.04810204102179769,
          -0.02055072316106898,
          -0.06158382963458273,
          0.13174982792893855,
          0.019393210497394738,
          -0.05693913831307439,
          0.07046511499788453,
          0.0007151954575524485,
          -0.01935290729254222,
          -0.044614782614316534,
          -0.10576592360694845,
          -0.035424144688475497,
          0.04627309616440363,
          0.043223541617572254,
          -0.051766482556857375,
          0.025259507852055246,
          -0.022083404237319644,
          -0.018272796195256947,
          0.028124805154328126
        ],
        [
          0.006563336776041013,
          0.09648782844372776,
          0.09094893549741641,
          0.08048222382599918,
          0.03402075203380731,
          -0.028495796815175268,
          -0.03988782845659353,
          0.02830503616764651,
          0.03573352382524812,
          0.016791079205826037,
          -0.02125457276344609,
          0.01275686929957497,
          0.04670533915792635,
          -0.0014800012565553532,
          0.033591107749766355,
          0.039937885985610676,
          0.0010263321505031744,
          -0.07729759386585167,
          0.009087159089951361,
          -0.0396939454007092,
          0.00277985494141152,
          -0.0731530764319464,
          -0.02780304951158945,
          -0.03625660171131458,
          -0.012292072430620237,
          -0.00895117251085577,
          0.044732614274528154,
          0.0009208163479367544,
          0.05911103799352618,
          0.022313254439151744,
          0.032066774408718406,
          0.06011716696477841,
          -0.09370773890314038,
          -0.10644630429328367,
          0.022264727010911072,
          0.07716468235497301,
          -0.016567437814982326,
          -0.04041061859072778,
          -0.002652060958345349,
          0.02617742790456252,
          -0.10143672335291869,
          0.010024350120129215,
          0.049436426279460904,
          0.06099896917291157,
          0.05914850018143969,
          0.023680249144072477,
          -0.0559921764682887,
          0.051140639766082754,
          0.02734827630981915,
          0.001891771924117147,
          -0.00441514196210202,
          0.07143645871142076,
          -0.047744255076226046,
          -0.073331886088103,
          -0.14630427184771805,
          -0.0986674763468516,
          0.020373170537563753,
          0.02032997916707959,
          0.012957838010480623,
          -0.006331278659954831,
          0.03793483486870442,
          0.019256227057827934,
          -0.0049467132592554384,
          -0.06958565391274459,
          -0.019929713799367327,
          -0.018245679094660478,
          0.036560089809561346,
          -0.04227826288408624,
          0.030333102134465224,
          -0.05327048053956291,
          0.01443586739772536,
          0.07104393786071657,
          0.02486224787993763,
          0.008843348807180886,
          0.0010526779042413345,
          -0.04662832972393766,
          -0.049929870748626363,
          0.046568933267973754,
          0.024044668355326183,
          0.02565642332967784,
          -0.02695542526398809,
          0.03467527927866958,
          -0.04728137858429429,
          0.06664499878649967,
          -0.04551592363008736,
          -0.018655551919617725,
          0.005119757234008252,
          -0.050569529643380455,
          -0.07840177512638764,
          -0.02761375655705185,
          -0.0153293276060972,
          0.02087921653340626,
          0.039003386452987295,
          0.005243799100988693,
          0.046957860890283795,
          -0.0052769597934659695,
          -0.04222402532096204,
          -0.01099628633706637,
          0.1216677097151157,
          -0.01854473562817039,
          -0.06152647157687221,
          0.03890840302277896,
          -0.013562129192482257,
          0.09676445962483228,
          -0.06532772842820946,
          0.0019497820726741954,
          0.0013161284287702534,
          -0.07652655155018297,
          -0.014980876880627733,
          -0.038329799126539305,
          -0.01484696757461507,
          0.014897106027743053,
          0.020908585772794263,
          0.015197857097988278,
          0.006983264628175076,
          -0.00034461076440231523,
          0.050606967511761594,
          -0.08221529857501958,
          0.02261319082472533,
          -0.009213224627697844,
          -0.039444238801940465,
          0.011740364276509938,
          -0.07958721815349175,
          0.017335180100269736,
          -0.08313921347935276,
          -0.07408054947418816,
          0.045924106693510026,
          0.005671553922407778
        ],
        [
          0.002230862956452733,
          0.059037698707021566,
          0.02710192118431744,
          -0.022828528553076936,
          -0.07503790387505699,
          0.019368626976581843,
          -0.01393191843909449,
          -0.030211854589180603,
          0.06447122944020889,
          -0.05250319741778438,
          -0.03125351448318839,
          -0.02474487514062994,
          -0.03517988805412391,
          -0.037705914663135144,
          -0.0634539583878299,
          0.04763454971768195,
          -0.08602164664204467,
          -0.024308586453125933,
          0.04374953781094391,
          -0.029817592955990697,
          0.046560572565185004,
          -0.012997492059303365,
          -0.01379661734100265,
          0.030522347944956264,
          -0.0012201426332411217,
          0.026147234083795278,
          0.08583877413944599,
          0.004048333159108141,
          0.037305172741265005,
          0.01621963518560977,
          0.048780595540060964,
          0.04642669386587602,
          -0.0995575047232865,
          -0.07696207840938873,
          0.12298621537119524,
          -0.02477078997838432,
          0.04070024786029932,
          -0.014011648638155709,
          -0.012273083931997254,
          -0.026711757683316566,
          0.02237078683425661,
          -0.04598504026405903,
          0.017394621644008366,
          -0.0033391519823546922,
          -0.04254821254908836,
          0.05151653898717879,
          -0.001063843456745358,
          0.004493025520985661,
          -0.027223201592010044,
          0.015223025856850994,
          0.004077520044695269,
          0.022026722312331264,
          -0.005823865990201942,
          -0.004680315160744473,
          -0.007214549173479688,
          0.01942446839105345,
          -0.05331016338954972,
          0.03830364820465947,
          0.04646924216959196,
          -0.001303905361516694,
          0.010761885638260978,
          -0.07324648961383368,
          0.019180158312884606,
          0.03285379055521096,
          0.0407449600259219,
          -0.08297546653019346,
          -0.022824242553360283,
          0.06008510273715806,
          -0.05873453855725982,
          -0.06423661236349792,
          0.028638341916059788,
          -0.020597354201815334,
          -0.0031487064829403034,
          -0.036960097792597645,
          -0.04936522899258647,
          0.07501154025979172,
          -0.07485492243798365,
          -0.04781729910437691,
          0.09398945266443728,
          0.0021068636850328083,
          -0.01360986356625131,
          0.043339398062233754,
          -0.04013470796114133,
          0.01014965693802938,
          0.09038983160735944,
          -0.013137852084961451,
          -0.026311931053692197,
          0.044376742180086234,
          -0.021707895810792813,
          0.021215950548801807,
          -0.05663592835187401,
          0.012012553851212637,
          -0.022493118330008072,
          -0.002176524345377764,
          -0.011325890679068402,
          -0.021777205408781593,
          -0.06867724962541348,
          0.03050858184986505,
          0.05388337873675224,
          -0.02475333654384744,
          -0.041726526806990065,
          0.03242508692823975,
          0.065797739554492,
          -0.013331722894041534,
          -0.02735257337213789,
          0.019611073906690802,
          0.09235372843630808,
          -0.03361362233565891,
          -0.05405585442329265,
          -0.07262200106377338,
          -0.04377826506509053,
          -0.05261407706977113,
          -0.051433596042390166,
          -0.02238447769033835,
          -0.0803995995133414,
          -0.09184722272931839,
          -0.020986618720394538,
          -0.03708268198088188,
          -0.018011112757145082,
          0.05980613522192939,
          0.07838239160659641,
          -0.02035979494903496,
          0.04406192407473808,
          -0.046885847335888735,
          0.006088385234962738,
          0.023021345574281794,
          0.00019422620705996825,
          0.004922421532637674
        ],
        [
          -0.029252673621214097,
          -0.03803225439650988,
          -0.04599533511876253,
          -0.04368707649181952,
          -0.05161027564435014,
          0.00463560751329395,
          0.051653891134389084,
          0.01892717713333984,
          -0.07709930393399567,
          0.01559859259393902,
          0.04578819546820917,
          0.06579787620498875,
          -0.05151337735305646,
          -0.00031149098418463314,
          0.05138640114197816,
          0.03009856091538153,
          0.04927449977321725,
          -0.005976618095339175,
          0.042961794958756905,
          0.054960332930187546,
          0.03816785399499761,
          -0.04724281402274936,
          -0.04621092454253819,
          0.10512868271819052,
          -0.031144915405365053,
          0.14952206064124704,
          0.015261697325979779,
          -0.006337144660410516,
          -0.06790199796553521,
          -0.06636531514071704,
          -0.09619556129253488,
          -0.005427078503643136,
          -0.07003488160425868,
          0.019166899745060244,
          0.03347842215352598,
          0.03356551272746316,
          0.01165533013875915,
          -0.044736241360825435,
          -0.06320004264401366,
          0.02475714082503948,
          0.01674031407618864,
          0.024379341829264992,
          0.03820421101466225,
          -0.0112076934374389,
          0.012003073175287496,
          -0.000759079907548138,
          -0.008444280323246019,
          -0.0651385754270413,
          0.03306551545442018,
          0.07595879335890933,
          -0.03662006205993007,
          -0.06444885764455661,
          -0.06372069559613429,
          0.03314270510084166,
          -0.0172644232280999,
          0.01249213808472139,
          0.04611443174573673,
          0.033339255577217244,
          -0.03247512690548575,
          0.05099582192032628,
          -0.01498687800348886,
          0.01750035864575425,
          -0.0046338639770275,
          -0.07505540135481822,
          -0.037491571363923,
          -0.12360216144710215,
          -0.035419330976062424,
          0.0340396756463638,
          0.0030542936831041475,
          -0.009948657325784115,
          -0.07441195483000039,
          -0.04081683375570308,
          0.010508376606836437,
          -0.07793042696648445,
          -0.027119383952282042,
          0.05000915128116177,
          -0.14908934638315952,
          0.03944884406370058,
          -0.04940142095768393,
          0.024130999383558237,
          -0.03422190009334328,
          0.1087001897110838,
          0.014757777467158997,
          -0.0445819489834266,
          0.018107332864759615,
          -0.01948311523343056,
          -0.030627681860652085,
          -0.01747154937658692,
          0.009156229472281192,
          0.030423729274315654,
          -0.03361098185894828,
          0.029565505999706844,
          0.005537590275332132,
          -0.03714689099546014,
          0.01977956129114524,
          0.025969211957838786,
          -0.15422394294157224,
          -0.040265715999909364,
          -0.03576263213706337,
          -0.04435992946565913,
          -0.11214193101003384,
          -0.045865109229922346,
          0.0017101890703615685,
          0.07577685730472054,
          0.10148991441889609,
          -0.037142617375681704,
          0.12234393058911965,
          -0.06490484588517156,
          -0.023116975031276268,
          -0.12414778766797359,
          -0.05439188079854676,
          -0.0012367493658778112,
          0.07732557280974295,
          0.046943308469232496,
          0.09972291296868444,
          -0.00713714984623799,
          -0.010242637811745989,
          -0.09370656292297377,
          0.015434733752054335,
          -0.02899943124749738,
          0.05853735199971957,
          0.05026502238681764,
          -0.04348460582130585,
          0.04011192734171176,
          0.08796069791759442,
          -0.027130727338867858,
          0.0018298402945087905,
          -0.016440156766772088
        ],
        [
          0.11321520870196873,
          -0.011260766437770102,
          0.05790285718845885,
          -0.026893603457726827,
          -0.04987544705405919,
          -0.07122425482503811,
          0.03701910256210899,
          0.035941582294114066,
          -0.054620744456487354,
          0.05317965148103687,
          -0.007095530752124324,
          0.07395496807476433,
          0.01689715669514632,
          -0.05330284584028764,
          -0.04927755322676455,
          0.02436698425931717,
          -0.001485306188378693,
          -0.009247181692730632,
          -0.07347788687822644,
          0.07719459329417099,
          -0.022173489884019404,
          0.057987138085418395,
          0.1000760572164326,
          -0.0867059296807401,
          0.033632094108877124,
          0.056169869571311315,
          0.11951486677281149,
          0.04751970308662034,
          0.006447075147742861,
          -0.009116953410534758,
          0.03529757461148366,
          -0.014818203058832722,
          -0.06973889877130307,
          0.045882592306347156,
          -0.013774575550979615,
          0.019245543701350037,
          0.044836163947506474,
          0.02536491702214423,
          -0.06731526866917026,
          0.00933923061410723,
          0.017978230634249984,
          0.07500031499432926,
          -0.029238020642426248,
          -0.07490341283633206,
          0.01564442310081865,
          -0.08369533230514595,
          -0.01154854055606782,
          -0.0032210206425430303,
          -0.03747413017463528,
          -0.015893928491848317,
          0.02536819834120924,
          0.013775635059188484,
          -0.0201256587418537,
          0.003193134302617544,
          -0.031001723530329546,
          -0.08182952378107969,
          0.009193096603181435,
          -0.04958204125178584,
          0.0978248216072521,
          0.03357651443589623,
          -0.06289575669910973,
          0.04878233096227245,
          -0.05039910960848447,
          -0.014490657592346778,
          0.06200148447541601,
          -0.01938166575803386,
          -0.0368357012563682,
          0.034170250553096464,
          0.017713463012775477,
          -0.008667429176335834,
          -0.007750039857818263,
          0.04026073064131989,
          -0.017868352929886394,
          -0.03267154878072086,
          -0.0328496368719206,
          0.02586730743878557,
          -0.12843011950537483,
          -0.011771251829642879,
          -0.007960846292683746,
          -0.05324922449640711,
          -0.015453535611851676,
          -0.0035233435368942517,
          0.002645398266790628,
          -0.021295847196451036,
          -0.050465563318431855,
          -0.010911270543531708,
          -0.022740225496732703,
          -0.07078765862753938,
          -0.007669392035212755,
          -0.00920110431964189,
          -0.025156841690948492,
          -0.007089869941583153,
          0.005505433457262573,
          -0.09737367212167104,
          -0.06610260340426524,
          0.00721968581635297,
          -0.02413114324863181,
          -0.006407143691456031,
          -0.015320548805653606,
          -0.016738263173283693,
          0.06943459142102643,
          0.009127028109722149,
          -0.06550712301636004,
          0.013780608395458945,
          -0.017098932940305196,
          -0.015285715667752041,
          0.0032800287467665418,
          -0.054299373082658545,
          -0.02522693905413883,
          -0.017945559131306885,
          -0.01196058916736363,
          -0.07946967688987609,
          -0.04092793110942925,
          -0.0230310230921906,
          -0.01775923625691697,
          0.0010306442319765786,
          -0.034224716272393846,
          0.02857256898082781,
          0.022353279496743893,
          -0.03712321492313586,
          -0.0457621835179409,
          -0.08699243170129047,
          -0.03163993773594666,
          -0.014078566593257557,
          0.0024004386908706332,
          0.06315478211636714,
          0.016409369130800627,
          -0.04250590104485653
        ],
        [
          0.007984841487564882,
          0.004710406428092089,
          0.07612142327651057,
          -0.024597492253573425,
          0.044494246679757904,
          0.042330394179978144,
          0.05243117297914557,
          -0.044602294790404416,
          0.016449028973511727,
          0.06928880334915358,
          0.030622327409908723,
          0.027122524098766858,
          -0.061054766312762736,
          0.008714969938122432,
          0.08144675590684584,
          0.026365823565457636,
          -0.04137200812908791,
          -0.003938892568624789,
          0.037545858433895,
          0.01195999910815352,
          0.02378173187904553,
          0.027222580810051564,
          -0.011577921238170846,
          -0.04395151519696867,
          0.014305078213182072,
          -0.01702681884726178,
          0.0068690651163316385,
          0.024485634110275368,
          -0.03679180302826079,
          -0.006713473213805466,
          -0.035444175975530824,
          0.07619060599735566,
          0.032448726101052386,
          -0.026797029199366836,
          0.021578924240897798,
          -0.02585267179576813,
          -0.06018528879853851,
          -0.00966729823753268,
          -0.11538631822056565,
          0.05393619978212319,
          0.024596142727008132,
          0.032728269678959795,
          0.019016290462369884,
          0.029906156670899138,
          -0.012825777031942353,
          0.035853609925325526,
          -0.0037255230637795516,
          -0.036599747790970825,
          -0.04929513738071156,
          0.08686870448532136,
          0.056158939846138976,
          0.06159606517514977,
          0.02585403179043099,
          -0.053402677132120324,
          0.016096310421857957,
          0.0015469560511252602,
          0.017052537528867106,
          0.03197917210208334,
          -0.02324576404594721,
          0.08622062268225544,
          -0.05993280674294899,
          -0.07042541069630875,
          0.04652139150524088,
          0.04980647326373691,
          -0.03685959839192677,
          0.0432516372756911,
          0.045973712757850865,
          0.0698039543040177,
          -0.0922384569327891,
          -0.042415247012324166,
          0.0026556995035471025,
          -0.11787631887825384,
          0.02425460868898954,
          -0.06060279295420218,
          0.04270443132770284,
          -0.0044908760361276525,
          0.05581398172125933,
          -0.004410206426699008,
          0.025995820168021964,
          -0.00025031529280488367,
          0.01947064586054289,
          -0.0716713218964141,
          -0.01760064260130038,
          0.043976217047321235,
          -0.010926215771328499,
          -0.07476932004969145,
          -0.008117495396427163,
          0.00026436306070896627,
          -0.058424937501003735,
          -0.032330153858463884,
          0.03287653549192104,
          0.00436988696091729,
          0.03188082732094954,
          0.014095327107737287,
          -0.043647091218135405,
          -0.022936185010713917,
          -0.06502578885320513,
          -0.048521795889135404,
          -0.002841100922238909,
          -0.10316729875077692,
          -0.08434118447330802,
          -0.015762123130918244,
          0.05049091079425271,
          0.026185604590335077,
          0.008288726563590308,
          -0.04761203675417815,
          0.04708621391719553,
          0.01933518517261239,
          0.051062253219124075,
          -0.07660440686728776,
          0.05226292138865201,
          -0.024703792028499375,
          0.03735842024317785,
          0.005424844700335858,
          0.02382342192357537,
          0.029833716535860352,
          -0.021804265302863068,
          0.011353410108094032,
          -0.001222474953139014,
          0.015727186460949342,
          -0.0015495934481171826,
          0.027299605570389258,
          -0.0007636081709961842,
          0.0051480211983003085,
          0.15902567288659075,
          -0.04158253490020398,
          -0.11407344640697639,
          -0.009246966115662891
        ],
        [
          0.02662839769167927,
          -0.047971912291002186,
          -0.03210580630482735,
          -0.014880637780345783,
          0.009804559902492202,
          0.042757138385021626,
          -0.06304788156554776,
          0.012188669691689177,
          -0.06431791852825838,
          -0.035267532407816805,
          -0.031658756557983295,
          -0.015314830655870288,
          0.011794033263692908,
          0.06021882157567736,
          -0.01801759464202968,
          -0.02109686021193778,
          -0.03798201487140496,
          0.059957754128470944,
          -0.023469257165681472,
          0.0030167510452255722,
          0.12611678244389188,
          0.10528534907227759,
          -0.024975742062555435,
          -0.08642034536558159,
          0.05121991810290298,
          0.006981635070280492,
          0.03719523800077658,
          -0.016299967402393447,
          -0.008636121583148082,
          -0.011142552526098427,
          -0.028474048806402898,
          0.02576877519455838,
          0.0007440906082097,
          -0.007464986494471174,
          0.017426374508722114,
          0.023469395554627515,
          0.0018255762830208565,
          0.008685602120715891,
          0.05829515543835863,
          0.005050699192104479,
          -0.04149346767107315,
          0.013907467232908144,
          -0.028262327149871987,
          -0.06529308482125847,
          0.12232402102201273,
          0.0946712563186138,
          0.01178334032805934,
          0.05855606558601564,
          0.02427028883367835,
          0.032096438908348034,
          0.000980692367829299,
          0.011953946425336275,
          -0.03676473009021475,
          -0.011718284483148142,
          -0.0021499183492537373,
          0.04002158580895862,
          -0.026709037924948234,
          -0.018581433006386514,
          0.0491998648680706,
          0.05863095360249335,
          -0.02694913951256011,
          -0.05682850733337989,
          -0.016660697860911282,
          -0.04145264161327537,
          -0.08336764816468627,
          0.03351984670235251,
          0.03289807877758287,
          -0.0053196656749994325,
          0.020898382931167,
          0.04292785868969938,
          0.036463253338434636,
          0.1257498407464454,
          -0.11204369573979735,
          -0.05609893318972829,
          -0.10742883231970554,
          -0.002191697362537125,
          0.004059986283539813,
          0.0648147125017934,
          0.0015201950115431094,
          -0.006400726888056863,
          -0.04568329635022962,
          0.006332771259722029,
          0.002707810120529978,
          -0.10741370375386515,
          -0.023598358350654394,
          0.01143047968148025,
          0.02959420134155374,
          -0.0552857664317154,
          0.1081709233520972,
          0.00038927774301160975,
          0.023904015335875235,
          0.013387189774940068,
          0.02757916900212312,
          -0.005613035816290988,
          -0.07898545312005274,
          -0.014378683212956583,
          0.04530288038485693,
          0.03774400379500674,
          0.06346548698725481,
          -0.0305468072803966,
          0.06448216736083848,
          -0.018219191847140003,
          -0.012078307409459752,
          -0.05978306143194074,
          -0.0047649213697190575,
          -0.05716754438142275,
          -0.0524079442876988,
          -0.029235041246299658,
          0.015697858773655888,
          0.03396187283500083,
          0.11904394910074657,
          -0.05196216904623017,
          0.029391071315647454,
          0.03033800976325756,
          0.044117696931782815,
          -0.04658650116851765,
          -0.05061061280085119,
          0.11095268065267604,
          -0.06377678205502478,
          0.03818663020564562,
          0.013510210657451767,
          0.01949201998228789,
          -0.047174367606275906,
          -0.03873048557985299,
          -0.06829645602375518,
          0.044850359297032544,
          -0.0035854163182445584,
          -0.042805646437501225
        ],
        [
          0.03854101596782855,
          0.04274396297968452,
          0.08320957571818577,
          -0.05573189857532187,
          -0.0890139099632982,
          0.04239641498376523,
          -0.05571932171047023,
          -0.03890830164387817,
          0.004030208130097046,
          0.024251364813191255,
          -0.06987474689867204,
          -0.014390166232230111,
          0.017798600504327612,
          -0.045535937600282274,
          -0.03960163312786903,
          0.00809834611589143,
          0.07152157302784683,
          -0.024650004067422508,
          0.03743391719385797,
          0.06363599977749203,
          -0.04005348566259581,
          -0.05440478851685402,
          -0.019519501761015495,
          0.0035190019315512145,
          -0.02515568792225836,
          0.024449905174516375,
          -0.0011192667387174226,
          -0.03539468375582309,
          0.05800483075369607,
          -0.022928573320752082,
          -0.026364160897498566,
          -0.08713407174441211,
          0.025589760023165466,
          -0.01520508094113554,
          -0.076117584302442,
          -0.04663856740706609,
          0.09677749674016031,
          0.0331292248118021,
          0.06711012195209824,
          0.028365730019005667,
          -0.013532749214372147,
          0.07147972508030156,
          0.0497192404864196,
          0.04710278464649604,
          0.007878136458089753,
          0.03977470404174032,
          -0.05118476691489989,
          -0.044455440018550174,
          0.006356049648579996,
          -0.029485338785820183,
          -0.014324823782886211,
          -0.06793745092427825,
          -0.02128550855546756,
          0.0022532288128554617,
          0.04065083637494045,
          -0.0440328854411169,
          -0.02868505395494104,
          0.01191248925109663,
          -0.022008841728012554,
          -0.07680952514325268,
          0.002221898230460177,
          -0.0009157855465452659,
          0.009074397010009125,
          0.03679084488835057,
          -0.00034602247977854515,
          -0.04563436534187277,
          -0.011418486153744072,
          -0.028085082942732473,
          -0.017079490409344904,
          0.014039035924982145,
          0.007650979755648447,
          0.030721387658882493,
          0.06583632655023089,
          0.05827355069937314,
          -0.03176417288070029,
          0.0418936513271593,
          0.06392393132008993,
          -0.08115342580049058,
          -0.0932991008900833,
          0.07978204883213619,
          -0.03236058835352289,
          0.06287835120599351,
          0.04054208037622898,
          0.018844689444578455,
          -0.01592814998082312,
          -0.03863629898096235,
          0.00033961634621092803,
          0.008682272676175603,
          0.024512337295750686,
          -0.07910887861992642,
          0.023137364276946366,
          -0.04064259811805101,
          -0.008495132093910245,
          -0.016988991097656055,
          0.11680796525457744,
          -0.0007840390127427237,
          -0.07087907087233701,
          -0.08333283571597437,
          0.004809003404017159,
          0.02504034123878382,
          0.007860710480578466,
          0.012739927383393633,
          -0.0841471961650712,
          -0.003931896351067808,
          0.0473406480183283,
          -0.035654721128452284,
          0.0623874893274812,
          0.06438801712060928,
          -0.045520914250184195,
          -0.012748645307143593,
          0.03115114915406491,
          -0.012126930610783062,
          0.005563010510140906,
          0.08386201664163245,
          -0.0692024141514752,
          0.0016037275789990708,
          0.09033732293140798,
          -0.004576410412644304,
          -0.10832693862996505,
          -0.01636093778867449,
          0.0242968597377074,
          0.015344253732218116,
          -0.004142722117665269,
          -0.0015192350703439911,
          -0.07291045448159615,
          0.10963703549259282,
          0.0006849804010019576,
          -0.03147197463447907
        ],
        [
          0.06176495704677464,
          -0.009308810448650121,
          -0.02921657379889331,
          0.010195850380328542,
          -0.04420595319125108,
          -0.08131920183138674,
          -0.024437566004151704,
          -0.021373579766717155,
          -0.03880774732629339,
          0.019820034579688,
          -0.07454173005473372,
          -0.045334669153231304,
          -0.05529762939250963,
          -0.021391825457427127,
          -0.0037337480023818246,
          0.09807839607450715,
          0.007899980642279475,
          -0.019730644722264132,
          0.07003046667354801,
          0.02290560426269787,
          -0.02433370341199007,
          0.03527683859568782,
          0.034328770827320866,
          0.01534194395151858,
          -0.11908586519049282,
          0.011793179749904039,
          -0.05069803743535309,
          0.037607996888100945,
          -0.09261273633814,
          0.03365930509353173,
          -0.017236766150890395,
          0.040784709114099794,
          -0.02246161626420852,
          0.017156933655745252,
          -0.03235351206427418,
          0.023847941680254104,
          0.055016409574688986,
          0.0613179813286454,
          -0.0652541941152491,
          -0.010980258013327988,
          0.06816383375883904,
          -0.02516752893535982,
          -0.02552637010356929,
          -0.09811173837714778,
          -0.0395704120369929,
          0.019199675319617273,
          0.04086499861727093,
          0.025836951171259285,
          0.08295754893794835,
          -0.05680673402661726,
          -0.05440406643853062,
          0.007977081863861578,
          0.00020897344634678285,
          -0.019216422397950596,
          0.0016493027276133162,
          -0.021183041787919375,
          -0.01013106747936694,
          -0.01871303543202522,
          0.06922208952154664,
          -0.059203440899307215,
          -0.03719403382633417,
          -0.07559783821045701,
          -0.06536434320235289,
          -0.08462404399977627,
          0.011282845541745374,
          -0.08451565614281528,
          0.08376387351422171,
          -0.03183431962625869,
          0.07039715750548407,
          -0.011636135041059453,
          -0.054171928114730566,
          0.006548186348050069,
          -0.022584701697470733,
          -0.01923953559652562,
          0.0034848007918442205,
          0.03602574093215092,
          -0.06280732263929575,
          -0.057192037313928204,
          0.0007073076095767655,
          -0.014854483256353164,
          -0.05951392447405034,
          -0.06164304916672829,
          0.031123063409612607,
          0.0015706676919016536,
          -0.040565943869881084,
          0.0480979086835244,
          -0.003042837068954743,
          0.011272093950430441,
          -0.06847284633181736,
          0.03146973140461648,
          0.005435551254087989,
          -0.051313255622944684,
          -0.02855007047400715,
          0.007802299233523104,
          -0.004789298560278106,
          -0.10551067598148281,
          -0.04524781520665535,
          -0.006095639765933487,
          0.0077300151261191895,
          0.04510198815830963,
          0.004569766419168391,
          -0.0813130028806092,
          0.014579272034984568,
          -0.03299549044662836,
          0.01746951823831162,
          -0.04931406881491923,
          -0.1148060158983543,
          -0.033917744847676935,
          0.005964722524056949,
          0.013629906823064987,
          -0.007840367535009059,
          0.027786555924747446,
          0.00774066111746007,
          0.046278556171471336,
          -0.03951166117613268,
          0.06227780455042109,
          -0.009995245973067727,
          -0.12150825498253438,
          0.07240969631129732,
          -0.01697070977695457,
          -0.037748997955666386,
          0.020545501940844747,
          -0.008581634693019891,
          -0.02563126495492052,
          0.10593677338469777,
          -0.042987786710926505,
          0.03316064338603452,
          0.07977305574273194
        ],
        [
          0.034499662493075144,
          0.0653479372380284,
          -0.02580650241857655,
          -0.01564885967543927,
          0.004690394921622343,
          0.026696854103165007,
          -0.02474596509170759,
          0.05210736096452153,
          0.032597462089780864,
          0.08336870802752161,
          -0.08546228812498484,
          -0.07002286043876092,
          0.03346425826300029,
          -0.03362150975182775,
          0.0908569245167586,
          0.0031488519816159277,
          -0.027910216703998587,
          -0.05759562638016863,
          -0.06860676715915633,
          -0.045813908705951575,
          -0.017007266094151197,
          0.030388736264859346,
          -0.01997471419019438,
          0.055733701673364604,
          0.04938690662772771,
          -0.036578225334105756,
          0.017399089938815285,
          0.014647920289697197,
          0.04175579870657536,
          -0.009769868219382624,
          0.14904438283974666,
          -0.07700546690977209,
          0.036522527062007155,
          -0.04817474292377214,
          0.005368812763496581,
          -0.061943780574492194,
          0.029584913690007687,
          -0.08688839256599278,
          -0.0804140267497275,
          0.10822803145005414,
          0.04231805181607162,
          -0.07533448818023528,
          -0.00027671936683767057,
          0.031128496671467134,
          0.06145386271224931,
          -0.016090476185437064,
          0.07654492385496735,
          -0.006926822146303353,
          -0.08363616132191912,
          0.029966408567454528,
          0.0045982346788542485,
          -0.06336705671211285,
          0.009075733721094263,
          0.11779636038654867,
          0.03785296908380636,
          0.11057975180086105,
          0.09369690840158067,
          -0.03605589294118423,
          0.06120527781090551,
          0.0030730830071130063,
          0.06542891654661409,
          0.0030262844895519647,
          0.0298478714719353,
          -0.0170462442105064,
          0.03970234719387494,
          -0.009259320101131542,
          0.06492840159055573,
          -0.030803796198052267,
          -0.040377682140492734,
          0.08473519903757053,
          0.07260098613833034,
          0.06275222700870421,
          0.017228330605432645,
          0.033657385843938244,
          -0.016439927023399886,
          0.010938627821080786,
          -0.04268800859855901,
          0.08795186689797556,
          -0.10059898810768192,
          -0.021958006929651903,
          0.01894599817856947,
          0.0033721573277595584,
          -0.024338386951968237,
          0.021748950205263816,
          0.007216704553192574,
          0.044734558343904086,
          -0.028791936889562594,
          -0.054943110809570095,
          0.019316984547775008,
          0.08256129088258755,
          0.0038926247874024665,
          0.07766027058148632,
          -0.035610339194597995,
          0.028432633020930336,
          0.09127951772743303,
          0.02032859077096791,
          0.01031121380752821,
          0.10064909469553429,
          0.009082254126352813,
          0.010273405640934376,
          0.011787495376924927,
          -0.06959621590526584,
          0.009771760378932098,
          0.0003457973154155766,
          0.03208902724078159,
          -0.03240683689201611,
          -0.01894801661772514,
          0.01429028789331158,
          -0.06290880242244286,
          -0.07544516190423074,
          0.016620124683545307,
          0.07030368312222851,
          -0.1447936104232626,
          -0.0025859052640363036,
          -0.05965303966641608,
          0.051579292475365454,
          -0.06268323256146605,
          -0.014413121711900267,
          -0.010908853232862975,
          -0.029621360697601136,
          -0.032531519094102596,
          0.01875736002343992,
          -0.03766710236675949,
          -0.030939477720154766,
          0.04270932252434485,
          0.13980982029748887,
          -0.02428885501315662,
          0.08727067765279758
        ],
        [
          -0.018079215161553454,
          0.07879339900174098,
          -0.0662208623703757,
          -0.07189198992504958,
          -0.04220524133050222,
          -0.06916283155216167,
          -0.1181625327112148,
          0.0679994670251907,
          0.05856603214893356,
          -0.08230771779149611,
          0.06380291589163804,
          0.0055261922214808615,
          -0.029423377443644982,
          0.020770059959853867,
          0.03561777772865777,
          -0.06683069223662695,
          0.031638337185253926,
          -0.05500893864891532,
          0.05691500918546635,
          0.11720347926331229,
          -0.04356406872801822,
          0.05044113545094929,
          0.018856983191870652,
          0.08122192974405736,
          0.027362096202323067,
          -0.004627315718407695,
          0.007991687096106303,
          0.020292992095278416,
          0.020320302226681113,
          0.03819258797914517,
          0.033182362863011246,
          0.028913145485293557,
          0.030136856102176625,
          0.00702632558776912,
          0.014708505320673068,
          -0.1285323861398196,
          0.06409014065777416,
          -0.05391125907564289,
          -0.014375726031630818,
          0.015218923432377424,
          -0.0023825403707445074,
          -0.06491947552950283,
          -0.035458099912168355,
          0.03181550908892886,
          0.019958983552778947,
          -0.0030500941238693156,
          0.0022722477321981895,
          -0.048712232253896995,
          -0.015106990119342701,
          0.051936963761194825,
          -0.015050915522964852,
          -0.010285237940959962,
          -0.021379559830113776,
          0.015309204208855719,
          0.03868948193406377,
          -0.022084867372755498,
          -0.016413588720859698,
          -0.010319660447855344,
          -0.053307490004050224,
          -0.02254841131917696,
          -0.10054600224848942,
          -0.07029545980581402,
          -0.025631691519224887,
          0.05045940133677032,
          -0.009542311640731835,
          -0.012969726980967098,
          0.12498998087620174,
          0.03317513646223999,
          0.01240946255291267,
          0.07688463106565291,
          -0.012394208728685555,
          0.12284725226150334,
          0.0734399544736907,
          -0.036847325410539644,
          0.023993090362735715,
          -0.03298458733392221,
          0.05300905176081543,
          -0.026275640234460808,
          0.020237861851719708,
          -0.07754925378981689,
          0.021376408757548804,
          0.09871864055691111,
          0.1056538383587961,
          0.018649468870668325,
          -0.04481494097731619,
          0.07008548551844672,
          0.07729548643973976,
          -0.02460590409407227,
          -0.013200552510292698,
          0.012229033625431004,
          -0.009286894534162664,
          0.01690077264686392,
          -0.0222863382141434,
          -0.022407299142794327,
          -0.06277031311791334,
          -0.038703833693635746,
          -0.012401787634647705,
          0.023940270556858555,
          0.04366012120537212,
          -0.04125124936151406,
          -0.02780769734248132,
          -0.04697318835460458,
          0.008268393723885832,
          0.03382047700358503,
          0.00878365020664376,
          0.05227405942860881,
          -0.005776998656198561,
          0.01998379706434599,
          0.07231915265155621,
          0.013379771790076711,
          0.016534485893282058,
          0.009574727226071104,
          -0.07349009015538771,
          0.07857719670905815,
          0.07167934244952455,
          0.006230487926179627,
          0.034714374663369366,
          0.026491516020611235,
          0.0409922823276852,
          0.02622907940014559,
          0.002887510185877107,
          -0.07673854783179662,
          0.02718144417507642,
          -0.04088961561483505,
          0.052914640989067896,
          0.08893010725009831,
          0.0970579469281785,
          -0.0025763654066020057
        ],
        [
          0.047578185417423494,
          0.08222355578740868,
          0.019793634941819824,
          0.07804942605375723,
          -0.0005752302191736963,
          -0.031068247015277425,
          -0.054361270638610903,
          0.009101228959170874,
          -0.09561891114630253,
          0.031698022589888394,
          -0.01299510667407365,
          0.011212390478552848,
          -0.009690410505226664,
          -0.04262457732733593,
          -0.03460273881766954,
          -0.030781280802625963,
          -0.021539295011804193,
          0.04993635150927005,
          -0.041281088893591604,
          0.018038646295240043,
          0.008432302858367352,
          0.0787498005460583,
          0.012941202022740657,
          0.0315295157452404,
          0.05528213488201063,
          -0.03909458783308861,
          0.03705049786582455,
          -0.08561946252928236,
          -0.007169593425557685,
          -0.05607063365740143,
          0.08218280244406373,
          -0.022420089465074216,
          -0.027371191630347038,
          0.01526998509576061,
          0.05830682213618842,
          0.012458906168953045,
          -0.03135723891059121,
          0.03505346305484102,
          0.049920318027178744,
          -0.026863008463866335,
          0.039050430789895195,
          0.014128061980232868,
          0.06870846593032265,
          0.03135670349853274,
          -0.030058444442414484,
          -0.03758217740990201,
          0.058304588714068295,
          0.026404140554757375,
          0.041523135825195956,
          -0.06576926674798719,
          -0.03377474862906197,
          -0.03736220427856045,
          -0.01209313619130639,
          0.027612570930325285,
          -0.10293956970063615,
          0.0008935217356296528,
          -0.00016528734565524959,
          -0.06723147977125307,
          -0.09148843050646262,
          -0.0066952027241793804,
          0.09688512522125153,
          0.08929593110037269,
          -0.07734434473488846,
          0.02153436138810234,
          -0.09960112897360236,
          -0.009556984997031823,
          -0.14328719788038238,
          0.003967797814123856,
          -0.01948359622015191,
          -0.05063117596178277,
          -0.06264143734047212,
          -0.01781967550766822,
          -0.0990386560487619,
          -0.04193854668166553,
          -0.1016158056712138,
          0.017368192483919864,
          0.026863578591396105,
          -0.06648837608398961,
          0.03912999101928573,
          -0.08479155337744414,
          -0.010722456147374958,
          0.01410453588486323,
          0.04258641488945844,
          0.06685652850570013,
          0.013578184805919555,
          -0.06117806356882409,
          -0.045692989698999736,
          -0.03664469364251962,
          0.05103815399588324,
          -0.023172833274261635,
          0.04740560757566427,
          0.014984764921380987,
          0.012027832958013587,
          -0.031962154694286274,
          -0.01770256109400454,
          0.03793323244766543,
          0.025244753236909234,
          0.04693812357903031,
          0.20771628221467778,
          -0.014324445314439835,
          -0.04501176777045829,
          -0.00917997568846378,
          0.0654789100569153,
          0.0015425153887537759,
          -0.10529298335609462,
          0.040780717932458854,
          0.10267362649914695,
          -0.024426443115222282,
          0.07652986357257636,
          0.033528647191316076,
          0.12398742346291053,
          0.013821683291412598,
          -0.03461333918922392,
          0.021209438279288062,
          0.06443447371336702,
          0.07325986210695462,
          -0.0608704323474121,
          -0.02227615754110148,
          -0.03330930639279916,
          -0.015239129296947491,
          -0.03423659089902124,
          -0.018480748893154167,
          0.03332275686698871,
          -0.08055554296002534,
          -0.03695319569936389,
          0.026069124496642466,
          0.0891192259320508,
          0.04702871679392681
        ],
        [
          0.018778841921071633,
          -0.029923063467997925,
          0.034562196478080176,
          0.0775796112061109,
          0.06641072780713692,
          0.013708282284773304,
          0.01689783262407166,
          0.009173970190792453,
          0.08623838811790492,
          -0.042623116887916576,
          0.02768414593244999,
          -0.011894146729541982,
          -0.044065494190796015,
          -0.015547881611560252,
          0.08590171339799056,
          0.07909631495833798,
          0.08802678133434856,
          0.011216431163948614,
          0.06930732010552514,
          -0.09274078861255734,
          -0.06780100599587056,
          -0.025918647864621298,
          0.06665751632733666,
          -0.04246754088494924,
          0.048845410142992214,
          0.014126371917861551,
          0.0443093414724117,
          -0.03814176868540096,
          0.09377463067365659,
          0.07350710962640078,
          -0.029464602452338326,
          -0.0572589063418675,
          0.02463477046719395,
          0.06389106159355067,
          0.02122778210960049,
          0.11750393648642075,
          -0.07030902434295937,
          0.04985345426486133,
          -0.014657687035655708,
          -0.03439204084586595,
          0.013513078901129398,
          -0.11889898800083805,
          -0.12170810198823064,
          0.04833615160287385,
          0.027543739087527667,
          0.011713789588025618,
          0.034600310089369125,
          0.0863639488501003,
          0.029677050895936558,
          -0.00010053574438875211,
          0.040478280551493294,
          -0.03813099468336032,
          -0.024335948346122176,
          -0.04197895764039034,
          0.05142784160389847,
          -0.03549360047724206,
          0.07718034920321301,
          0.05128467365277185,
          -0.09978515340167878,
          0.012588861651258481,
          -0.012408644792466122,
          0.06699472948799447,
          -0.04094231324242572,
          0.017219801258240446,
          -0.09729725189949855,
          -0.0739970927117612,
          -0.10818701952575316,
          -0.017061435332332734,
          -0.02808951923089535,
          0.07495409843225473,
          0.058450965243968,
          0.057873917926132876,
          0.029460417474321838,
          0.007283020885768135,
          0.04136018314682194,
          0.029529851500714584,
          0.0559775738473586,
          -0.09904261379856479,
          -0.05772331792979816,
          -0.017652317062622574,
          -0.08577748458519731,
          -0.020764374394034953,
          -0.009980576166421626,
          0.06369090335258376,
          0.01816670441955104,
          -0.0733292517263001,
          0.050670466089005675,
          -0.021464131854289283,
          -0.009901320991133226,
          0.03502613444716635,
          0.04291736320769529,
          0.03743639988409437,
          0.05381590006477805,
          -0.07259108677144886,
          -0.04592611455362771,
          -0.04523915329343946,
          -0.015632141155710454,
          0.018934404916298723,
          0.013928686100685515,
          -0.050268457614443866,
          0.08481762520615332,
          0.028555883290716382,
          -0.06417300449572486,
          -0.058802357669763,
          -0.09098843204044152,
          0.04193635874107839,
          -0.04586657764081395,
          -0.06561819340288597,
          -0.07165719409036922,
          0.004584735318922592,
          -0.0039778610832538,
          0.10235335648341728,
          -0.02909110759408136,
          0.027919121511508473,
          0.05047313063161115,
          0.05234268946929022,
          0.09588679664016532,
          -0.01165544286644389,
          0.04104900663696636,
          0.03410993118272514,
          -0.06762073551313108,
          -0.01369371252742483,
          0.06646533665856061,
          0.08814452968783314,
          -0.019834945557052164,
          0.018764011452916934,
          0.004956180092493861,
          -0.0055109205999553075
        ],
        [
          -0.010788725825862665,
          0.010135131973537312,
          -0.026741843049203705,
          -0.002686501407584887,
          0.020537521084596607,
          -0.03607797996758017,
          -0.03789063704408491,
          -0.049547585331027856,
          0.04823280851913242,
          -0.02635576892423761,
          0.0015171496056409295,
          -0.04926262353182372,
          0.02717893319956316,
          0.020760985214429147,
          -0.06276746340151783,
          0.03994994883441023,
          0.04344139830451492,
          -0.030859661254051197,
          0.0021928978737664677,
          -0.02704361822874603,
          -0.020773552741775083,
          0.04507368509797673,
          -0.0601488058060252,
          0.09539074078784192,
          -0.04368220217022747,
          0.02249455566632515,
          0.041607322964251445,
          0.05245480403305673,
          -0.00897157772933953,
          0.027416013633701577,
          -0.032207186607254384,
          0.06827611994844279,
          0.04055247159290963,
          0.04582116915166383,
          -0.04631238052502962,
          -0.03367034919846634,
          -0.00435337662145855,
          0.03053232182931302,
          -0.021513674381392477,
          0.053833192930603985,
          0.03466284243102477,
          0.00042262794753049744,
          -0.10481436185708883,
          0.01353891900938348,
          -0.06960872216610232,
          -0.053219725964378684,
          -0.008867604002940888,
          0.09737630827754189,
          0.05512947220151765,
          -0.05706076766190797,
          -0.043548794576685396,
          -0.0614171392738806,
          -0.02972913277928031,
          0.0747954213460731,
          0.0001141066493255675,
          0.005710645101775857,
          -0.009850781563215397,
          -0.05598638393397468,
          -0.008067065411976533,
          0.0019065624649399144,
          -0.010931970606826082,
          -0.029963370566076796,
          0.11420699978236476,
          0.001467506858107225,
          0.05973868939796165,
          0.011115540835617452,
          -0.05328132196940802,
          0.003920205756988127,
          -0.013509399293156176,
          -0.012704489709571026,
          -0.07849836265567582,
          -0.005339283055640716,
          0.034093629362138424,
          0.026029122842884982,
          0.028035153234457263,
          0.004591044511686608,
          -0.047254732215953416,
          0.0682315364548453,
          0.020267203815074176,
          -0.04832436596151707,
          -0.0955784706779976,
          -0.023241380245004134,
          -0.015007994729328922,
          -0.006166644351038054,
          0.00921227222203774,
          0.04915430024458506,
          0.04307073868385541,
          -0.07011993802881976,
          0.008786308549936343,
          0.005817323917476223,
          -0.001254535400338698,
          -0.011210864294048297,
          0.012443135802348218,
          0.0013845236151074235,
          -0.024596524309842514,
          -0.013438888090661181,
          -0.095195590653558,
          -0.06272402908931334,
          0.05256513128664386,
          0.028781031561468738,
          0.05729170390192432,
          0.05425013284281136,
          -0.00016525455434663298,
          -0.01353092535859648,
          -0.041083306355714555,
          0.020292868555911572,
          -0.05355023254725436,
          0.026024254339289343,
          -0.022290139882585942,
          -0.14863731122888243,
          -0.042892608462927556,
          0.012561606102302747,
          0.031048045505888158,
          -0.09000461345166527,
          0.039562830336605216,
          -0.12070895473210881,
          -0.044861574658832,
          -0.08813780537592136,
          -0.021658795472860065,
          -0.13982837725812267,
          -0.060579558692856264,
          0.07169166027560331,
          -0.020072054835719697,
          -0.028016731667605273,
          -0.03071792594713715,
          -0.006565054699403597,
          0.0783265175714031,
          -0.011025430425280038
        ],
        [
          -0.040717630703496814,
          -0.002018737278305426,
          -0.019734978962035292,
          0.07896277491673587,
          0.06993643900959044,
          0.02596175342132543,
          -0.0525069548493085,
          0.02928971087742236,
          -0.05072942207673687,
          0.022541784308919434,
          -0.04733431317854036,
          -0.05239842976870867,
          0.015926225143618838,
          0.03213033459091873,
          0.008740879188599735,
          0.02974272419998776,
          0.010524015994897912,
          0.06589078956920505,
          0.012582846461075202,
          0.02246851891431235,
          -0.0003146527007549019,
          0.04341320910736952,
          0.010505609755991229,
          -0.12198487562891872,
          0.05619894398369198,
          0.028050275226588137,
          -0.011847812391450694,
          0.016910211728396334,
          -0.04048201297325445,
          -0.0007513620696077127,
          0.06140035761497498,
          0.03186848843350399,
          0.07391340144187691,
          0.016482616524975163,
          0.047140586012509984,
          0.022941284081324637,
          0.01287703756272644,
          0.08216411722710651,
          0.016062429840923743,
          -0.04412206608063014,
          -0.014055392007380582,
          -0.06554481403182731,
          -0.014665571207816289,
          -0.1035074334713535,
          -0.10298816096997669,
          -0.020489968403097695,
          0.0037417640701158665,
          -0.04752043640450464,
          -0.012181448091366762,
          0.020705568405611153,
          0.003975518370308693,
          0.04145427703085355,
          -0.035739308839676485,
          0.009026993535064984,
          -0.0724818898856153,
          0.07450716480941083,
          -0.013412561805265242,
          0.06515861957576063,
          0.02652536681573715,
          -0.0923371983169291,
          0.06321003292810226,
          -0.03303822919646545,
          0.02554358292459424,
          -0.022799218079202464,
          -0.003700715662503685,
          0.01859051980755393,
          0.02863669450559867,
          -0.04152959253565426,
          0.029153879374884912,
          0.017029274459900354,
          -0.00593161493769672,
          0.008405227022366622,
          -0.05808097960176789,
          -0.01659086484021892,
          0.02059157359909963,
          0.06375398517717368,
          -0.0873755081346985,
          0.10438339019587663,
          0.019931314531353963,
          -0.0005258688534188938,
          -0.026588803609633282,
          0.08623082078383677,
          -0.0035965590890655783,
          0.12426657002947787,
          -0.08203465037881605,
          -0.09431926516880948,
          -0.023653574126393496,
          0.049115767888244996,
          0.036487681859413035,
          -0.03905577743392712,
          -0.01796669324359798,
          -0.05977054930384458,
          0.04533928799182351,
          -0.01446466541152882,
          0.01983275823551267,
          0.012672209697748852,
          0.009326892522452904,
          0.019425829116553318,
          -0.017732614101811314,
          0.021009789728487858,
          -0.1343232733145031,
          0.14601219182407285,
          0.05953117133167435,
          0.017550246728347735,
          -0.03428020867636014,
          0.0857560657088866,
          -0.030584105374601635,
          0.03128915644495875,
          0.025725438885313246,
          0.013724389443249677,
          0.07689724615573601,
          0.028709211209965682,
          0.004829961263385805,
          -0.00568086912998303,
          -0.01910036469709161,
          0.025219811529167146,
          0.007159072083466245,
          -0.09305323342695383,
          0.08196526314046026,
          0.025280058700183083,
          0.011049796872109417,
          -0.005951449797363309,
          0.07354337420517515,
          0.04064933061681771,
          -0.001465329302024649,
          -0.07083843917531706,
          -0.04803107419596595,
          0.0023356239952801883
        ],
        [
          -0.04065678632469742,
          -0.02420087185646969,
          -0.05818752850915715,
          0.023445640838736313,
          0.00974449262060267,
          0.010641225789762076,
          0.09835320712066313,
          -0.03290946136984164,
          -0.04452671839726227,
          -0.05569727937494891,
          -0.012262369028849786,
          -0.01770374884944813,
          0.03285230669273007,
          0.025042758699824377,
          0.04495016803697123,
          -0.06445077633941337,
          0.06171831704654528,
          -0.02995817700671381,
          -0.002385904708644672,
          -0.039422668112459834,
          -0.0024665463875150574,
          -0.05709046692817918,
          0.05842290893496964,
          -0.04635907433334192,
          0.05998734830088763,
          0.039581712427949875,
          0.029752360448678086,
          -0.02495333536285037,
          -0.007803608682369276,
          -0.002888769958680408,
          0.019833540870055632,
          0.1170045400418465,
          0.02110848390890218,
          -0.01284493899482308,
          -0.002327801542122422,
          0.12737358763428197,
          0.012594108426509395,
          0.007735158239670649,
          0.07326545835541232,
          -0.03802423893054242,
          -0.04221660759060109,
          0.006094710693750831,
          0.039186281410303475,
          0.0037626405661377034,
          0.020807685434816425,
          0.05857814586898588,
          -0.0015055843903390943,
          -0.02558833449579419,
          0.10066670766918448,
          0.02316185369197379,
          0.017661669092623206,
          0.018864603254567514,
          0.004427341992550984,
          -0.028989804571167822,
          -0.04389073475911205,
          -0.022893009901597684,
          0.08171386911947674,
          -0.05096964409168155,
          0.00013565378902148184,
          0.02700501577738357,
          -0.12186025465094336,
          -0.06273313116083676,
          0.0019200396373756164,
          0.023706639005876957,
          -0.006583330754522704,
          -0.0110542867061642,
          -0.07027929588776652,
          0.0457795540237802,
          0.01708003737412241,
          -0.008591461611652397,
          -0.01271205378954989,
          -0.003558038931363316,
          0.08732213015508158,
          -0.014204219034009065,
          -0.0429077839060369,
          0.04347836371592464,
          -0.036349890162322464,
          0.05155343867942412,
          0.012271859183814869,
          -0.001510950698078635,
          -0.07989517886960322,
          -0.027402350654864537,
          0.03547755175913315,
          0.08478787516193034,
          -0.02828935369115041,
          0.07366831307441052,
          0.08442278400163285,
          0.004225848282009103,
          -0.04318333821846619,
          -0.04804152233705728,
          -0.028424712096048924,
          0.0408460498083318,
          0.02623588281880688,
          -0.026521449040446156,
          -0.013910876557496333,
          0.027594706281481966,
          -0.06365410722640027,
          -0.09303828121475287,
          -0.008363360200168465,
          0.01467630872865903,
          0.03134725046194546,
          0.021967923729043874,
          -0.009018934944403229,
          -0.045088894420162416,
          0.020940918131615114,
          -0.0033313828837595004,
          -0.004561774492285865,
          0.0630047785457636,
          0.027126208381985647,
          0.038906363176681794,
          0.04624985017381997,
          -0.03394794046183138,
          0.033354623538960945,
          -0.06293716911976902,
          0.027946134238950867,
          0.036188233850473726,
          -0.0023421646853106575,
          0.018053564159447116,
          0.007987107360564237,
          -0.05471014071281215,
          0.027423595597886784,
          0.09278565543513895,
          -0.05711808703049178,
          0.03574041596139891,
          -0.005359161709811277,
          0.08076799195462932,
          0.06712285677100777,
          -0.03878854369829076
        ],
        [
          0.02028298006456188,
          0.06622958216848111,
          0.01632144405408983,
          0.05109815724713615,
          -0.07124976478562518,
          -0.02992236554156174,
          0.002711676665419604,
          -0.010259293406123726,
          0.027523416367541378,
          0.027901471739565198,
          -0.030414975226864767,
          -0.018337783090447004,
          -0.06688527782187621,
          -0.027365387426053968,
          -0.08044171316570198,
          -0.019287336179026796,
          -0.030354105938415244,
          0.02080457091364405,
          -0.01876667553369621,
          0.14828091568704874,
          -0.0037581074462101844,
          0.09612075315958644,
          -0.06283600313915721,
          -0.036915862356264754,
          -0.05896066284416405,
          -0.10094598688010115,
          -0.08344803805723358,
          -0.03570232319896964,
          0.06482185648153989,
          -0.02462468968055162,
          -0.02063707525299414,
          0.05150735111129115,
          -0.028949270345960766,
          -0.08166276270181888,
          0.0012590763529236077,
          0.015026952409058023,
          -0.006162963403024558,
          -0.051977641794082596,
          -0.049369417782027,
          -0.024569817054584567,
          -0.03834720025455318,
          -0.00027379380051140785,
          -0.009071695282298682,
          0.056526101116469774,
          -0.06460255929011452,
          0.02967685152829879,
          -0.018100738301051147,
          -0.03814744561223857,
          -0.031968944580674966,
          -0.04414792912920741,
          0.10620986981352011,
          -0.07051579077508736,
          -0.007685877604909041,
          -0.00028414260401373836,
          0.021396284929212563,
          -0.01449909918350877,
          -0.0190411071058879,
          0.05793432125072791,
          -0.05593553856781798,
          -0.05864227449577968,
          0.003695011546721094,
          0.026385872596068567,
          0.06772395864885145,
          0.04773271050290503,
          0.04422560270308998,
          -0.09843771943359411,
          0.05650967174314437,
          0.026929305547801825,
          -0.007305042312448457,
          -0.010862621388010096,
          0.0007583899824748078,
          0.015097784179973688,
          0.04460251726453009,
          0.04565154867509022,
          -0.06587317667803179,
          0.055889543264697555,
          -0.030933477213047945,
          0.0959350417873261,
          0.02523918447419921,
          0.02478700458537739,
          -0.0785986854236213,
          0.06076763691387537,
          -0.021285045143375557,
          -0.05092188332296251,
          0.04017909755746985,
          0.14896948427563497,
          0.010841572835671592,
          -0.02706819320348838,
          0.05152079108990183,
          0.06355151999104162,
          -0.10216599081287736,
          -0.027981861550440783,
          -0.014497250149972237,
          0.05765900969532641,
          -0.033949673718333864,
          0.057291588497548875,
          0.07150455345801493,
          0.08981678680325528,
          0.040384826357934764,
          0.05738009263484922,
          0.04872312215057798,
          0.03464175493275519,
          0.04882842872466506,
          -0.030205776037234032,
          0.025331403732955497,
          0.08817034552545484,
          -0.013999364118516693,
          -0.11914294039945403,
          0.038955389689412714,
          0.002754593280750658,
          0.08675984102398616,
          0.03433013024393842,
          -0.05763626292751518,
          0.0782875895951775,
          -0.01682967794665497,
          -0.05530038970478096,
          0.03605866655774098,
          -0.0064392373505219565,
          0.0003603167327443131,
          -0.024243830814039195,
          -0.06493925128896305,
          -0.021342221253336593,
          -0.04498013933239662,
          0.011494726147352172,
          0.009110401823029348,
          0.062149295594166036,
          0.05944461658950721,
          -0.06348606700840768
        ],
        [
          0.0007986952950412028,
          -0.045103574084453986,
          -0.08289288439249526,
          0.08413590926864152,
          0.04489391996087893,
          0.05098315276013635,
          -0.040896093310798326,
          -0.10854593545655555,
          0.012467297438306555,
          -0.05047993604728249,
          0.014891208803100926,
          0.008039503689396599,
          -0.00947498809439278,
          -0.04113065441674699,
          -0.03179091657622368,
          0.005130385594670328,
          -0.00468664314395377,
          0.017500370970142,
          -0.022533443547936613,
          -0.08936467587933061,
          -0.018803772748625,
          -0.05363688690507965,
          -0.09802555264776133,
          0.011040490396308441,
          0.029527157123575096,
          0.09253577859261124,
          0.021927448959129896,
          0.04522271960643693,
          -0.040653893577398445,
          -0.019666421540000523,
          0.11140784017271825,
          0.015127863289146592,
          0.007562854310945421,
          0.017733112277449403,
          0.04982289404532761,
          -0.030424685582181494,
          -0.026964320536139952,
          -0.024435704132303775,
          -0.008708093635158244,
          0.011329638309064863,
          -0.05354811741623865,
          -0.105358865986423,
          -0.02061897768340458,
          0.026469138901359414,
          -0.03503292792381493,
          -0.06527738163910843,
          0.038086148364248916,
          -0.017240055663303572,
          0.06449461738083019,
          -0.0893072981988084,
          -0.0194416314358449,
          0.07077999737874184,
          -0.019196610284098015,
          -0.05144521551713662,
          0.02515116305801793,
          -0.1458812406889747,
          0.06461236230153372,
          -0.03280086338991734,
          -0.05944344386814211,
          -0.08803783963804514,
          -0.04362334617337307,
          -0.09793922551170707,
          -0.07054785868520645,
          0.042220351627346255,
          0.03491541205798826,
          -0.0032773381348347405,
          0.017073776117850305,
          -0.08766900183826361,
          0.05299617070260815,
          -0.019733275823045425,
          -0.0309244944428268,
          -0.042523079041070305,
          -0.00876558369572798,
          0.030224535418871316,
          -0.06185750854464119,
          0.04501341231976763,
          0.0026674084313978775,
          -0.03555354632757934,
          -0.1175720271272725,
          0.08170314980939707,
          2.6485509484813375e-05,
          0.0810562502011218,
          0.03388940358441092,
          -0.19594580013712973,
          0.01445814905061944,
          -0.018584555092656968,
          -0.041961305820849656,
          0.038988835051608224,
          -0.10892541156690373,
          -0.05080185378165048,
          -0.07420712044598755,
          -0.05773626517692455,
          -0.007251103000955334,
          -0.023033875702691876,
          0.003288598475881729,
          0.06234418772749752,
          -0.0012213204742858282,
          -0.06393072746764841,
          0.11374487390375906,
          -0.015674952488344156,
          -0.06149426837966949,
          0.021260212328591568,
          0.03103753769088743,
          0.015505167398258479,
          0.06637102548740748,
          0.04869778288215405,
          -0.028117674168894883,
          -0.031923895553666794,
          -0.027554799361702003,
          0.009606548394705398,
          -0.03767514649714763,
          -0.015468157744837029,
          0.03992315122296857,
          -0.07334283622612135,
          -0.04172000067078581,
          0.05263670793003274,
          0.031638339667379375,
          -0.09970454474598528,
          0.030307675502342046,
          -0.031100954922933473,
          -0.08139949123364901,
          0.10765724004195133,
          0.01064812327857312,
          -0.04118185069617026,
          -0.008998160089809457,
          0.03633834126428705,
          -0.05212874204556797,
          0.039301411478790106
        ],
        [
          0.07536680073851972,
          -0.014696068583187179,
          0.004595794651127804,
          -0.03192185071255229,
          0.04395849745392445,
          -0.020455691017087538,
          0.08858459087749071,
          -0.05457808067816587,
          -0.00822941208860547,
          -0.03678401599544376,
          -0.08584562891375008,
          -0.0574159615004387,
          0.029219090169670857,
          0.0815714307501959,
          -0.025993817858605862,
          0.02911615208526924,
          0.0066039218637197385,
          -0.04606106839228449,
          -0.023978511181991364,
          0.019552303466508263,
          -0.033043051008591125,
          0.03575278949640087,
          0.04406000634870573,
          -0.0501790956911879,
          0.011498705241640051,
          -0.06664526635545376,
          0.049804837697007415,
          0.002751065245218935,
          0.03816842623649961,
          -0.0039618776331005945,
          -0.06321058217186871,
          0.04514707395605626,
          0.04810824854465399,
          -0.03233398943726173,
          -0.01955359756173604,
          0.062083055460447144,
          0.13643319615546498,
          0.0028487014164096454,
          -0.010078744470902411,
          0.05520520095869124,
          -0.09130267049454718,
          0.005892072639665486,
          0.10706344409230462,
          0.01112620690342577,
          0.09222704196384013,
          -0.04071257795121368,
          0.003924047786163327,
          -0.013976228862943144,
          0.050533934285192914,
          -0.06763021408109522,
          -0.07704685117928166,
          0.007357105127575665,
          -0.00551396869221298,
          0.0038980553001133258,
          -0.033796461548743904,
          0.015038325232004874,
          0.03204311538442768,
          -0.11348625835742751,
          0.013801731899353494,
          0.12230819893516706,
          0.020039230672834807,
          -0.02618062928440236,
          -0.015784755221761412,
          -0.03723787404799221,
          0.04037837372350434,
          -0.04924038146213822,
          0.09561770715968286,
          -0.04300182504248248,
          0.014800189792960845,
          -0.02194723665600511,
          -0.011750600834119643,
          -0.004056748112333265,
          0.028275503397318057,
          -0.011946027424651265,
          0.005526737638713055,
          0.05055126800065541,
          -0.01732790435308249,
          0.0029923879514822853,
          -0.038253292149541616,
          -0.017838134168301694,
          0.014582657573284107,
          -0.03079918087566847,
          -0.04220800184600253,
          0.03296343220800631,
          0.0356443187834544,
          -0.008043409604748796,
          0.07370173445714881,
          -0.0464905076475346,
          -0.02823803490347738,
          -0.030668901289064594,
          0.09232532753435845,
          -0.060614371076854336,
          0.012603596645015355,
          -0.07397863968963286,
          0.07803604554400412,
          -0.06513850497208581,
          -0.005044692994456712,
          -0.005368225673892586,
          0.08100556552321239,
          -0.06645617664825304,
          0.025538609769316045,
          -0.020663167697150885,
          -0.07173492649699607,
          -0.03967713650732859,
          -0.030084006063176485,
          -0.015180884492421602,
          0.008846987878725671,
          0.020702070185078653,
          -0.052115211952952184,
          0.05674877049727417,
          -0.061525138938083875,
          -0.035946135299138315,
          0.05268503297741546,
          -0.02009406323951237,
          0.07993154196875317,
          -0.08024528676272075,
          -0.05220347287617977,
          0.018922782905347536,
          -0.013295867954182214,
          0.06518294705971141,
          0.02337945986829816,
          -0.044367190679004895,
          0.021654231584755615,
          -0.03480682801048059,
          0.00303260970010844,
          -0.01547058917990571,
          0.07132370798514755,
          -0.11169717878741102
        ],
        [
          -0.04667129289293812,
          0.01222366377713395,
          0.020415508904294107,
          -0.018662104449978647,
          -0.007538443757125926,
          -0.049147047138342545,
          0.03716875357743234,
          -0.027232486959387833,
          0.06841866425686666,
          -0.03885619192552819,
          -0.004129464718410851,
          0.052756572553096445,
          -0.008098730676363991,
          -0.024092688998423976,
          -0.03731135626154399,
          -0.032704891042975866,
          0.028645239561363466,
          0.002531338782243735,
          0.012609644329230611,
          0.03778235314225795,
          0.019443349659472798,
          -0.10610133768763584,
          0.04042478130656944,
          0.0455813696971759,
          -0.03387094029119471,
          -0.0046530545213303,
          -0.02642216778479501,
          0.011826410874381134,
          0.05607976083550006,
          0.008496454058780346,
          0.06431782841875364,
          0.03582124412394476,
          -0.09843719827851971,
          0.07870042298557513,
          -0.04662190791480455,
          -0.02045569494472857,
          -0.04246779562445435,
          -0.014799095707055133,
          -0.05287189550031511,
          0.024536968086095887,
          -0.006590150325998229,
          0.001128961521027153,
          -0.05381294644379405,
          0.11291512898285726,
          0.09089982333337897,
          0.002957304348327316,
          0.0838438855444545,
          0.04422061018739912,
          -0.035537172520397425,
          0.027326698287885302,
          -0.059081770940483426,
          0.03723329136854688,
          -0.016700065898727592,
          -0.011814598263132137,
          -0.04053663543873401,
          -5.59378898602664e-05,
          0.0014465542011693308,
          0.07899011022106607,
          0.034402221005797415,
          0.07499071992112447,
          -0.07928696279492044,
          0.006494326737903811,
          -0.014243433742204095,
          -0.006101171513109421,
          0.13242248963809622,
          -0.06968338883542255,
          -0.037917989517899695,
          -0.05236335671741136,
          -0.042782265485589464,
          0.01612704634183966,
          -0.081574270706933,
          0.04297372082870714,
          0.01611266978723094,
          0.025583668963014967,
          -0.025992953667182142,
          0.014028304475663283,
          -0.0205131873745688,
          -0.04660573741224289,
          0.043550070026455334,
          -0.03143785304319206,
          0.05008234797097261,
          -0.015919322150144764,
          -0.06311499384841802,
          -0.08249438692816874,
          0.002354181384017834,
          -0.0963565415976811,
          0.00238487714136192,
          -0.07516097185191525,
          -0.013471289178583347,
          0.0128294968557114,
          0.04136717686333923,
          -0.04120124432935836,
          -0.0058042521983271075,
          0.017631848775859958,
          -0.057010077365593444,
          -0.02094356287577743,
          -0.01644292363476759,
          0.019648970323580615,
          -0.08438211944991673,
          -0.020443939448309537,
          -0.04259936931557844,
          0.016889400140335995,
          0.0378569072589698,
          -0.09592729666207206,
          0.040555583169262194,
          -0.01032601708325974,
          -0.03387095346419235,
          0.014045188649666985,
          0.1488127880327344,
          -0.0027113139843112214,
          0.026754701277777578,
          0.011762632744747661,
          -0.07562739900878712,
          0.05586674944380496,
          0.0741001128989585,
          -0.025207244467466895,
          -0.02602792680816452,
          -9.018441077514877e-06,
          -0.04529879718541166,
          0.04794507018854227,
          0.07647273476506966,
          0.023724359188103995,
          -0.030321553843784217,
          0.007109893663692973,
          0.06279993529739812,
          -0.045928569304005164,
          -0.020209132307749633,
          0.06752606939847026
        ],
        [
          -0.028685082474760804,
          0.011435655786878484,
          0.07397402436427683,
          -0.03954545300250625,
          -0.002604359325365536,
          -0.07527814389743413,
          0.07663414354225564,
          -0.038249327918412276,
          -0.06914362284000197,
          0.07275483372357068,
          0.050207986350284665,
          -0.0187942290436384,
          0.03610166533583299,
          -0.01671160930780572,
          0.03006958813654141,
          0.01646528096444891,
          0.033285252248673174,
          -0.007619591634909897,
          0.010900336403246176,
          0.02907368794480345,
          -0.003518299248224839,
          0.023934140835024827,
          -0.01217782576645889,
          -0.017929316165528335,
          0.020498504095491643,
          0.016402899900645116,
          0.033185913974399545,
          0.041883718500795364,
          0.030139325569009282,
          0.0034874434466789176,
          -0.02577023583809089,
          -0.06970699064883384,
          0.026621451768403286,
          9.514132893349136e-05,
          -0.05529478184858747,
          0.006496111502130003,
          -0.009456253985094792,
          -0.00634790541335963,
          0.030049362018015446,
          0.0010964302073223082,
          -0.034817082715969026,
          -0.03525140826417277,
          -0.012454528311929072,
          -0.015238727515362758,
          -0.1142725670749838,
          0.027608802619765786,
          -0.0012575616972765322,
          -0.04363391582413195,
          0.06006038971108626,
          -0.006139725571570724,
          0.015287497278967156,
          0.023033892829397825,
          0.011252628874163822,
          0.022171878011996434,
          0.055537468778681785,
          -0.03331890346789982,
          0.0075129467895184475,
          -0.055186141344783154,
          -0.08103803395112982,
          0.06906511690352578,
          -0.04263325657704344,
          0.02683056818412157,
          -0.060314202828834776,
          -0.05117482511957511,
          6.415909011958269e-05,
          -0.0021187802740052298,
          0.04233435193525199,
          0.06408196409805021,
          0.01789695937933307,
          0.03769436808038929,
          -0.020733074621612762,
          -0.05475265172409921,
          0.026988304979893893,
          -0.008509376246738988,
          0.003094645877905638,
          -0.027521136856685145,
          0.09557529837586425,
          -0.07860598200006756,
          0.025774211332156027,
          0.019051337343883718,
          -0.017702777508426675,
          0.022564571602855018,
          0.016736417299756275,
          0.00958344320122275,
          -0.0787848814703829,
          -0.05537467861743582,
          0.07342374179824333,
          0.03161860026331038,
          -0.06701874496911082,
          -0.01268182341499806,
          -0.05102884715765005,
          -0.04542574008536711,
          0.03194131760593689,
          0.07877380111437653,
          0.023987544394477762,
          -0.025289302620661952,
          0.06644366262904715,
          -0.030012682090721,
          -0.043846581260605866,
          -0.07254353938662318,
          -0.0582174311597641,
          0.0564900293287416,
          -0.05869757188856068,
          -0.0012789246856142753,
          -0.03322128393035002,
          -0.039774788654753104,
          0.05918019119502889,
          0.0005308311685421606,
          0.02566824747572126,
          -0.05452190190161916,
          0.08299004557812015,
          0.01198706216540962,
          0.0246350722294001,
          0.08851799976345372,
          -0.06323908358953104,
          0.08295090521346718,
          0.01059218133573151,
          0.0726613283045811,
          0.015838911903942706,
          0.007983710884945776,
          0.07235581215014734,
          0.02708220686033402,
          -0.0026858290413284405,
          0.0022324192907781796,
          0.027664358098645137,
          0.04348568037070889,
          -0.025306754151359766,
          -0.023679722118045584
        ],
        [
          0.02378799474877182,
          -0.043889212529871574,
          -0.01968836291688103,
          -0.05398494470219523,
          -0.013974791872729889,
          0.02330470617495116,
          0.00027370896476185347,
          0.06023404475188064,
          -0.031755386784123256,
          0.08083369883105294,
          0.04272662968271839,
          -0.04688872982917015,
          0.07856241166493418,
          -0.024513045674147933,
          0.023551902262929053,
          0.02073994919442058,
          0.05549723025583812,
          0.044739149307765194,
          -0.021986496780944536,
          -0.06996488932166656,
          -0.03637862710690593,
          0.06027528750441272,
          -0.006030267419206373,
          0.02299611939433896,
          -0.014133656986876754,
          -0.05879880531506934,
          -0.09118317972179363,
          -0.10305509165103845,
          0.06126831330571609,
          -0.042612751836823025,
          -0.01403911632989265,
          0.014850742485374997,
          -0.01882798131029324,
          0.015768518265143742,
          0.03706470674947615,
          -0.11079690203448345,
          -0.03994399277483664,
