{
  "input_shape": [
    28,
    28,
    1
  ],
  "preprocess": {
    "scale": 255.0
  },
  "layers": [
    {
      "units": 128,
      "activation": "relu",
      "W": [
        [
          -0.004948391778446705,
          0.0030595628075442095,
          0.034572200808546075,
          -0.0006472393586014841,
          -0.007586636240649471,
          -0.0015080084450591284,
          -0.008168859075586189,
          -0.015865597351012072,
          0.008703623336164337,
          0.000998463170357725,
          -0.01046436207720551,
          0.01518434585360629,
          0.0021938450490120906,
          0.010816899485774429,
          -0.007851825809716084,
          -0.0008161175921605193,
          0.0035568211190812,
          0.007032826141052456,
          -0.00451399527059771,
          0.0024363488678554217,
          0.0019392276094215473,
          0.0181599721090943,
          0.017589631639118468,
          -0.008835654755156703,
          -0.0031226781056196886,
          -0.028380458218033457,
          0.009090531072243899,
          0.002284158559881836,
          -0.005437338426292892,
          -0.014355492059119443,
          -0.005758635237499058,
          -0.006716687141550285,
          0.007707949999612598,
          0.009017446053873153,
          0.001461111076649078,
          0.009392553708790715,
          0.0004755379088809437,
          -0.011014852400291462,
          -0.00669888627325335,
          0.010602089994208941,
          -0.011494742916189434,
          0.017742371422749176,
          0.0035944326703868,
          0.01531436763528011,
          0.016454087669565166,
          0.001312015445407254,
          -0.004138940212679108,
          -0.011892621560108466,
          0.011806465358704428,
          0.010291162481453849,
          0.006167114082508948,
          0.001372685090283123,
          -0.0012572611456455425,
          0.00039576785473090703,
          -0.008042342392654748,
          -0.0012728340963231374,
          0.0018419288080326068,
          -0.017205223474998838,
          0.011559986781695303,
          0.008084941114914524,
          -0.0033272247934286125,
          -0.01192154459707921,
          0.0004247529560105915,
          0.0069189274676152365,
          0.001311175864820651,
          -0.0016821563101097224,
          0.000226626275247588,
          0.005706492987305669,
          -0.0034001452698198477,
          -0.01554696172152788,
          -0.01564011371120671,
          0.004101463672730682,
          -0.0037823457158309864,
          -0.014982992105198567,
          0.012571330048351145,
          -0.010503650892893852,
          0.02077342186402397,
          -0.007846754852916507,
          -0.006169880101313849,
          0.015918420705453424,
          -0.011332217366762754,
          0.015298426894717424,
          -0.006228955907593146,
          -0.00511033503667216,
          -0.006477023456232836,
          0.009698723685389155,
          -0.011005172226508368,
          0.01886949411911581,
          0.009637161599848633,
          0.0009985343514767127,
          -0.004815364887940509,
          -0.008305605662625367,
          -0.0035307830440856765,
          -0.009686695590628692,
          -0.02146526277301099,
          0.01199137739506804,
          -0.009139576679945654,
          -0.02202477150536526,
          0.013166493500171827,
          -0.014162191162873641,
          -0.005320756845509556,
          0.010824009493239941,
          0.0018785992631076833,
          -0.012156834136975237,
          -0.010748395541906387,
          0.0022761723852670088,
          0.026846825727500932,
          0.009992852621905092,
          0.015567347176537545,
          0.007425316793695367,
          0.008698600382155251,
          0.01754841630095905,
          -0.005640872839998813,
          0.014302188503233827,
          -0.010634064206336516,
          -0.014675463303008887,
          -0.000418740848400214,
          0.005935123239693465,
          0.019576745173118987,
          0.013212175168402769,
          0.018544522457920595,
          0.0038719056363511724,
          0.007427171582603557,
          0.011567174418483766,
          0.010384949365319345,
          -0.012469563675815174,
          -0.019883759152196458,
          -0.00543489327331148
        ],
        [
          0.000968336280528355,
          0.015621604317782135,
          0.0003477221704805554,
          -0.0005633801970953303,
          -0.001732960722597372,
          -0.0075725343016084055,
          -0.022078824896694268,
          -0.010715781317186777,
          -0.014161880042696083,
          -0.0055404238370812585,
          -0.0035143181713957316,
          -0.0026578499613185763,
          -0.01141712351786908,
          0.0014894546198288556,
          -0.013879092710837732,
          -0.0010084333194215682,
          0.009608668550568238,
          -0.023840430394242277,
          -0.0065771614326824625,
          0.0024572455626095365,
          0.01625529682377595,
          0.011460764145291815,
          -0.0031914846986080005,
          -0.0060496217199569905,
          -0.0026383807161378904,
          -0.012656884631321098,
          0.006004893310294618,
          -0.0034017299560397223,
          0.0035434154085948184,
          -0.006951460493501849,
          0.004146029280275113,
          -0.008189949502002178,
          -0.004750943055134261,
          -0.0002583948408807367,
          0.003991943428202198,
          -0.014884619417638911,
          -0.0008156093992212427,
          -0.02034503795342306,
          -0.005044536660490211,
          -0.015621455852016733,
          -0.005992190553593282,
          -0.00765295056139713,
          0.00010457677134656767,
          -0.00535823702168035,
          -0.012453512562814656,
          -0.0053776398676811344,
          -0.003278420076336451,
          0.011722340651064594,
          -0.008736296804682159,
          0.018090844129896543,
          -0.004829009758166759,
          -0.012379661358908936,
          -0.006638423486229498,
          0.01830914571611404,
          -9.648021683604433e-05,
          -0.0014423189474579762,
          0.0008950558404566669,
          -0.002514743091219751,
          -0.012441420734405621,
          -0.001790785789193915,
          0.006627215525539961,
          -0.010109990951839305,
          -0.008944739606113727,
          -0.006788488006429271,
          0.006029358626454741,
          -0.0005925041733475835,
          0.003996434160225227,
          -0.00884423242762608,
          -0.0029254895326094577,
          -0.01327224300619869,
          -0.0022255182493294504,
          0.010567538715737486,
          -0.015515605916732702,
          -0.023489329686589865,
          0.006058801343488587,
          -0.008404954158728611,
          0.0008839264766102792,
          -0.001053011852686937,
          -0.009749124932249708,
          0.021653433111274385,
          -0.01519701062079295,
          -0.006235451846801394,
          0.005946445929794275,
          -0.001606665007858712,
          -0.014322627240286386,
          0.01692797342731838,
          -0.015468589946430222,
          -0.003093687309217911,
          -0.004196303240322664,
          0.01589419923267414,
          0.017155809134447895,
          -0.010053705649346534,
          -0.0002415070453692287,
          0.010129403759827299,
          0.01271877588532458,
          -0.008421663423801882,
          -0.0043752849190793605,
          0.004392325757427291,
          0.008427052958878063,
          0.0056365102246726,
          0.011013530588870916,
          -0.008115712862142643,
          0.0013338243872351135,
          -0.000100238589873337,
          -0.006708124613984238,
          -0.010729086892825219,
          -0.00024202589284405584,
          -0.005225796859165173,
          -0.004166277081933475,
          -0.007784829595447173,
          -0.0004841085449476297,
          -0.017420774851078846,
          -0.005384121973863319,
          -0.005765205774578868,
          -0.010335766994581276,
          0.02805854475435151,
          -0.005647835071836422,
          -0.008252477151382873,
          0.00539279625232433,
          -0.01053872734542074,
          0.007258301965601416,
          -0.001233193821997145,
          0.012033891248920908,
          0.007464614016215167,
          0.006839940143237751,
          0.00533678874223054,
          -0.010422653568997837,
          -0.000959382926125774
        ],
        [
          -0.007392912515738277,
          0.01641772207603597,
          0.004199438111513463,
          0.00039525128517844314,
          -0.0006033606943152889,
          0.0032383269306509137,
          -0.0009007413365074783,
          0.0064374255570461975,
          -0.016718330183885546,
          -0.0023587885283698727,
          -0.009536623610645936,
          0.014719791039778527,
          -0.0006304181153301116,
          -0.00871992356637341,
          -0.0035288300826812275,
          -0.012874834142063456,
          -0.008093447100913607,
          0.000731147881397431,
          0.0001016273888055422,
          -0.017073766549865067,
          0.001473594840753068,
          0.0018307631963617394,
          -0.009205795280753905,
          -0.00477853027443818,
          -0.007148489501689989,
          -0.010800554086459047,
          0.0018330607980665565,
          -0.002937894517947633,
          0.005716446033848375,
          -0.00749615102024473,
          -0.008042719077701502,
          -0.0021671592681030594,
          0.008086357123580993,
          -0.0006576501052626374,
          0.010200170947242777,
          0.002097719140941751,
          0.006056157435319839,
          0.004727923138903198,
          0.0145973099028714,
          -0.011629180760093234,
          0.013396135504048848,
          0.006353460147416582,
          -0.00399066035372392,
          -0.0035252558819658408,
          0.020565787987361663,
          -0.008483021883004774,
          -0.007587746410279879,
          -0.0028100405323056355,
          0.0009446511506667649,
          0.0020023421417478507,
          0.0013123481041845302,
          -0.009745573809988943,
          -0.009453239726389595,
          -0.005716091443988573,
          -0.004527427863022203,
          -0.009025742486068574,
          0.01841556320416383,
          0.013991746818328842,
          0.007556481620272456,
          0.016069812987711724,
          -0.022466149402193793,
          -0.02020932543764881,
          -0.0006839256558347613,
          0.0135258049134442,
          0.009970882816870485,
          0.0002448018521047893,
          -0.002341234386337671,
          0.005250155401746182,
          0.011539445741488859,
          0.005155460193552225,
          0.012667662487803641,
          -0.0011359877840337246,
          0.004227598150680091,
          0.008106332932633445,
          -0.011451253618650273,
          0.00952861379118697,
          -0.007889560524371836,
          -0.011885088992991033,
          0.011348944532657206,
          -0.017503769185728935,
          0.0031991540656331626,
          -0.0069960756698378606,
          0.007081147442491448,
          -0.003915582401430103,
          -0.012252684322591894,
          0.010900134391546894,
          0.008550742886594338,
          0.00125548665901857,
          -0.0065040324036335076,
          -0.012670998334865879,
          0.020187076998124626,
          0.0012827252422833268,
          0.0030053467323726667,
          -0.0017527784642285013,
          0.014976719230502878,
          -0.013234823857269111,
          -0.025870452199187394,
          0.009973427421956551,
          -0.016715107370473097,
          -0.0029300209929941506,
          0.0018630694232442608,
          -0.01658302770329479,
          0.017722092978614563,
          0.002627602094068965,
          -0.003929096786904313,
          -0.013545718287244109,
          0.01865917479416037,
          0.0165175723590689,
          -0.015338194239100851,
          0.00447794435469814,
          -0.001364468069554184,
          0.0011177424873004065,
          0.028441028901322826,
          0.012181383264216541,
          -0.004108870281575689,
          0.01200117216963434,
          -0.0005100719581012821,
          -0.014765431866768057,
          0.020213747489363873,
          -0.0018670431895248289,
          0.021474289673416067,
          -0.003470175383096358,
          -0.005092905205993579,
          0.016287175397832705,
          -0.005579773714685351,
          -0.0016108319421632344,
          -0.010347158182119839,
          0.010255283839563374
        ],
        [
          -0.015337851918420329,
          -0.00682796229712736,
          0.002233714740252141,
          -0.020859398491019827,
          -0.007306579555402086,
          -0.006069413728467305,
          -0.008745453315439647,
          -0.008745249291456786,
          -0.0016569888238391714,
          0.012639849534251806,
          0.00622554834268467,
          -0.006036573799651749,
          -0.003835833796584087,
          0.005368832218092088,
          -0.008876697126754086,
          0.005961115724955235,
          0.0012639348496085135,
          0.0020820968188039425,
          -0.006464618004668622,
          -0.0011904973896453574,
          -0.00481470531522174,
          0.011165323096830717,
          -0.022448810322383356,
          0.02080084251382969,
          0.006143456773225694,
          0.016458850806421645,
          -0.0008079889207064694,
          -0.015315568285433944,
          0.00874016738823474,
          -0.014260085552421382,
          -0.001005838733444168,
          -0.000944577758657156,
          0.0008502128798576133,
          0.017545280953793672,
          -0.0041003526387893945,
          0.0028652395359394832,
          -0.001351842641334637,
          -0.003867571080229511,
          0.002860169512314046,
          0.01746915219824868,
          0.0015866592857894425,
          0.003976247944684833,
          0.0004462598867714298,
          0.004454643946062729,
          0.0005014856184427666,
          0.010040681543566124,
          -0.016227076932283587,
          0.013761691820115858,
          0.015257306447449333,
          -0.0008847923527643894,
          -0.004917940853195079,
          -0.0070345630890730725,
          0.015801770239628588,
          0.01318088800164524,
          -0.0054395268611704415,
          0.011819661752898931,
          0.0029454657869608216,
          0.018749856644071076,
          0.004637473345129099,
          -0.0035215222170084104,
          0.0005264057904652679,
          0.0048731813480131754,
          -0.019054206765971096,
          0.012182987682005725,
          -0.00972528076561768,
          -0.00044787490751014024,
          0.011539202778651865,
          -0.005227318899824285,
          0.0154518029640903,
          0.008147789392016092,
          -0.0017504189408257135,
          -0.00277859764333064,
          -0.01833854738174793,
          0.0009167628389899433,
          -0.011789232601044029,
          0.02571829157724419,
          -0.004982102584679677,
          -0.002077746736763855,
          -0.0041597985800224686,
          0.01254847457374882,
          0.012271133035544817,
          -0.0002757461975070046,
          -0.004259905107759308,
          -0.02342640669378493,
          -0.007137200217020234,
          0.0027244060721739833,
          0.010278489176167997,
          0.0006164868611955709,
          0.006252251322870764,
          0.019886119243104735,
          -0.025173009482300928,
          0.010477177126022839,
          0.010455582671615208,
          0.007965529766707884,
          0.0009459411974248464,
          -0.00564743440764283,
          0.01960295357257148,
          -0.011963582595431566,
          -0.006140389602461045,
          0.0050900922050027995,
          -0.008633922967560988,
          -0.002859947556795453,
          0.0017708972615701885,
          0.005415340483168011,
          0.00903122014411216,
          -0.008316888616549993,
          0.0031708030928711112,
          0.005042066056550905,
          -0.005396763691360698,
          -0.003331508637621005,
          -0.0016167362065465766,
          0.004288638499281748,
          -0.010500388849554192,
          -0.0021478530689045205,
          0.011382088915132897,
          -0.0029820888403946665,
          -0.006549751718902378,
          0.0038133610404460752,
          -0.0005747144745752011,
          0.0015011064883095424,
          -0.0028095578670150087,
          -0.010251694968377096,
          0.008247890430495433,
          0.00488056310931944,
          -0.004009853039140943,
          0.007341869906650288,
          0.008000907887535134,
          4.916148354554411e-05
        ],
        [
          0.013385539171127621,
          -0.002083995034438082,
          -0.00797941439875496,
          0.0165133805381197,
          -0.0018675192864645012,
          0.010958578410295341,
          -0.009305106191507121,
          0.00635182855783465,
          -0.0033121002932997284,
          0.00684118046035279,
          0.0033439603858487128,
          0.0065420227226702125,
          0.0061518619658630005,
          0.008162040050064823,
          -0.007140827554367178,
          -0.030717072687572337,
          -0.00634727305022296,
          -0.01230204636304467,
          0.021412052247198516,
          0.004898389635409151,
          0.0029394142313174934,
          0.008242802620076699,
          -0.015172014192025067,
          0.00826226299620758,
          0.007337072868183747,
          0.023628341727609654,
          -0.0009393857275792066,
          -0.02149324770184238,
          -0.003687136813235849,
          -0.0018519717706521478,
          -0.0048482161587854655,
          -0.009881444339698746,
          0.010120619818403778,
          -0.0013738903649265805,
          -0.0010123311272490667,
          0.00454674481306995,
          0.008760284770032186,
          0.007960082558240987,
          -0.009276524148472009,
          0.008903781455436313,
          -0.0004089848980729162,
          0.014591269091429526,
          0.0016174375349188998,
          0.001788704955699462,
          -0.005468935942908315,
          0.0017618424165550396,
          0.017395917519195624,
          0.01300853430960944,
          -0.023307259390920165,
          -0.002046799889132742,
          0.009715470068241317,
          0.009919592366826144,
          -0.008484288712292313,
          0.01701835917098466,
          -0.009831454690731082,
          0.0025230169307281533,
          -0.005761158745086759,
          -0.009188986037746231,
          0.012842462055417192,
          0.0038127286530629063,
          -0.00681844857027886,
          0.016929562478066082,
          0.000268894024335802,
          -0.0024472638075924676,
          0.001974082597769969,
          0.010191596709914257,
          -0.0012438969376938381,
          -0.0037623773058888346,
          0.005112163179127497,
          -0.0038082627547891814,
          -0.0029639273713052494,
          0.0012001263931180164,
          -0.002354628626166201,
          0.0035731580169920353,
          0.006585830217107521,
          -0.014613995339290638,
          -0.00619638040986768,
          -0.01584634920769352,
          0.000997215131894698,
          -0.012185365373448298,
          0.016459881901314234,
          0.001041648923149533,
          -0.01753266557352327,
          -0.01091668231978922,
          -0.012103335363139709,
          -0.004978197073452821,
          0.006601464730744941,
          -0.004690560450639532,
          0.00777581176957983,
          -0.0029492174122332884,
          0.010964352090923784,
          -0.006631271597067583,
          -0.010615291630362731,
          -0.003843016054287866,
          0.010279872805339426,
          0.007058398693591843,
          0.008243131071801923,
          -0.013663558896173092,
          -0.0058314764326782296,
          -0.002478824204408686,
          -0.009562566955170453,
          0.01600026285616639,
          0.004896166726897759,
          -0.009641317706850974,
          0.008988860602101925,
          0.007897751741353124,
          -0.012017268184730352,
          -0.0012712205529581313,
          0.001944019905714185,
          -0.00542267050621064,
          0.006966163766464279,
          0.004236047309213973,
          -0.002879852002588757,
          -0.0045301626011029755,
          0.010288153738021116,
          -0.013089945002604441,
          -0.004472557827386576,
          -0.012216412485920439,
          0.0033948079902684364,
          -0.005089508200133986,
          -0.01318384419631916,
          0.013294938514701872,
          0.010075847335147674,
          0.0018144733551507413,
          -0.0060143050386839226,
          0.0006731129779203278,
          -0.015125601009810093,
          -0.005618514987898456
        ],
        [
          -0.01001754936203135,
          0.02341695613124816,
          -0.0009082129465435588,
          0.005296561569433615,
          0.01497822645756779,
          -0.00040843642094460814,
          -0.0031211864702336933,
          0.017166126899647145,
          -0.0017652810468444624,
          -0.00278200678227676,
          0.0007678362374248453,
          0.006315144932374593,
          0.010591773489634729,
          0.005788398152811683,
          -0.008832410626942885,
          0.009375581700267857,
          0.009130377213410855,
          0.0048739990420430665,
          -0.015185217582720782,
          -0.022165703447199717,
          -0.008979251560908405,
          -0.002832935717182393,
          -0.015533571748191323,
          0.005130862059976937,
          0.024033879933428693,
          -0.006584654197308786,
          0.004624789650186913,
          0.01148726035746793,
          0.009843982006982926,
          0.00684566940881892,
          -0.00420495725672106,
          -0.01718379628053662,
          0.019018775158638517,
          -0.01566713453717003,
          -0.0038608745581941053,
          0.007108995503757206,
          -0.009382032919752446,
          -0.0021530271982798405,
          -0.00922913465853022,
          0.009523174918156489,
          0.007726568274453302,
          -0.007624482698663588,
          0.007262083546604086,
          -0.010103032259715192,
          0.005758573744210326,
          0.006339971477055375,
          0.016163574833775493,
          0.011780353377299503,
          -0.00679913441412916,
          0.004933553957347923,
          0.01209818312630731,
          0.0018964331692191223,
          0.0027541506157231443,
          0.010523594432472978,
          0.014751399424291116,
          -0.002019573683824105,
          -0.004045053906205435,
          -0.0036429583126766298,
          -0.0030556549801243594,
          -0.003960621612995612,
          -0.00045000177787767146,
          -0.02269368549539202,
          0.005338660041770471,
          -0.0017495942436167608,
          -0.0032829887020562123,
          0.010866785517118779,
          0.0075730588852593395,
          0.01188905980891508,
          0.009224002538486941,
          0.0033062915171847367,
          -0.008053969628343073,
          -0.0030333821417333714,
          -0.0036203834157079173,
          0.00884428463933927,
          -0.003927236454721619,
          -0.006447813152730056,
          -0.0041981732675912585,
          0.018988277961169243,
          -0.020943439441148577,
          0.005425086696650054,
          0.00683446066224105,
          -0.013946933824134165,
          -0.014820076295639622,
          0.012571295851781752,
          0.012231473079306825,
          -0.003265714143166138,
          0.0096392528912205,
          -0.009474402578632175,
          -0.0017223890452770405,
          0.0013983223059016593,
          0.006328918277782952,
          -0.021059111164955315,
          0.0028779737323954713,
          0.0032283607725527796,
          -0.006599381101593711,
          -0.0032992169125122773,
          -0.00975642596178923,
          0.018227924447355486,
          0.008257773201844617,
          -0.002091983390981453,
          -0.015034165605236897,
          -0.017860636553510164,
          0.016209587573290593,
          -0.01319137035123304,
          0.01084644856902949,
          0.005663187636698366,
          0.005978558494850377,
          -0.013544764713056047,
          -0.017544659882474105,
          -0.013069507371079493,
          0.006321693258175248,
          0.016754572314313345,
          0.0016647929518119615,
          0.004610375776994921,
          -0.016428418354780892,
          -0.01269157731912254,
          -0.012004623342823874,
          -0.000917746862707623,
          -0.013687580126017767,
          0.0033927510630652647,
          -0.018912156488442144,
          -0.01762988094074402,
          -0.005710845678760618,
          0.008750423501679804,
          0.0072203022551135185,
          0.019848580773876526,
          0.005502292676247021,
          -0.006249388434465942
        ],
        [
          -0.003822584180282126,
          0.0016183775075088128,
          -0.0040461219080217235,
          -0.007919838349961957,
          -0.003483537701622525,
          0.014772478753352629,
          -0.0008994919947669258,
          -0.016032550007698394,
          -0.010849350696520637,
          -0.0007170548873958972,
          -0.005318674064163186,
          -0.007950071822269127,
          0.009827959773065468,
          0.006496071936652283,
          0.012603045069390001,
          -0.006412725371037406,
          -0.00435210760445439,
          0.006088953550245971,
          -0.013014699637207782,
          0.011267452293437563,
          0.009562515357269527,
          -0.006295449538471128,
          -0.0027200829579589227,
          0.009081166509378034,
          -0.014043706333576005,
          0.004258822870596461,
          3.5233176926533645e-05,
          -0.008870299488425517,
          0.013189080952521737,
          -0.015584299152302505,
          -0.01026707427592295,
          -0.005622675152157593,
          0.009001502760438356,
          -0.0031463219655874265,
          0.00367931563118427,
          -0.004967245448492281,
          -0.016563159450409894,
          -0.000924632310950325,
          -0.008757415946407207,
          -0.00985549797483086,
          -0.0008111780920955537,
          -0.01823146794859551,
          -0.00652514049522378,
          -0.010859308818581145,
          0.00011180449395221446,
          3.812213399492053e-05,
          -0.00423121317653405,
          -0.009417888818427905,
          -0.006384925462336964,
          -0.008783781105159311,
          -0.013141560106448277,
          -0.0005070252893743995,
          -0.01669791983651267,
          -0.01127988294976781,
          0.0044020959927223435,
          0.0071310194476236835,
          0.012095970108243204,
          0.021460004399672845,
          0.001353947095554468,
          -0.009876046668291274,
          -0.011317444805055891,
          0.006616495687880994,
          -0.017933258662814724,
          0.003486203925841333,
          0.008059990966861908,
          -0.011368212537732967,
          0.0008737437145298883,
          0.003262048769643035,
          0.008383644251986148,
          -0.016087827636765528,
          0.0001585970902855141,
          0.011012569059405418,
          -0.0068863856033995145,
          -0.011458231577010503,
          0.023409576871769432,
          0.025138938599382432,
          -0.00866193538188963,
          0.00819749248656054,
          0.0018743481436528256,
          0.008408658037961793,
          0.01339713906385302,
          -0.008758333464730383,
          -0.008206233352967994,
          -0.013469792684093347,
          -0.00045869633899628317,
          0.013142355572549357,
          0.0027873207146350445,
          0.015927359033661492,
          0.011505098955599383,
          0.0004270776134371874,
          0.009121883022182802,
          -0.004402752900124512,
          0.0024629926938770745,
          0.00014207020449351948,
          0.015218213096085455,
          -0.005782268619228832,
          0.018508817495873305,
          -0.004489647266764634,
          0.014170633879061697,
          0.0006933893161417834,
          0.0003746534110104611,
          -0.004489696747815867,
          -0.015023494741941142,
          -0.005335870098912552,
          0.008967709701524575,
          -0.0009280261364312096,
          -0.0013762800389948116,
          0.010429494215843212,
          -0.01031541788550165,
          -0.002425460552233089,
          -0.012768173185138515,
          0.000877023761617242,
          -0.007248303169279858,
          -0.006958044716154847,
          -0.008073611938471597,
          0.01085546859084075,
          0.0031093487986664477,
          0.0018400047327869606,
          0.011093176282203911,
          0.025254266868984097,
          0.0007771002544121772,
          0.013695028328731174,
          0.0029061668942688473,
          -0.012641424696636887,
          -0.004081434504596279,
          0.01233894251006107,
          -0.002424920081243866,
          -0.00838556373883628
        ],
        [
          0.0038669395360138754,
          0.006644238770178194,
          -0.010758573854794558,
          5.539992707488267e-05,
          -0.001934863874555905,
          0.0020900465061539407,
          -0.019242321142728117,
          -0.013325674544752357,
          0.025315909773669258,
          -0.0024073877513732405,
          -0.004076119038488475,
          0.007911348637571768,
          -0.003265217032248769,
          0.012554976544435761,
          0.004139434760093274,
          0.006032094843779192,
          0.002574238447090488,
          -0.004601741926486189,
          -0.0024616139836605277,
          0.011000563801844339,
          0.017070002077755646,
          -0.005706808151114421,
          -0.005410486673890801,
          -0.01300648743524456,
          0.005936355258805446,
          0.009396672495172693,
          0.006879018404610145,
          -0.01677415493743153,
          -0.001958404147857185,
          -0.004785200283919206,
          0.0056078585366397486,
          -0.0040073186438339525,
          -0.011685288341187086,
          0.013236484445461548,
          -0.006966346647662268,
          0.0068906513603546014,
          0.00036504759778967417,
          -0.00836956626484687,
          0.009775540754004235,
          -0.006625471176715317,
          -0.007266929293730816,
          -0.003043429487927467,
          -0.010367690068192235,
          -0.0048777070670640845,
          -0.002452497965438701,
          0.0013465861847787666,
          0.0026803090252315543,
          -0.015157961765499573,
          0.006869218752314498,
          -0.006744589312670368,
          0.002619868908088055,
          0.008038554833955072,
          -0.0008412220912505382,
          0.007377430047331393,
          0.005223412956104992,
          -0.009617689435509598,
          0.013529480827167848,
          0.00930383329061305,
          0.00925765198033402,
          -0.015598744044141093,
          0.006853849593581961,
          0.011789226138301481,
          0.007911788370817154,
          0.007158562292555329,
          -0.007308243790819759,
          -0.002402269571188688,
          0.010692871941774573,
          0.015565845739832936,
          0.00896663787062746,
          -0.0019045995395584217,
          -0.003998936360543652,
          -0.00459379963580702,
          -0.0023956309725838973,
          -0.008274170955728289,
          0.015076721227001839,
          -0.018618774321353993,
          0.01505311365149342,
          -0.010234318892763421,
          0.0015457094984712783,
          -0.019802875350056034,
          0.004584380374217207,
          0.0012024169112938182,
          0.0016841127352690325,
          0.01125854578175622,
          -0.00810966167472756,
          0.00516367142240035,
          0.014596522190537711,
          0.009464458233537308,
          -0.001991223827264581,
          0.015949121824603566,
          -0.0024814825686184376,
          -0.0011369317677760718,
          0.013894486161727409,
          -0.014715771768698,
          -0.01248568888511767,
          -0.016356660897372897,
          -0.005054957222129758,
          -0.003507489932062676,
          0.010141991189149331,
          9.201422806539661e-05,
          0.002796916610178993,
          -0.02559639197013341,
          0.008916594771590923,
          0.010550248042012296,
          -0.013166954797305369,
          0.00036772746867957343,
          0.017009657683038158,
          -0.003071048457575212,
          -0.001280521606334608,
          0.011521199059401323,
          0.012406838554844025,
          0.005542628723584165,
          0.021408494404778943,
          -0.00026674118138953645,
          -0.00615330107380238,
          0.01250041019347829,
          0.03290779951916972,
          -0.0033843071484232806,
          -4.642541679669732e-05,
          0.0043965594155071655,
          0.002191213942052075,
          0.010056129202250684,
          0.011833291111927243,
          -0.003798893765419389,
          -0.00011365222189480973,
          0.009095978610914681,
          0.010356009143676449,
          0.003795210090800652
        ],
        [
          0.0017255220805751903,
          -0.022310000135761433,
          0.020597706474708998,
          -0.004049410938396252,
          0.010584545804484764,
          0.0031221194524890935,
          -0.01990653382074295,
          -0.0015218579042591627,
          0.00493058223225795,
          0.003050551638126007,
          -0.022462072702110255,
          -0.0053923118817485035,
          0.01692106402949928,
          0.011016325292927,
          -0.00280001630121364,
          -0.008888521058031422,
          -0.00825906714134695,
          0.007248737841140848,
          -0.02048993434584158,
          -0.0053353014427555525,
          -0.0005660152495601003,
          0.011277012692032217,
          0.010222931775753516,
          -0.00406923154673885,
          -0.007993064644645009,
          0.01595373886083712,
          0.012503703066785578,
          0.014492952224327837,
          -0.001879234693982238,
          -0.006764072219446782,
          0.0010189235460890496,
          0.008538284182162806,
          -0.006783113279329646,
          -0.006127823020685983,
          -0.00655422803825021,
          -0.001479617023279805,
          -0.002797630854561334,
          -0.00335788845227747,
          0.0045505319621415,
          -0.014606319719146495,
          -0.0031232420391306558,
          0.02464086529911467,
          -0.007076759260907093,
          -0.016847021743319864,
          0.0036185579413023574,
          -0.004687612992411014,
          0.0020009704386379622,
          -0.001541620284781738,
          0.014181491279927776,
          0.00889384258366833,
          -0.0017631032439552833,
          -0.01744429210507015,
          0.016229661611685705,
          -0.0011547268118539066,
          -0.011799666640486513,
          0.010168620767289782,
          -0.005197344596131165,
          0.007335245391180954,
          0.015460617589001793,
          0.0062849243487123965,
          0.005729123298029253,
          0.003399001054476273,
          0.0017118770874359236,
          -0.008041628428058523,
          -0.004749851339746177,
          0.006135467728102314,
          0.009430710665978767,
          -0.00903506865966713,
          -0.01098665281841342,
          -0.002617415880921469,
          -0.0016528071237722633,
          0.0018456048105538261,
          -0.003782437086317655,
          -0.008007259719014058,
          0.011901945107239445,
          0.010070852729687791,
          0.005661827067536449,
          -0.0031265846703870132,
          0.00498910517462037,
          -0.010564712912059166,
          -0.00041520190144835484,
          0.0021712656183262512,
          0.003972850080509889,
          0.0023669487912097056,
          -0.027986791371968224,
          0.004894538482315061,
          0.002584038492989867,
          0.010094508413021803,
          1.9766204782223443e-06,
          0.019340428000399798,
          0.014926598888361332,
          -0.03609172848658709,
          0.0014560077689351994,
          0.0010591434349580097,
          0.0019880719306737214,
          0.010224978450337971,
          0.001690329894559194,
          0.002929161690923088,
          0.002189069498530689,
          0.009203975716981394,
          0.005814101638404825,
          -0.010573757496437512,
          0.010372980212799105,
          0.0028758902758645837,
          -0.0009492876505153557,
          0.00976222493171578,
          -0.009115877558727354,
          0.0010990045120671235,
          -0.0024244569691586506,
          0.010437933413819291,
          0.010058833444971042,
          -0.002090179704001356,
          -0.013104006069556596,
          -0.006621099116223656,
          -0.0042237389965023645,
          -0.007886933462214729,
          -0.0034338425866063454,
          -0.000524852617026375,
          -0.0004395052964655836,
          -0.0181884895644618,
          0.002835898220677805,
          -0.007160717937870545,
          -0.017437895755271726,
          -0.0024758499830137086,
          0.009060525358697375,
          0.002223502230742372,
          0.009246100725412246,
          -0.015681143429711563
        ],
        [
          -0.010321070874472555,
          0.010041240355686236,
          -0.004606451713655319,
          0.01938900380367097,
          -0.0019454060312666436,
          -0.0013454043981605964,
          0.0155101047903713,
          -0.011012626659204166,
          -0.004390107586370665,
          -0.007878790923430396,
          0.0032269767337012555,
          -0.000975025642475563,
          -0.013174496109589347,
          -0.004849881347306038,
          0.0023097286552973416,
          0.0025394809374296463,
          0.00042249213606289967,
          -0.005466149049361399,
          0.0011787976592205422,
          0.00044134664306695506,
          0.003645076442052268,
          0.010192730572455507,
          -0.017734063240679984,
          -0.007610440747316499,
          0.010467647204718203,
          0.0035467662177364107,
          -0.014022709547828725,
          0.012476130773622448,
          0.003233610056093149,
          -0.0010255790196271655,
          0.011636895767493721,
          0.017714835248519637,
          0.005151011046783968,
          -0.010282357245398024,
          -0.0142032602653612,
          0.0073810260683891335,
          -0.0012759681049118777,
          0.004729280087894491,
          0.0013401343061413666,
          -0.0030342903842130813,
          0.004437814654412176,
          0.0013592434604153506,
          0.001194723961387707,
          0.00035849371359639534,
          0.00655734975289149,
          0.012140595118120018,
          -0.02275895617559159,
          0.007009663985200856,
          0.006969513699827047,
          -0.00034670669018570385,
          0.00891365386146656,
          0.010839227612561253,
          -0.0031016302695153803,
          0.003359045712359149,
          0.013691679483784722,
          -6.898803375920786e-05,
          -0.005699716246690016,
          0.0023911827781220914,
          -0.021926403796134548,
          0.0027915621130894857,
          0.005600454064555817,
          -0.005341399800091986,
          -0.005858044154382772,
          0.010908949890973225,
          -0.004216067177597675,
          -0.00652711392377764,
          0.009410225652590844,
          0.010047008511958078,
          0.018820243015293673,
          -0.0025597553620680235,
          0.00213609505877267,
          0.008289848045087181,
          -0.0036410351094560388,
          -0.013257032005017978,
          0.0010421979873692624,
          -0.011973187873798578,
          -0.005576734579468971,
          0.004974641638879853,
          -0.014187395260553542,
          0.011235832609460063,
          -0.007450927645043529,
          -0.015541667055211952,
          0.008644905709422005,
          -0.008920134775152666,
          0.00859951806362211,
          0.015124165056910839,
          -0.011878869608598026,
          -0.0008527913243556969,
          -0.02096282765028485,
          -0.012962499850646562,
          0.005067124878794104,
          -0.00037473834788037723,
          0.003251756658361745,
          -0.0006146740205492797,
          -0.010574881313560928,
          0.005713323404036808,
          0.006079203500436079,
          -0.006021485273686325,
          -0.011582296560191736,
          0.006625366819898371,
          0.005368481359808821,
          0.0024098323773823565,
          -0.007979037669570367,
          -0.011029573852106313,
          0.0029561111695023453,
          -0.0015980767138663436,
          0.004639477441339679,
          -0.0024329969543611368,
          -0.006314711312252177,
          -0.0057770888528414135,
          -0.009968046859102768,
          -0.0035114220813809638,
          0.006210741255367925,
          -0.008320222993952218,
          0.005586766239685379,
          -0.012054589933486341,
          0.0023985424243414257,
          -0.002653546847631166,
          0.006763098711575059,
          -0.01032542615930823,
          0.010082847657809566,
          0.0032374215198235153,
          -0.003760637236124553,
          -0.004054602240234002,
          0.002294213313710669,
          0.001466267958278618,
          0.001696894132826806,
          0.0066791376242154475
        ],
        [
          -0.014215849993376899,
          -0.00022710830266075365,
          0.005651509591187513,
          -0.014055533466210388,
          0.011752330542380753,
          -0.004044821761153349,
          0.004132743545780381,
          -0.006492875059188857,
          0.007339192885752647,
          0.002851041535896492,
          0.004642192881231154,
          -0.00434623308679142,
          1.8618629940758414e-05,
          -0.007146458422756547,
          -0.00843983244681145,
          -0.00600363701292326,
          -0.005185858931547751,
          0.0007730220594337045,
          0.00945624973639049,
          -0.019382341800232912,
          -0.00491205648612164,
          -0.0014570406491326076,
          -0.0002859608415447966,
          -0.004791638099049782,
          -0.007319482440892393,
          0.009147593803155584,
          0.002218425272533521,
          0.010857642135043057,
          0.00023931018665381083,
          0.0063697011003408825,
          -0.0023671923522531934,
          -0.0006720032613723518,
          0.003821699089806668,
          0.01581709924814013,
          0.0065191643210749765,
          -0.004835902016579282,
          0.0024647265396861794,
          -0.015295323159381867,
          -0.022128739810850426,
          0.01913421338691096,
          0.02810674738127756,
          -0.0014703837784795885,
          -0.004438986544252476,
          -0.0045298566748577605,
          0.016348104846583368,
          0.009020369637748113,
          -0.0015796205868659177,
          -0.008102910024531484,
          0.009598969389628587,
          0.013364031130901052,
          -0.010141763442134499,
          -0.010503440620701639,
          -0.0046324543003068,
          -0.0075135065106449565,
          0.007407352989643444,
          0.013942661980130038,
          -0.00529505900860849,
          -0.0039690090666532184,
          0.006997512952233933,
          -0.015470539953802764,
          0.010123153510358007,
          -0.01403542939747088,
          -0.0009303533684082244,
          0.004564633411372385,
          0.010977968289349212,
          0.0027509906879933806,
          -0.014627844280535703,
          0.019569851835568152,
          0.02158477916050208,
          -0.007366223237007018,
          0.005360533324001702,
          0.009665210268054523,
          -0.00024334801783687795,
          0.008826748599208453,
          -0.0003663909925579288,
          -0.012311998333559093,
          0.004217574636537372,
          -0.03573786797403741,
          0.0004116559772259988,
          0.01263134019896351,
          -0.01026632693884054,
          0.004975867611540683,
          0.004926712908878551,
          0.0017923824077854008,
          0.013723147273910804,
          -0.006963107375140553,
          0.010663098055036893,
          0.015523586760843222,
          0.008723652429484492,
          0.011910292455359048,
          0.0225828607255556,
          -0.003748380868946805,
          -0.00532404607587031,
          -0.0019762358825976844,
          -0.013988737570014025,
          0.0011368139229414227,
          -0.0007625219322072899,
          0.008586543529085649,
          0.008649285747219512,
          -0.00503559663846647,
          -0.004638945104889946,
          -0.004370929432863033,
          7.481484696187401e-05,
          0.034288854982963794,
          0.0022608275799269957,
          0.006295492675011004,
          -0.006227361799918547,
          -0.011110228011111166,
          -0.013636169655059066,
          0.0067248262994941636,
          -0.0012905633797162766,
          0.007768373300040268,
          0.00301215819607085,
          -0.010787619868397182,
          -6.381715336052292e-05,
          -0.005958101987403547,
          -0.001177703451059645,
          -0.010821369020943794,
          0.003767088225301994,
          -0.0003149874503844506,
          0.0031478422270047736,
          -0.01734489749853565,
          0.010946387230101875,
          -0.0011400504165462377,
          0.013019246907951532,
          -0.0007252585155504073,
          0.008560147629287026,
          -0.009101625302774833
        ],
        [
          0.009107426292700884,
          0.020218153071413326,
          0.000775151601297214,
          0.005432819624757327,
          -0.0024761014386903667,
          0.02284863120824198,
          -0.009166275139522916,
          -0.0060880236965210055,
          -0.0005340163996339767,
          0.012924986626447626,
          -0.002605745662069794,
          0.0005594997805283689,
          -0.009609261809124466,
          -0.006666075514340219,
          -0.011179765584912073,
          -0.009364192608543168,
          -0.010528654680874707,
          0.005001408049811948,
          -0.0061456591244141694,
          0.0092670759615448,
          -0.004291056130424301,
          0.007601547538750601,
          -0.004051549882038174,
          -0.012761861354387324,
          0.018567229492905884,
          -0.012705872000061824,
          0.0008824784287006058,
          -0.0006198588593237808,
          0.015885784139046722,
          0.00941115574852411,
          -0.014689950596489133,
          -0.011619627012488363,
          -0.004638654455860311,
          0.011416074855724809,
          -0.004944729000661112,
          -0.00284684201514255,
          -0.009135053318531426,
          -0.001957859841057162,
          -0.005936550676543968,
          -0.015162153842905179,
          -0.023051957912310243,
          0.0047721882373558235,
          -0.0005732491609934289,
          -0.0010824542974796482,
          -0.0011850276465102914,
          -0.008039847418296261,
          7.352684447246342e-06,
          0.0022145667769715017,
          0.003805162909912914,
          -0.004968738463875172,
          0.004480173689740035,
          -0.003224419221929651,
          -0.0020227892091727877,
          0.005071645465779607,
          0.009111814079847512,
          -0.016792827881875895,
          -0.0038938457276287237,
          -0.007691013249695081,
          0.011728717910471045,
          0.004365062695798623,
          -0.005152221836218778,
          -0.004092164645793632,
          0.00894342788818661,
          -0.006138776413475398,
          -0.01742137765607933,
          0.009746393574241643,
          -0.023462690304120747,
          -0.016258279059872954,
          -0.013952258115246285,
          -0.0020701583282383275,
          -0.002384111613839145,
          -0.00182077547508562,
          -0.017762623954848813,
          -0.018343531051956078,
          -0.0026533376779457425,
          0.008381222761535797,
          -0.005356683730387948,
          0.003232081263148291,
          -0.010234978367205763,
          0.010136330946308105,
          -0.0016647787389589214,
          -0.003750379071763652,
          -0.004206823328516795,
          0.015394578841076374,
          -0.0006093579070506296,
          -0.00549073040822544,
          0.030749584593008767,
          -0.00717902975370379,
          0.010073161792522803,
          0.008769496069028989,
          -0.003482551277494887,
          0.006139812185911604,
          0.0003131923158356699,
          -0.006945423199864023,
          0.00015015084477213489,
          -0.015630179443577627,
          -0.011820481367099123,
          0.002154593980877047,
          -0.02581033011282527,
          -0.012582909742478924,
          0.0001633772829181858,
          0.0012123311175269364,
          0.010697957453287263,
          0.0035813999469754103,
          -0.0029340382007534693,
          -0.002692007478878076,
          0.00693520213643206,
          -0.006670640408078212,
          -0.005239812258462067,
          -0.00407789822515548,
          0.013242284077132724,
          -0.00323924566861736,
          -0.011433796862599821,
          -0.0025181554271521767,
          -0.017586568282196725,
          0.006933839198313522,
          0.0013147755887383148,
          0.021190875983897364,
          -0.0001567948914866755,
          0.0052505248879092985,
          -0.018898916062358797,
          0.013933276659870694,
          0.005367301699364732,
          0.004318908006471294,
          -0.009094420655651593,
          -0.005840218775391901,
          0.012801095033828971,
          -0.004179613795912072
        ],
        [
          -0.004441624530587742,
          -0.008945160628660935,
          -0.009248668654074884,
          -0.012146795555806082,
          0.005235335041925576,
          0.004866625872038194,
          -0.008640918164740002,
          -0.002614821189932649,
          -0.0027230948547126944,
          -0.0070031215776598255,
          -0.016803065224814766,
          -0.004410713355501193,
          -0.004245192881430236,
          0.021548263897928487,
          -0.014380609345178702,
          0.0061516799771241465,
          -0.005281375256934503,
          0.02048154033713266,
          0.006984184626603207,
          -0.002727396357261524,
          0.0058714826758728324,
          0.006728903965568529,
          0.015405256038100949,
          0.0013339235489735445,
          0.009693895984665964,
          0.014301094652658945,
          -0.00014733009291295108,
          0.01770268219450902,
          -0.0017070795110930028,
          0.013657870188803064,
          -0.00048127501605687374,
          0.011291836686434466,
          -0.003506277674815619,
          -0.00890704730177273,
          -0.00497880404379071,
          0.008438001810183345,
          -6.254910715435918e-05,
          0.021712789085481615,
          0.007293243036907321,
          0.0031572989878614188,
          0.00358620167580946,
          -0.011533846735024935,
          0.013349361585964822,
          -0.007146740838746725,
          -0.013742080170105536,
          -0.002384621776923347,
          0.008705591054762842,
          -0.010169380928075166,
          0.012691239333890254,
          -0.006991493720457852,
          -0.010694072391834862,
          0.006228247436418929,
          0.014076761121895725,
          -0.01266534392465656,
          -0.00688784247637818,
          -0.0014802284450026746,
          -0.022124260043491932,
          0.0032030551004564927,
          -0.007111734961903292,
          -0.006433309683565699,
          -0.006269120437651839,
          0.012907898445157393,
          -0.012699658126476387,
          0.0031488460711047083,
          -0.021490743235068957,
          -0.004045547272239141,
          -0.00144049558753142,
          0.00295109441698185,
          -0.007853064426956123,
          0.0014705241582795372,
          0.011275235377593649,
          0.005687505906515067,
          0.00245608941382812,
          0.010356819945244889,
          0.005173073464505743,
          -0.007147147229625738,
          0.012420320440569286,
          0.008502868989885521,
          0.005941276266657026,
          0.000804137780159146,
          0.01193179782849176,
          0.0036021225820303086,
          0.0050439165379981814,
          0.003137550238804669,
          -0.0029801021697770163,
          -0.008208398979041801,
          -0.008181702909948522,
          -0.008341410397600085,
          0.010399323471224001,
          -0.00430612097540692,
          -0.01540510539995237,
          0.005720392258453321,
          -0.0034462190630225637,
          -0.004290161659980339,
          -0.00034516834796259176,
          0.0022475258583219845,
          4.521843787230373e-05,
          -0.008784210741488158,
          -0.008027926811637897,
          0.006706030523334278,
          0.0037097270902937676,
          -0.01614409723033103,
          0.008124600238037408,
          -0.006000454549973142,
          0.01249119273681624,
          -0.003212179083684541,
          0.003497051967754412,
          0.006630214895608632,
          -0.0064068383030467775,
          -0.0012254381329816965,
          0.0051743341879373845,
          -0.003390219287095287,
          0.0077690199068728705,
          0.004877780663943641,
          0.00896395875053585,
          -0.013371502848981413,
          -0.005830098868475151,
          -0.01574458681953483,
          0.02808341640903721,
          -0.008688847787676477,
          -0.013046804853751008,
          -0.015502206105119933,
          -0.019635383667791738,
          0.0023964419776998846,
          -0.010312760042598476,
          0.0216160166945418,
          -0.005983473421425362,
          -0.015034328803352206
        ],
        [
          -0.005081086102785667,
          -0.01347150783930124,
          -0.007800181708532565,
          0.005311128467621255,
          -0.016574998666450978,
          -0.0051583684991819345,
          -0.011700842482643593,
          -0.0031028072706396036,
          0.017958623423434395,
          0.005383185396735175,
          -0.0030767950063849228,
          -0.013856717404243981,
          0.0010106537402651229,
          -0.005570821893506153,
          -0.0049913986906881015,
          0.004669062533591866,
          -0.013129661589471348,
          -0.01061896491065999,
          0.0027551467534386253,
          -0.004601246371956293,
          -0.0030733719845601783,
          0.018643373399267787,
          0.00014682997620741158,
          -0.004232923958290066,
          0.006813987722297073,
          0.004641801787844863,
          -0.002952411200122666,
          0.01659792331359686,
          0.004233508032542865,
          0.006448127739425517,
          -0.00433709194193043,
          -0.005488615754541062,
          0.003645365372204621,
          0.0162230920649061,
          0.011232457327807335,
          0.010199821719797185,
          0.007808587126088242,
          -0.011639424949103251,
          -0.0005260518137179598,
          -0.0028755642806323057,
          -0.01376515030875403,
          0.02419023917451082,
          0.017274661249330855,
          0.009250898981370022,
          0.0066326134466037304,
          -0.005796125315030839,
          -0.027492738836604108,
          -0.001933827730374455,
          -0.001498396708282547,
          0.002275648725349447,
          -0.01144932713606009,
          0.0015449373905467919,
          -0.0019955111433484648,
          -0.004594591851745602,
          -0.00318880013178928,
          0.006050117297229333,
          -0.0030454554696084566,
          0.008803105559680073,
          0.008500464405867755,
          -0.0007930295150272489,
          -0.009814759289761875,
          0.010358052362895916,
          0.011155219732585424,
          0.018287371708462626,
          0.006216656960685934,
          -0.013596565594189957,
          0.0005324779938894513,
          0.007883149883615723,
          0.012278343843412472,
          0.007671516508204745,
          -0.024090149242154815,
          0.012202588713946333,
          -0.0009359036094871234,
          -0.014846125363572538,
          -0.0010764318023017605,
          0.0043009702816779,
          -0.007035327196920784,
          -0.012556487937742751,
          0.0015024469244017903,
          0.00263378090811157,
          -0.0047254834492745585,
          0.015250320046824795,
          -0.0066767332024954915,
          -0.007353896365414398,
          0.0029506333144013364,
          -0.006606851865963024,
          -0.015435257464548527,
          0.000664367917098675,
          0.002447675548263695,
          -0.0029903160273336976,
          0.005243374724353023,
          0.0031422092963117616,
          0.0024695877614561057,
          0.0068742935084744,
          0.012816534887779344,
          0.015417060403620184,
          0.006177108696637322,
          0.003138255996758486,
          0.006872552628402484,
          0.02264574817992918,
          -0.01115291342532144,
          -0.0037760915400170962,
          -0.0073160162027033635,
          0.015094508545732752,
          0.01332413588191594,
          0.007503998153797495,
          -0.0008481155745348168,
          0.022786003208582102,
          0.008222300625125762,
          -0.0025178583724751857,
          -0.008778416550453753,
          -0.010798136755410912,
          -0.008613794080055312,
          0.005645937587345556,
          0.010084224189772862,
          -0.004602182465748716,
          0.003668621124999868,
          -0.0020034714225782035,
          -0.017981656185625736,
          0.009495802839946488,
          0.010029774847917722,
          -0.011980100884861759,
          -0.0008429588960379023,
          -0.005480176720103872,
          -0.007644096473486225,
          -0.010500330472227157,
          -0.00158664819847645,
          -0.006205981939811819
        ],
        [
          -0.017163352600424002,
          -0.01297339836877758,
          -0.014264577293175908,
          -0.01718527667509665,
          0.007014753837082187,
          -0.00990165165548521,
          0.007427233693026297,
          -0.01082260836530823,
          -0.001922146326493197,
          0.00960425119124481,
          -0.001440517492574924,
          0.010156959414411639,
          -0.0021854332964520904,
          -0.007050490334876329,
          0.002829541874347245,
          -0.0031254510988590915,
          0.00017435220909068085,
          0.0016437015703231065,
          0.0013237834691318384,
          0.00020702876267661554,
          0.0030079830411980247,
          0.006746145527540812,
          -0.01968353214569744,
          0.0036594646639935557,
          0.0021145704089288613,
          -0.00981709450413747,
          -0.0111805764747664,
          0.003832705116711094,
          -0.02378470917601083,
          -0.0016116095659584632,
          -0.016927568876577304,
          0.011750975304777918,
          -0.004725965886906179,
          -0.006863387511935909,
          -0.002605339074587923,
          -0.004482846395641171,
          0.015690244911025896,
          -0.0050840934397165406,
          0.004289427763302275,
          -0.0042151496963315814,
          0.01149484199501913,
          0.008171353355909005,
          -0.0007906123923664153,
          -0.005384369715331305,
          0.025299658751281612,
          0.015835251912542102,
          -0.017071855725311034,
          -0.0060104466778575436,
          0.01347468820546105,
          0.007892138621757942,
          0.0038423716496769366,
          -0.00018664243797431485,
          -0.006691424615839129,
          -0.02412208179624233,
          -0.00857252275797603,
          -0.013597726649547838,
          0.004140996530131499,
          -0.009204291592147787,
          -0.006175230939258204,
          -0.0024784410230264207,
          0.016649409038171203,
          0.004570742900400221,
          -0.007818739841616419,
          0.010903023892495957,
          -0.0004556211959456841,
          0.007565465679877839,
          0.007140692928311805,
          0.006075298374422716,
          0.009479813068730678,
          -0.016356582322228513,
          0.0059176665634304475,
          -6.31712229666532e-05,
          -0.004643490444454645,
          -0.0016969861174152363,
          -0.00236923254782282,
          -0.0020492239729919294,
          0.0029232876345757237,
          -0.007226984740235171,
          -0.0014480626362827452,
          -0.004889334931990398,
          0.015878367155265322,
          0.00670954509008703,
          0.002869269156177014,
          -0.002207794826778526,
          -0.006542206503829028,
          -0.004801368246819245,
          0.014577662814328938,
          0.0024986982942278298,
          0.01129025227943975,
          -0.01490536535241397,
          0.007518676140193476,
          -0.029340743437017168,
          -0.000975051610958716,
          -0.006299409235731653,
          0.0028026451060644926,
          0.0082837882228987,
          0.0051873967757729775,
          0.01604960750428451,
          -0.0001609673018903783,
          -0.0013174590245006734,
          0.003604435588461644,
          0.006773099889681344,
          -0.000629032093024518,
          -0.006631720377293137,
          -0.008189379098694884,
          -0.003508663413455674,
          0.0015006983697448376,
          -0.005585826089228567,
          -0.014776042678889566,
          0.015089481268842485,
          0.004209788413946923,
          -0.008187061226619882,
          0.0036327166393064435,
          -0.0005611403553220799,
          -0.009932742143899836,
          -0.023929540514100567,
          -0.0028249795092988366,
          -0.006447467181538226,
          0.015147973822266436,
          0.0016599005959764903,
          0.008957548334137522,
          0.02192872646451925,
          -0.005772475899125455,
          -0.014647047096163244,
          -0.00169000259566229,
          -0.008683673956194104,
          -0.007037882365838043,
          0.0024183818984290536
        ],
        [
          0.0009146151851879343,
          0.009870330755288185,
          -0.008666296850044709,
          0.01492933704335122,
          -0.00423613985010302,
          0.007828278896475532,
          -0.011531439788292647,
          -0.00646985292047749,
          -0.012141819495721776,
          -0.005665802373942469,
          -0.008756649948514956,
          -0.0019087953540096161,
          0.00031018964025766166,
          0.01500852227598322,
          0.009798560810859273,
          0.005485492437845125,
          0.004164683804264681,
          -0.013115686243109603,
          0.005215158557547086,
          -0.011878624733517671,
          -0.013502382884056358,
          -0.0010712586138437554,
          0.0015219028631815773,
          0.0004594279781626025,
          -0.011856271923609425,
          0.008748491893510315,
          0.0013895005869810205,
          0.015034090501877343,
          -0.001965973207152314,
          -0.007475283780727358,
          0.002782385163550594,
          0.0024050481535804486,
          0.002342608857968946,
          -0.006658401132759673,
          -0.000892163757909987,
          0.0003471264404058076,
          0.014468072992587908,
          0.017952101190480626,
          -0.0020246941076887343,
          0.000599310894423282,
          0.0010093506869569416,
          -0.024017117974079266,
          0.011741923335704703,
          -0.0020552345390842308,
          0.005811554884823756,
          0.0006821924944909944,
          -0.0026511603413037757,
          0.010122389636965245,
          0.014875410269177275,
          0.0017503284463185622,
          -0.0025862625106537565,
          -0.004699803235314733,
          0.008387485984810013,
          -0.010400433575437013,
          -0.01178003001603728,
          -0.0001767657048872489,
          -0.0005651754605389884,
          -0.0036386648407440154,
          -0.017098561857139778,
          0.0026509654607866327,
          -0.0073904419843522405,
          0.004690705645509161,
          -0.0004987218479773618,
          -0.0005593363118764108,
          -0.0008694954618240472,
          -0.008022694098677903,
          0.0018433183696942215,
          -0.014286095371453787,
          0.0031401021419922293,
          0.009787999145154902,
          -0.023553334469459758,
          -0.013857166956548669,
          0.0016894245877259776,
          -0.011469831953541197,
          0.0002837354307639223,
          0.01039215975005695,
          -0.006248213468122699,
          -0.004140971510171708,
          -0.03866771680704595,
          -0.0028753537306091897,
          0.008633999145662687,
          0.005056375478964707,
          -0.0016434149117240215,
          0.003956630949437301,
          -0.0001684289487679574,
          -0.01332914167626529,
          -0.008812733615665863,
          -0.0048342753442210265,
          -0.00094571153837503,
          0.017693943950491255,
          0.0058531336692176595,
          0.004259574951079168,
          -0.01017091568071443,
          -0.01713708294329315,
          -0.007902706749365758,
          -0.0027003545107829106,
          -0.0048643011907329664,
          -0.0010901167474973554,
          -0.01091398044217311,
          -0.005637105987431079,
          0.0034085433547029944,
          0.012186120320104922,
          -0.001728534685434846,
          -0.009723070470315199,
          0.0088687218339893,
          -0.009538766098404724,
          0.008522624688884371,
          0.02547233425275469,
          -0.00951217544371491,
          -0.009756727983741248,
          -0.008891984905008163,
          -0.006089438741407031,
          -0.004111851877687739,
          -0.0020892503828048334,
          -0.0004061913134301315,
          0.0013616827107665655,
          -0.006460745190977979,
          -0.00014730797696288337,
          -0.006151213157376635,
          0.005075015022559187,
          -0.011496795749913954,
          -0.009405535148067226,
          -0.0023197590306366154,
          -0.009436347171290611,
          -0.009291993816318463,
          -0.013093518638887554,
          -0.009962616463238887,
          0.009094892155330157
        ],
        [
          -0.000752568598463,
          -0.0031268512458569463,
          0.0023914524486309753,
          -0.0067371454072220885,
          -0.005437249102283996,
          0.000708371885819695,
          -0.004422080251670127,
          -0.010150095067285245,
          -0.00831105650444295,
          -0.006475730154809182,
          0.005916309745432495,
          0.009440063768288464,
          -0.007976847901822896,
          0.007309382103614017,
          0.009641865443828359,
          -0.00336792777742264,
          -0.011997661539119797,
          0.024770696513852677,
          0.006081948341367893,
          -0.01099284734993635,
          0.00034331572595220044,
          0.014129521568965265,
          -0.009316154193319043,
          -0.002290558708740207,
          -0.0008111148266991215,
          0.005299151687845379,
          -0.01668956691199886,
          -0.005937237167607883,
          0.021509288368837184,
          0.009413117825595013,
          0.014690619660598958,
          -0.009456660535856537,
          0.013512626900204135,
          0.014074432185962809,
          -0.009015362922254725,
          -0.003920039607617401,
          0.012800375269941879,
          0.005333503516690471,
          -0.00744861148854134,
          -0.01060698536755853,
          -0.005489106923980306,
          -0.002118596527363223,
          0.0038859292137165624,
          0.005022638453508172,
          -0.016385036283059665,
          0.02478436419170463,
          -0.013730182711384644,
          -0.017639089379877067,
          0.009900699354517007,
          0.0022859018494239282,
          -0.02076002316524303,
          -0.01582715919335169,
          0.003759381073993085,
          0.006406585354469235,
          -0.004668719761041538,
          0.007785055603619384,
          0.0054613413865804835,
          -0.0035492704088269183,
          -0.0008873318547090057,
          -0.0009079608767980628,
          0.013125639176519448,
          -0.0018885065196990337,
          0.015363720500104233,
          0.0056832622169048705,
          0.010101835991103458,
          -0.005037656529934264,
          0.0019929469831079967,
          0.016425812312596426,
          0.005096032740923411,
          0.00924751465224505,
          -0.0015615774364952934,
          0.008210552362908076,
          -0.0015713260458675386,
          0.005610530948965709,
          0.014518611730113679,
          0.0047644952676182,
          0.0021077758139506574,
          -0.0006216082461194443,
          -0.014581840738580548,
          0.0012957055243104424,
          -0.004161801197731848,
          -0.007832133038235685,
          0.007185467693113954,
          -0.004780115193439773,
          -0.0015689281019040141,
          0.002765668340240515,
          -0.003002791267271557,
          0.003112908681801157,
          0.006854961016909778,
          0.0009945777009575105,
          0.008446441982145622,
          -0.0089727172353367,
          0.005221102197586216,
          -0.012498060834595403,
          0.014404654294646355,
          0.012558856309505031,
          0.01047057611926543,
          0.006976163475863355,
          0.013090295902554458,
          0.0021440616900988982,
          0.009428599494327979,
          -0.006167717727673069,
          0.00821786479253347,
          -0.009468115043635782,
          -0.014651229933456151,
          0.009579625083811561,
          0.011544291218627758,
          -0.0005856649713851886,
          0.0071360442241129056,
          0.005079315984187051,
          0.005565907140554803,
          0.0051752978040359365,
          -0.004545546575412602,
          0.0023427105230579177,
          -0.006959098039392537,
          0.009261410593039006,
          -0.0006573411600084675,
          0.004987392881416693,
          -0.0021556127774447023,
          -0.003057964155124153,
          0.0008472718166265699,
          -0.014472310175118377,
          -0.0011865088870892933,
          0.021142020136121823,
          -0.011137950713224144,
          0.0028104749829515907,
          -0.009143362549024661,
          0.0029690027006984386
        ],
        [
          -0.004362172113310329,
          0.015404845404369705,
          0.011002091223601507,
          -0.01015828624413319,
          -0.020995056682101665,
          -0.006778814045752582,
          -0.013672044173427808,
          0.008706709023598614,
          -0.008152574648220308,
          0.011180704869798644,
          -0.012090790052356373,
          -0.01886533020250039,
          -0.004383641013655141,
          -0.005418234141490037,
          -0.004482027317426231,
          -0.007863916416255484,
          -0.016976758496905664,
          -0.008428974910439741,
          -0.007101026668366379,
          0.007593326011245469,
          0.00716727148932821,
          0.017571342622081574,
          0.02086452907430511,
          -0.01159332543279807,
          0.0011925311653868678,
          -0.005287849602318201,
          0.007253095520526526,
          -0.011696476660380983,
          0.01376277100876547,
          -0.011397615852862917,
          0.0012618387792273714,
          -0.0026640458245918413,
          0.013158797968515101,
          -0.0068027379225729795,
          0.013410069496292634,
          -0.002838630525834137,
          -0.0023941745016209355,
          0.0029899759222836116,
          -0.0028636866315548087,
          -0.014579193688985657,
          0.001474942186804651,
          0.004924751364920375,
          0.0073475738506858165,
          -0.007694546027778457,
          -0.007849164414853366,
          -0.00586915131733912,
          -0.000493201489750602,
          -0.005737646871247343,
          -0.020193791949517263,
          0.018191215659843843,
          0.022399916633302465,
          -0.007116421436433029,
          0.01291653007018477,
          -0.005156445760618343,
          0.011709056169569408,
          0.013723668693894672,
          -0.0012569908015704462,
          0.015338002025479478,
          -0.012052803672909307,
          -0.0010961576062450105,
          -0.009430489155147537,
          0.0009088970743752627,
          -0.0037276377253796173,
          -0.015075645094138833,
          0.0035070359876799356,
          0.005164277258276521,
          -0.0034200004561820998,
          -0.014893408294956889,
          0.013352723293169187,
          -0.0034090001952232865,
          0.009766982032613785,
          -0.01247718572907301,
          0.00251618796811637,
          -0.005532324464851837,
          0.0079357300956787,
          0.0013476027235238498,
          -0.000129185022905435,
          -0.012937181843459803,
          -0.009632667574542165,
          -0.002103030821909401,
          0.015338448897616196,
          -0.008334203151944535,
          0.007381918929227659,
          -0.006734184403061715,
          -0.0020057363979096524,
          -0.005477667630520136,
          0.013451297414430833,
          -0.007810011091827221,
          -0.004599443145491878,
          -0.01838734034241864,
          0.013165203782567818,
          -0.010503582611035105,
          -0.016614214050036186,
          -0.0015276413971749075,
          0.00120543077256452,
          0.025666177719697907,
          0.001618770142381735,
          -0.015617848038115603,
          -0.0022882952264869382,
          0.01866136835227535,
          -0.007317784952905581,
          -0.00023638341322090525,
          -0.016251670627199576,
          0.009367385015280942,
          -0.014993376121237485,
          0.000502448689313213,
          -0.005916399722625662,
          -0.002756857563048736,
          0.011096867940903253,
          -0.00431192035493038,
          -0.0037681934396571986,
          -0.0018470409265001703,
          0.0016996229031563828,
          0.0061766893111237075,
          -0.0006126081079752329,
          -0.00042973544212721054,
          0.005333501135680422,
          0.004753432093925201,
          0.0020130538497761708,
          -0.0019062609622625382,
          0.0046219025095887815,
          -0.01140177454467885,
          -0.0005294608904219537,
          -0.011607250798357813,
          0.007687403286595886,
          -0.0025126125267414083,
          -0.014552640881561208,
          -0.016029038983384886
        ],
        [
          -0.012471954553576102,
          0.007638291622761303,
          0.0045953537207500715,
          0.00011901232672127669,
          0.012083061019199502,
          -0.006039817076193537,
          -0.0043819970519470225,
          -0.012046434456060653,
          0.009648001793066756,
          -0.004424433241290225,
          -0.001538421645361001,
          0.011539136286075398,
          0.007676581364065516,
          0.005573432109815471,
          0.018137249616879427,
          0.005326326600856179,
          -0.011430318780261104,
          -0.0017059414435481569,
          0.00253518048432538,
          0.007339631694281883,
          -0.01797658342188996,
          -0.0023079149595658537,
          0.0013455531602237802,
          0.005597477034404608,
          -0.0014751976587990445,
          0.0015128413761326387,
          0.002022884571263549,
          0.0013885028205509057,
          0.007352960222777688,
          0.0025036731403010153,
          -0.0014088935374181738,
          -0.00752978368598032,
          0.004634481369503169,
          -0.006063198052881488,
          -0.01468904013467582,
          0.005555122110804754,
          -0.004271104105637066,
          -0.00670896255406203,
          -0.006417743471072925,
          -0.0030035875536653196,
          -0.006166422813016159,
          -0.006504207965644636,
          -0.015460031743333493,
          -0.027090735162124267,
          0.00866744660621587,
          -0.00023199525231020805,
          0.01525898059475224,
          -0.006376614038186258,
          0.007148912152845834,
          0.00916340820067523,
          0.01224505337189414,
          0.006560019994671214,
          -0.010111233009297185,
          0.009920361305602988,
          0.025060538168308437,
          -0.015583545598683341,
          -0.007679654459896716,
          -0.008039858907749407,
          0.006207713889494071,
          -0.010595128331688644,
          0.010551370803818585,
          -0.012524609027203938,
          -0.009606599289088578,
          0.0015004132983044234,
          -0.0001321667875735256,
          0.0049004567656300724,
          0.014824112139736795,
          -0.004645535782411932,
          0.00046826830548046746,
          0.009243301410451854,
          -0.005263687087542172,
          0.005944088592168637,
          0.004952730850369461,
          0.004672214482499294,
          -0.010819996527825572,
          -0.005541707201111677,
          0.001331280956739712,
          -4.258949934729899e-05,
          -0.0017821676061939146,
          0.015197088980665487,
          -0.024602666626122493,
          0.0028335967097276116,
          0.002265766888543715,
          0.001543545916393512,
          -0.00852538020173807,
          -0.009791791885385183,
          0.011096282221822866,
          0.0019576083992218483,
          0.010635720044520307,
          0.014730106282433075,
          -0.004587731833085431,
          0.001615899335049271,
          -0.007760351064113978,
          -0.004213762183969065,
          -0.0053644660765647546,
          -0.00401570376889063,
          0.0061647926512204835,
          -0.014956212361208938,
          -0.002633302014962636,
          -0.008154167830703862,
          -0.012553302820873536,
          0.008383220997262556,
          -0.0007230426962079385,
          0.00858782847570926,
          -0.007023008048747631,
          -0.02116248416984504,
          -0.010183330171626452,
          0.000990249390056051,
          -0.010276210617045832,
          0.005652032375715945,
          0.002884896981532276,
          -0.002387558846779401,
          0.01722673264275494,
          -0.018798729922392933,
          0.01645467335529198,
          -0.002873470573697203,
          0.005125445242943357,
          0.0017427277853397363,
          -0.0027443332680967035,
          0.011637848894986693,
          -0.0019877583435950327,
          0.009323097446916057,
          -0.007620951085211831,
          0.009780387115531787,
          0.017060534619877357,
          0.010577307847166616,
          0.01634746826168153,
          -0.002772045042604296
        ],
        [
          -0.00023151387558718466,
          -0.018471963499292542,
          0.00852404479423555,
          -0.0010848640315992764,
          -0.0033063842664912747,
          -0.0004926258372352476,
          0.013869038168328227,
          -0.027165897878731946,
          0.004828462617043352,
          0.004830455575875367,
          -0.001438948294123805,
          -0.02299498905453433,
          -0.010458637479241388,
          -0.004980459495662095,
          -0.0003867953747862232,
          -0.00027569757566808003,
          0.008503034621173982,
          0.007027509789262111,
          0.0033731785514662096,
          0.01002814567589502,
          0.018094212358283453,
          0.0011093117685441111,
          0.01377235155188503,
          -0.005031483584343502,
          -0.006244400034900366,
          -0.015161892589762147,
          -0.012288951411977542,
          -0.007403826869227041,
          -0.01890654377365856,
          0.004584179367149259,
          0.007842821077854634,
          -0.0015167513816228932,
          0.01171258368523879,
          -0.00035342920566923055,
          0.0009100357717997644,
          -0.0025247527410875393,
          -0.01334405401375533,
          0.00895933906667858,
          -0.00881052212422895,
          -0.0019786432562378144,
          0.0039020480125928907,
          -5.364787308289377e-05,
          0.012791605892517986,
          0.005946635016294443,
          0.001291851536406533,
          0.004679142487088833,
          -0.01882220928886911,
          -0.011300880135239562,
          -0.014588306596233357,
          -0.012684632873196752,
          -0.001432641637697658,
          0.015103189560396666,
          -0.0018359415433097897,
          -0.001585741568507781,
          0.0009848616117137726,
          0.013585927042330486,
          -0.007626594909131842,
          0.011280372422233396,
          0.014545281350320889,
          0.003966737787360231,
          -0.009012787840179462,
          0.007919110763973416,
          -0.012247353426198796,
          -0.001983159700623256,
          -0.008176241021985086,
          -0.001145981878076512,
          -0.01628948279864554,
          0.0036929107742891382,
          -0.00943767594919396,
          -0.02408516185208,
          0.005534193557940789,
          0.0008789946941928509,
          0.010266447983032206,
          0.003794998162979251,
          -0.005084369369789798,
          -0.019880907781662727,
          0.024017580515640517,
          -0.00794778576032065,
          -0.007311593298705911,
          -0.0045165547591915845,
          0.008696510212030738,
          0.00329659250346568,
          0.018454725050464672,
          -0.014986965638591634,
          0.011724791407566581,
          -0.006245674432100631,
          -0.0032295454367879234,
          0.003944502806255308,
          0.0009969416810907202,
          -0.002037921157781541,
          0.00476279116960174,
          0.007607209158497176,
          0.024094325028867367,
          -0.027506404150914925,
          -0.008194868807588745,
          -0.01153181151039904,
          -0.009033702681893477,
          -0.010774305930261288,
          -0.005955735058359641,
          -0.004183050934007784,
          0.004294872895471215,
          0.025119111817687938,
          -0.015615038430155081,
          -0.0008557970596055551,
          -0.0031722710331670034,
          -0.005047136885644184,
          -0.0038572012817599415,
          0.005889549848251603,
          -0.00016744424854135272,
          -0.0007737726798842094,
          0.003365058206726,
          -0.014139139624937975,
          -0.010553137980743477,
          0.004754858776283023,
          0.014974095330203335,
          0.005724674430429721,
          0.0005976384755302452,
          0.0206856028203801,
          0.007968910037089012,
          0.004353196803806318,
          -0.011686273718255027,
          0.00028100431401761357,
          0.0136568960306589,
          0.011521287732806066,
          0.015514608007235055,
          -0.023874126973091773,
          0.0013163860894730814,
          -0.00016697437314900528
        ],
        [
          -0.009739925270655637,
          -0.009681508114251686,
          -0.00245192246205275,
          -0.005136958239874477,
          0.000414945738123546,
          0.008862996831735888,
          -0.013798935856148067,
          -0.0003408073346330306,
          0.0068838609552806995,
          0.012900378419411896,
          0.0026050142056071386,
          -0.002540366141463109,
          -0.005683237338868148,
          -0.01850047817575172,
          -0.006923869947222372,
          0.0017497013890844378,
          -0.005464782629632938,
          0.013789893784980467,
          0.014920585231274484,
          0.011505496735034442,
          -0.0010405241079049009,
          -0.0108645704451608,
          0.0048443042484406255,
          0.00511028087496919,
          0.014354287039908056,
          0.004806075927337851,
          -0.009111175679156622,
          0.007038437641985595,
          -0.008229601997507299,
          -0.01282904874191879,
          0.012199231426099189,
          -0.003831216204788998,
          0.013627162073955541,
          0.015087130194372899,
          0.0053331064889949875,
          -0.00030417433749819084,
          0.008466602578933339,
          -0.004020056619056125,
          0.00514312345023278,
          0.011657589577565512,
          -0.013984109109487133,
          0.005819337011515515,
          0.0012809404407149029,
          0.01003251941305322,
          0.0030377314742689194,
          -0.0062488899951487,
          -0.00695253927273106,
          0.00823233436488623,
          0.005022779932967758,
          0.003720138053052627,
          0.009436853359897862,
          -0.0005648580419077612,
          -0.006698825297716258,
          0.005393404283652561,
          -0.008916088796336189,
          0.0007527108394380892,
          -0.012171466967466626,
          -0.0023580843161467918,
          -0.014240610758180457,
          0.00552900242269732,
          0.015963478260847562,
          0.011077482194189709,
          -0.00796527465404095,
          -0.006364259008069638,
          0.00712188629386552,
          0.010868073546129307,
          0.012583086717269465,
          0.00240056502857344,
          0.0027654604206798546,
          0.01940698303450402,
          -0.00570581194425002,
          0.017032374869997216,
          0.003955981426664681,
          -0.01073481462141519,
          0.0252764069902445,
          -0.0060287086046118986,
          0.003311020382146057,
          -0.01834830683353701,
          -0.0083803893045024,
          0.0022826058734726684,
          -0.003769410488707738,
          0.004674230764826028,
          -0.007861970033917224,
          0.006407198386814349,
          0.008682855930151,
          0.00014064991677096788,
          -0.003645797591811642,
          0.0040918995315829135,
          -0.005562260368286344,
          0.01220983025746019,
          -0.00260757181731768,
          -0.0070181703729674675,
          -0.002134940489893103,
          0.004598035265098963,
          0.013000580543385255,
          0.013658237032085277,
          -0.0020166945058501325,
          -0.01643321193762167,
          -0.006709627514940237,
          -0.008354620455956542,
          0.015166417758816282,
          0.015581078036908978,
          0.017493302008898197,
          -0.011260784398601176,
          0.008852100238113222,
          -0.0017687694305293727,
          -0.007963939117307592,
          -0.013883504080755511,
          0.004738047381068772,
          -0.010343487972317565,
          -0.005096418197304477,
          -0.004056498454485598,
          0.017026020280813656,
          -0.003050783351119129,
          0.00111640979953261,
          -0.007593104693485055,
          0.008389419014651529,
          0.0073879653847797435,
          0.006286790133808088,
          -0.014837176049376356,
          -0.024281461925897047,
          0.01565381742878235,
          0.0070012679707727845,
          0.004803229482530223,
          0.006377556460950653,
          -0.007802320420747287,
          -0.006355240249392451,
          0.004860549238761788
        ],
        [
          -0.0016493389474998804,
          0.01603184611633427,
          -0.009845730884220215,
          -0.005167201421623608,
          -0.0005123078578577016,
          0.006558858567633503,
          -0.0006178741831325349,
          0.01959156152459823,
          0.011178813553907836,
          -0.019772028155780188,
          -0.013074090144901141,
          0.0030381436406063103,
          0.007811290818510699,
          0.01972398886584092,
          -0.0020583871135007605,
          -0.0012746282564356645,
          0.003357850785818304,
          0.004387059790248172,
          -0.0017800265868905313,
          -0.0014256717913559975,
          -0.007479338692272036,
          -0.0013261348737104576,
          0.0031633447077094434,
          0.001955708597171631,
          -0.0010608926779168432,
          -0.009048608649265441,
          -0.005396808117523806,
          -0.010225545131158276,
          -0.006459153878972881,
          0.010697048944886536,
          0.019441543135265093,
          0.003866687519796272,
          -0.011742248520392115,
          -0.006026930142096495,
          -0.0157662732821914,
          -0.007070454597274109,
          0.00012188980289352579,
          0.005535943266641514,
          0.005496625693941481,
          0.0060334326395486,
          -0.0026730289099670154,
          -0.003944599460468082,
          -0.0005493378562836067,
          0.01943923943370278,
          -0.009325371249766309,
          0.006017441726610543,
          -0.01702939114391059,
          -0.0110701610853573,
          0.00316035991538714,
          0.0006713654479210316,
          0.016647502788065566,
          -0.0030600935756178033,
          0.0019221314325212973,
          -0.008520103815808613,
          -0.00795830609520806,
          -0.017324484025024296,
          -0.012736300195208118,
          -0.00550462621386961,
          0.021908122155788013,
          -0.009648724107589945,
          -0.0024266899405222453,
          0.008172880908606244,
          -0.011880283167519733,
          0.010842554891568353,
          0.008317871187042903,
          0.015280991900285685,
          0.0019950986545989547,
          0.006147323231616111,
          -0.0021877782553902723,
          0.003713893697423775,
          0.0062588495176940165,
          0.005929061723572964,
          0.002579903013892281,
          -0.00910440028062979,
          -0.012343278712278772,
          -0.008417762663200826,
          0.000163499711761087,
          -0.009333503827522164,
          0.0018166891228791884,
          -0.004620559525924927,
          0.007030104407860916,
          -0.008594062928997056,
          0.0011926465565925812,
          0.0026806023811925,
          -0.016150408214092894,
          0.01229779191996025,
          0.009666677191804827,
          0.0025089613319352433,
          0.006141634868193778,
          0.011267548289993188,
          -0.0032709372458094433,
          -0.024823323781908213,
          0.003467539980539639,
          -0.0004428462553946281,
          -0.0007600734857650641,
          0.0038242453796823958,
          0.0018282669278485268,
          -0.024401017880361527,
          -0.01119616267463757,
          0.0002641197270604422,
          -0.004358571990597455,
          0.005424593197251248,
          -0.009450383182007829,
          -0.008422524142721799,
          0.02176406555243246,
          -0.0027844404387492167,
          -0.00662022777804133,
          0.0005532564451212811,
          0.0005590199003362639,
          0.0018457997739885184,
          0.006359823197363494,
          0.01712129481436171,
          -0.013669984219529268,
          0.002340580906236126,
          0.0007850707772488013,
          0.015991771148040516,
          0.012694050030556443,
          -0.009820404786333737,
          0.004581102271495273,
          0.005260448129648571,
          -0.0015922318181097576,
          -0.004057934970014143,
          0.00028915530675391944,
          0.020583685481441894,
          0.01673626506835338,
          0.00407373653342363,
          0.011501250471817201,
          -0.014145471272888357
        ],
        [
          -0.00494135271548257,
          -0.008155488950651504,
          -0.0007565010021284851,
          -0.001112082737088767,
          0.01236126902891871,
          0.01444164630906078,
          -0.010166135653555841,
          -0.009808372806206288,
          -0.006043627014594159,
          0.0025684521366650982,
          -0.006257754671184575,
          0.012875754555095398,
          0.0034764573186398524,
          0.002227675131685028,
          0.006755856892388157,
          0.0009218522971389336,
          0.006936853232016695,
          0.005639648841115278,
          -0.005108156131595615,
          0.0018792334073786875,
          -0.008733346133214063,
          -0.011935908492823112,
          -0.01967069022638714,
          -0.007859407306429717,
          -0.011270546133557085,
          -0.013272440819128371,
          -0.004969025444080606,
          0.003960731523799392,
          -0.010593517244348783,
          0.003728894151787303,
          0.015031454844797827,
          -0.008724506003928677,
          -0.004526505462110951,
          0.014714998129946952,
          0.04398931042425011,
          -0.010328419357965883,
          -0.014057182591003787,
          -0.0052037497806845644,
          0.027024932844444433,
          0.01100420504534694,
          -0.01511065549858272,
          -0.006474110028426727,
          0.004120942910668567,
          -0.009900442661977383,
          0.002252628270101047,
          0.012540167326957926,
          -6.3205481344549e-05,
          0.011535576646914304,
          0.007880661171383349,
          0.007015824316986186,
          0.003474297984063048,
          0.017492235870692156,
          -0.00953176524246517,
          0.011949303310499428,
          -0.006026067329690109,
          0.00538215732898767,
          0.004001365633243773,
          -0.020547339942242008,
          -0.012717278163381725,
          0.010096996551528596,
          0.0005421529282517061,
          0.004036627928399232,
          -0.003089352156684956,
          -0.0011475210429506585,
          -0.0078375616480238,
          0.0040714055603101205,
          -8.649236303823601e-05,
          0.009730514908187443,
          0.014530115397371264,
          0.009393815152526611,
          -0.01416807987477686,
          0.018771428286574354,
          -0.011951262080088707,
          -0.00024098968515048625,
          0.008161044652529561,
          -0.016827040256267436,
          -0.009950654721664958,
          -0.005981829310999806,
          -0.0048495407990582695,
          -0.010151685051484787,
          -0.001991187582364565,
          -0.01199896582148073,
          0.0005538126706324631,
          -0.007361706212667285,
          0.01927577460586298,
          0.012756108552671445,
          0.006577543263446895,
          0.027039086012218987,
          0.020810535374777585,
          0.003034539661531691,
          -0.005456028564323527,
          -0.004318005917883016,
          -0.0009269666839936868,
          -0.011031976502258314,
          0.012838604946300177,
          0.0004377491779098173,
          0.0012306181995379807,
          -0.013306740059994554,
          0.02469208731514881,
          0.009195557774306966,
          -0.013376891113713239,
          -0.0035265022365777348,
          -0.004773617269626615,
          0.005597939557243165,
          0.0017415048193127611,
          0.006549891514861709,
          0.001975204414660488,
          -0.0059407306003300756,
          -0.01049518341780936,
          -0.0013055253380178057,
          -0.0004720910734082662,
          0.004423450421624555,
          0.008233841495131771,
          0.016259541871843343,
          0.007481154656330724,
          -0.009605065054328786,
          -0.000518556743038972,
          -0.010738666204415812,
          -0.00031096141500119845,
          0.00846592539903486,
          0.0055681676859760795,
          0.014910955726098681,
          -0.02573197040891455,
          0.0018860554581410195,
          -0.0007385925259052842,
          -0.009250492872273764,
          0.011562930409462309,
          -0.017812479896546576
        ],
        [
          -0.004760965744101519,
          -0.00031323551554952845,
          0.018519856014634385,
          0.002233463532003867,
          -0.01106152815754801,
          0.008595417972269929,
          0.006941333698626568,
          -0.004022517130409699,
          0.00840370592467877,
          -0.006419970582113145,
          -0.005252224154136499,
          -0.009916932438857077,
          -0.0012651346623542977,
          -0.0022836918962890933,
          -0.0053491678269680714,
          -0.006298946676764762,
          -0.0074058580915142,
          -0.00615377021254846,
          0.012675669452041023,
          -0.016407231284567704,
          0.007082318663625649,
          0.009364798118422604,
          0.003560418659760076,
          -0.002678206554366099,
          -0.007831787500574297,
          -0.012500365765626542,
          0.003205060535224113,
          -0.011382141547115034,
          -0.00885141847753093,
          0.002862871793189402,
          -0.01012513728923963,
          0.005528758393271838,
          -0.0002570100176281155,
          -0.025342400684985406,
          0.00706263555634745,
          0.005463792601561769,
          0.01435773232332704,
          -0.0032169162594955516,
          0.00203805966134159,
          -0.002293794452535552,
          0.012327707546018586,
          0.005063804785391312,
          -0.011361841275896727,
          0.007024362374931774,
          0.004147251304462017,
          -0.00030261963041430497,
          0.014845042051847251,
          -0.012854199817523265,
          -0.010694209044578953,
          -0.01772357323426327,
          -0.013409010723994964,
          0.0029288186827070586,
          0.006545002845495714,
          0.024502869137152952,
          0.014398451206425534,
          0.008308228390994267,
          -0.008746869721158007,
          -0.005684820972598397,
          -0.009036116911016774,
          -0.0042442623950762854,
          0.0013196665380109213,
          -0.00981546925065391,
          0.012699753102406688,
          0.001796719846358837,
          0.010641737994753729,
          0.012063752768883806,
          -0.010780307759320684,
          -0.0016261752842259794,
          -0.003124932411074591,
          0.010020192846253183,
          0.0034584044452362294,
          0.011434413459656881,
          -0.01781696588648438,
          0.020763590158739135,
          -0.00471701779060539,
          -0.009411006862196866,
          -0.003448522470279771,
          -0.007036392056939074,
          -0.007749012316515281,
          0.003195360804718255,
          0.0032780618587172168,
          -0.011237885285163639,
          0.013408363712036202,
          -0.01216753748014685,
          0.0165998006240804,
          -0.005642382771269856,
          0.0035932707339950006,
          0.01094377945111631,
          0.007002925198478814,
          0.010940949253611441,
          0.004914327149238857,
          0.006732961648570907,
          0.00830220517737282,
          0.000298688195200286,
          0.013867843346682493,
          0.02465306347079004,
          0.0006972194822115197,
          -0.00133900980208118,
          -0.0005144130622019896,
          -0.007919460275431814,
          -0.01099170777005593,
          0.008264897022231266,
