{
  "input_shape": [
    28,
    28,
    1
  ],
  "preprocess": {
    "scale": 255.0
  },
  "layers": [
    {
      "units": 128,
      "activation": "relu",
      "W": [
        [
          0.03512660765839561,
          0.03675714434265308,
          -0.03716686743442955,
          0.05170833235441388,
          -0.037360605611981186,
          0.004872432239587006,
          -0.0006959206873112518,
          -0.01342450920260748,
          0.005767197297666135,
          -0.08186263860282439,
          0.044925275367184145,
          -0.009899416877573043,
          0.010066829291394108,
          0.006305795047175996,
          0.06892560053770873,
          -0.024226184601154752,
          -0.051610137148297576,
          -0.0841672616405006,
          -0.0544145462767682,
          -0.024853206321095722,
          0.035359494381168866,
          -0.00235735547157209,
          0.011323602686593033,
          -0.013560733486765087,
          0.015300653191947405,
          -0.1167201625586759,
          0.035584995509288994,
          0.034179729159555465,
          -0.030234318161428506,
          0.07680968435583692,
          0.08437935728090873,
          0.03417102981725174,
          -0.034665864066786345,
          -0.002956957996963732,
          0.10385494144486185,
          0.002178055581567008,
          -0.04551632664306304,
          0.03287893647810236,
          -0.10740655421958485,
          0.08237909480399458,
          -0.019020673980328147,
          -0.07571990540700838,
          0.04366560149644287,
          0.04069885273439912,
          0.07395638867296705,
          0.03270595907734637,
          0.014179486899113738,
          0.021021816915132524,
          -0.00876984300802389,
          -0.016386348572717542,
          -0.03689894438436764,
          -0.02814405354538117,
          0.044531967729799726,
          0.03458319543585768,
          -0.018368415827398468,
          -0.011208016932308136,
          0.08411146044804407,
          0.09062841461614402,
          -0.044848834132370445,
          -0.0681109675626552,
          0.002793458705824192,
          0.05946074182590682,
          -0.039912533626611256,
          -0.013528290873201468,
          -0.11552420672662729,
          0.014296121013193377,
          -0.02564491893787933,
          0.00038510946571743815,
          -0.00253345108457267,
          -0.051315093123391636,
          0.12394844651117638,
          0.06302221514844193,
          -0.025521191851265362,
          0.0030627561212918097,
          0.0027873797412521595,
          -0.023097009139988543,
          -0.059762641230320476,
          0.031857368695135564,
          -0.05602416247179511,
          -0.02698071037764483,
          0.022476569981611894,
          0.011069252045311704,
          0.027481946345552715,
          0.04033390742678304,
          0.0881582081203951,
          0.03443520426270779,
          -0.047876362068283884,
          0.04137315636090053,
          0.07034947195445582,
          0.004703648891308846,
          0.027668520085550243,
          -0.030831756060664184,
          -0.03341653156606125,
          0.014538709467271184,
          -0.0038419056810442805,
          -0.0012218243031986312,
          -0.0005138217312612003,
          -0.08945238871514904,
          0.01912016878487877,
          -0.037334647237824904,
          -0.016475036796523665,
          0.034534629701517654,
          0.0702386218953154,
          0.05231522860745761,
          -0.020133903843919623,
          -0.04028221960719908,
          -0.0213677781586821,
          -0.00274018694699668,
          -0.03022896376015337,
          0.04225038332042331,
          0.05326882957420844,
          -0.12741957608476756,
          -0.07687986161468081,
          0.03626714323336478,
          0.029798678895183194,
          0.05842648586483195,
          -0.058288526493762045,
          -0.031750596231693726,
          0.054514720185537886,
          -0.13917253635661433,
          -0.033364921742551464,
          -0.03892667773912558,
          -0.0032222928819077615,
          0.003066735615553445,
          0.013429014825905404,
          0.016068136508371734,
          0.09268396294759354,
          -0.06173314630371349
        ],
        [
          -0.008300289123771813,
          0.007106563089024125,
          0.015173957724055108,
          0.03423415611250456,
          -0.012669935417233963,
          -0.02174311212047668,
          0.07794717700052928,
          0.01973834016433337,
          -0.042629574864431696,
          0.09912065857486943,
          -0.011970201068215136,
          0.007356417449313885,
          -0.05543031884579198,
          -0.014894442608911276,
          0.04213774047930962,
          0.0012032518614639779,
          -0.025905790835798928,
          -0.025756947296945092,
          0.027797084364426843,
          0.030316336802067526,
          0.03313929578835434,
          -0.04177421628416571,
          -0.04903309301304072,
          -0.03662706670568918,
          -0.05947979665409757,
          -0.021338245438698448,
          0.09201428286590024,
          0.043354820915897076,
          -0.037608399816477844,
          0.10503391729016902,
          -0.04634064239764717,
          0.028892791733248224,
          0.018322360667724375,
          0.02795022617420183,
          -0.03645620231176485,
          0.04174527282960118,
          -0.04184146375571067,
          -0.05778995371764192,
          -0.028375237168127336,
          -0.052040525227435706,
          0.03925942339925029,
          0.006063839319339083,
          -0.046582588693203586,
          0.00738239329384073,
          0.06875311541438694,
          0.05394529499816484,
          0.11643361527846578,
          0.04771416156156722,
          -0.022714840726853418,
          0.039668166494560196,
          -0.013783015708710399,
          -0.05602016881992783,
          0.0020420248209069634,
          -0.0034295991234700994,
          -0.00958582858424497,
          0.056394833438013964,
          0.09219404769049415,
          -0.06414064883502367,
          0.07625365658298519,
          0.01592678826660972,
          0.007060438538241736,
          -0.00025510979123371527,
          0.05131674322644196,
          0.034281483534475445,
          -0.08610603066620964,
          0.025031984036507887,
          0.0544271895428209,
          0.1546905341065203,
          0.02533551461206851,
          0.04142335191719923,
          0.0026805354965383733,
          -0.06763476484720123,
          0.039046412943913124,
          -0.016748925270214668,
          -0.08867124136464749,
          0.11392833547967318,
          -0.012392823403633065,
          -0.04748686622099627,
          0.06703507558342807,
          -0.10800475087767303,
          0.026720653021340496,
          -0.0022537781571849843,
          -0.02144085121188716,
          -0.032009047877234964,
          0.07447997236932341,
          -0.018707662754310735,
          -0.05820336725552616,
          0.1082167295053382,
          -0.03622716128385336,
          -0.038554890786141736,
          0.07283226851294856,
          0.016250074776307466,
          0.015410650819449243,
          -0.039190344715815,
          0.028777906745432947,
          -0.12862809758966737,
          -0.020761188598809353,
          -0.014279358871782262,
          0.0385971509125153,
          -0.10424514305858168,
          -0.06993242605547785,
          0.0029273699103544975,
          -0.002041697828339962,
          0.039303281238584786,
          -0.033095829580580244,
          0.08635909128264825,
          0.00733602842431702,
          -0.04233431196058313,
          -0.07642240302865035,
          0.030987377747507826,
          0.02086312080542364,
          0.07818381469660898,
          -0.015276149617503258,
          0.06464220247599864,
          -0.0049787771841112525,
          0.11225919282907298,
          0.0026233548781007844,
          0.030463851029874915,
          0.03961876611523535,
          -0.08267305056950364,
          -0.02598774205021779,
          -0.029496698589040197,
          0.01110501151522924,
          0.029252021461967367,
          -0.011358185240856297,
          -0.01466048098368475,
          -0.08581649397003913,
          -0.030174236283790467
        ],
        [
          -0.026375008325130338,
          -0.0029718884145626986,
          0.004442327932968714,
          -0.005229872407022002,
          0.008633830993362554,
          0.05454016989208852,
          0.020073690316783393,
          -0.0877591167709834,
          -0.01441783024558156,
          -0.030407976568877778,
          -0.09093023375334638,
          0.022382350280297714,
          0.011729564964956479,
          -0.009176822767871146,
          0.0023979549502490282,
          0.00496572313406025,
          -0.021452780185833412,
          -0.005103915708442538,
          0.013060078408215907,
          -0.04360521092323317,
          -0.004365996118774925,
          0.047169457417140244,
          -0.0053484072252105415,
          0.011748573538680128,
          0.09119741962462428,
          0.0050180168254463295,
          -0.04499215285134399,
          0.027047745633709184,
          0.006827142727859131,
          -0.12057595109302902,
          -0.014638829611017085,
          0.029560832071712152,
          0.05343942868473481,
          0.017686783686135382,
          0.06833459052667513,
          0.0995955277327701,
          0.019041263196944505,
          -0.028467621993166308,
          0.005693525037399357,
          0.019710328707740882,
          -0.037229737757889715,
          -0.035407954722575685,
          -0.004089523842978956,
          -0.050905190364014224,
          -0.004853806524161995,
          0.06911295762538201,
          -0.0545009445448294,
          -0.03796173964460929,
          -0.007148903278735041,
          -0.06250446009723774,
          0.08979083359551498,
          0.0006726560931033247,
          0.0003783435021810569,
          0.1305714914760609,
          0.01268176681078824,
          0.030140637941666756,
          -0.008064528464195577,
          0.07947075906959869,
          0.04229389735220813,
          -0.04189260268438518,
          -0.06980095181954989,
          0.016878041517840853,
          -0.06350852922175097,
          0.016796672929133727,
          -0.05063056048696095,
          0.06536934915619765,
          -0.01364010034993251,
          -0.06409859190703132,
          0.045276527498129104,
          0.03830612630128027,
          0.03684519196633921,
          -0.006857200794662542,
          -0.05974454329109105,
          -0.05082895995999045,
          0.004208465547795316,
          -0.026470823064760708,
          -0.023548469712839963,
          -0.0866123227684582,
          -0.09785659780915353,
          0.04436095469626932,
          0.09699770029837575,
          -0.041304273751139035,
          0.003503091466830714,
          -0.06250855548205374,
          -0.034283693508878034,
          -0.15422287469798313,
          -0.11524273663698396,
          -0.08294039822080324,
          -0.12439615735839597,
          0.0038020624697558516,
          -0.04002073220034978,
          0.05099042330741289,
          0.01488910723455161,
          0.021578173988843347,
          0.016054285881770915,
          -0.061606883226609406,
          -0.001081538796266285,
          0.06469043686221436,
          0.015180586437844173,
          -0.0037758443980776906,
          -0.03332417639466542,
          -0.12389360690149599,
          -0.06529731869593955,
          -0.11956493166488061,
          0.00985681711105823,
          -0.05872524829048795,
          0.03683037199930241,
          0.016988129960871262,
          -0.056478841958522014,
          0.0004933312545758991,
          -0.007813420165596859,
          0.04388890784167913,
          0.026600428918129554,
          -0.014865060616565179,
          -0.003496413672126784,
          0.08598087035935222,
          -0.02267881848773927,
          -0.03274582334762524,
          -0.025086220936000676,
          0.04099609424732613,
          0.0484112205198945,
          -0.08076218695697135,
          -0.03545468987557866,
          -0.03861785196596114,
          0.017995597644391213,
          -0.05964505357174411,
          0.025127856163538926,
          -0.022268423622803016
        ],
        [
          0.060536474022788896,
          -0.006544155584811106,
          -0.1216613505120755,
          0.00400694287621017,
          -0.006086636306375097,
          -0.023422979120655968,
          -0.04654684787077308,
          0.04352871287676529,
          -0.009328366167744826,
          -0.07159079086287863,
          0.06817645882380322,
          0.034109949986310194,
          -0.01876431565882582,
          -0.08256706972586549,
          0.005692598903503842,
          -0.009006620934947867,
          0.06358575705370093,
          -0.08787186979713434,
          0.0027262812113296353,
          0.026507125427624918,
          -0.020351672361807526,
          0.05614587022758262,
          -0.008310895926225137,
          -0.012360091283723298,
          -0.05834760274053867,
          0.023300673349635113,
          -0.05795400880263683,
          -0.004130145757789829,
          0.05238991560055617,
          0.002904829778691859,
          -0.02892264777460509,
          -0.05050715808667634,
          0.025338660590773703,
          0.0054974204743505955,
          0.09564313282664169,
          0.06686886060842835,
          0.08475284353122468,
          0.06300238440561493,
          0.06087109922941854,
          -0.03584035596163494,
          0.02539842457318163,
          -0.01585149875607044,
          -0.02195624132525171,
          -0.006771550363277459,
          0.043599080619968554,
          0.13572112996683874,
          -0.030162797182706525,
          -0.02144858779632889,
          -0.04561798017128561,
          0.009883967702990687,
          0.0408946340812487,
          -0.02706859066973872,
          -0.05227058369951774,
          0.034584737610920485,
          0.12000332851192247,
          0.03753064864189654,
          -0.021961290005653434,
          0.012665829347540401,
          0.019165676850627398,
          0.006754139596793491,
          0.02589014058872829,
          0.0736743798763735,
          -0.09242324900070131,
          -0.016642568047166115,
          0.009947993336796052,
          -0.011411944098690908,
          -0.09608201153133313,
          0.08924979575827545,
          -0.031805224360256054,
          0.06802270423631607,
          0.0320087016702104,
          0.0015552192086969836,
          0.0005605304190049495,
          -0.011083074371666468,
          -0.026089404242161104,
          0.025578905683416624,
          0.05840979610080228,
          0.06594286211894596,
          -0.010967407929532314,
          0.05722807962191047,
          -0.05727470314921893,
          -0.004253447333487138,
          0.0443603982078413,
          -0.054934161019156304,
          -0.03572291220684559,
          0.07809793156416968,
          0.029661724077161767,
          -0.07573755328868563,
          -0.01878936709533254,
          0.028813183837204707,
          -0.04108045877390934,
          -0.022990416684339977,
          0.06438895437934494,
          -0.07648723166609016,
          0.03979984806380275,
          -0.04097525135216201,
          0.010440193544139552,
          -0.07867565147624793,
          -0.00583055720701642,
          0.006568504375683886,
          -0.029817413390935833,
          0.07083275235650896,
          0.015479504378639628,
          0.058760469198503924,
          -0.004158014678051817,
          -0.07865178781711146,
          0.04302399443041036,
          -0.025486190758545958,
          0.055296496713227214,
          -0.007108853926292205,
          -0.026105137115883588,
          0.026252063533193704,
          0.0678573983908397,
          -0.026020283788380127,
          0.01830239507433503,
          0.034019791627013345,
          0.03576173845661089,
          -0.10711982437929607,
          -0.048025992525100654,
          -0.019475600942792725,
          0.09701164425716702,
          0.02783598371070065,
          0.03122697264374937,
          -0.016332460609115147,
          -0.0699525793929919,
          0.006555876127846484,
          -0.11172536400785806,
          -0.013227933865543298
        ],
        [
          -0.07859594728304665,
          0.00613600078563765,
          0.018706034798150167,
          0.005349529425400722,
          0.03964800476334654,
          -0.013714521738238311,
          0.03817336100203297,
          0.07179613078869887,
          0.011969736910893638,
          0.005745409292403552,
          0.028105017471505865,
          0.09644942500105128,
          -0.04822259677787731,
          -0.01927371431178526,
          0.09692950442883883,
          0.03175052063014462,
          0.007626179039224235,
          -0.10525966815858097,
          0.12768161717423415,
          -0.07079560569465153,
          -0.035912449009507956,
          0.0023753356033284424,
          -0.022293113237202407,
          0.0734405551707916,
          -0.03709440953252763,
          -0.011731045795622343,
          -0.019098988358280757,
          0.07453709030831036,
          0.051731838364837385,
          -0.0584752693930087,
          0.08129929958539399,
          -0.04479334115173889,
          0.10189821749673161,
          -0.021494524010512352,
          0.13351245727614422,
          -0.08439931603401597,
          0.0037333947037167334,
          0.03608736433511235,
          -0.030001041315982396,
          0.05455844947055889,
          0.03347280683200801,
          -0.03165972604767198,
          0.09218813648498185,
          -0.03903532539057253,
          -0.054698973298936894,
          -0.06459566324676821,
          0.059093398568851215,
          0.051516465124840954,
          0.07327446250480113,
          0.027731794064344926,
          -0.08626897800580852,
          0.0678190407145358,
          0.04059115709690267,
          0.018743971347042473,
          -0.06644785576577375,
          0.04256597711608114,
          -0.019907531969781483,
          0.0393065185372631,
          0.08681791365946698,
          0.011703739315390082,
          0.0355029448902968,
          -0.029413030166124735,
          0.04811286474569123,
          0.04508691622904276,
          -0.07380793514912491,
          0.0008857070948376966,
          -0.06386010140969574,
          -0.059055203493346024,
          0.07033390807224399,
          0.03440824918744884,
          0.023347652455540786,
          0.07938354053927699,
          -0.0742244372720188,
          -0.04416009483024181,
          -0.009466467810250088,
          0.002951656996886513,
          -0.034329485054037344,
          -0.043886712276967825,
          0.039886470181898656,
          0.06601718381787179,
          0.051338752835430664,
          -0.0375033019852046,
          -0.004442660332425066,
          -0.05234384073336012,
          -0.11337479997257201,
          -0.036347333756346634,
          0.00546997693645637,
          0.02755779367355612,
          -0.027956443817764274,
          -0.01635869838207735,
          -0.03940341679098594,
          -0.0011179075364485562,
          0.015871253134098692,
          -0.07943243264244672,
          0.030611874886434225,
          -0.021725842455824596,
          0.016337186897409428,
          -0.08189336706961128,
          0.011854481374717852,
          -0.01611931038995334,
          0.05655719805774754,
          -0.015618995407706488,
          0.04249787407117545,
          0.008776503559722263,
          -0.034478446274868894,
          -0.05542187490939773,
          -0.013451440364983108,
          -0.015763113753410128,
          -0.017603765584174244,
          0.12258386825338004,
          -0.03515110672267478,
          -0.022270501170003888,
          0.0029926484251044756,
          0.013026434510008341,
          -0.06085265253363796,
          -0.0941840135307852,
          0.07184030601808258,
          -0.031309458220926005,
          -0.03691631092263683,
          -0.052462759626674446,
          -0.047176941754172176,
          0.018693875224588163,
          -0.003572246257169454,
          -0.07892993186060525,
          0.019027953264525,
          0.06036900323182159,
          -0.018087168419603436,
          -0.02685172624785627
        ],
        [
          0.011860877906234177,
          -0.03940511012754081,
          -0.010202200694315438,
          0.01921893493732541,
          0.018156603609799093,
          -0.033396706947646654,
          0.0016075084490252526,
          0.03685171137134349,
          -0.0037317284130664774,
          0.02818275962650513,
          -0.14091114218983875,
          0.02197901991835389,
          0.07506956226374596,
          0.036406443726523345,
          0.06579149801246881,
          -0.0013181915385504618,
          0.0055768246463484055,
          -0.05135486966306539,
          -0.008688503505730987,
          0.011885592068114839,
          -0.02419683222354912,
          -0.04613612042426792,
          -0.010778959819358412,
          0.03998823125055824,
          -0.02413357352743851,
          -0.007998692505861044,
          -0.16946918018745907,
          -0.04260662655475131,
          0.006840079464174983,
          0.012422525865717552,
          0.030960896839594944,
          0.0894635061538286,
          -0.06749550172303839,
          -0.0007208421822623981,
          0.04821069878727226,
          0.055152040671730865,
          0.07559391294731664,
          0.020360303156272973,
          0.001537887551523634,
          -0.005620277395745086,
          0.056122234913350146,
          -0.003848522409954395,
          0.021005706330403297,
          0.023478157095373327,
          -0.010502699096588627,
          -0.020352826864198533,
          0.05053665826963308,
          0.011939305930100156,
          0.04383292096381192,
          0.04424702393947373,
          0.023688123751112358,
          -0.03839032386353023,
          -0.036580482023337954,
          0.016916552941999015,
          0.027487243209178457,
          -0.021665755249489663,
          0.044106976568696915,
          -0.09059594414463204,
          -0.009287594920272547,
          0.037498448354905456,
          0.02635189935655827,
          -0.09145064774449789,
          -0.010806876980445888,
          -0.03624860941190262,
          -0.01488854634580388,
          -0.017735521776791746,
          0.020787653180686677,
          -0.051408646183460936,
          0.05650094082330025,
          -0.022409685112748226,
          0.03021747085130743,
          -0.05699640548889102,
          -0.014359871285189407,
          -0.009627484677799475,
          0.0027849648230449265,
          0.0909300726887934,
          0.02643614557923955,
          -0.01272361607850316,
          -0.02000775777832351,
          0.02727617957054808,
          0.01655431565569147,
          0.0387092306216515,
          0.0031583139059883606,
          -0.06585589821604594,
          -0.035438917693154506,
          -0.014852289339807668,
          -0.029611025265026552,
          0.010251748896840563,
          0.015452080020228793,
          -0.0012571493450538726,
          0.09554306891732783,
          0.03785671285605825,
          -0.004594869006589059,
          0.005538779287446833,
          -0.06426624792240981,
          0.0345871198611558,
          0.05475941235566473,
          -0.03486070311269827,
          0.013157285188009314,
          0.08097809449687704,
          0.013472820522113299,
          0.022509587689557093,
          -0.002025788541947371,
          -0.05668550183391043,
          0.0036063159987698603,
          0.030954525140408355,
          -0.1120372090931879,
          0.04552107958521283,
          0.021611920737936587,
          -0.0374474731206936,
          0.0032431139504670247,
          -0.01110704759874155,
          -0.023257456660736798,
          0.002998232463785532,
          -0.011881199341957584,
          0.017900351043189905,
          0.02803172917857684,
          -0.031403409815001115,
          -0.029768254598733102,
          0.03712308406762852,
          0.011487926902913372,
          -0.028382969119358684,
          -0.019566823209256193,
          0.028859744554047183,
          0.019660537447257057,
          -0.055655952952845714,
          0.022681690260954995,
          -0.09951186330477611
        ],
        [
          0.09724995916091136,
          0.039211936245565654,
          -0.015304276644969375,
          -0.028629590150430803,
          0.01895066257159426,
          -0.02530631287144042,
          -0.026061117977974342,
          -0.05110744609361617,
          -0.03502236593284076,
          -0.020615210733721117,
          -0.016250002413672474,
          -0.01913098537112757,
          -0.07181065483720799,
          -0.09285649606032025,
          0.006376839623270634,
          -0.08162785651659907,
          0.05295486913741993,
          -0.018559195952044544,
          0.019043866501568626,
          0.10191733778285295,
          0.04897503386058647,
          -0.031214141057739838,
          0.0051198453455434684,
          -0.04006387285751959,
          0.02251791960315978,
          0.00549330162015469,
          -0.04586661051661284,
          -0.04773912058628466,
          -0.04618654372363521,
          -0.05467640436211686,
          0.025436903675576744,
          -0.07387817616372545,
          -0.02578234832790815,
          -0.0733281897646312,
          0.09619446433132373,
          0.001662550885376048,
          -0.07805622328413503,
          0.06945230849326273,
          -0.01298674200233638,
          -0.00378348214335929,
          0.0900513310468377,
          -0.053481158563917136,
          -0.003993542931566727,
          -0.053252032512960054,
          -0.005058600353657612,
          0.030092021427292868,
          0.011458255197770014,
          -0.052965054878056965,
          -0.08221262545146171,
          0.035977951028693556,
          0.07194668391301626,
          0.033885867348595694,
          0.04535332086872887,
          -0.006052893022646632,
          0.016953127703900464,
          -0.0010011943941901074,
          0.007361780591794099,
          -0.04068708388002143,
          -0.018200677368288957,
          0.10058599045023918,
          0.030630297189874412,
          0.0466069562079436,
          -0.08425600332474291,
          0.008412982108876215,
          0.009578843492792715,
          0.06934909695668807,
          0.03987927205505673,
          -0.05326259381351081,
          0.11832547198396824,
          0.056586324877430726,
          -0.02656257829035553,
          -0.06350056949871401,
          0.03859811315653293,
          -0.008424188661821116,
          -0.03235273434158148,
          0.014242783575237979,
          0.02630726990690758,
          0.001108881006698677,
          -0.014804140027403236,
          0.02456652745885064,
          -0.005952938994731098,
          -0.003089857757619244,
          -0.013795241049093689,
          0.04938177917640839,
          -0.05365471538471609,
          -0.014544965643694866,
          0.045708452774164514,
          -0.021724313304620223,
          -0.028526762935781484,
          -0.11006410861531046,
          0.09845360262934484,
          -0.10446742448280956,
          0.08648008515212717,
          -0.02471870169169336,
          -0.007709383237025436,
          0.05555168569599257,
          0.05513357497180605,
          0.018270850963513417,
          1.476198289437193e-05,
          -0.0041758077192332295,
          -0.04937540589773634,
          -0.030180644806892264,
          -0.052989446711352015,
          -0.08081228666661477,
          0.005091776191222917,
          0.05714247566545945,
          0.06494527623921922,
          -0.12232402707262452,
          0.14399911682959304,
          -0.1239989599837145,
          0.06588024513634384,
          -0.02121116541240448,
          0.01899437294611785,
          -0.0061449588749684855,
          -0.0905294960299807,
          -0.04793874558247519,
          0.11184721992797471,
          -0.019338481789365137,
          -0.021551176141275913,
          -0.1046994547461325,
          -0.07286466215602724,
          -0.0697699879541669,
          -0.005562925977865144,
          0.09945024593334266,
          -0.056260627638196545,
          6.354947830324457e-07,
          -0.04680244613187727,
          0.01261522553272837
        ],
        [
          -0.0739444084487172,
          -0.05807154154967662,
          -0.044121391338364326,
          0.0334582401887036,
          -0.07447484508069438,
          0.032362967002776064,
          -0.04736757145913688,
          -0.018812370745588444,
          0.03791239538340806,
          -0.002771508146134489,
          0.024409482333617873,
          0.08064216303249219,
          0.0057890950940129035,
          -0.14320158723785367,
          -0.025554360811272797,
          -0.009204300506976579,
          0.03569316005182352,
          -0.05161513454095761,
          0.08748804854212529,
          -0.010852957960392613,
          0.019463002119776862,
          -0.10423043215829282,
          0.013215937193769177,
          0.04768383709080865,
          0.028693920556246703,
          0.05430815695140352,
          0.10771348227515143,
          -0.004338652702184921,
          -0.09301794823863889,
          -0.012017341987489974,
          -0.06759548571730403,
          -0.07616436511512176,
          -0.017237807855710024,
          0.0016628196809659488,
          0.09734711729569441,
          -0.04580202337584712,
          -0.025957834235055606,
          -0.014103015739366493,
          -0.008959157506291053,
          0.02417505863406761,
          -0.0578300683094283,
          -0.021721981659407724,
          0.006822319069346415,
          0.004090875273138976,
          -0.05667091853365248,
          -0.04216866247098377,
          -0.01896753221675301,
          -0.012765502395542938,
          0.06807552163233656,
          0.04360451158163834,
          0.011070689279508142,
          -0.07203425115884361,
          -0.07873500922695459,
          -0.01052624246152959,
          0.03970268048875302,
          0.002691175632589281,
          0.006254826873850945,
          -0.059596604024805315,
          -0.060924285152311554,
          0.03639359901147456,
          0.016273427697753935,
          0.07624572190362318,
          0.03945250620248738,
          -0.08202432496839455,
          0.016627707724279836,
          0.07283588524814566,
          -0.08386819049061514,
          0.054129626600535864,
          -0.05207499923993547,
          -0.023934896938378244,
          0.06762430117356348,
          0.005472888496056092,
          -0.0510882008043557,
          0.01656518957487617,
          0.07137449263503348,
          0.028247913694073912,
          0.016829319890952397,
          0.06044135522543594,
          -0.016823733417899008,
          0.09788913263713386,
          0.005758085358449662,
          0.04135270471414771,
          -0.02762318160810167,
          -0.07730605465205387,
          -0.00237408821494519,
          0.02051391840227196,
          0.007717381489247679,
          0.11684680317348062,
          -0.1053970390032311,
          -0.007500459772048743,
          0.06228873859455317,
          0.003686435544523598,
          0.11417470551673103,
          0.06547656654669536,
          0.09944405453261636,
          -0.028593821216722878,
          -0.0807928685278871,
          0.026533135999338233,
          0.014962568773733231,
          0.04214797568232924,
          -0.05610281517878932,
          0.0010543762346475823,
          0.05015958962045871,
          0.0014147477881763333,
          0.011141989992148498,
          0.011925210385231437,
          -0.06552076815010835,
          -0.01002688838281789,
          0.03615415361149811,
          -0.018827728661025684,
          0.013644473918325961,
          -0.04588961610223561,
          0.07718181651565201,
          -0.042938674761880506,
          -0.020862780787215894,
          0.019749451938542106,
          -0.06802571635910677,
          0.016081971211960155,
          -0.00012576531465814558,
          -0.0033446510666815675,
          0.10045970066515798,
          -0.01748222007608807,
          -0.05514948427258543,
          0.08868938641081836,
          -0.11640168503036248,
          0.025069663942749894,
          0.0184122444290308,
          0.03707745504928022
        ],
        [
          0.032057641223837356,
          0.043270504563038936,
          -0.039390540003471156,
          0.035678672255239886,
          0.07384525380605714,
          0.03897558959039189,
          -0.000288017134079471,
          0.10231007859775818,
          0.07560738007805132,
          -0.0029660128851753294,
          -0.040382572690548735,
          -0.19969006580293883,
          0.008157218741040508,
          0.02285289410064727,
          -0.03971187182475416,
          -0.034123875258331146,
          -0.0049061782031675025,
          -0.051111487482805716,
          0.04975209295610278,
          0.04208832312206649,
          -0.03180237551296778,
          -0.013035641537762963,
          0.004785164846808291,
          -0.00941889334468653,
          -0.012073705908258781,
          0.08740601335439233,
          0.021498992110276192,
          -0.04127561514995283,
          0.10998119488769469,
          -0.011621789025071804,
          0.0015464553943255088,
          -0.01708159635604987,
          -0.05153136609702269,
          -0.013477670273539579,
          -0.033250348724616206,
          -0.07046404069510787,
          0.021670471537238917,
          -0.06883563552330968,
          0.03232824305769824,
          -0.017925016137013854,
          0.023861999005083016,
          -0.09691107914871688,
          -0.04842838700705045,
          0.0723058183120453,
          -0.06912853957722011,
          -0.06970302967184618,
          -0.005186705978273469,
          0.034514649223781765,
          0.026169704175765092,
          -0.016510963265874555,
          -0.021355557803937535,
          -0.09427255736050193,
          0.060951985471464666,
          0.009449960458007795,
          0.008712485143035058,
          -0.01746463573329988,
          0.07569025368264747,
          0.015409280646504845,
          -0.08477026614033499,
          0.0025402415685214933,
          -0.07655569289901165,
          0.057838639667393554,
          0.02382365235409972,
          0.05187600398052776,
          0.0025474902789596877,
          -0.12189075954323393,
          -0.011261847939918058,
          0.04841667687985873,
          0.020762628217217485,
          0.10438186602165934,
          -0.0369262825465014,
          0.006890541006303179,
          -0.0024465912494853396,
          -0.0793140684060366,
          -0.002712217688710924,
          -0.015347023586147833,
          -0.02165700554642458,
          -0.010397312339280358,
          0.039868786013374714,
          -0.02544535085664337,
          0.10220858209886728,
          0.06034260048888358,
          -0.023241869670306906,
          0.07788857466841913,
          -0.01552172115725898,
          0.03614848243500685,
          -0.023187258605391507,
          0.016834198247854565,
          0.03642899055042298,
          -0.04464874372981623,
          0.00992056550117989,
          0.053513836285431805,
          -0.01129517154538615,
          0.1248212398885479,
          0.045271475445408715,
          0.02318882817217278,
          -0.01777024624446524,
          -0.0044557128451685225,
          0.12770953785397773,
          -0.030476736589301168,
          0.03348798487038633,
          -0.023540702808892616,
          -0.01170679762780829,
          0.009433148978128579,
          0.06393987468514424,
          -0.028105210082194507,
          0.03568609630282967,
          0.009860754859646312,
          -0.06740633071357789,
          -0.02693576509100067,
          -0.0008400452140993624,
          0.07377949333943877,
          0.04239531726637407,
          0.01236297449991084,
          -0.042322946710690354,
          -0.002906749134098156,
          -0.023570693284194172,
          -0.025495482002915876,
          0.031822726508455,
          -0.08056604724950321,
          0.09063795582551176,
          -0.01909188897965719,
          -0.04504589271255992,
          -0.012632171365862935,
          0.057661020984591985,
          0.04816808100341911,
          0.1496000568706142,
          -0.09850916535739387
        ],
        [
          -0.06854118316168764,
          0.06176857124565509,
          -0.029520663428098053,
          -0.023985300157929466,
          0.03531921116678793,
          0.0611521245827417,
          0.05694337005432898,
          0.004967148767997664,
          -0.02044063924846911,
          0.01742593674443593,
          -0.016351199278278668,
          0.028443858142005563,
          0.02166711254130162,
          -0.0018091674298421345,
          0.02117261170255944,
          0.018025891472226475,
          -0.07169277372728786,
          -0.0020065628869694544,
          0.009602699990416942,
          0.015481264803185003,
          -0.06643835643973642,
          -0.046721226809147205,
          -0.06436338391995482,
          -0.0074553369254930285,
          -0.048416985826623175,
          -0.037883739122387655,
          0.015267888397687878,
          0.03425144883616954,
          0.034706749574387435,
          -0.09896586080874953,
          0.1283774244502217,
          -0.011149277891018994,
          -0.029934735044958076,
          0.011529468121221626,
          -0.0076514832952710495,
          0.09111270761930781,
          0.021954441667654173,
          0.002515166979829831,
          0.06291064443153388,
          -0.09118834615074403,
          -0.005596783822559084,
          -0.04624677879652825,
          -0.10183864224619597,
          -0.04507292211667475,
          -0.10145086989096927,
          -0.030432344161581026,
          -0.030096389371015754,
          -0.05961796901073316,
          0.03258783000806862,
          0.039950267673518315,
          -0.0052143803073729485,
          -0.042334500812585614,
          -0.008102464973257542,
          0.0549297038235957,
          -0.009118748997147761,
          -0.03523683187945187,
          -0.029636557051924722,
          0.040847125836614775,
          0.027765606079344415,
          0.03314233048882719,
          -0.03540994499658487,
          0.03499554414954984,
          -0.060898725586899884,
          -0.037062854875220166,
          0.04673432922518352,
          -0.022852006804698694,
          -0.02130755478299765,
          0.04742176863076962,
          -0.012577108812355242,
          -0.010530941146020855,
          -0.016487686949416016,
          0.06172263122339892,
          -0.03286978463301374,
          0.02124362242132164,
          0.10676143062805048,
          0.09549360447747082,
          0.017733340102626664,
          0.013315990717305366,
          0.06353804302102435,
          -0.014287353143144393,
          0.016772141772429736,
          -0.03712327846812939,
          -0.10649106081543673,
          0.006084979920743169,
          -0.08165895764937013,
          -0.01361035035642724,
          -0.07218290962902255,
          0.0390777939267085,
          0.02803175872571863,
          -0.017765759913227774,
          -0.0026881909787957064,
          0.024715925078768346,
          0.018946833700640656,
          0.04343267344869702,
          0.021849899257711736,
          -0.001254030203874916,
          -0.026838043160287844,
          -0.03903882651550568,
          0.038396978649406145,
          -0.019259917251619088,
          0.011457164335874416,
          0.01234318094519404,
          -0.005681230332225656,
          -0.0399476211439636,
          0.06407595658579991,
          -0.04157772102448885,
          -0.00896260213823106,
          -0.028987375343657616,
          0.09048633034031178,
          0.031911157186840754,
          0.05611924145606304,
          0.041519811204122244,
          -0.009543788266062588,
          0.019905121024967935,
          0.011777495359240468,
          0.0024144977164993037,
          -0.10524767646472391,
          -0.029754042588215634,
          -0.06436659068185,
          0.08500783841183672,
          0.04692518607157788,
          -0.008126778638272322,
          0.05213617216122874,
          0.02534806798122718,
          -0.015780455955325345,
          -0.008129772491810764,
          0.06697151400557116,
          -0.07260386955520702
        ],
        [
          -0.045638032860100285,
          0.056485369553678284,
          -0.04849538881365828,
          0.04246583056101322,
          0.05390575422791693,
          -0.07508494510179653,
          0.08802394973522748,
          0.06895475649785496,
          -0.04304125652923951,
          0.022699823794164867,
          0.04242904439091757,
          -0.002531974870669364,
          0.027015995846326312,
          0.048722951128287784,
          -0.022491307040067788,
          0.07489255072466067,
          0.12541805661035685,
          -0.07795872690832255,
          -0.08930120255761438,
          0.0005253002208612767,
          0.07135938600440732,
          -0.04597849127526301,
          0.04112832110802893,
          0.02592574635374964,
          -0.03375141740414383,
          -0.03988789366852385,
          0.020224162301918456,
          0.06696506815123432,
          -0.022501287418194075,
          0.010113412009806455,
          -0.008563156798508286,
          0.010573158832101739,
          -0.010770859413438978,
          -0.16643915083864105,
          0.004149525643759653,
          -0.050206722820756444,
          -0.01055808006185345,
          0.009689058152550993,
          0.12721021240956554,
          -0.06797840300000037,
          0.0928659783039075,
          0.02411391086801253,
          0.0432212442055659,
          0.056934768038438686,
          -0.06183109715460253,
          0.001407571430688309,
          -0.006811293817031096,
          -0.00191370649522274,
          0.005761769370942848,
          0.06912076517162215,
          0.062005739393541794,
          0.030545349775377716,
          -0.10846974344743969,
          -0.07553433747143597,
          0.037139137023507844,
          -0.02227948275212056,
          0.06158717111733213,
          -0.05542979557848576,
          -0.0579117217221836,
          -0.0011893774865961017,
          -0.00351362016766389,
          0.039237757113875456,
          0.02624469053983929,
          -0.022295267808889414,
          -0.06411210205150057,
          -0.020942022294995595,
          -0.005577544708816332,
          -0.09868673659718824,
          -0.04886951527810104,
          0.06276680627015653,
          -0.07853031846765987,
          -0.05020355725384086,
          -0.057775307338793505,
          -0.014416932732633924,
          0.008874751327902683,
          -0.07995466412641648,
          0.0503445818678518,
          0.03019325286761881,
          0.08821532761312126,
          0.056892876744722626,
          -0.04422956815948279,
          0.02355388237810835,
          0.14250360150159327,
          -0.005227702312335308,
          0.04890851296150476,
          0.04483480698514652,
          0.022731450640288912,
          0.02894575846902773,
          -0.007511226935631104,
          -0.0521458516804639,
          0.07606985493787005,
          -0.08074925819928004,
          0.009542008571764429,
          -0.0354284317368331,
          -0.03177097214455951,
          0.017216879306547948,
          0.06479430588676441,
          0.07847914873791377,
          -0.04537929895819749,
          -0.043465276267041095,
          -0.011662813667073585,
          -0.0035703637387647907,
          0.03383668911619236,
          0.05288182498462087,
          0.02790373957967898,
          0.12609336085060605,
          -0.046550474195163026,
          -0.021463286741408905,
          0.09954372853741146,
          0.025981728673210178,
          0.09282600985652463,
          0.06323402889626893,
          -0.02709177563676893,
          0.12283345694602497,
          0.07651005753062355,
          -0.07719304462303814,
          0.02437539139552436,
          0.026257139120068617,
          -0.08360649481444642,
          0.02790081156115082,
          -0.0643694044186884,
          -0.026889195087295144,
          -0.005119993969822484,
          0.07445272390240865,
          -0.005468674120084563,
          -0.0029046302573790556,
          -0.013873008015768696,
          -0.004749835469668586
        ],
        [
          -0.056358429004201335,
          -0.05551205864913094,
          0.039135266715148866,
          0.027104762481031976,
          -0.0053617001141889765,
          -0.010550564506991376,
          -0.022817499958094317,
          0.002678267832806465,
          0.07956306057254951,
          -0.09803984506853868,
          -0.020230745490336408,
          -0.04103553489210452,
          -0.0017162795767200203,
          -0.020057639431797804,
          -0.017504150409544644,
          -0.05500446605094853,
          -0.021802192587295276,
          -0.007035004790224458,
          0.030149967431620267,
          0.038221883010383456,
          0.020586901060287745,
          0.0034286405411152856,
          0.014022002150244446,
          -0.006561882576703207,
          -0.0047791334629318175,
          0.02574121124699771,
          0.007567759673391793,
          -0.019031763375417537,
          -0.0011361322529910309,
          0.051718774406006376,
          0.07317636706751166,
          0.04966035484747116,
          0.05151884931499556,
          -0.048936895520947585,
          -0.0027184836491737177,
          -0.02968201296622745,
          -0.09946414857209311,
          0.05408307257503539,
          0.00122117863552323,
          0.0288816900179629,
          0.12087583466659682,
          -0.03523842067946963,
          0.014418803338036862,
          0.02589824046365689,
          0.09599762982801302,
          -0.03183920962820567,
          0.041324954449167006,
          -0.050821441318679696,
          0.06466203250192532,
          -0.04567659341044516,
          0.05129332774028697,
          0.02813264569362391,
          -0.06240261451710299,
          0.008185819120277533,
          -0.04421506803237055,
          -0.07490077267208492,
          -0.006054610987034258,
          -0.02419559770671143,
          0.06569086109164204,
          0.01381914588733569,
          0.06602911467420094,
          -0.046342808609299416,
          -0.04078595766003071,
          0.05983940148599209,
          0.016614902034987066,
          -0.003468848529140001,
          -0.020232507419050583,
          -0.019459509935735815,
          0.032211970112543634,
          -0.053512680581302555,
          0.04195490923029122,
          0.008148710775211046,
          0.04193179064560933,
          0.1516670302249003,
          0.03293837793423851,
          0.07733516289817442,
          0.028754095934092616,
          -0.08627878174549941,
          0.01334161439655733,
          -0.05190872758825021,
          -0.08248975814013093,
          -0.0071987758898340295,
          0.0019160976628955749,
          0.10022920729969115,
          -0.023580106267747775,
          -0.06556976721355692,
          0.08360382222701351,
          0.014156370256435217,
          0.06475611331841818,
          -0.04320547523983898,
          0.04507969216792626,
          -0.028487370862142064,
          0.0144487127039283,
          -0.0184571644983651,
          -0.05546791759795277,
          -0.060157432986347736,
          -0.016010577362849842,
          -0.04284955510282118,
          -0.07391253340515205,
          0.0360381076344938,
          0.054082607660326514,
          0.06884042224638884,
          0.02404559174653684,
          -0.058558477568191235,
          -0.06419725817661895,
          0.02426656098894807,
          0.01891475861936027,
          0.09649138377859214,
          -0.044651697097316013,
          0.0763813420202274,
          0.05118432657158079,
          0.007301529259310568,
          -0.03516810253645591,
          -0.05444225302622656,
          0.0055131556920429295,
          0.020560764364500963,
          0.036561686013497276,
          -0.03152666557118952,
          0.10718135295093892,
          -0.09457279101537197,
          0.028921560748154086,
          -0.04633562734137282,
          0.023446461694094742,
          0.015996277267285933,
          0.002591369915385645,
          -0.03747935812757949,
          -0.07608128121248,
          -0.03862941737804327
        ],
        [
          -0.027759619941726814,
          -0.07473516902210534,
          -0.06411058483528595,
          0.02588199021901003,
          -0.07442808903532473,
          0.007617114828128207,
          -0.10629360394627109,
          -0.06793738869417798,
          0.07238116255851365,
          0.02431633365425688,
          -0.020945678025171114,
          0.059240491835442693,
          -0.044902684568624285,
          0.022574255927752647,
          -0.0673090845251213,
          0.01769578047052587,
          0.07018922198688873,
          -0.06005930007441484,
          0.07530681045973303,
          0.05933639714930234,
          0.11372089181731788,
          -0.07036575367890252,
          -0.058296695162745084,
          0.0455156524511404,
          0.007097340239752723,
          0.0471576561579773,
          0.041500681229906904,
          0.026105975492137688,
          -0.0024111446613850024,
          -0.07824644133111595,
          -0.01954155248986823,
          -0.02883836645216639,
          0.037535180975840916,
          -0.019142037490812613,
          0.07629577143865071,
          0.01927015009543825,
          -0.01908106982771346,
          -0.08516118769621348,
          0.05943344123152369,
          -0.08166417448620439,
          -0.005544365175956781,
          -0.027050764504440102,
          0.06835368425490757,
          0.1744073635708041,
          -0.007405494727370343,
          0.0004431617963556929,
          0.021363831617787002,
          0.0594766817500217,
          0.012104487421185244,
          -0.056813435310266454,
          0.056429092935356744,
          -0.09606018316584224,
          -0.05893240800127708,
          0.016028095581534767,
          -0.07897924073199075,
          0.04540017990216316,
          -0.011335543823144443,
          -0.025266968444237023,
          -0.015376987520937748,
          -0.026817474117426045,
          0.04617390798840304,
          0.010887367452956792,
          0.03813468974082662,
          0.028501417491124777,
          0.01908201285626301,
          0.010377810104564344,
          0.0059774809091461475,
          0.01184726672030461,
          0.03453496059278764,
          0.03208464463019462,
          0.029804865318304223,
          -0.013144613216157154,
          0.05600363367968217,
          -0.007639040466702309,
          0.0344691224566201,
          0.021869894669174675,
          -0.010570359532705851,
          -0.009836978111547804,
          0.012665366474832575,
          0.017261336366545064,
          -0.036099374392379105,
          -0.00517290776265766,
          -0.051336957307923634,
          -0.01422264493058041,
          0.001130208276041317,
          -0.03774709607062323,
          0.03915984908928131,
          -0.020957204092136816,
          -0.017757888689333957,
          -0.016631918546175184,
          -0.09923709029681857,
          0.04864524996731434,
          0.0065946956847395075,
          0.08997042557514101,
          0.004574113520115454,
          -0.00603224732381688,
          0.06178442249029285,
          0.011819556602604973,
          -0.011725370221202116,
          0.08760220594373255,
          0.023252823239033403,
          0.018331835765052772,
          -0.038392308981625885,
          -0.03648034021621807,
          -0.007601992731001565,
          -0.07653801613892448,
          0.07560137193371924,
          0.043788544169749116,
          -0.0007032466866993624,
          -0.07627368924620889,
          0.02712454580733059,
          0.03029021017406537,
          0.041404967500891565,
          -0.03502064059013583,
          0.07614032477336204,
          -0.051414668266271384,
          -0.1048575089731464,
          -0.050893191214202556,
          -0.0785176468504849,
          0.03215109866613628,
          0.016980077527229513,
          -0.01235131089779015,
          0.052516767315855986,
          -0.06665763944958424,
          -0.062303204842742016,
          0.061289117810761476,
          0.013676209710762706,
          -0.052414472793471625
        ],
        [
          0.09132723072517338,
          -0.007122080852932419,
          -0.09205442216086407,
          0.08284972056266265,
          0.09441199529246473,
          -0.034496762971761984,
          0.022888067514530996,
          0.07209496395564212,
          0.08158773686377954,
          0.028001707377351456,
          -0.05866937683895763,
          -0.0538375388185155,
          -0.015943426394265294,
          0.009304045874170016,
          0.023451599992804495,
          0.06671524036710298,
          -0.035419713669710265,
          -0.037070083718970886,
          0.010637111486243973,
          0.04866456353110688,
          -0.024716068692313246,
          -0.03734964042534968,
          -0.11887689191707929,
          0.025673286172603605,
          -0.08547968034348903,
          -0.07609806145833024,
          0.02511643735161525,
          -0.030143022638955488,
          -0.010017059468956502,
          -0.018103148542238087,
          0.022113718030457728,
          0.05182666957771646,
          0.05762629263065701,
          0.038978899285349214,
          -0.005161757848502758,
          0.005722263134725547,
          0.08282064863346054,
          -0.02302490452381185,
          -0.008223935746578611,
          0.014758178915798482,
          0.07394127809483081,
          -0.007382282682104295,
          -0.017516030731060138,
          0.04711061094663576,
          -0.0021723901335229967,
          -0.04841084335601204,
          0.13545302837453535,
          0.04776497254336774,
          -0.0443580051492031,
          -0.010354878412764655,
          0.02657826274087463,
          0.011514796034578426,
          0.1416292807263546,
          -0.04104194354049217,
          -0.0031468026669545157,
          0.05591600168827946,
          0.033550463224968956,
          -0.03525259868803224,
          0.06302369412420382,
          -0.05257008856312084,
          -0.041042833083310214,
          0.031129313093853257,
          -0.03276448614511559,
          -0.06522822573876563,
          -0.05573001841162941,
          0.116403841009121,
          0.046097970106176264,
          0.03022661570897129,
          -0.04543448395918364,
          -0.07150721176679246,
          0.011706225544836045,
          -0.011116000228809514,
          0.015020777821038233,
          0.030072945815177783,
          -0.038471565661108285,
          -0.006129808115460124,
          0.016763098791245695,
          -0.020404219027211654,
          -0.09608704188703367,
          0.06248367303100078,
          0.01960599451746983,
          0.015359192490033065,
          0.014376086741271306,
          -0.02394809144320631,
          0.02335454855007197,
          0.03971728712694356,
          -0.022403926940610473,
          0.10050436251191673,
          0.04102067861633629,
          -0.06007824702683165,
          -0.06711449071747162,
          0.06813903098925886,
          -0.0003056817881780641,
          0.04585663427649867,
          -0.10888763902175726,
          0.10094132525114474,
          0.07690650768821099,
          0.0576804337248289,
          -0.018642859656498388,
          -0.029737879707315854,
          -0.04146385488288838,
          0.00042714197072631787,
          -0.09424740704379501,
          -0.12402629788379718,
          -0.06979363183028528,
          0.011213386904977526,
          0.057070064719416475,
          0.035676902896598035,
          0.049770777280607005,
          -0.059321730142211426,
          -0.015668684673191147,
          0.053597481428890446,
          -0.038392617843137064,
          0.004199150019504643,
          0.010503953797634365,
          -0.03340324864016118,
          0.002718485881992762,
          0.12963206015845036,
          -0.04565890394003659,
          -0.06777783268289875,
          0.0786321055613752,
          0.07253236998041475,
          -0.067106478604802,
          -0.03341901336328053,
          0.048930007749075306,
          -0.019033632963390782,
          0.10353477265141858,
          0.0377648694598763
        ],
        [
          -0.010375382449767974,
          0.07316273424972385,
          -0.026807511517979405,
          -0.006783756444210905,
          0.018839699379690777,
          -0.020231519614058557,
          0.03112173498573339,
          -0.09867660645678183,
          0.09110830942372283,
          0.08605842569040405,
          -0.04021688285756058,
          -0.05468111369439708,
          0.06492958613859774,
          0.008225433333167598,
          0.03977120081112412,
          -0.0549456293432283,
          -0.02179103932260547,
          -0.05582498208943081,
          0.06590552317719736,
          0.08143561875886833,
          -0.01897151649801282,
          0.0004162704831756962,
          -0.0443071522790114,
          -0.05459988048539179,
          -0.014596962671486564,
          -0.05167995303592421,
          -0.06676388909207481,
          0.03208775672071241,
          -0.005797412217386346,
          0.04461521060598756,
          -0.05149850742267741,
          -0.010949394036809506,
          0.011947395317067726,
          0.035108852867810444,
          0.07837839125185762,
          -0.012202305638474216,
          -0.0949630449198244,
          0.006224771402104128,
          0.029818395226538334,
          0.11562974720877632,
          0.06033737916147994,
          -0.029194459564735334,
          -0.02959694916819075,
          0.038734218793910556,
          0.010231002630675372,
          0.03878882279334221,
          -0.0307417720202157,
          -0.03575022402207082,
          -0.019393704187003712,
          0.05186259211751406,
          -0.014411736120896874,
          0.021536516853246243,
          0.024685774177108998,
          0.01924879140514944,
          0.08720436080751674,
          0.009753080967653191,
          -0.009151740179415474,
          -0.01610304384708734,
          -0.06925913514789687,
          0.02898700001565833,
          0.0107127035466012,
          0.010114274197952206,
          0.039644799097230767,
          -0.05110287886919843,
          -0.000602959943609128,
          0.03395450713175118,
          -0.029677621355701154,
          -0.029117741403533133,
          -0.001542876202377801,
          -0.061751556416059464,
          -0.01006515127153123,
          0.005705682453633133,
          0.03340807366634507,
          -0.01475376116233726,
          -0.04191492478015256,
          -0.0001246607812766851,
          -0.0282069148132659,
          0.0514869456281891,
          -0.05214191564611021,
          0.00437101591324451,
          0.04405095665110413,
          0.07389956572566626,
          -0.16767486928165115,
          0.02638706062306256,
          -0.06751033415657168,
          0.005594412104005922,
          -0.005528030211687422,
          0.036079659254504,
          -0.023494029069434992,
          0.07433075017879515,
          -0.0038099268021109683,
          0.014497454017897796,
          -0.02674665766519113,
          -0.025613283593433518,
          -0.00976636795498447,
          -0.015087955477281093,
          0.09711415525052401,
          0.08802802765353397,
          0.02902684265683331,
          -0.023107390961292763,
          -0.08735366519607637,
          0.007672239941256497,
          -0.01698101117985194,
          -0.03699994144171204,
          -0.0013477076914525728,
          -0.10273651454744506,
          -0.037373259279802354,
          -0.033949434530503385,
          -0.03905550163487036,
          0.005831569698411918,
          0.14678960669250377,
          -0.023805643934324553,
          -0.1066906586712201,
          0.028564261036748695,
          0.033989972352049605,
          -0.040702268311199476,
          0.008079705885914805,
          0.06574539629927403,
          -0.011848132432776444,
          0.03219721538514399,
          0.03649605766057036,
          0.0633619825543461,
          -0.04195279414482888,
          -0.0402815070965041,
          -0.08102485397194764,
          0.04454989405653279,
          -0.009270876925124029,
          -0.03966047151734044
        ],
        [
          -0.038509324075534014,
          0.016258376056283202,
          0.0017498834048338939,
          0.04418635096354609,
          -0.012895226050387454,
          -0.07220024178528885,
          -0.010006966632825446,
          -0.0026992879273918416,
          0.012499865274542195,
          0.0469491476992105,
          0.0009385288657661355,
          -0.01108845898081083,
          0.017112931835612695,
          0.040635908834593885,
          -0.015393934026321514,
          -0.0020506282124849395,
          -0.0007095380389411833,
          -0.025035180696370046,
          -0.11712085847372104,
          -0.010612786813908532,
          -0.0343391179224954,
          -0.021975979473470544,
          -0.08075735903751899,
          0.02038224273404752,
          -0.02391930598114098,
          -0.008322947121581848,
          -0.09009835156526137,
          0.07204129583924239,
          -0.031386888234456685,
          -0.003954432218609064,
          -0.0767769656771785,
          -0.005799332996449523,
          -0.037579337598748014,
          -0.023614142083155765,
          0.06481778169141607,
          -0.0026872730185108743,
          0.03439912237757695,
          0.020258463888184343,
          0.046669213405256135,
          -0.010907473043570662,
          -0.005190488518390299,
          -0.12599535588422214,
          0.042420879794385226,
          0.062362924006134184,
          0.004217369138522551,
          0.026262234708659862,
          -0.028111705299297955,
          -0.127699755073851,
          0.022995962538613093,
          0.16771754461075422,
          0.006408036882518639,
          -0.0714883983702979,
          -0.03491306013426001,
          -0.030659141511862196,
          -0.019730278963201207,
          0.024682024695922684,
          -0.04667009036314356,
          -0.08604555800615553,
          -0.006811768802515368,
          0.03409732944728005,
          0.04709334682225611,
          -0.039072348119592634,
          0.029346350068624502,
          -0.0822471772109717,
          0.047091109032870775,
          -0.015843171987763173,
          0.03651374983444045,
          0.017635563164890775,
          -0.07201679757373511,
          0.07044062364615468,
          0.08891961053813968,
          0.003102821064985887,
          0.03814231092826162,
          0.10624820042518769,
          0.021522301059471727,
          0.015363017630683543,
          -0.005355724452877951,
          -0.03179937908293364,
          -0.05170273507237786,
          0.038918119169774175,
          -0.0025528327932498275,
          0.03558581764882882,
          -0.013322328213851353,
          -0.007015544680851949,
          -0.056668709176502415,
          -0.015595628468428562,
          -0.035987964336362026,
          0.040045446309081294,
          0.022817410656117528,
          -0.06136773524982217,
          0.029725433844643146,
          -0.08982209288356677,
          -0.07770940221090532,
          -0.18360491776776164,
          -0.004883675347871317,
          -0.02519965906797151,
          0.02225614066858503,
          0.019772958307667524,
          -0.016094970925533587,
          -0.10999079064987438,
          0.02089762198539586,
          0.13972941691671512,
          -0.05214312141510225,
          0.0761407840517944,
          -0.05465608855891043,
          0.011308773428818208,
          -0.015060153499667588,
          -0.023200061184633622,
          -0.03505511323405331,
          -0.010957565279657282,
          0.08412332185935693,
          -0.07831553941161055,
          -0.030136305858499933,
          0.016810564139222682,
          -0.06809023365309155,
          0.010221919676502038,
          0.009462228366765446,
          0.04252447764311065,
          -0.0733782068441941,
          -0.046388339974134524,
          -0.07201814305060339,
          -0.08166242799787739,
          0.040844268032013985,
          -0.08185541843510628,
          -0.040257893796262594,
          0.040404699142535624,
          0.012425888220082754,
          -0.04798669015560222
        ],
        [
          -0.13160340019270017,
          0.04140855649852705,
          -0.09277953864683026,
          -0.06878440565551382,
          0.06361314407387525,
          0.035653342438169575,
          0.04934844778535943,
          0.06002679427064525,
          -0.0133815484134354,
          0.06749128614280539,
          -0.034042951701728656,
          0.009843544398542596,
          0.0537434473682791,
          -0.018569087731523867,
          -0.010894462450386874,
          -0.03325765141028168,
          0.03308409914781172,
          0.04345139478783601,
          -0.0003951788756903856,
          -0.0005040456887456877,
          0.13435649619898096,
          0.08199397944081385,
          0.02428010330251981,
          -0.050149628643547675,
          -0.08789121530628079,
          0.017688402013794603,
          -0.010638971061938398,
          0.008630823723391443,
          0.02235001959288479,
          0.08857034461642278,
          -0.10245768492846949,
          0.015875818867298646,
          0.014455171839364955,
          0.06262702191145927,
          0.06706188929395755,
          -0.08117199929840321,
          -0.01478888461984666,
          -0.016619106368147004,
          0.015360978613802242,
          0.039072426177650346,
          -0.010428308356787735,
          0.09895530756148256,
          -0.04789659516842539,
          -0.06630008581030891,
          0.010780688229013511,
          0.028733146660667563,
          0.10623025377207392,
          -0.0023416012891696748,
          0.03345369874990139,
          -0.01285174784175862,
          -0.050302684083100055,
          0.04885606664315694,
          -0.02546284886840579,
          0.052085130974314144,
          0.06907090300885864,
          -0.07665485372410341,
          -0.07317194012806054,
          0.047359928482039224,
          0.014951984034122387,
          0.1129701781234847,
          0.057935089059573446,
          -0.01191910416285697,
          0.08257468780263172,
          0.021398324404736355,
          0.027064535577552982,
          0.008451238662304569,
          -0.015433516095615352,
          0.05877478802822769,
          -0.028310635634766955,
          0.06479775148379466,
          0.10341022690005112,
          -0.023446732382923215,
          -0.047247658090659866,
          0.06290194096326995,
          -0.005975829967431107,
          -0.01376633617015862,
          0.05628948138169531,
          -0.01577921288695297,
          -0.03729570859059658,
          0.007296829031894946,
          0.007957405514745447,
          0.022142812949125113,
          -0.025435443581633344,
          -0.08368832462491188,
          0.07554276994466526,
          -0.052633494413107475,
          0.13298528256484768,
          0.046024077094898815,
          -0.04339854794615772,
          0.0594815157965877,
          0.0828588677042805,
          -0.050302884413024045,
          0.04950457545809068,
          -0.02893173463514929,
          0.0036957912798904094,
          -0.011343813584865796,
          0.03332579893442843,
          0.13293318450664146,
          -0.04359931488939973,
          -0.045186129134710505,
          -0.06034508250234483,
          0.07735497688983352,
          0.06429353815636273,
          -0.019157323825154355,
          0.0053964569361630585,
          0.07203352060831361,
          -0.023094854813202857,
          -0.13413165817829714,
          0.05126523648215364,
          -0.0344535357181401,
          -0.0585528814978596,
          -0.050237320084466096,
          -0.09347656135763137,
          0.0377592446375766,
          -0.022363347765084897,
          0.0719767585744149,
          -0.041259956485474675,
          -0.007471381621365998,
          0.017509995715214846,
          -0.012512624861758694,
          0.0390110507736111,
          -0.015464235781855254,
          0.032356679891365564,
          -0.031060684140254053,
          -0.03986749308393088,
          0.06983277259236749,
          -0.020747439733587936,
          0.057623366431111586
        ],
        [
          -0.0032536110716190753,
          0.009121385791951039,
          0.027301485372129865,
          -0.002929609300054114,
          -0.02056862276623487,
          -0.11220558881604378,
          -0.021683165220029842,
          -0.0010327355425974198,
          0.0660956608518644,
          0.02586800497741771,
          0.002119048967430592,
          0.044366465253601224,
          -0.002620899106331335,
          -0.003253893279070315,
          -0.05555515562845077,
          0.04005859670534671,
          -0.0839655558632589,
          -0.027006873380081866,
          -0.0898636522334447,
          0.0470828712565072,
          -0.006860980253538272,
          0.09431566428817698,
          0.01439220069853795,
          -0.0447044701400365,
          0.021026348835000375,
          -0.045795404529874725,
          0.0976737569752298,
          0.04112808694641048,
          0.05285216627215426,
          0.021763776232449017,
          -0.017117693924666375,
          -0.029349964763715354,
          -0.04907609711229191,
          0.011385812609096347,
          -0.040290190899531834,
          0.059652864215976945,
          0.0330696777212172,
          -0.006945358067863087,
          -0.01828967175737788,
          -0.04948676425315955,
          -0.0032747730910845383,
          0.06338667828533469,
          -0.01301775661607849,
          0.014319957569667837,
          0.023230710445834923,
          0.03730825583992311,
          0.020109064801796136,
          -0.011390861299350838,
          0.01514305419211011,
          -0.004512966181941896,
          0.06538683270023664,
          0.01303699160786096,
          -1.2693348576672679e-05,
          -0.041883180424913916,
          -0.023801698613440437,
          0.06427414118665029,
          -0.019029252290304232,
          0.09674013041456195,
          -0.03469708760110514,
          0.0615203398672219,
          -0.06707712606402612,
          -0.014572929505564741,
          -0.021530711045032926,
          -0.08525759865121552,
          0.020620496556199814,
          -0.07727967664087261,
          -0.04152836507180963,
          -0.07320423835122272,
          -0.09855896401346424,
          -0.04650852506869777,
          0.0015605236980406779,
          0.02171564725147666,
          -0.05340279151508979,
          -0.09396440126135336,
          0.0062386314077653195,
          -0.037719321301539925,
          -0.06021995801530121,
          -0.012852609852958625,
          0.12304356934388232,
          0.048587150692193805,
          0.008781891525247365,
          0.04992150147767902,
          -0.06378265697230912,
          0.10027019694589089,
          -0.00389856610621953,
          0.05379828029243846,
          -0.090795985814947,
          -0.04822572308836267,
          0.037085407023940524,
          -0.021374702755029343,
          0.06279369597531799,
          -0.05924004454475202,
          -0.022293425763698877,
          0.015294237413237596,
          -0.04800624798639152,
          -0.015598915703569692,
          -0.017588368878774793,
          0.1258076988381741,
          0.035148167465551966,
          0.06992669324339598,
          0.02216104140495606,
          -0.010227943440311209,
          -0.048090034239109763,
          -0.0037514952228922026,
          -0.020555691745444523,
          -0.08050018510900901,
          0.016067170967308645,
          -0.07908500413696104,
          -0.013174842233036445,
          -0.04426480823134795,
          0.08240428434365413,
          0.053482003924667544,
          -0.04975344832696098,
          -0.02680635225847327,
          -0.04079193345280587,
          -0.0015130312751587586,
          -0.1318144874086063,
          0.041298521397756055,
          0.025015752133934484,
          -0.04737774770875573,
          -0.0974191334691153,
          0.0454445598038728,
          -0.0073594861438854116,
          0.06028994970970648,
          -0.05900704820483575,
          -0.051219332929177144,
          0.07719182276875958,
          0.0002246442137001306
        ],
        [
          0.0064674704861642715,
          0.012455738840557017,
          -0.012225268763002102,
          -0.040372551518399115,
          0.028663126688623156,
          0.029025789162257676,
          0.039557414629491985,
          -0.0615030366312498,
          0.008938115286649274,
          0.03317840565262029,
          0.011787289788385452,
          0.02696628470790776,
          0.027545373619816824,
          -0.02682632955737214,
          -0.016998252625896285,
          0.08572255225915978,
          0.04520277010211953,
          0.01719027658357565,
          0.08211919920193676,
          -0.07292204857401675,
          0.01060332808403718,
          0.017219160154835808,
          -0.06387160899455212,
          0.009941830603296441,
          0.04401721217928149,
          0.03569270425371742,
          0.0028560070279543093,
          0.1593675210564209,
          -0.07824962600998803,
          0.020067899504222195,
          -0.038786762880721616,
          0.06035745112562874,
          0.09277910331970779,
          -0.0026130906258162107,
          -0.04225265574955326,
          0.016249632469015982,
          0.06500386880503356,
          -0.03866819867391746,
          0.03740699303451097,
          -0.09324136979748375,
          0.03818857763627718,
          0.04274995341352058,
          -0.08570020143538266,
          -0.04367811198302715,
          -0.03198183126669982,
          -0.035323643065527224,
          0.0036188639683826743,
          0.031135087010835363,
          0.020793362909605338,
          0.07743551482463412,
          0.08588229894767026,
          -0.019063418163877115,
          0.14554423386655269,
          0.07768692109248426,
          0.0282029281535519,
          -0.03879462552658916,
          0.020321923646123726,
          0.006734562030313132,
          0.06049447707191141,
          0.031860524143051745,
          -0.049607419011757914,
          0.09264466935883735,
          0.010627537635915108,
          -0.0037340163833951235,
          0.03777229685320808,
          -0.014671190779617805,
          0.06767537245860099,
          -0.10168933044076636,
          0.034254776919576256,
          0.016401525715038355,
          -0.005848847924149085,
          -0.03869686121644696,
          -0.03861521342373488,
          0.1079757573875881,
          0.08315512918302446,
          0.014391657379283607,
          0.06005664162452387,
          0.02793503974409425,
          -0.040747761176729,
          0.018358710043186736,
          -0.08292854199987199,
          0.029162688180767424,
          0.020401080668668903,
          -0.03640759773328351,
          -0.09759535501280397,
          -0.05435882893324903,
          -0.016033871827382116,
          0.04601259341327628,
          -0.06685529143727136,
          -0.05514243906744216,
          -0.031074297396034862,
          -0.014003665793955997,
          0.032492097624666455,
          0.039146211269308465,
          -0.03802077939344726,
          0.10990961944958975,
          0.024495022534852157,
          -0.03315713981660043,
          -0.06719205406765666,
          -0.018852116526844726,
          0.03219335519783112,
          0.00021348568832942828,
          0.011981050619528392,
          -0.017875375939488115,
          -0.02921134200616832,
          0.023307450843878374,
          -0.02072999815180739,
          -0.07785558742745127,
          -0.009187798485114529,
          -0.023865252824792484,
          -0.012265834240131362,
          0.03892685078089065,
          -0.06951919315526335,
          0.031844499749836226,
          0.04322701947015118,
          -0.0923345698290057,
          -0.03549615367006162,
          0.006731607545889152,
          0.021641536751492937,
          0.0496505516148087,
          -0.029711462307700106,
          -0.042591750156896015,
          0.07902905998663812,
          0.05192011078773282,
          -0.044793123151562864,
          -0.11271903511557883,
          -0.04353018367319763,
          -0.04798316965129194
        ],
        [
          -0.03413788404203336,
          -0.028058505529241516,
          0.0156950018387645,
          -0.017292156680201082,
          -0.05687583857938419,
          -0.014860888514937281,
          0.03165457781333191,
          0.06569318542869973,
          0.09469463585126933,
          -0.001950350800372196,
          0.033792535162220076,
          0.06559103527704484,
          0.00783621319509515,
          0.00676251646002305,
          -0.028437099803018968,
          0.05612739709779396,
          0.011784594487118449,
          0.05076251632536975,
          0.012534135062128795,
          0.05317589062420059,
          0.07541064566594445,
          0.08225953268256246,
          -0.010577393110926762,
          0.038740112141369826,
          0.0795714973786,
          -0.04209790676176527,
          -0.05114962931524849,
          -0.0032878932514299316,
          -0.03030878985757609,
          -0.0056181091063107905,
          -0.003427939267660154,
          0.026590226836840893,
          0.10264478576485979,
          0.04411361145928045,
          -0.0348773095990961,
          -0.04783585312941198,
          0.02469984550488331,
          -0.029531343623028058,
          0.06797509203629619,
          -0.007035202020463625,
          0.032770225680377525,
          0.010371541671660333,
          -0.05452535499763868,
          -0.04617558459318226,
          0.06116028169068121,
          -0.0019278046671085804,
          -0.03009442398748718,
          0.045962073988538486,
          -0.026058851405573968,
          -0.01620636400568313,
          -0.0005628866125623631,
          0.009883316209231342,
          0.023098564701288023,
          0.012961549174756212,
          -0.0021350247068192326,
          0.1405694675237567,
          0.02390928219000332,
          0.027223670727172727,
          -0.014529822266155543,
          0.11882148765358598,
          -0.06570473672454691,
          -0.042893427815669,
          0.02611145574692055,
          0.02617285781055193,
          -0.0369466772527962,
          -0.03344793480994209,
          -0.04567777172729085,
          -0.07136236263640927,
          -0.07066342177946738,
          0.004962376183013423,
          0.030925117237645437,
          0.009350162717582872,
          -0.014188879539159755,
          -0.02678709054535324,
          -0.03072464714656603,
          -0.09167961564356375,
          -0.012575011984692809,
          -0.025066271016059124,
          -0.01711961819657392,
          0.057252510330652304,
          0.01186877946774206,
          -0.037567178114399385,
          0.07844022864755995,
          -0.012407976712389319,
          0.006056415440186366,
          -0.02029908868110569,
          0.030598674330022793,
          -0.020009267304186958,
          0.07296636103189025,
          -0.02192008095832832,
          -0.008077866953190137,
          0.06981797312294692,
          -0.025819960323816303,
          -0.02587393290727919,
          0.004472776185298699,
          -0.049078058659573,
          -0.014539775366642202,
          0.007692045643840175,
          -0.020354640280069614,
          0.005289732192570438,
          -0.04051521918416961,
          0.015638315821111273,
          0.047314804319377186,
          -0.04203926317531997,
          -0.0131082789275187,
          0.018563646285513335,
          -0.030872222339812846,
          -0.06991663229230133,
          0.102316109802732,
          0.02105051096434061,
          -0.027211608433682404,
          0.04899434422341332,
          0.12501485234158768,
          -0.006152427720525226,
          -0.005399545850447374,
          0.04043111923928604,
          0.06429251593107489,
          0.021515271213329915,
          0.04519791480612768,
          -0.07997667098000281,
          -0.02821327921340065,
          0.06414244902073268,
          0.09154904708316983,
          -0.03436871131516276,
          0.001556821118062461,
          -0.06834826641739898,
          -0.04741642226169948,
          0.10493386439120707
        ],
        [
          0.06995675242680346,
          -0.015291495445314534,
          0.03605980991093946,
          -0.07320824571690356,
          -0.009395763554090705,
          -0.0023701427275233506,
          0.07963916932844307,
          -0.08528727830427837,
          -0.023483039504039044,
          0.04587796354056275,
          0.10254827424590428,
          0.007046407840183877,
          -0.0612796491607935,
          -0.025994812438475522,
          0.0432008877246887,
          0.07494556473490933,
          -0.0009209891205008381,
          -0.022458311030449016,
          -0.053888383390304856,
          0.06433476195091233,
          0.007469773903016885,
          -0.08910427013751929,
          -0.04332678660770784,
          0.0330476961846348,
          0.018975540627298105,
          -0.11213308623027991,
          0.033078623849877614,
          0.02422357890106465,
          0.0034820763186923357,
          0.03643041760236573,
          0.007875914940958267,
          -0.024459775927566194,
          -0.016004515221166013,
          -0.04469451761951987,
          0.02038767992231668,
          -0.004584395288263599,
          0.058069784849413546,
          -0.03728842417256793,
          0.09923834717098504,
          0.0357125630618462,
          -0.07780839336396868,
          0.006358091780838118,
          0.0424150092207615,
          0.08516907325537088,
          -0.0035016355015218014,
          -0.016834154878564142,
          -0.007700729763613829,
          0.001217070227093146,
          -0.012548589435968475,
          0.09918365040137513,
          -0.03357341208468712,
          0.053641961837017846,
          -0.07655643146211137,
          0.05682351309250233,
          0.00726999638322932,
          0.027257902554008877,
          0.001722231180592554,
          -0.03608852116825918,
          -0.015781614998113775,
          0.04424699835200933,
          0.032129972170201894,
          -0.06585652805717929,
          -0.11963796240210475,
          -0.08074741117143894,
          -0.086126123906898,
          0.019850806298877942,
          0.0645528812480411,
          -0.04155891554376791,
          -0.023123150763184254,
          -0.05905731919834714,
          0.017763111588694373,
          -0.06573030415331145,
          0.008203512606440833,
          0.012375090765101597,
          -0.07720004618172889,
          -0.004516499466483937,
          -0.04403444490276052,
          -0.0813197471949213,
          0.06691030749719544,
          0.045325348993765405,
          0.05049492154688586,
          -0.0029554466567094633,
          -0.059436461504738754,
          0.0597072760805772,
          -0.0071977413497339975,
          -0.025613687916059957,
          -0.07060777656811332,
          -0.07665404062677703,
          -0.023401034958493883,
          0.018654672700826685,
          -0.05130681947057266,
          0.0369230396115834,
          0.028640125616865464,
          -0.09651120931526824,
          0.05536474041544853,
          0.009875765915017315,
          0.011678224284994215,
          -0.07832937417853204,
          -0.002574883500861121,
          0.022211665201559243,
          -0.00035855851371498004,
          0.026606818745609093,
          0.10420797490411685,
          0.05403770927970337,
          -0.002906640432082378,
          0.0069600885458333045,
          -0.01760063936262189,
          -0.027482565832311796,
          0.07891844014634447,
          0.018067535926603956,
          -0.1048745976248407,
          0.09671086723709324,
          -0.024895638991286013,
          -0.040818442901002866,
          0.0014676541976791054,
          0.02817499202854247,
          -0.009192435892597123,
          0.04198945669111101,
          -0.023484000071793017,
          -0.012102780552869109,
          0.00775782587930697,
          0.030793771887221037,
          0.01965511620173768,
          0.0008073164331079967,
          0.06736453148369125,
          -0.005716623426843655,
          0.032549323486113446,
          0.0448653546788835
        ],
        [
          0.01643495551409525,
          0.11205805535301236,
          -0.06024992863518863,
          0.023812204731027804,
          0.013444578385356879,
          0.00869780737523207,
          -0.05894384639814471,
          0.024520389200918567,
          0.07145226058557431,
          0.0006641271645833735,
          0.053705938821422015,
          0.048748746978614574,
          0.06411590657502791,
          -0.018067384433627,
          0.02376773819658858,
          -0.03366886951486264,
          0.0017842933255044166,
          -0.0033225159798892416,
          -0.05382933122283171,
          0.016329478942868896,
          0.058118291646533836,
          0.14677320923820267,
          0.05808558269402428,
          -0.11557729724768775,
          -0.04703682100156958,
          0.04616468272754332,
          0.05384450075671263,
          -0.09026623278511067,
          -0.09987783441720999,
          0.03270707764526383,
          0.00997055066856815,
          -0.0733898578614508,
          0.06821310878278371,
          -0.05130139405508657,
          0.09326225602964583,
          0.03644019385177126,
          -0.0217844074993909,
          0.04200176290039415,
          -0.011717609643937116,
          0.11479774999310438,
          0.06132235569185018,
          -0.07463280811247619,
          -0.04701135543197921,
          -0.07263247746313238,
          0.07017711589930087,
          0.00460319550499755,
          -0.0039260734037179215,
          0.021463429674414534,
          -0.13253893616402018,
          0.07153733132535336,
          -0.0508941629059934,
          -0.07264782204231912,
          -0.019230874240071538,
          -0.0699071590208481,
          -0.04595761252669764,
          -0.017376050493140692,
          0.018356614193672724,
          0.028409143010089483,
          0.03410976012765451,
          0.02650035213228642,
          0.03074920648108474,
          -0.024164719245411626,
          0.020981303112157495,
          0.0421234324706262,
          -0.08686145254037594,
          0.022264580034224008,
          -0.015795525518012436,
          -0.0002900172113017382,
          -0.056443125798191884,
          0.03998987566347621,
          -0.03169248502297485,
          0.04646824093685552,
          -0.10209977804200529,
          0.041381655276265146,
          -0.0225620259753391,
          -0.009998815222268741,
          0.06074664534042743,
          -0.09076489808041406,
          0.007251559809619467,
          -0.029557889669344382,
          -0.04370698293948741,
          -0.09214888896603549,
          -0.00847162479066498,
          0.010119087361856249,
          0.007343948749294014,
          -0.047030426065747664,
          -0.0072442681285589325,
          0.010566893457288692,
          0.03241938268133833,
          -0.08850674994582979,
          -0.08235061183781907,
          0.08158311119668193,
          0.03886366849345257,
          0.01938863837612212,
          -0.04690159916707956,
          -0.0693500833318936,
          -0.11020215147931059,
          0.015011172832946302,
          0.06673862325835157,
          0.07669405562682162,
          -0.07905572332118012,
          0.06093420310688915,
          -0.03427165138556431,
          0.014405414050204426,
          -0.03478989326590726,
          0.004390953172822644,
          -0.05476205076049211,
          -0.06385012089176209,
          -0.007219285659812799,
          0.07198858702093973,
          0.04951715258527958,
          0.031866933074834465,
          -0.03083247237167161,
          0.07597965520358901,
          0.023449093256871487,
          -0.012019538959195422,
          0.04817337070422149,
          -0.01974843360862672,
          0.01744743383640668,
          -0.02992144082814907,
          -0.07193048829594662,
          0.012228426355793073,
          0.0008221658473810552,
          -0.007203856850010848,
          -0.0516646929081865,
          -0.12584903813338447,
          0.0029399509519280344,
          -0.05305232113464448
        ],
        [
          -0.04183133791207433,
          0.10439239169708348,
          0.006531421036743804,
          0.01936916557442557,
          -0.09305430779982315,
          0.07698286900112453,
          0.046084537871040145,
          0.041272133600966376,
          -0.030140607660789624,
          -0.03108389149947441,
          -0.05844814882173853,
          0.0219082441405554,
          0.026142066538884144,
          -0.021348538869099737,
          0.06164781117104829,
          0.016825537372257938,
          0.03323238210568732,
          0.02396333416975191,
          -0.0034863526860273385,
          -0.031046907540557042,
          0.05703302988259093,
          -0.021555077939611547,
          0.036250660112959625,
          0.03588105448333627,
          0.00020681912887207822,
          0.026829410007517127,
          -0.013301042031165599,
          0.015261881749835716,
          0.012779789708515494,
          -0.012011791998114784,
          0.08292256735060098,
          0.06115658035930745,
          0.0018977350920380003,
          -0.050604803429576205,
          -0.006411620920801414,
          -0.0019120957328121943,
          -0.04065548791581465,
          -0.007217460869857423,
          -0.07051875000240551,
          -0.029178187346452326,
          -0.03675673017646404,
          0.08149687054111744,
          -0.009463781714414417,
          0.03142570650463038,
          -0.05284389554703816,
          0.012405549062462499,
          0.05162929745634431,
          -0.09428066452195698,
          -0.03701442604769332,
          -0.08806866822619146,
          0.040638886131248254,
          0.061912855262880914,
          0.04591803090056561,
          0.02103899840021024,
          0.05280119977612763,
          0.029756732900242618,
          0.07594289835249925,
          0.03192866698295698,
          0.11167859615427554,
          -0.0572209843698532,
          -0.02708493439439104,
          -0.022426581463230594,
          0.08848580170339727,
          0.04085003869720964,
          0.018239609634427233,
          -0.05051166024730439,
          0.07220554088900392,
          0.04220456577640476,
          -0.07507425353366518,
          -0.06299832096376808,
          -0.0017757414918760433,
          -0.02643286724232724,
          -0.009386433608801401,
          -0.04999000836191796,
          -0.01576852091605101,
          -0.00853298741420025,
          -0.07973358153680189,
          -0.04899747781234876,
          0.01604900720972995,
          0.016239957390816136,
          0.01756716533880761,
          -0.0584740511205697,
          0.03337906065931783,
          0.029912811733819208,
          -0.0756280704173814,
          -0.07194819041510635,
          0.019917444161497534,
          0.03739575169977533,
          0.013654090286540198,
          -0.029729234116414184,
          0.019354862765454756,
          0.014454141111793701,
          -0.019706628928330867,
          0.012626725477664085,
          0.10017674064110194,
          -0.030294297657949172,
          -0.015116972295373546,
          -0.029800904868803966,
          0.03949303841609058,
          0.033898979476019414,
          0.03907954216253735,
          0.03167315406389418,
          0.06286238946022851,
          0.1247899978827967,
          -0.014134366685810877,
          -0.06056245698655254,
          -0.04577504994644729,
          0.05405527884192262,
          -0.047393754303042414,
          0.055770350339338304,
          -0.046306828626246556,
          -0.0043430946942043715,
          0.029430144762836594,
          -0.03810772833839561,
          0.01839828479389696,
          0.029325597757205658,
          -0.04557190702971911,
          0.003019510423034152,
          -0.07012206855283275,
          -0.0174523875808401,
          0.03922426943119369,
          0.0124303013861807,
          0.01549750663685398,
          0.1057718405037269,
          -0.058319821224522506,
          -0.0157144869118435,
          -0.05248785037920306,
          0.06736229929007477
        ],
        [
          0.04395991962580371,
          0.04975911699300386,
          -0.028387147510107156,
          0.06871263023973263,
          -0.02050534170831325,
          0.03960872022598808,
          0.05226903405896556,
          -0.03467171656558879,
          -0.022484200558944782,
          -0.1168461643375106,
          -0.0037899086080089555,
          0.012070874284649705,
          0.06267173782277705,
          0.04188924317156521,
          -0.001233082678835899,
          0.031963635655786596,
          -0.06086311570955853,
          0.06687438664942104,
          0.029856928114162823,
          -0.04817004856233392,
          -0.002829789259383749,
          0.12269611543972594,
          0.0019873391588888464,
          0.010695403176578513,
          0.05342631694322022,
          0.04662667167811695,
          -0.01889141370874983,
          0.057888372094089924,
          0.0012005267897187682,
          -0.007891654939716428,
          0.07702484523349772,
          -0.010385141433323862,
          -0.009062152663451546,
          0.002578062863775535,
          0.0050759238581218,
          -0.051137814539115665,
          -0.07718372605147533,
          -0.07253888928952809,
          0.024988167714578863,
          -0.07967558677725499,
          -0.007069282756560948,
          0.049867206186512934,
          0.10048086351932844,
          0.0441386317784239,
          -0.02981846494048635,
          -0.00990298068124498,
          -0.05361750257323502,
          -0.09221695942541588,
          0.04683324276789537,
          -0.11596863382961209,
          -0.04444740939629381,
          -0.030663132342303008,
          -0.019316718781189,
          0.0006345326865792673,
          -0.015397366150020915,
          -0.014816919312013163,
          -0.05720914513180086,
          0.030541423918901793,
          -0.08091810823782923,
          -0.015160713483859924,
          -0.1321354815000905,
          0.08670778325888569,
          -0.06556280034602478,
          0.021523660705130006,
          0.03346329947822578,
          0.060679085853069435,
          0.04514515482811215,
          0.03817857438134479,
          -0.041398818652562334,
          -0.017693554699746174,
          -0.01801055565964476,
          -0.07225097966369695,
          0.08642548807542276,
          -0.06505867034381711,
          0.034369705885135445,
          -0.0037235117442095127,
          -0.03532207303125913,
          0.00991260662701065,
          -0.011118697095305108,
          -0.0001619487297084413,
          -0.01155678855099514,
          0.03451835682686569,
          -0.02613019437487872,
          0.008404653489810673,
          -0.06651050597754167,
          -0.058611237058311116,
          0.023001321801319335,
          0.05917330699931979,
          -0.03872056114496896,
          0.06744682390840111,
          -0.033823696405341275,
          0.007555761552881675,
          -0.0005015817504085018,
          0.05166493640118032,
          -0.026798238141044175,
          -0.029001903864585035,
          0.022201685889163433,
          -0.04017931538077272,
          0.0016452477864074523,
          0.04909935419354404,
          0.020217510208383686,
          -0.005830422912908994,
          -0.029361452567856442,
          0.016732852426157338,
          -0.024715288909727455,
          -0.05001555658197845,
          -0.05143254474368523,
          -0.059981444154612096,
          -0.022806261412608764,
          0.033121008398766257,
          -0.03627541516981494,
          0.02954545214023761,
          0.033249090098339984,
          -0.02303421986704372,
          -0.06117415883840081,
          0.008548004458940469,
          0.033306356176851785,
          0.048785561891045104,
          -0.06702689661569133,
          0.03950575228741217,
          0.03278561439670556,
          0.05424355451038709,
          -0.06924813839567703,
          -0.028546476435132757,
          0.03981631979613173,
          0.03545209445481344,
          0.07457586845976977,
          0.08814849991786868
        ],
        [
          0.06723777447840164,
          -0.06710647529669095,
          0.006605651162812176,
          0.05056534269330613,
          -0.07477458533910887,
          -0.03853557686858678,
          0.021981182201674773,
          0.07360435009383869,
          -0.0009944688130595692,
          -0.020284571612122482,
          -0.04088225524167072,
          0.020283924600210314,
          0.007658649271365462,
          -0.014255331873883812,
          -0.05281781159185445,
          -0.0013932453963843429,
          -0.04409617154748973,
          0.049917017630941876,
          0.07840080616496424,
          -0.002743313086901958,
          -0.0806974944348606,
          -0.07025236773826872,
          -0.023197802976344033,
          0.03268850320406625,
          -0.04756759376128677,
          0.07033409771813218,
          0.10466409833243664,
          0.05553225550173563,
          -0.026806210551365717,
          -0.021496116905234616,
          -0.02922400118908518,
          0.009471821097460267,
          0.030116502228417937,
          -0.029248953876757505,
          -0.08471572040445301,
          -0.07310204850150369,
          -0.0940736863328589,
