{
  "input_shape": [
    28,
    28,
    1
  ],
  "preprocess": {
    "scale": 255.0
  },
  "layers": [
    {
      "units": 128,
      "activation": "relu",
      "W": [
        [
          -0.43321162309080385,
          -0.7607003472848226,
          -2.2225523109770022,
          0.6041067442035645,
          -2.193807825763135,
          -0.4648937677196562,
          0.8640400687363723,
          -0.9034422662440024,
          -0.22026366839102113,
          -1.5968904158298238,
          1.2342507226767307,
          -0.7937486978259733,
          0.4808507715778791,
          -1.7592402130237623,
          -0.2798549113579098,
          1.1248936221833197,
          0.07204468882050774,
          0.5944571393495184,
          -0.41472494949859434,
          -0.140508664925787,
          1.156120353566729,
          1.3502620875601956,
          0.2967877705067161,
          1.6017056075179856,
          0.3599174003219771,
          1.6880205994235649,
          0.07473247526766137,
          0.027661822816531196,
          -0.40217483793558995,
          -0.25926384983601847,
          0.18450303182012912,
          2.0374275311977774,
          -0.6938836170168374,
          -1.1751017718040786,
          -0.4069321559434824,
          -0.44780167333945886,
          -1.0070921577521306,
          0.4746051150390609,
          0.6715123965526316,
          -0.17665368263450143,
          0.9190928690509574,
          -0.18844438295482266,
          0.5193203532704936,
          1.0224832024516004,
          0.9990472898358436,
          -0.8010424576565672,
          -0.8824957790708589,
          -0.4303777815134408,
          0.35035758946746876,
          -1.5909426873644024,
          1.0389760555507985,
          -0.4584511435396259,
          -2.15851497282382,
          -0.7826199445052727,
          1.5560268614867738,
          1.1141560889374658,
          -0.16765369371898806,
          0.3975199946179838,
          -1.8727664883269484,
          -1.1456099347102096,
          -0.48288488488373216,
          0.08184387033640655,
          -0.7090840161614822,
          0.23647295587464776,
          -0.17761000591333412,
          0.3475968551415177,
          -0.5346654932307592,
          0.3476033339144271,
          0.44496058179139836,
          0.5050949717113412,
          0.6962710763524259,
          1.6801802122070062,
          -1.9340177648412107,
          0.3310297413837502,
          1.5289130978830323,
          -0.4035564048130842,
          -0.05550988818896583,
          -0.5564181670612081,
          -1.1754576170191398,
          2.2028548914743067,
          0.4694630459713621,
          0.18939635814144784,
          0.21610582408344944,
          -1.668051946230119,
          0.5713915490844309,
          -1.1882631759957973,
          -0.8188880425479054,
          -1.2399892678997402,
          -0.8390429156357706,
          -0.7265430931971376,
          1.552883004224473,
          0.009781762420986695,
          0.6294001299580889,
          0.5057592176379195,
          0.06333233528157423,
          0.17664270367441187,
          -0.21458410717373355,
          0.021095443709011095,
          0.3353625000012548,
          -0.6049653580020157,
          -0.7235491061241744,
          0.6908660296592568,
          0.8073773827183736,
          -0.5205598854481402,
          1.5079722659929407,
          0.8392895668024385,
          1.4790835222519834,
          -1.1972944611997327,
          -0.965951661268403,
          0.07449719456400931,
          1.7575525978707391,
          0.11202180336899192,
          0.13844368611436544,
          -0.5023529616649711,
          1.016946857602688,
          0.7504451885747994,
          -0.4541892418853731,
          -0.3096344900300918,
          1.189533285228227,
          -0.10724211892410995,
          0.07243654812921194,
          0.872665218390083,
          -0.09499508500695848,
          -0.09807280614639603,
          0.10462056788116057,
          1.2324832387637297,
          1.5498533923776094,
          0.05021511342063346,
          -0.17538139111896706,
          0.46268309492714305,
          -0.08051932739934256,
          1.3026605269672789,
          -0.6477626267600409,
          1.2738755797103645,
          -0.14071617625648633,
          0.5482272240766878,
          1.0994175030924538,
          -1.4110942849647576,
          -0.06329922915963872,
          -0.1789610019774102,
          -1.5840736182099653,
          1.3689728115105957,
          1.1826111812335838,
          -2.5267974308038124,
          1.1617506901658299,
          -0.41155121395085326,
          -1.011627193830104,
          0.8923258359509655,
          0.4563483270482101,
          -0.5857476014947867,
          -1.1790245188539854,
          0.7586013234012752,
          0.333324592132868,
          -1.6534085703893808,
          0.444160976226918,
          1.612400735262511,
          -0.6813474565156518,
          -0.2327069214064935,
          0.397218094704983,
          -0.2912710340996256,
          -0.34256207874988687,
          1.6398426122644179,
          -0.2651840924374022,
          0.6847511451951508,
          1.9778081470336522,
          0.3896478075951514,
          -1.462624002499322,
          0.24729887733411937,
          -2.0517896190273084,
          -0.18002611232935636,
          0.5392413264860583,
          0.11159483293451733,
          1.0418130806316819,
          -0.8789917016067038,
          -1.7174572215119637,
          0.0022740599894726372,
          -0.5993907578758579,
          -0.290365349784694,
          0.22199614468710197,
          -0.9361812153926166,
          -0.43598402848172957,
          2.454052483195279,
          0.30603304108383955,
          -0.34530709172037344,
          -1.2679094463896525,
          -0.37008107232903725,
          0.26889395663894894,
          0.5766662140110593,
          -0.4756424453012532,
          1.6432767373584105,
          -2.4058794100850043,
          0.5159039536824417,
          0.12630172070848086,
          -1.1236665525073395,
          -0.04763218804103045,
          0.054779675710833045,
          -0.11769379902282716,
          0.5277530572839654,
          -1.8246393682792454,
          1.2573540675549193,
          1.2307561997111907,
          -0.777722281111282,
          -1.0621145185597682,
          0.5322912000871344,
          -1.4426883071782544,
          0.6634251100388383,
          -2.3128684689293517,
          1.2587995745626919,
          -0.12502267026029276,
          -0.09592473686269948,
          -1.6555469874022415,
          -0.14296331171815316,
          -1.0442021295456083,
          -1.2010170157762032,
          -0.7846407568358774,
          0.7155821976802093,
          0.43775365275643385,
          1.024735673170239,
          1.4120619784100472,
          -2.157100027404467,
          0.947311863121824,
          0.28738157368405515,
          -1.4234287868439912,
          -1.0302992226617251,
          -0.7418335278372192,
          -1.6507763808801472,
          -0.35852830654167794,
          -0.315522712036846,
          -0.22773586060881326,
          -0.5827630902140227,
          -0.8198731400268459,
          -0.1271146438731781,
          0.34400929768069904,
          0.11863940183644833,
          0.7670388164509208,
          1.1767389763492442,
          -0.004739724868147721,
          0.7800370199292765,
          -1.390611950926241,
          0.4564545365828469,
          0.307872030938394,
          -0.4541762659651331,
          -0.15381861837414318,
          -0.15937289609614716,
          -0.41058300882661863,
          -0.38309091671815104,
          0.4332065518304641,
          -1.2588329299752996,
          -1.9393640756828936,
          0.40347442610117534,
          -1.8224566000756541,
          0.15330005990601805,
          -0.7165036905908528,
          -0.1407644402958643,
          1.9777008803606184,
          1.2833869216647977,
          0.004219496578287407,
          -0.6970658678622189,
          0.017922771673164493,
          -0.7760917288771935,
          0.032466534546235416,
          1.9708202112975146,
          0.35528810565180313,
          -0.4965858364648701,
          0.11601940981405082,
          -0.7087061308967645,
          0.7028013643138585,
          -0.5505421910553016,
          -1.176625511554867,
          -0.3057474378092794,
          0.373875497719856,
          2.095780041445622,
          0.10197534243028598,
          -1.742364476969525,
          1.1454899026782568,
          -1.1289873955856193,
          -1.1258142803331737,
          -1.1703682279442578,
          -1.0339742732463306,
          0.2773314808520919,
          0.5264086062738121,
          1.5871683183461176,
          0.8157686493723606,
          1.4696466999728364,
          -0.9327773197449768,
          -0.7350730436063413,
          0.7622736489690404,
          0.2292433954902018,
          0.8089079920752226,
          0.6119422656866783,
          0.6217172276988077,
          0.41917885688160433,
          0.37916990853661015,
          -0.4143965731260536,
          0.26572521635657703,
          0.08142933922492945,
          -0.31752071270634735,
          -0.7666631718191833,
          -0.15331246345687743,
          0.5655700430226409,
          0.14359356279778973,
          2.343128814133435,
          -1.5813761766671734,
          -1.4410747191378206,
          -0.9186546049047407,
          -0.8583459815021972,
          -1.2051347434762687,
          -0.1490253682023129,
          -0.8338756414782006,
          -0.7816282832451917,
          -0.022545462671873025,
          -1.8127471801572068,
          -1.3427551345246578,
          -1.1953693420307199,
          0.44268787201390686,
          0.23888987441827353,
          0.43525045770136034,
          1.9852582462095345,
          -0.7456319107687712,
          0.5450290074187796,
          -1.4147914741443712,
          -1.0387654336916807,
          0.18704714373696957,
          -1.0379466900611976,
          -2.0387356962728864,
          0.37179692930461605,
          0.2786460661056832,
          1.4460735718300464,
          0.6233708723302027,
          0.6056340190305757,
          2.064677062403292,
          -1.9314047389883495,
          -1.8301562798323014,
          -0.158581514861828,
          -0.05021014527228636,
          0.8247729679736714,
          0.04100976644668209,
          0.18878282490387693,
          1.0610389686254105,
          -0.653050462999537,
          2.287341071656538,
          0.13093666117065567,
          0.9961115983673234,
          -0.5354021926677437,
          -1.5946974332502672,
          0.6296552477074142,
          1.3478447034828704,
          -0.9569113287230385,
          -1.5881720918161095,
          -1.3469930244938273,
          -0.09413801366569544,
          -0.2883782102790729,
          -1.8414594543979281,
          -0.5217560003308519,
          0.3526778151957535,
          -0.3335056091019506,
          1.0085578062464653,
          0.2441061026951886,
          -0.15988833554825574,
          -0.1806453422257428,
          -0.29912356233233267,
          -0.47210928445676,
          -0.006196039814290121,
          -1.1423303577558628,
          0.6695844735695425,
          0.7032891899436251,
          1.64053122800353,
          -1.6291433521104994,
          -0.1899478888223091,
          -0.07979688691395911,
          0.16959713764720608,
          0.3709105258448448,
          0.6570874255215966,
          -0.08243475382357891,
          -0.4549196957191583,
          0.40691042459529697,
          0.18642852590746511,
          -0.09225452602454273,
          -0.6158322478364668,
          0.43229698623909624,
          -2.2890274704147586,
          -1.835313333212599,
          0.19539660687452298,
          1.1003163790156354,
          -0.7950391275567964,
          -0.6167248823181031,
          -0.7900710816414431,
          1.6018107702500728,
          -0.6174634470317826,
          -1.0781961297513682,
          -0.6595838494751107,
          -0.395969929519834,
          -0.6947246851322354,
          -1.1141143355047414,
          0.3551423320335738,
          -0.87555113049747,
          -0.5979821143797708,
          -0.021657765976210618,
          0.6820311122600843,
          -0.23329413141711836,
          1.4790527226849197,
          -0.9832548565886035,
          -0.24885938232508634,
          1.4547558841440285,
          0.3691406191770445,
          -1.392459220968684,
          1.9333977246297416,
          -0.5925024458132057,
          -1.005870747508862,
          0.8072680001203345,
          1.248735771790117,
          0.20792467921854577,
          0.4942186812992489,
          -0.031603661513418535,
          1.159951388079176,
          0.6414573601109504,
          -1.5704446692399041,
          0.6423102044894874,
          -0.01177788640478785,
          -1.4337507985796887,
          0.697495117731221,
          -0.13052795948400908,
          -0.029179371191073996,
          -1.8001088396061558,
          -1.2720604946563243,
          3.394895863736072,
          -0.7643620879737332,
          1.3070293788076794,
          -1.3279097054813966,
          0.46683340077651053,
          0.8309795710740507,
          -2.2163193746042857,
          0.06761602494970063,
          0.9422477662021249,
          0.6837830170400293,
          0.033090198055407714,
          1.3214603997165868,
          0.6167679800182949,
          0.2046189696833371,
          0.2511369077514912,
          -0.28890256940913694,
          -0.4770690947028738,
          -0.5014805764310545,
          -0.9604930796594512,
          1.5193258867496828,
          1.1278840940600872,
          1.125047347994659,
          0.16225728707144738,
          -0.9783567058924926,
          0.43160327079268934,
          0.3432874896250952,
          -1.5780514026235157,
          0.1445757184819712,
          0.6860479162655897,
          -1.606535292882656,
          -1.0441659477251213,
          1.0248489207824536,
          0.6352591704613166,
          0.13612934704208757,
          -0.9172465819577544,
          -0.4896024974383794,
          -0.9252652163137616,
          0.4590870243058985,
          -0.06378827796662981,
          -0.48364567015145077,
          0.9261337778812938,
          -0.6024893469587845,
          0.5332306896038188,
          1.008378702056975,
          0.8046597896754212,
          0.8309798572139059,
          1.458953776518235,
          1.4268178417379604,
          0.6363249532470643,
          1.3508131702387998,
          -0.8403928505884225,
          1.82108113784118,
          -0.9878307197840003,
          -0.963215046808664,
          -0.42995256143467464,
          -0.5982634185005872,
          0.1525787085919464,
          -1.5317900063950778,
          1.010881716264545,
          -0.49287610431881757,
          0.08634661588617107,
          0.31887643886430894,
          0.17334957421444255,
          -0.4658518203746613,
          0.9431414345282991,
          0.7541236804178703,
          -0.7106909707666134,
          -0.4219988413598151,
          0.8467918245379346,
          0.2820599660520517,
          -0.42098518106204724,
          -0.33068342433396936,
          -1.660821210373054,
          -1.7388955309685907,
          0.9160110118950211,
          1.3752690412859017,
          0.6167288466302743,
          -0.28639564335491274,
          0.29975259116410974,
          -0.27538272973121014,
          1.0975473007115788,
          -0.3229272921785964,
          1.4337849837908758,
          -0.2413587274482184,
          -0.2102798066772326,
          1.4614061788315627,
          0.35191357282178193,
          0.524515092975086,
          0.6610232280948236,
          0.7597958859006775,
          -0.6541086777445743,
          0.42857158209380297,
          -0.5486360893830939,
          0.12158284829182117,
          0.9213535368442641,
          0.12330505597643099,
          -1.0366693021835907,
          0.022402744619782318,
          0.2799213656080763,
          0.8762952876672331,
          0.16500518823829363,
          1.0562233676543933,
          -0.5084714028478555,
          -0.23222938704072588,
          -0.18210672999074398,
          -0.0013663611652101589,
          0.16546722317995743,
          -1.3612742782530383,
          1.192604188992416,
          -0.4186792688127865,
          0.3058177899756821,
          -0.4007579165311982,
          -0.2960973541239999,
          2.5097584211773913,
          -0.22636852723780754,
          1.4124249621677936,
          -0.7009276308524179,
          2.258325944131734,
          1.4385119123712138,
          1.2866609846611263,
          -3.589734767965458,
          -0.16374024693333453,
          0.5360097349600288,
          -0.09097781992783996,
          -0.6873885270672527,
          -0.5892996912467338,
          -1.1072667618602559,
          -0.3925544914489459,
          -1.6226992894716428,
          -0.14676425969960077,
          0.8617866873938353,
          0.16397636544811814,
          -0.14826919826647023,
          2.451002899286372,
          0.07342039089420077,
          0.25933341041726304,
          0.9583336647651998,
          -0.002849248658989604,
          -2.4514019122068897,
          0.26557205111511023,
          0.13645363992035836,
          0.7456977008090643,
          -0.8084610859632596,
          -0.29449302589314486,
          0.06377982308611987,
          -0.7628397933797015,
          0.6270014653820617,
          1.942560937037833,
          1.3959768215020114,
          -0.2413221025937158,
          0.6490935826150118,
          1.6092762041937738,
          -0.9894111526918349,
          -0.5947953425364148,
          -1.4058252103405229,
          -0.7009146247336251,
          -1.4464861759221324,
          0.9449802831429657,
          1.2075817428026228,
          0.06472956820352599,
          -2.472532337732877,
          0.3178738358306704,
          -0.1127863403840832,
          -1.0602637335203877,
          1.0114190380736963,
          -0.7726383331324089,
          -1.1185888996652265,
          0.7650435674871524,
          -1.0270749284417158,
          -2.2281182492325318,
          2.166972005715521,
          0.4152048120198788,
          0.24201043547382112,
          -0.06347342844797677,
          2.972262915660521,
          -0.16352271520060813,
          -0.28852539715149494,
          -0.040331290202073336,
          0.4435395605032653,
          -1.5099217119650066,
          1.3594754527855322,
          0.10949110589860175,
          2.786344600213582,
          0.014573167929682263,
          1.0361926176290424,
          0.3577919100308673,
          0.9227450087339669,
          -0.4196718179137476,
          0.30782605598360285,
          -0.8431037645309583,
          1.513425531395167,
          -1.3489014813629872,
          -0.9921907660486227,
          -1.0692558879380434,
          0.6690308488549963,
          1.0859067064243542,
          -1.2706158996082302,
          -0.7186679734871404,
          1.178129292095066,
          -0.9936804815232264,
          1.235046435001845,
          -0.14763365880496646,
          1.8075362909279782,
          1.838775059336184,
          -0.20510787303433162,
          -0.6061143938000465,
          -0.1739151740450637,
          0.664982132971049,
          0.5844825881594373,
          -1.7098762767935978,
          -1.1598670985267607,
          -1.344391976021833,
          1.119095352297121,
          -1.4283241294953941,
          0.05074600146317151,
          0.6832951099968501,
          0.19681123529465178,
          0.14516047355247855,
          0.9902471128114494,
          -1.856866711113938,
          1.6164692194844932,
          -0.4448247112845765,
          0.13365794869863842,
          -0.9469363259738152,
          0.5626297745030949,
          -0.06379819153766925,
          0.3558703156036334,
          2.661355637154105,
          -1.2509981729113584,
          -0.42660438441893705,
          -0.516617272725344,
          -0.503021970759697,
          1.5953811088035212,
          -0.4555045451319359,
          -0.11483922549899203,
          -0.9049365691776192,
          -1.011770300800517,
          -0.6292059716250079,
          -0.6946573771404199,
          0.8186491975602155,
          0.705097836640381,
          -0.6271099899673706,
          -1.193890480679251,
          0.35377452544006227,
          -0.9010455386290128,
          0.2735084422581975,
          0.9865138220131138,
          -0.6499654218899694,
          1.4269939590837906,
          -1.2431917375846568,
          1.548744622437332,
          0.3731039232560415,
          -1.7079625897107311,
          -0.0540586601472985,
          0.14019793506456737,
          0.30397384056614685,
          -0.061417139248270074,
          1.6467887734060158,
          0.5128813185180852,
          -0.1007703474445515,
          0.817891980479309,
          -0.1941522529840505,
          -1.1355719302694434,
          -1.4858531104800503,
          0.5625532684729067,
          -1.240734363636746,
          0.9324514726970573,
          -0.17846769171113933,
          -0.3314499092487647,
          2.073402541536021,
          -0.6414721727232726,
          -1.593283763180692,
          -0.42491053178095173,
          -0.7556930205178368,
          0.14511275685785702,
          -1.6375855818808986,
          0.8960883880374279,
          -0.5427474249235767,
          -0.34101100296960823,
          -0.26889151646968357,
          2.9494749968432927,
          -0.44467554912170226,
          1.3303605630634252,
          -0.06566858480634287,
          0.9384338071473305,
          -0.06985296781817205,
          0.5358544538938717,
          -1.7361018943586983,
          1.5258751350113184,
          0.22204069755008263,
          -0.6093681855924106,
          0.7145259930331727,
          -0.1734683670662868,
          -0.8175490260740502,
          -0.44022432596517824,
          -0.5806973376432322,
          0.32775154205547624,
          0.9933060766285509,
          -0.34353155835046145,
          -0.005187615736573684,
          -0.40953934309467227,
          -1.0773554680863247,
          -0.6299092732690664,
          0.9035932229668275,
          -1.1232710936255983,
          0.11836840368591878,
          0.6251236017505503,
          0.2962950989375422,
          1.1695350207224955,
          0.9399151390494505,
          0.48240828404815156,
          1.7121701960306888,
          -0.35514479776430236,
          -0.8950806583064208,
          -0.10872289778625246,
          1.2626421855773122,
          -0.39921174250427316,
          -1.4828309394459316,
          0.24396763999931134,
          -0.534840239179589,
          1.9187388080802208,
          -0.21745113572688085,
          0.5825629284898695,
          1.2719584875542571,
          0.6736451767587074,
          2.415753847763569,
          -0.07665376844266311,
          1.1977841493029082,
          0.14335731487835532,
          1.4265785822963208,
          -0.47769882168927263,
          0.1412089352765037,
          -0.15400242682607196,
          0.8141122609952925,
          1.4663173455080754,
          -0.4140523948079797,
          -0.7813560863635659,
          0.9142095267441489,
          1.1659234257183027,
          -0.32547852555861495,
          -0.8646149254612003,
          0.2968259659553111,
          -1.4721598589905773,
          -0.6773460476974008,
          -2.5136062151964365,
          -0.38874465040925493,
          -2.1458880123543067,
          -0.23572748943677255,
          0.8706827497194976,
          0.02179989698690595,
          1.246108643298689,
          0.6458431064612316,
          -0.5846093115068648,
          0.7567664717723727,
          0.44106916792823636,
          0.6207230900533683,
          0.17175780918097197,
          -1.1249048096640253,
          -0.4087700245575693
        ],
        [
          -0.6505297538622873,
          0.7022613808763148,
          0.39510748815143154,
          0.21668312494903752,
          -0.6236378612605019,
          -1.9618890503082589,
          -1.6092609625585117,
          -0.12307354848148097,
          -0.08323437405353672,
          -0.973328629971136,
          -0.4473938982454069,
          -0.998170140901397,
          1.7222377898169479,
          -2.009108643722809,
          0.06416110673698015,
          -0.5214423985445784,
          2.4958752189208395,
          0.537754586225617,
          -0.024069627239906966,
          -0.2866552919775235,
          0.4962895278816927,
          0.5167984239251535,
          0.7600877277762476,
          0.49954032800388465,
          0.4081146044428295,
          -0.19008865702063424,
          -1.7800749166264787,
          -0.6742931996440634,
          0.7571832773704275,
          -0.17755204450840187,
          -1.1172589115620772,
          -0.9804460750454599,
          -0.9100725508831324,
          -1.0166250844413984,
          1.2055146094915081,
          0.04138114905638325,
          -1.6345520415022825,
          -2.0771822078953495,
          0.8376251863184616,
          1.1771548625616766,
          -3.350101503214999,
          -1.5313254565258976,
          1.361893015810625,
          -0.08358699412723501,
          2.171841382636336,
          1.6452166299303361,
          -0.22346764602484778,
          0.7267930642866374,
          0.8706595656631319,
          0.8049951695970607,
          -0.27319044519702895,
          -0.3959535852014083,
          0.005077046255685352,
          0.8319077879297453,
          -0.3148216659415404,
          0.5621266283167923,
          -0.4227615488253665,
          -0.17430702103645185,
          0.06338117973447993,
          0.7488311854946401,
          0.07344062190090016,
          0.9760757736161353,
          -0.5658645874048244,
          1.1031448652794522,
          1.4899685728786427,
          -1.7072240602467184,
          1.0768390910424213,
          0.5792307720608633,
          0.41364984426959567,
          0.17724123924643248,
          -0.4739509192647586,
          -1.0295884200985965,
          1.0596617902599539,
          0.04257019962598829,
          0.43543105254664094,
          -0.6589477238418587,
          0.694857788162513,
          1.8515149424737516,
          -0.4160433154202222,
          0.27518775722873756,
          0.6453054994683042,
          -0.3369423137748829,
          -0.34105275053141504,
          -0.5086292237011071,
          0.5987971859269556,
          0.27840470486345065,
          -0.45022025901537904,
          2.2930280553411344,
          -0.5942165743552146,
          -1.665058779070126,
          0.5241558834521954,
          0.29213823478236833,
          0.09301090778338711,
          0.7224672748680623,
          0.005750458078226514,
          -0.8143340072961217,
          0.7595468945418208,
          1.4743711739526733,
          -0.13975320929041035,
          1.3395325512844554,
          -1.2029308350052434,
          0.36566696140178834,
          0.6372440817001336,
          0.876443263545256,
          -1.7288816724663263,
          -0.06695633213958578,
          1.9856822050444638,
          0.41795858336365577,
          -0.9355450895254176,
          -1.0361979268565622,
          -1.4051770607421745,
          -2.308736783464046,
          -0.867877777535179,
          0.1845683798011224,
          -0.4322258781862086,
          0.8565429786901124,
          0.7876129844420942,
          -0.12525544655831192,
          -0.12054328612314498,
          -0.058815476217937125,
          1.8588748317041668,
          0.651800350384777,
          -0.2643210883826594,
          0.7965834163427012,
          -0.03313732412578779,
          -0.5600739258870902,
          -0.12303438336674483,
          -1.5359839660405108,
          -0.21102891464236181,
          0.5555614364126609,
          1.3855612055250908,
          -0.1730939882339568,
          0.923499861792717,
          1.4592665531435383,
          -0.6349325429677565,
          0.581412350583564,
          -1.1390153346449885,
          0.09295187545798328,
          0.8194196239061495,
          1.688822766358138,
          0.3093657086231373,
          0.16784169469500224,
          -0.7415962542796581,
          0.744449198764713,
          -1.1765109868806856,
          -0.1251853987542344,
          0.5023136046238456,
          0.7887989804431672,
          -0.6677448711228856,
          -0.8242511362243574,
          -0.888364796805983,
          0.4648351466363448,
          -0.4466184341863333,
          0.7096060352010879,
          0.7280032921599054,
          -0.1673877207356505,
          0.5321773889185113,
          -0.647521698837311,
          -0.8123145999912966,
          -1.4945754958964415,
          -0.837840425429752,
          -0.5988726406647811,
          -0.35453379663560824,
          -1.4754721299508393,
          -1.222770209463208,
          -0.971802147911237,
          -1.0649000925308258,
          -0.6495884369336623,
          0.12141387667003135,
          -1.130351422158222,
          -0.5533090363537783,
          -0.17313848058427894,
          -1.5853877394092895,
          -0.08519140445935204,
          0.8574581463163542,
          0.3037488748896472,
          -0.1743197741323079,
          -0.9145272735142237,
          -0.3015990222669863,
          -1.2746307623083493,
          1.3666444537844704,
          -1.6568485134471829,
          0.5655746883201688,
          -1.9996960755274413,
          0.4852718584273881,
          -1.6658602262151643,
          -1.237620035692811,
          -0.8598878364424224,
          2.1739860830664606,
          -0.2812360773971688,
          1.9883983569162291,
          0.31120176564841134,
          0.5776452709671095,
          1.1992113946383565,
          1.327640916226831,
          0.8296280459664268,
          -0.5763491010098611,
          0.7745000461157885,
          -0.371179626473094,
          1.8723913025983427,
          0.4410657589020957,
          -0.3018671321148299,
          2.1142657830605525,
          0.6659049098237312,
          0.23911023306695164,
          1.4199116584165479,
          -0.32977782555214125,
          -1.9423485069589161,
          0.7021697843257496,
          1.56620950699013,
          -0.7237431699330928,
          0.23286184478922448,
          0.4094800053779457,
          0.624728076369473,
          -0.5069055918652602,
          0.1432140316992161,
          -1.4529154023234738,
          -0.48558504599364727,
          -1.411769818395597,
          -0.751595766977798,
          0.18867254832243324,
          0.1608870421858881,
          -2.6922613093812604,
          0.04379137325079427,
          1.1531400794908684,
          -1.6860868362593118,
          0.4389292018931613,
          0.22917987213684865,
          0.21866343411378364,
          1.3994220433747995,
          -0.8678503554467701,
          0.8448184010688342,
          -1.5240851560424151,
          -0.2271857990065013,
          0.2765487914315463,
          -1.2329837982310092,
          -0.7067091733962251,
          0.3591134539427974,
          0.6573725440108426,
          -0.4610962447615226,
          -0.594484407775328,
          -0.988281128615985,
          -0.08721682974428947,
          -0.4952607304817925,
          -1.1728959995960897,
          0.387415680080178,
          -0.8927163283585967,
          -0.641899523276323,
          1.2642515484806207,
          0.06355639741831783,
          -0.7000851149265838,
          -0.3246305505845114,
          -0.5191370500176202,
          -0.6858553188176559,
          -0.4259951522825944,
          -0.3216414769538941,
          0.9042837434946794,
          0.27789256627513725,
          0.21511308304406976,
          1.3016257291309667,
          0.26458779583080144,
          1.0774214012508951,
          1.1430464438469483,
          0.7548155570833047,
          0.9917474806934874,
          -0.07707559993219577,
          -1.7724042325687175,
          0.7919121342957564,
          -0.20247962344703963,
          -0.7599932992478418,
          -0.4578947386677077,
          -0.9005904202464776,
          -0.2743944478104689,
          1.8534541968983327,
          -0.5105924333680428,
          0.8383008802895613,
          -0.6996779576643788,
          -0.5798628208846132,
          0.5191436517871877,
          0.5325252164279641,
          1.1312300691345,
          -0.19156233159993336,
          -0.16437418346151408,
          -1.4105779726968597,
          0.014618072885606622,
          -0.04315355088153469,
          0.8430928932904982,
          0.031195873747716336,
          -0.3419817519326702,
          -0.41089850677291234,
          -1.095564768381001,
          1.058906740842565,
          -0.0637048217731014,
          -0.10027859666518667,
          -1.0738179841867121,
          -1.8746823731382298,
          0.36307815153949974,
          0.5620707044000025,
          -0.5371594888548515,
          -0.09712042721907978,
          0.5840768003224517,
          -0.8439270035847359,
          -0.29022910571474625,
          0.1596335300229275,
          0.12741823836395377,
          1.1817229167495442,
          1.4624174357338608,
          -0.2542698085843695,
          -2.057036368624472,
          1.6703431215603353,
          -1.105727826561555,
          0.9891932980451398,
          1.841594262888909,
          -0.5750509071733554,
          -0.8706431214155187,
          1.9315387051478206,
          -1.0354547763018658,
          -0.0382837175198619,
          0.4090169483474702,
          0.21576701378829505,
          -0.40198975909033485,
          -0.29072238645988907,
          -1.572651100241185,
          1.1330261174481744,
          -0.2232186904600899,
          1.2081779630227045,
          1.7001578524954657,
          1.8329083859097752,
          -0.8985947984529646,
          0.4573276705466577,
          -0.9683178919345742,
          0.24650683313859506,
          -0.2018678815020899,
          0.003642572927599441,
          1.0719872892394604,
          0.6414966268637785,
          -0.7098458903652914,
          -1.4342182792465796,
          -1.4858263437053845,
          0.3225999607323041,
          0.18036641874207496,
          0.5720518715136942,
          -1.3299111605249,
          0.9077774025358468,
          0.649945376149486,
          0.677991365579458,
          -1.2777867541093098,
          -2.0398311980797073,
          1.0279720569410766,
          0.3954979868625947,
          0.6932481747938026,
          1.90114893180946,
          0.6023488971132549,
          0.4247036445341748,
          0.19996853054050803,
          0.712790354310639,
          1.5944923597786174,
          0.3650262566804287,
          -0.22135527516501047,
          0.7060538733849406,
          -0.7692645159284099,
          1.3829040272788995,
          0.1427724924940379,
          -1.6067251500998747,
          0.2507580814576696,
          -1.4276006415168367,
          -1.1482612217198862,
          -1.4506014156931688,
          -0.5877427074500207,
          1.4689524501865818,
          -0.6026696476586432,
          -0.7294652923854487,
          0.300324638008704,
          0.9174086370167283,
          -0.5780541796203068,
          -0.6112124464804373,
          0.9973002419792539,
          -0.4580415937332361,
          -0.39977149861589395,
          0.7423373711408817,
          1.746139932125285,
          0.4838803872172555,
          0.2012969374132374,
          -2.687641692234341,
          2.2531105885462166,
          2.364975796270952,
          -2.088059048469669,
          0.14298952662901956,
          -0.528843496300358,
          -1.4256677792513948,
          1.056843584969435,
          -1.1772872546091304,
          0.0293300981700971,
          1.4952092143204327,
          -1.9876796927985352,
          0.22149422826162854,
          -2.198723426770406,
          2.0031124324777183,
          -0.2600932536549681,
          0.2370415988941122,
          -1.2728824303311155,
          -1.2560702397577597,
          0.7419220937928118,
          0.14557541364836113,
          -0.25059129254516127,
          0.9885025302455865,
          0.7497993328548284,
          1.1435828258715903,
          1.0032121344296334,
          -0.48046572727057124,
          -1.2155671942293984,
          1.1176606857648623,
          0.5707271943235063,
          0.5263182664533556,
          0.4625190593670681,
          1.3676480186324964,
          0.10828820702200499,
          -0.27867910946079905,
          -0.6208202309662839,
          -0.24914472078350827,
          0.13080403477818459,
          -0.2194495725647232,
          0.15298928384745464,
          0.01762735833466001,
          -0.15643954288871323,
          0.8222915688807713,
          -0.07162927099295835,
          2.033535799666259,
          -1.790759956527187,
          1.0825293158955855,
          -1.04968942094753,
          0.656848198811053,
          0.20269345083544787,
          -1.280365998416522,
          0.09201933129165056,
          1.1176494630807554,
          0.8206556432428699,
          2.510281632270272,
          -0.3264767151411006,
          -1.3406669355520424,
          1.944336138635872,
          -0.9844546103798768,
          -0.6330169203850362,
          -1.376489478499987,
          0.579626569548713,
          -1.06203703763786,
          0.008625443073106642,
          1.0827061837759997,
          0.7502372421293261,
          -0.15840415856629145,
          -1.4675717128118593,
          1.3100245545832132,
          1.0627749854400264,
          0.24790420618285122,
          -0.1598775732591542,
          1.9280987333553274,
          -0.6931301735351851,
          0.6984288128811426,
          0.12569544213404085,
          1.31434080205307,
          -0.943473046668677,
          -0.04191297504925972,
          -0.6644714395528172,
          -0.6370629625678488,
          1.0348779908683896,
          0.7176774036057105,
          1.1027961815105256,
          1.5158517757050285,
          -1.0248454186181513,
          1.1741342925762854,
          -1.0645400604357944,
          -0.36069357831445525,
          -1.0418976746930628,
          1.9739720737023914,
          0.9004046101985893,
          -1.146599466450855,
          2.2299791862982805,
          1.2452063471469952,
          0.6758810022754501,
          1.7347935831408194,
          0.7882382393214813,
          -0.9603330440109387,
          -0.8064566634797625,
          1.508565859314691,
          -1.924631599455116,
          0.7518766406503916,
          0.06435807600872878,
          1.1788456025093614,
          0.7291374643983514,
          1.5386962448268355,
          0.5408658675149505,
          0.13876433460838636,
          1.1170668993727206,
          2.2944474960971766,
          -0.47817100386678,
          1.0610958740391032,
          1.863079307366023,
          0.17444139488219257,
          0.5463850736864111,
          -1.57907340903985,
          -0.4247997625806867,
          0.4692584943295031,
          -0.8095799788845444,
          0.21624547958850765,
          0.5891820735359717,
          -1.137805892485452,
          0.11689073864116953,
          0.804370579404966,
          -0.16368691636688998,
          -0.00838056800442429,
          2.652695506483097,
          -1.7471690092917171,
          -2.9739525304256125,
          0.8577556013831732,
          1.6978768888740734,
          1.4795505868424694,
          1.053478167558098,
          -0.017415788364589888,
          0.38286354174957865,
          -1.0389211373277154,
          -0.5982579684746966,
          -0.09442663424659936,
          0.5489160732126735,
          0.4644748605488458,
          -0.26115163150596854,
          0.5411208874473395,
          0.3606356285743353,
          -0.7225642610704721,
          -1.3731038195265248,
          0.8957019790192507,
          -1.1466230764376653,
          -2.1704993221083586,
          -0.7434321114825432,
          -1.0265546474573217,
          -1.221674932035092,
          1.2170793589679616,
          -1.5130563321554227,
          -1.7625945362092748,
          -0.8710614224619173,
          -0.3278670354097883,
          0.7819805843364449,
          0.7305919091050932,
          0.1603260006705513,
          0.08615408391382184,
          0.17870884593280117,
          -1.3790480371313127,
          -0.3536196827048317,
          0.3024809622438372,
          -0.4453411484344089,
          1.6134826256909809,
          -0.8594640883896584,
          1.0325227096662304,
          -0.4518351081490881,
          -0.7813026621154965,
          0.9366177884695752,
          1.3012570855976608,
          0.9564495833379546,
          -0.6806539661206599,
          0.6307428696499001,
          1.124074563353586,
          -1.8273293269910396,
          -0.22450312267768907,
          2.529819525566687,
          -0.8580283717381617,
          0.020226475981828817,
          -0.18716333712966982,
          -0.21649568586136297,
          -0.6127798628613594,
          0.5799418984555895,
          0.9436764425386943,
          0.43764149349445997,
          -0.013387119175582775,
          0.429378489367857,
          -0.1590823186774921,
          -0.48466637153334996,
          -0.8003820102128071,
          1.4216709563838255,
          -1.7432624611292147,
          0.1281197108285297,
          1.5860105772439286,
          0.25259090582061094,
          0.09650636299877656,
          -0.35717895907787983,
          -1.0653032467142123,
          0.47171455804277646,
          -1.0478256530613705,
          -1.400220970749653,
          -1.7042117712576188,
          -0.007021815367905328,
          -0.014306313668733263,
          0.5034866985371959,
          -0.47297421298895603,
          -1.687443861442527,
          -0.38655687303261405,
          -0.04685110840818656,
          1.8481811711277014,
          0.7644312679265973,
          1.620050568554578,
          -2.199513466199514,
          0.9450677264996057,
          1.7889593954003546,
          -0.23315127690061418,
          -1.1755485374396624,
          0.7222000901925085,
          -1.4115886091371606,
          -1.3164656895771447,
          0.8241928140249911,
          -0.1415245848939948,
          -0.24759966853035917,
          -0.8819893199972657,
          0.29070593793786514,
          1.6251534991716707,
          0.4740457367869118,
          -2.0918032758233025,
          0.3591332974839815,
          1.799088681288585,
          -0.7144653493249776,
          0.7789844108067806,
          0.08655200025677871,
          0.4220142766141972,
          0.683452076595033,
          1.6393446239104292,
          0.33335476340500136,
          -0.9438803839508253,
          1.154203640688786,
          0.479836939816062,
          -0.48538910557883774,
          -0.18132464010488408,
          -0.5027071204798311,
          1.1412654295738975,
          0.9025980323370127,
          -1.2615824252633494,
          -0.06637652158956533,
          -2.297694479640524,
          0.9786973255252314,
          -1.0897487801048757,
          -0.18186552077622448,
          -0.5349096506680328,
          -0.30810754438652926,
          -1.1002504381907239,
          -1.662771794628294,
          -0.6480363893299237,
          -1.7219981759361378,
          2.5508861154054485,
          -0.011898521092988877,
          0.471401910446849,
          -0.9642162928811092,
          1.589853680448008,
          -0.12141693298761723,
          0.7586600330467135,
          -0.596127344687127,
          0.9630691880154286,
          0.47238093880771836,
          0.7822259938067762,
          0.35157434441668,
          -1.1626193847302462,
          -0.6026424154985827,
          -2.081472950279379,
          0.9510771342375184,
          -1.273667074355314,
          -1.9387219256341859,
          0.21343242040698454,
          -0.5232045778867038,
          -0.31181269742845297,
          1.6715729067315446,
          -0.2036870924940243,
          -1.520032070619849,
          1.089003192258209,
          0.04508507277856869,
          -0.2876250412671479,
          -0.5331373443136947,
          -0.6503525903682195,
          -0.7841166072401273,
          -0.20342812062788865,
          0.7791583464092284,
          0.5208460505298095,
          -0.3297564806514317,
          0.6541800443165395,
          -0.5746412871505072,
          -1.8798941457633984,
          -0.49350900491788846,
          0.3859350742984131,
          0.053362249356442404,
          -0.6162622147028756,
          1.7290396805902983,
          -1.301540557381706,
          0.4877773649460542,
          -1.3687739076562653,
          0.6511166302549756,
          1.0727548780125562,
          -0.966331115684579,
          -1.2045599621089773,
          -0.9593057499568067,
          -0.37714479458306616,
          0.6414977224712269,
          0.6228329444244753,
          -0.23013027010050174,
          -0.7223466660625422,
          0.205756589439368,
          0.8036128246885438,
          -0.10351200246488819,
          -1.2600914165121304,
          0.9298311655922727,
          0.5126562476364389,
          -1.8362240149671216,
          1.9920032177057558,
          0.01850799339357599,
          -1.3865717785223883,
          0.4414988698081195,
          0.7254051000034116,
          -0.5587836042780139,
          0.07280997444947208,
          -0.5768241946333627,
          0.2122333159299434,
          -0.38875238534438805,
          -0.5647059166780757,
          -0.4106543576342117,
          0.38764679962166004,
          1.82833830572048,
          -1.022230122015903,
          -1.297827075495253,
          -0.9234611254541937,
          -0.23611945794701852,
          -0.4257165559816709,
          -0.35562039315496585,
          -0.5186732507296858,
          -0.37021889480924985,
          -0.07089881044866751,
          0.6702238266268172,
          0.20300499242276498,
          -0.08334550017063751,
          0.9793756106107304,
          1.829851025230453,
          0.2157496530973401,
          -0.38457882446458425,
          0.5006523753206887,
          -0.49546756866646907,
          0.4706701566336966,
          0.7968451079812832,
          0.7443712354585907,
          -0.9364879830389907,
          0.027860381157251115,
          -1.3030619549092202,
          0.04836992469272523,
          -0.3318363706744665,
          0.9204194729695901,
          -0.60130331697215,
          -0.9511196531669754,
          0.08348768516154577,
          0.6146275313617484,
          0.8662235474500718,
          0.3631251577520307,
          0.07666011569893438,
          -0.6154846901714887,
          0.693258722131099,
          0.7585825012617219,
          0.9064699886504739,
          0.8625633894869532,
          0.6734695954148313,
          -1.3525858468986622,
          1.3591242696153434,
          0.7301805888423372,
          1.0804265620674425,
          -0.6177832725096689,
          -2.4761434710987675,
          0.9783731296450123,
          -0.15376139183025422,
          -0.6231248927386787,
          -0.04599926010499148,
          -0.8214754245748602,
          -0.8114658591347387,
          0.11739725445533104,
          -1.961560772845325,
          1.0570090359383695,
          0.07199442000468766,
          0.00844948974414607,
          0.9327644989899365,
          0.6138088795551415,
          -0.21262676570161587,
          -1.1921988397761578,
          -0.12097230042960593,
          0.021534732158661914,
          -0.9655564303894995,
          1.4257114811354064
        ],
        [
          -0.670989817534315,
          2.015870809754851,
          -1.3734278509724127,
          1.1635653362884675,
          0.9844935543115384,
          0.9859548046323034,
          -1.1192619402614024,
          0.7244304391777092,
          0.7817922315391249,
          -0.46778786754926655,
          -1.43726293379655,
          0.1274966424118556,
          0.9029484117368156,
          0.29431474068037483,
          1.5026148853128227,
          -0.702542121264287,
          -0.0634558026747666,
          0.2036177829681235,
          1.0096752317071505,
          0.5558789073935182,
          0.29629075285883977,
          -0.5034134078792372,
          1.356483315898288,
          0.06430693094366931,
          -0.33885198533533445,
          -0.2822656073036673,
          -0.10784044601673608,
          -0.8320212459034251,
          0.6659338565049276,
          -0.08380826279919283,
          -1.1604823434378113,
          -1.0195204206763153,
          -0.22931689585667273,
          -0.18793277828678123,
          -0.08363101898980768,
          1.6448920170070835,
          -0.24565932493653506,
          0.6824150968070477,
          0.16626709663317107,
          -0.3813207598171951,
          1.569660279250112,
          -1.7633789875951744,
          -0.09676115323642763,
          -0.6683197896886423,
          -0.07203515152068701,
          0.5087585918966233,
          1.2382245870142874,
          0.4385886581981896,
          0.8359372655470539,
          0.5857087633739624,
          -0.9535909500046605,
          -0.6781058380915692,
          -1.8667037375953823,
          -0.5493159893483934,
          -1.037241807207728,
          0.5745252122643382,
          0.809058582906189,
          -1.6395594091140375,
          0.8091735990640839,
          0.1551389711334339,
          2.569220026273175,
          1.4338218965619676,
          0.4372428976474635,
          -0.15246381753986976,
          0.013539470271573354,
          0.3000226767334553,
          -0.8757994346442322,
          1.1698880253987238,
          0.1626763081583405,
          0.1862379936691099,
          -1.1423651332219353,
          1.0775269657866298,
          -2.1408385853764837,
          1.0864545145618676,
          -1.4930111077004817,
          1.1373720821296447,
          -1.1868675360950292,
          -0.11391520685892234,
          -0.9728771684509193,
          -0.6563340141016419,
          -0.31873353272226834,
          -0.42921676709470724,
          0.8537260186606804,
          1.2528767035206745,
          1.0436877996973195,
          0.5861325334760548,
          -0.29608012810494744,
          -2.0418778032553386,
          0.2594447302972543,
          -0.15042916037357137,
          0.6463302667535389,
          1.3731385800030942,
          0.4387829772627813,
          0.6150011038108735,
          -1.61519569794213,
          -0.06730542201215278,
          3.14583957624553,
          -0.31835872086833017,
          -2.476938199645648,
          -0.7455020777938934,
          -0.29400554133693685,
          -1.040230017628997,
          -1.1040817331628618,
          -1.219983251137302,
          -0.3430558295028593,
          1.6129557387476712,
          -0.2489003560494787,
          -0.27943435545828715,
          1.1685820117883938,
          -0.7785268868250023,
          0.44700321954053873,
          1.1441077285202323,
          -1.2420642257101897,
          -1.010130476173112,
          0.34085069184419264,
          -0.4759211611363225,
          0.5545797460554757,
          -1.8681291825055117,
          -0.5847132425616917,
          -0.9070045887660728,
          -0.7898827487886769,
          -0.37085550502476006,
          -0.021589570906439436,
          -0.4705811009931357,
          1.245907860109033,
          1.2597188607225132,
          -0.9461561972497362,
          0.08690153213713353,
          0.3313136398399319,
          -0.13418371034560814,
          0.9211734199192788,
          0.21639878223288866,
          0.03358244448607958,
          -0.49750472038677496,
          0.9043081962638981,
          0.06104284848625632,
          0.3791729585101379,
          1.0757908903124882,
          -0.8313656917220021,
          -0.4509504134050803,
          -0.7126856544411474,
          0.7957437012981818,
          -0.010093527696031774,
          0.8258559608804112,
          -0.469305152082389,
          -0.059711734525889335,
          1.2510964121235981,
          0.8491329931971405,
          0.19179854434230648,
          1.050127459630735,
          -0.2872805751242484,
          0.7358997001166665,
          1.02969811347885,
          -0.5920451525609034,
          -0.5524910261203848,
          0.22518297363146839,
          -0.12071404551801224,
          1.5692366112156881,
          -0.17780141961770063,
          1.3496138204055923,
          0.940024487107439,
          -0.2960540540285203,
          0.5157383997889028,
          1.4504098057947628,
          -1.286175635051816,
          -0.4819286107827011,
          -0.071433168647851,
          0.3234965711656004,
          0.8227932886313037,
          -0.9162398040006544,
          0.44761590090440034,
          1.1938582732652723,
          -0.957788689115542,
          -0.8878113755078896,
          0.6610643875759044,
          -0.2979252447650083,
          0.7001722177144166,
          0.04105320209398262,
          -0.18108372779880805,
          0.2429320345338159,
          -0.5579962981954731,
          1.1395043329427883,
          -0.3586255904044783,
          -0.4232466206325657,
          0.46793098337299904,
          0.7219469591392689,
          -0.6660610519388261,
          0.17630896162402632,
          0.220968674373458,
          -0.6788338500684619,
          0.8022965885779153,
          1.1794501158833544,
          0.473920084444512,
          -2.00772782091453,
          0.729953716402823,
          0.3446726680965663,
          0.370456590714284,
          0.08657776551510536,
          0.03410987606268256,
          1.2448539283010687,
          1.2352002733426202,
          0.024624878584416466,
          0.32305037619823856,
          0.20341298606903724,
          -2.168578549218032,
          -1.927679315054225,
          0.06919853279164181,
          0.41455346681875815,
          -0.4086247703218506,
          -0.26742726936034783,
          -0.6692767987983617,
          0.15312049737194383,
          -1.080307068353128,
          0.5370868243905429,
          1.32411960373404,
          -0.17795949930154267,
          -1.4307026224889237,
          0.46438618493812,
          1.3142878532049402,
          0.5168239992371674,
          -0.9950888989446953,
          -0.449479616045748,
          0.1605466010436772,
          -1.2136945730219297,
          -2.2176514333453583,
          -0.6496410803664125,
          -0.556383430199306,
          -1.5642529257278512,
          1.070248676845514,
          1.0474586900521468,
          1.5061169916743407,
          -1.613906981565174,
          0.014539278549842603,
          2.35928957154556,
          -0.5137781467087901,
          0.6817997148083519,
          -1.4908941242709843,
          -1.4515573917152014,
          1.4185841063334126,
          -2.8059816822058266,
          -1.489546046848352,
          1.183416452449308,
          -0.7845633643206645,
          0.5765832506082874,
          -0.3176648286148615,
          -0.015753933471065514,
          -0.7746004016159163,
          0.07337204678767711,
          1.5249738656081313,
          0.632105919758555,
          -1.9925735214902207,
          0.11403853744678281,
          -0.35927959294377915,
          -0.6537585323470233,
          0.5051642286346543,
          -0.03852255237136797,
          -0.10134097938061948,
          -1.3585464411270305,
          1.3966981007545454,
          0.6947097813912424,
          -0.15671452542384748,
          -0.595665884424382,
          -1.2672263398481591,
          -0.009612184641875169,
          1.0525498255486132,
          1.0253431005755347,
          -0.8184022551691956,
          1.0721206533989387,
          1.9446824687120032,
          0.344988300473074,
          -0.14890733004860585,
          -0.9835139239673004,
          0.47232855617095554,
          -1.7741016896605013,
          0.38646837154157426,
          0.4428357151240906,
          0.08152310848799948,
          0.2380881494742689,
          -0.38718491731700244,
          -1.1992136852769042,
          -1.0100528730463285,
          -0.2508425700358147,
          -0.8165930653571717,
          2.0712709008774723,
          0.8819650814454097,
          1.1290626421872083,
          0.34230902368263405,
          -1.988877759203762,
          2.3114569724240654,
          -0.3887170966832069,
          0.6264903890937614,
          1.6855623631973584,
          -0.5361177845188692,
          -0.8170305057460062,
          0.7310886405987606,
          -0.2543732462200174,
          -0.29074964190758235,
          1.1103366849272482,
          -1.081861251945245,
          0.06924523050207734,
          -0.6394208405867322,
          -0.8927616220946163,
          1.1661265281071078,
          0.2531367759744829,
          0.08775144859671356,
          0.6773805634446912,
          -0.5931559097772714,
          0.5578319963961182,
          0.20269821137132046,
          0.5054462004759223,
          -1.2979402359883416,
          -0.576958690100646,
          1.0530235757037028,
          -1.0579637891222384,
          -0.06412574888766598,
          -0.15755166011060964,
          0.2834345010730218,
          -0.8817311104664273,
          0.10022051248568344,
          -0.3868935332263374,
          -0.2603220713459955,
          0.1824059490004538,
          0.14502591210851024,
          1.3040670826039,
          -0.7778926797142033,
          -0.49486336030856887,
          1.2410744473050326,
          0.41198460210652604,
          0.7672804517144497,
          -0.3350504440849466,
          -0.39957413256677654,
          0.6853703808429132,
          0.7254679519737752,
          -1.3537878394659721,
          0.8225559244815679,
          -0.2030668681397273,
          0.9241114135585424,
          -0.23712949512228432,
          0.7801697627219539,
          -0.2543202328101383,
          0.09907657230966306,
          0.4688220743826486,
          0.2829287471951248,
          -1.3384604254374093,
          -1.231482622606528,
          0.958023416590451,
          1.8409207584216096,
          0.9683804233593514,
          1.6771875563492438,
          0.03402668178725326,
          0.23388290964591393,
          0.1390215888582651,
          -0.12400888868403548,
          0.43452332489934375,
          -1.1523990722132758,
          1.1198092075038735,
          1.531727632417275,
          2.0245686600078305,
          -0.9188848645006933,
          -1.688110520450907,
          -0.7563825262299168,
          0.001422525310638621,
          -0.6331169194564483,
          -0.4757782598973813,
          1.1639101477522942,
          1.4935547588044042,
          -0.8355906979283679,
          1.042758624415856,
          -1.019280326101457,
          0.42203636321361226,
          1.08139088686205,
          -0.13566464125233305,
          1.1162937544878484,
          -1.6445538990697504,
          0.27464222569440694,
          -0.32204395017873055,
          1.5416509003553316,
          0.02944801064669431,
          -0.1959899124953626,
          0.2220788350950361,
          -1.0045064323167097,
          -2.1039174494732076,
          1.0612473541145289,
          0.7145224499687388,
          -1.4129787727785268,
          -0.0071197292465957195,
          0.03977239749252399,
          -1.1267619398869517,
          0.5170461647923638,
          0.22237806704815163,
          0.8019088438132574,
          -0.5926053197117537,
          -1.3201030328673689,
          0.30562815501040513,
          0.16326425942072345,
          2.040021505898798,
          1.6634094199392466,
          1.0253243388244435,
          0.37726627762193476,
          0.7273710875894293,
          -0.025366179633200554,
          1.2108451824257267,
          1.4828193163982029,
          0.4978488307571318,
          0.06941954679472224,
          0.9267317658909323,
          2.6613543437372154,
          1.0366385855028124,
          1.0681986749926349,
          1.8727205821223412,
          0.051527845165561414,
          1.5780883045721799,
          -1.1221368446133797,
          -2.1374523864973765,
          -0.21761361968171006,
          -1.0246545539986471,
          1.0144535301897804,
          0.4476162062285543,
          -0.11817451850310612,
          -1.01934958616664,
          0.02014935359834677,
          -0.23271924836631255,
          -1.3136617386646452,
          -1.0295907268140387,
          0.660511947454917,
          0.7921657407358708,
          -0.8661939292963527,
          0.9435082472096782,
          0.7560742050314235,
          0.04683042444211265,
          -0.19533493272374758,
          -0.2546096499768394,
          -1.0723529167418664,
          0.9303009640609455,
          0.704600251289048,
          -0.9334361526773534,
          -0.794636042409607,
          -0.4604285535209127,
          -0.5822012450799001,
          -1.335985409105388,
          0.34933003110586514,
          1.1523658855376775,
          2.0375179039870033,
          0.3137743894999286,
          1.1141369346044225,
          -0.8191451349144061,
          -0.7413871174402314,
          -0.8157076462015174,
          -0.3541374789557992,
          -0.9772945581121173,
          -1.7710414765256441,
          1.4734845724178545,
          1.2757274004646162,
          -1.0579210293694907,
          1.4310930180834351,
          -1.993093549722449,
          0.5365439761908525,
          -0.28553016446033413,
          0.6068212765032441,
          -0.28360384951802287,
          1.5821354738033808,
          -0.9616009446272075,
          -0.001013672253712485,
          -0.771212983487511,
          0.5981154070573441,
          -1.439182936799049,
          -1.8487484221754173,
          0.6422187190892773,
          0.6618647242440435,
          0.32701020306847955,
          1.0571042880904598,
          0.2422413041702932,
          -2.202796094221429,
          -2.23864361917851,
          0.7262355215033421,
          -1.5740551844775221,
          -0.4874303785352742,
          0.1418973919802523,
          2.257468408073158,
          -1.0472234711311994,
          -0.7303532687764126,
          -1.5682261270916706,
          -0.6703795742588249,
          -0.7827468925795118,
          0.03969422949491139,
          -0.9984585585918114,
          -0.4456522698169348,
          0.21088932399098295,
          -1.1296270996983118,
          -0.2889529760474683,
          0.006153259003995995,
          -1.68402173730863,
          -1.7418898672790415,
          -0.3158292034976526,
          1.4381363474167828,
          -0.1000374811371314,
          -0.5417934050471576,
          -0.05006759813847238,
          0.3766318628154546,
          0.4961141770561644,
          1.0335712769861907,
          -0.2900950664547777,
          0.6168683427119244,
          -0.7436759827663888,
          -0.7572853999879678,
          -0.9677542327486811,
          -1.861661523215167,
          -0.23799807015877847,
          -1.1954668398977288,
          0.48361744539718343,
          -1.9654465074658953,
          -0.5828234608381664,
          0.31419360947743097,
          -0.5951195459185928,
          -0.5086957829466993,
          1.063905641662121,
          1.2056849465507467,
          -1.5047597014317138,
          0.3004572289926565,
          -0.4267472271846058,
          -1.6987605199616407,
          -0.22599485702338612,
          0.1442787364107599,
          -0.17395678166895534,
          -1.6166644189733204,
          -0.25032167592735466,
          0.6792151432501465,
          1.6756129242083584,
          -0.8770038169897324,
          0.1902930890757123,
          1.1577842375871605,
          1.4146780145222506,
          0.6351315152820716,
          -0.75659045669729,
          -0.29336192389907745,
          -0.7813233854041878,
          -0.2718559488833259,
          -1.390315726129883,
          1.8595855789644247,
          0.33851492270264083,
          0.3714738504931346,
          -0.4216110238256445,
          0.44377578210652513,
          0.4211072231959993,
          0.28054377148835696,
          -1.1071025887984751,
          0.16072354634196914,
          1.4981976059834683,
          -1.084589726934974,
          1.3760685595806865,
          -1.3630852808154714,
          -0.26009163085948905,
          -0.16425685010577573,
          0.9393765350815881,
          -2.0113868841658697,
          -0.8426599488617051,
          -1.0686700013042445,
          -0.6774047317356691,
          0.3763998325281627,
          -0.9274921028586346,
          1.0115778262771062,
          -0.482344889578644,
          -0.7401151541449157,
          1.8167504666610037,
          -0.346165704963858,
          0.40295055881655306,
          -0.6159464859325181,
          -0.015862900500499624,
          0.9080160918798519,
          -0.7616946839106197,
          1.750435062350393,
          0.7701100626247669,
          -1.1827943098227702,
          -0.6825925136359698,
          -0.2863857406089601,
          1.4233717792287734,
          -0.7960839296825268,
          1.6428418899930008,
          -0.8759142574511396,
          0.20628937692521795,
          -0.28404229252161123,
          -0.8878850240147733,
          1.6552381745607698,
          0.19225259375118509,
          0.7530551962780325,
          -0.251226154555183,
          0.32508386426514413,
          0.5589195511199536,
          1.1752263288654028,
          -0.9610288625840571,
          0.24581834113831816,
          0.35611615611436126,
          1.2000151253541291,
          -0.14998490566855346,
          -1.091144511455473,
          1.0464382734308935,
          -0.0030375271760974885,
          0.676176730816832,
          1.7268727965655963,
          -1.5116991273190252,
          1.418881929542451,
          -0.5697003682671151,
          -1.9532809576046943,
          -0.50918361204681,
          0.035926873104189135,
          -1.057334048911019,
          -0.3638272940389426,
          -0.4091455538864072,
          -1.2290471654208301,
          0.07589518309635274,
          0.0669161418849226,
          0.7706423752019136,
          -2.5774075273190524,
          0.3717134126483331,
          1.2095514442675417,
          -1.5061221522607051,
          -1.047487607961055,
          -0.43737478930104845,
          -0.514502426164262,
          -0.6076438605999925,
          -0.2190205119955049,
          0.6520984707756092,
          -1.0898895211990396,
          -0.8073017765647271,
          0.42183362347622655,
          1.1048967732518575,
          -0.8649321946534565,
          -0.4652851532117115,
          -0.18690313844659454,
          1.3883747746691257,
          0.21078990177595622,
          -0.9844035970486282,
          0.4102023578754015,
          -2.2470669541557107,
          1.32522413849053,
          -0.734701753825835,
          -0.026126385918186727,
          0.19341202540070068,
          -1.238053237324553,
          0.18440532713537935,
          0.15198429788036374,
          -0.09311158950644427,
          -0.4331012811175102,
          0.012606844903682931,
          1.1852731946352282,
          -0.4696754974495352,
          -0.8071994158709401,
          -0.4302369224323343,
          -0.6531744464972913,
          0.2021018292727998,
          -0.23624566966684177,
          1.279806777269579,
          -0.35076671950663796,
          -1.4281661894201096,
          -0.47617798064891054,
          -1.903778488885404,
          1.8288019000286913,
          0.723576816952444,
          0.8947009323390812,
          -0.4127556164752205,
          0.11526206439360702,
          -1.6607592859706992,
          0.847197774296778,
          0.46657672906391184,
          -1.0719476782204536,
          0.1293328634434496,
          -1.8169095127927397,
          -1.023728097272873,
          -0.5353106139077786,
          0.44667731873573724,
          1.3602922198606442,
          -0.908682378928331,
          -0.388858889677808,
          0.48257993865415294,
          -0.5969604449077118,
          0.9272772072642607,
          0.7973797740566677,
          -1.4463709869522718,
          -0.24350809807053783,
          0.3336173521768187,
          -1.6824078331694017,
          -0.42360799246418707,
          -0.3551773232448643,
          1.1991271361386702,
          0.170601260773087,
          1.3048520365825482,
          1.091438404258669,
          0.6610193343025687,
          1.367193757011792,
          0.5261492437911917,
          -0.7649681573572281,
          1.0168822880460824,
          -0.3939674700135178,
          -0.8493793109291439,
          -0.2918500436656752,
          0.33434000122586655,
          -0.8233604980338638,
          1.5713798699452552,
          -1.03098102156015,
          1.052760024577165,
          1.215080451471894,
          -0.8252528073113501,
          0.4287333655531193,
          0.5988314562757853,
          2.6456460451422843,
          -0.46293275133738926,
          -0.45476307980169867,
          -0.6693378067087253,
          -1.008578617473087,
          -0.8801737191487596,
          0.3182586005635571,
          0.9873648403661653,
          -1.9146636197680913,
          1.0359841764043183,
          -0.4161546705046903,
          -0.1901138613976192,
          -0.7822098916744661,
          -1.4635728744255818,
          -1.6342918547648613,
          1.3371418487836635,
          0.11492579292182997,
          -0.8292290758885923,
          0.27444898058201755,
          -0.8100375783474636,
          -0.43180228084865807,
          0.5805491981327415,
          -0.1273947141661106,
          -0.6731668648123007,
          -0.07498199170781902,
          -0.6395377252887239,
          0.2901165800396686,
          -0.7876782096728296,
          2.3552830221195244,
          -1.4662802956054937,
          -0.25780010833732225,
          1.5249356657741537,
          0.7200412847921989,
          1.8956543550223486,
          1.0720874313590658,
          0.23732263058122574,
          0.273897105612582,
          -1.1575595152108502,
          0.07831282817430653,
          1.0670161625595003,
          0.2146681004881905,
          -0.6314057562372976,
          0.3899859163053227,
          1.7249745643494456,
          1.1635689048307465,
          -0.30539755960845,
          0.6705173475738729,
          -1.760557896327445,
          0.2869841354448329,
          0.37189718136140937,
          -0.9348445917226723,
          0.3007146177616806,
          -0.04512113144585649,
          -0.26633309837208724,
          0.7969267087764238,
          1.6480686026522002,
          0.5743386430329206,
          1.821976422844105,
          -0.06654791495093014,
          0.06917953663703573,
          -0.828497625155067,
          -1.2475873712797472,
          0.4116441614529147,
          -0.034468523626272084,
          0.2571813716830237,
          -0.8664453477365273,
          1.9437994028248506,
          -1.1736793120737596,
          -1.1155450537503748,
          1.0383625500597877,
          0.9346454929195999,
          0.785327502274274,
          0.17691586387872302,
          0.6997686997361965,
          0.8536312558357076,
          0.3757917495379572,
          -0.37293652834583035,
          -0.21779902940651796,
          -0.4810377251035118,
          1.176232922846746
        ],
        [
          -2.2412472208813767,
          -0.2705867742825032,
          -0.30805548785314957,
          -0.1525519632090567,
          0.04245763758509874,
          0.6839646326573696,
          -2.3910407027639025,
          0.7747664500588956,
          -0.2724902144258827,
          0.5040458367536128,
          0.6130889826002134,
          -1.3198918075426866,
          0.01139823425171002,
          -2.098358281209777,
          1.3172976691045928,
          0.7136510581608463,
          0.17265416307154927,
          1.4793247019325204,
          -0.2101747630036493,
          -1.0658923895749766,
          1.6553070858004704,
          0.17161992856819,
          0.2588444742621399,
          0.07311174515831079,
          -0.19126339297047923,
          -0.11165980632979594,
          0.18317255739708355,
          0.06631508318917062,
          -0.4757981304932423,
          -0.17497941551130536,
          -0.36374535086279824,
          0.8489512229791344,
          0.47765362961230995,
          1.9286430642299022,
          0.09992036097916675,
          0.2820092841345263,
          1.9104007421465667,
          0.9043045101803588,
          -0.12345982942657428,
          1.0650641032513897,
          -0.015542977083641047,
          -1.211197741630596,
          0.6276395831771903,
          0.3309202523251565,
          -0.4497159865926716,
          -0.6221580515324507,
          -1.4153977011769159,
          -0.5072589107116295,
          -0.8723554663369268,
          1.7720782337352483,
          -0.6738627803010433,
          0.08101867037296115,
          -1.455147249084166,
          -0.26136850316612686,
          0.046840896145774816,
          0.3358642054164235,
          -0.2655845023900781,
          -0.25308737990177427,
          0.6188015121139471,
          -0.46265620413233344,
          -0.26712551896948156,
          -2.2499021582185574,
          1.985650917198633,
          0.5073200247537407,
          0.8164025014205968,
          0.32850879640363356,
          1.578055872170795,
          1.474985825347895,
          -0.4831408156987956,
          -0.22470757919862483,
          0.6937960460787653,
          0.44838727214447593,
          -0.17386996673467367,
          -0.25630676694267723,
          0.522335886650287,
          0.6150658822538368,
          1.3516987848663484,
          0.03967778302831985,
          -1.2580753673561633,
          -0.14928710997621625,
          -0.01836633363051609,
          1.8736922765246968,
          2.3724291908427473,
          0.9225268964241105,
          -0.4230244317230606,
          -3.097442348932509,
          0.06291206527414056,
          -1.0649009541458376,
          -0.3282512354741216,
          -0.5978049682893967,
          1.0804727094251083,
          0.7767893169391135,
          0.9960902179020957,
          0.0944892411895959,
          -0.45665535451707623,
          -1.301918281599703,
          -0.16465900555048377,
          -0.45415259537888814,
          0.39892537613428186,
          -0.8960381912158258,
          1.0705785249199142,
          -1.1788924148721605,
          -0.24942427093153116,
          -1.2205824233590847,
          -1.0723206564946113,
          -0.0345504640423343,
          -0.02211886309992582,
          1.343952199995422,
          -1.9786491299761495,
          -0.04206210285922162,
          -0.29937850956348955,
          1.3031803311524515,
          -0.4610837566780002,
          0.5460007462284632,
          0.7643043671824239,
          2.875498035733898,
          -2.027287372037961,
          0.24652180274577776,
          0.4597472073284018,
          0.8731177970493175,
          1.1665621538373723,
          -0.31969969210884003,
          -1.466151009133339,
          -0.5884439226139406,
          -0.14026735151828248,
          -0.24075467214764298,
          -0.13139064980877058,
          -1.6057711909684453,
          0.3205675979212278,
          -0.33573578086115025,
          -1.4658687059131106,
          1.2232796807793584,
          -0.2675365203499899,
          -0.9678579020825868,
          0.05617990600604736,
          0.1782210688397816,
          1.800691549607424,
          1.4214755089710007,
          0.49945847565475426,
          0.7089063384514384,
          -1.1482206608741559,
          -0.12701202210740323,
          0.3473757493994313,
          -0.9439405573220827,
          0.5939222516291431,
          1.5982196148610035,
          0.9701732496416378,
          0.7788690282638184,
          -2.0659145900965945,
          -1.2029153918228142,
          -1.2520685006069578,
          1.2546354854941688,
          0.18522217197588048,
          -0.6355917260683009,
          1.0464807464334809,
          -0.058658248452907694,
          -0.24077041968718993,
          -0.8495124021261931,
          1.5754288034479893,
          0.705987787717424,
          1.6527843859913443,
          -0.6307889226408643,
          1.2428425119130069,
          2.9965819629548913,
          0.2742475581656659,
          -0.03210860694393634,
          -0.13497896166766551,
          -0.6309435589293458,
          -0.27412601014756927,
          0.880630955145213,
          0.2322577691896197,
          2.5174552895650977,
          -0.6876744094848429,
          -0.9721374686276496,
          0.21242643579372997,
          -1.67405176169411,
          1.7086996990323648,
          -0.31736411669908704,
          -0.14208630347959603,
          0.08970639748328964,
          1.287491986499804,
          0.7789580617728733,
          0.5097764012287426,
          0.30821148600902076,
          -1.0701084646274686,
          0.080208986407439,
          1.0368713191357144,
          0.6732385166755535,
          -0.5009349668287049,
          -1.287018110119917,
          0.0007881836955367769,
          -1.0574792627436476,
          0.6412990281904614,
          -0.07543420254363312,
          0.6820229183532336,
          -0.501681852286266,
          0.29004024476073015,
          1.3866020251084776,
          -1.2701463820541548,
          -0.5738289132642856,
          1.191087775000042,
          1.1331941183920111,
          0.17318380388194582,
          -1.3029729236919314,
          -0.9699885966450931,
          0.30965903435599135,
          -0.39445612088839505,
          1.292926576953916,
          -1.0536428858143276,
          0.5780909170764209,
          0.8615481533559508,
          1.4171696526964146,
          -0.6182701332439456,
          0.9236273555565884,
          -0.15493405704092758,
          2.6082267237343966,
          0.3473321331197558,
          2.071720458395838,
          -0.6648447073143213,
          -0.1372832552403595,
          0.3994083861169683,
          -1.0938669902014275,
          -0.18401416136338883,
          -0.1262581198927638,
          -1.72264024594662,
          0.3662816626678726,
          -0.532952057353375,
          -1.2905544823276105,
          0.17888868329023944,
          -0.08358843075366598,
          1.0349020667990116,
          -0.4302526148571896,
          -1.1664193939613976,
          0.7711267176647373,
          0.40946673355664914,
          -1.0458487209643474,
          1.0435363522576568,
          -0.4364137652613542,
          0.5652643663775403,
          0.8855530669767767,
          0.1307432021956289,
          0.38265043673703497,
          0.6473420759500526,
          -0.9608004884572301,
          1.3860372947884596,
          -0.9187420242155097,
          -0.26434197288637057,
          -0.21471334994451424,
          0.15764199935016723,
          -0.8016038522767209,
          -0.11660588514288422,
          -0.9084071875316438,
          0.21834647929536308,
          0.013623899793659897,
          -0.10220278798185486,
          -1.8315739285992407,
          -0.45814938119315174,
          -1.3622643028127444,
          -0.17477870993720274,
          0.7537950964989344,
          -1.7888757540637363,
          -0.9869580413131878,
          0.8190759434184264,
          -0.5067288323608826,
          -1.4242205746134502,
          0.41172364573055226,
          -2.36591833250448,
          0.8610085695940328,
          -0.48659605805899947,
          0.9660365497088543,
          -0.8856291095424415,
          0.7176974897427584,
          0.5275887288754976,
          0.28601801283753203,
          -1.0777497628023014,
          0.6301873776967614,
          0.6652711527260617,
          -1.4665074311323103,
          0.3690868949711712,
          -0.17011373269340907,
          -1.0645083620484346,
          1.108381345697005,
          -0.6695357964464701,
          1.7106702687851785,
          0.0032411605191411887,
          -0.19235513586870837,
          -1.1756663816785136,
          -0.5957365019160058,
          -0.0007795861118259618,
          0.30866760460384307,
          0.40010798613047427,
          0.008049555056728972,
          0.8982954981030096,
          -1.0578830642163324,
          0.021866095712500255,
          -0.1486923173162991,
          -0.3730845912433159,
          0.5920814563204949,
          -1.2319420181003657,
          -0.7358559849456794,
          -2.578404336568177,
          0.27364815847680773,
          0.45074910868176127,
          0.32821401151941554,
          -1.3944068806309011,
          0.0015961538155542724,
          1.0514555434370858,
          0.175116327363572,
          1.0032499867817202,
          0.39413515228463825,
          1.3117127634105068,
          0.9391151555954529,
          -0.13976720345546553,
          0.6862022891763037,
          0.2306053461230096,
          0.0825675640650561,
          0.2601770972554396,
          -0.3883986667671263,
          -0.7346876650084584,
          -0.8702229276898268,
          -1.054453163766549,
          0.705866846345739,
          0.7993754821823755,
          -0.5102282705558991,
          -0.18204652038084718,
          0.9375073155133273,
          1.312351850085713,
          -0.7526434084214821,
          1.6610496016616871,
          1.2407977322965529,
          1.379377572057625,
          0.7199180458295209,
          0.2382081662248917,
          0.7437130893529602,
          -0.7711046489950703,
          1.1002019660453102,
          0.09725175280800955,
          -0.6554699579524959,
          1.7683171213325826,
          -0.6535863427466244,
          -0.6978546266139436,
          0.16841973308983252,
          -0.19876278338030098,
          1.6939158323967127,
          -0.3456422934836271,
          -0.9243761171268318,
          -0.8214794375339075,
          0.0432718981064128,
          0.13173464078485392,
          -0.12274826509369405,
          1.1891042724513756,
          0.3302076125759159,
          -0.32373200982987255,
          0.5448300641821435,
          1.4562232748171855,
          -1.0684778426386592,
          1.0666136139262694,
          0.05101782556952322,
          -0.5026893116271036,
          -0.06465203647678737,
          -0.390854952878018,
          -2.2406198376000472,
          -0.17764309476952173,
          1.2797191250479383,
          1.750758511586865,
          1.1329479795421367,
          -1.3328034228897567,
          -0.7212330356959594,
          -0.16794993621958212,
          0.7959192317547447,
          0.9090747001972728,
          -0.23401743513668843,
          0.8820829213084331,
          1.0928174119380776,
          -0.3093418685354927,
          -2.105630334401511,
          1.9385299803898663,
          0.36357657981139774,
          0.6371800110593175,
          -0.691715290788782,
          0.6510816856031879,
          -0.5948287451014973,
          1.004175501610539,
          -0.3131172100058612,
          2.0133585716172155,
          -0.8781589082935397,
          -0.08066686016186315,
          -0.9267467619463783,
          -1.437552937183446,
          -0.012867383764483304,
          0.6891312476130637,
          0.7386461379859895,
          -0.3145255105900994,
          1.0829901897616403,
          0.8177216547239503,
          -0.7950942420035799,
          -0.09012801806121926,
          0.8699756507003396,
          1.8366173199193072,
          0.4494070052156634,
          -0.44702596420135615,
          -0.4333509883320742,
          -0.7802254934733571,
          0.022270505021914144,
          0.18347556680907348,
          1.1704467499190079,
          0.13887855604847787,
          0.08194434704213627,
          0.16299832764039576,
          0.0737605008421514,
          -1.546278216162225,
          -0.1799931538879314,
          1.7566332840323355,
          0.23708574583813444,
          1.6629895463071864,
          0.7488618034305358,
          0.22400316058972988,
          0.078374626318806,
          -0.33489824583674194,
          2.0274965861162184,
          1.1081877142368968,
          -1.310749928267797,
          1.6332826126932134,
          -0.8964669318641165,
          1.7810597226930918,
          0.5418014178592622,
          -1.282606031008559,
          0.1176952946531443,
          1.051824526341151,
          0.037619491525412,
          -0.4348441475437103,
          0.20408012964710812,
          -2.3697168138250078,
          0.3155478114267181,
          0.17670248600054825,
          0.7118731687333703,
          0.7973188941008799,
          -0.8337301861184429,
          0.960806271552276,
          -0.3949507304362305,
          1.1047375658954666,
          0.3995384071603569,
          -0.7514978926875634,
          -1.6584090490669139,
          -1.6684690536209528,
          -0.5955533906732693,
          -1.6393642167195515,
          0.8961168612581268,
          -0.1228473098433935,
          0.37000837232213335,
          0.31164351928477824,
          1.1987867540959831,
          1.0874799323980213,
          0.3041537702593731,
          1.0032981515951191,
          0.041571877662717464,
          -1.3610814274218104,
          0.9536004435579531,
          1.0253509838304935,
          1.123036678230155,
          -0.9135026022469218,
          1.535570024863164,
          -0.4224093115097591,
          0.6630814691031188,
          -0.39669569709855274,
          0.20470898003515078,
          0.6043085807714463,
          1.006574879191079,
          -1.870882858843184,
          1.7717577250258096,
          -0.098911588089535,
          0.528195514240106,
          1.0108517065727203,
          2.1509168667189607,
          -2.5616411215959722,
          0.22917581875548376,
          -0.47167008376060576,
          0.9705108035634185,
          -0.0542228293732374,
          0.8919139530177759,
          0.43011345010109986,
          0.18950230038511398,
          0.40606581291188576,
          -0.4782741834200731,
          -0.23027270625771123,
          1.6061390436703573,
          0.4912700099905784,
          -1.3397331162939827,
          0.7369384435750994,
          -0.9791897736598002,
          0.9532791725033098,
          1.5193663778040012,
          -0.7064605197932673,
          -1.6081390299808582,
          -1.1203470275493161,
          0.40922290105566356,
          -1.3406156526198967,
          1.212013459809321,
          0.33767533567254104,
          -1.0883302441031388,
          1.3290456230015282,
          0.4582879231203317,
          -1.0533114188824273,
          0.42136687193707806,
          1.2388188000119806,
          0.5789032384951193,
          0.5102281439666515,
          -1.1614970166730272,
          -0.7500370784866377,
          0.28485890079903464,
          -0.5834263642001601,
          -0.09806029377577827,
          -1.2308966099312857,
          -0.9093374623027933,
          -0.6214342112914223,
          -0.8443030361094963,
          0.19345834435854736,
          0.10224802051356541,
          -0.7881728201073415,
          -2.2013595386158986,
          -0.3253886110828293,
          1.180023774209487,
          1.4771216638844538,
          1.8390445329827558,
          -2.017005813344499,
          -1.8153415497948837,
          -1.8439700803394148,
          -0.5048989793573823,
          1.0265434020123252,
          -0.9711197573481555,
          1.271065482323519,
          0.24205962503673847,
          -0.278228583121614,
          -0.5007695451147848,
          0.3665903627342828,
          -1.1564492853704855,
          -0.5969189787566984,
          0.527261348485967,
          0.17804251424386539,
          -0.9926370953815197,
          -1.2786709211458258,
          0.754560189403081,
          1.779046659741781,
          -0.8890573693489463,
          -0.08281905798327263,
          -0.5300021144617831,
          -0.5833106314731574,
          -1.360362583991454,
          1.219743443423042,
          -1.327134360518803,
          0.2261933030809532,
          0.935603633068386,
          -0.42720319540551727,
          0.10784410192984412,
          -1.4230386060427767,
          0.5373071821233925,
          -0.08964888340570949,
          3.476311831152543,
          -0.3687751260832562,
          0.3599227529068682,
          -0.9513900823464041,
          0.5444107285010689,
          -0.15844065379499997,
          -1.4704457832482971,
          -0.34314351136806753,
          -0.3126867417593911,
          -0.6557480682810221,
          -0.8392727790013222,
          1.8910234377990325,
          -0.3129669942333354,
          0.19414087645269548,
          0.6347025747636076,
          -2.1962896684964255,
          -0.7314267778219375,
          -0.3196060767754388,
          0.09690599995355711,
          -0.9481079042609378,
          0.057667615431784155,
          -0.9355796408360372,
          -0.44259600068664023,
          -1.330212989549134,
          -0.13684250270053386,
          -0.0668364482555734,
          1.6252657821877847,
          -0.9256091333204399,
          0.9746201783365608,
          1.7488839835829364,
          0.0747472054020433,
          -0.7941188008207388,
          0.7143697860205542,
          0.09137025455841165,
          -1.0059658273517607,
          -0.1853510774263891,
          -1.6769533373683154,
          0.5087362894340972,
          0.5513813862276037,
          2.1259237174023227,
          1.02787560710901,
          0.04081248073579372,
          0.48528983621314736,
          0.5144045608432097,
          2.447280168155935,
          -0.1310906383301441,
          -0.5695072747147224,
          0.36457709741031397,
          -0.05790206376717394,
          1.586193505587808,
          -1.0042592462788882,
          0.8049842412051819,
          -1.7720993314044124,
          0.6035639297491021,
          0.871371771261613,
          -1.3998159730512187,
          -0.5977253449697969,
          -0.2564836256353555,
          -2.0591710427289893,
          1.007264164909125,
          2.243305666635437,
          -1.6880539576066607,
          0.5165303259229509,
          0.6698049837786269,
          -0.07151199288476794,
          0.321155482466434,
          -0.8442420037703178,
          1.4132820285486203,
          0.30480529232941367,
          1.402518737681165,
          0.732305615900891,
          -0.929463512782351,
          -0.02513830025339902,
          -0.09879317561886587,
          1.165347698446495,
          -0.3927672538737659,
          -0.032113045749693585,
          -0.5631345518852195,
          -0.14251907126391292,
          0.07436615135145988,
          -0.6781978754989354,
          -1.100327107885075,
          -0.4899906335558419,
          -0.9789210081006469,
          -0.12373176791543213,
          0.5236724996610431,
          0.37109769825521666,
          0.8044409990427818,
          1.2433816630550731,
          1.710571863360264,
          -0.7837628562235333,
          -0.9398451053367123,
          0.6828680087590032,
          0.24859616768180728,
          1.7347959665214288,
          0.7152488439514649,
          -0.0038313923507437985,
          -0.3375518105107576,
          0.2475104711062405,
          2.522455228993499,
          1.738036604539848,
          2.0835958450569856,
          0.19094945510394448,
          -0.7419372446182302,
          0.16082873039973833,
          0.6027010783720393,
          -0.42177533235421594,
          1.1194264022254794,
          -0.38758671505912534,
          0.5161801369275468,
          0.4024885424385086,
          0.20047498313742942,
          0.10317546461595216,
          1.6896496167289465,
          0.5993640395799046,
          0.35055730112812994,
          -0.0719369562965417,
          -0.7815937769174173,
          0.20403524188716504,
          -1.8486273770601347,
          -0.23554706589514218,
          -0.4665235013559153,
          -0.13746048738871872,
          -0.9295427541416511,
          -0.24330295756473058,
          0.29525603473468226,
          -0.30114728176846783,
          -0.5301326000351768,
          1.4465379234695257,
          0.26105160269256705,
          0.564575842720203,
          -0.13863103078066022,
          0.7681573127145164,
          0.03282926132770691,
          -0.9790040719066985,
          0.4703298362086827,
          -0.684424809223742,
          0.6011651627036245,
          -1.2274389272488204,
          -0.8084833048228925,
          0.6858295746578991,
          1.0201229248961268,
          0.9238051961512552,
          -0.7875644384020999,
          1.1286185613782,
          1.119657257354183,
          1.3135574889365365,
          0.09059493443179285,
          -1.734594000044226,
          1.1542926883765154,
          0.5074277626440419,
          1.1666877590302709,
          0.3735714212020676,
          0.32639189891394066,
          -0.48644317861991665,
          1.050170082024123,
          -0.6062368279388202,
          -0.7021195056632953,
          -0.7187738313807682,
          1.1026907254942866,
          -0.10369164162806287,
          -0.0802463775350891,
          0.3395097194435971,
          1.089152726358446,
          0.6887996589366284,
          0.025080861962192263,
          0.34256805406571467,
          1.562747790971297,
          -1.4339016969439218,
          -0.31303562956122655,
          1.3223113442468588,
          0.8325083663900908,
          -0.9803260283849944,
          -0.04206397873893521,
          -0.344104543525027,
          1.1937925237997633,
          -0.47047198459020934,
          -1.3586471689918502,
          0.5971554203779623,
          -0.24135673034324467,
          0.3085790090063697,
          1.1795410702453457,
          -0.3325541768061255,
          -1.3195147746515883,
          0.5823906292155,
          1.6470567943617953,
          1.0350910098245893,
          -1.127351869858011,
          -0.8137137793466401,
          -0.5320604909154558,
          0.8887246008379383,
          0.9080969478453225,
          0.9824298552073724,
          -0.7799753874067631,
          -1.5593956111129248,
          -0.21377026613476882,
          0.06939232765326132,
          0.4308399918087441,
          -0.5505963810036997,
          -0.8038336947942563,
          -0.7329752366536056,
          1.1307582572740533,
          0.7474392092407303,
          -0.5225938834027968,
          -0.12315194118848924,
          0.5798085842396484,
          -0.4799317402592164,
          0.3685555456302864,
          0.7789661797142126,
          -1.5072526910633386,
          -0.19807127409930728,
          0.9099068142847085,
          -0.2584631159055103,
          -0.6146360780528128,
          0.8357960114086249,
          -0.433927909587765,
          0.19664316484720631,
          0.8243672342723323,
          1.1544779606468238,
          0.25514296710814405,
          -3.4746276250133112,
          -0.21995499685336514,
          -1.22361676584349,
          1.7759115621955837,
          -0.8566268572108238,
          0.778316126174952,
          0.4348816374837797
        ],
        [
          -0.8434875044105249,
          -0.7467785046361092,
          1.2516186303851842,
          -0.04834564448696446,
          1.810047300050449,
          -1.349101139067073,
          0.03922625997702765,
          -0.4268500135018022,
          0.46600969843451573,
          0.8011291286958088,
          -0.024201130850724076,
          1.6306629651086957,
          1.9428899564211262,
          -0.1357064346876414,
          -0.13177403389023226,
          -1.020013528244087,
          -0.777334954470448,
          1.3480383620063385,
          -0.8215663179993961,
          -0.933037394007185,
          0.6450736622172952,
          -0.2951146633870408,
          0.10360565532685544,
          0.9196360979015814,
          0.5604048875290341,
          1.929949860330681,
          -0.6429268175285584,
          -0.8980191617392379,
          0.7995760226161313,
          -0.4436662820108013,
          -0.999395181113058,
          -1.1388947875452553,
          -1.3320449269466164,
          -0.14379778504248347,
          -0.04821788498966886,
          -1.5702065877158926,
          1.0273514371113162,
          0.4186215510345022,
          -1.547205237125607,
          0.11451284201311952,
          0.6280225006157835,
          1.0060300266299176,
          0.24705704656785352,
          0.36314476042070937,
          -1.3071447257621924,
          -1.1752651458470071,
          -0.6448101149658151,
          0.03152857123820241,
          -1.2193548005737778,
          0.19449513767962112,
          -0.44083974914861784,
          0.017100880842994756,
          -0.3563261565637402,
          0.8952404465512994,
          -0.46677619161693357,
          -1.0763840008374952,
          -0.32238398949821107,
          0.7743075453908148,
          -0.2647632762730289,
          -0.9588273842841033,
          -1.305625511542913,
          -0.18309910508046298,
          -0.3177365294153576,
          1.326392312271486,
          -1.2146374835884806,
          0.18772833163091354,
          -0.4146297162574064,
          0.11423166962439942,
          0.7067230135488638,
          -0.8085529885073445,
          -0.825441396954435,
          0.06901078536735776,
          -0.22661531984021613,
          -0.016450582888293326,
          -1.1875373969393574,
          -0.4334437822046153,
          0.1488990437036385,
          1.1701517485445314,
          -2.9749037028862957,
          -0.7160060490417738,
          -1.7440642509386972,
          0.5008431924219174,
          0.07468198605798372,
          1.1951073026111831,
          1.3506919799255792,
          0.5495999907884913,
          -0.20539750795475553,
          -0.195790223551099,
          0.29201752112328105,
          -1.1380064237288845,
          0.7086189877290444,
          -0.8635190414801274,
          -0.8396238122479698,
          -0.8303108752142592,
          -0.10420656096859972,
          -0.01082516470754871,
          -0.6809033655769011,
          -0.16332394136837097,
          0.21724593453841645,
          1.4999749611001358,
          -0.59368728157592,
          -0.058544390741541164,
          -0.5205376709262309,
          0.4671769310453709,
          0.27848161394056553,
          1.7485836958945544,
          0.6171461260152779,
          -0.6765407670777087,
          -1.0261296439794854,
          0.4750472247536357,
          -0.6719458200381551,
          0.17331179248937348,
          0.9205201265889459,
          0.14223648522159696,
          0.5747052395958926,
          0.7967306412978266,
          0.8305740453442856,
          1.8966732130268933,
          -0.8419776314598999,
          0.52236522790196,
